{"learner":{"attributes":{"scikit_learn":"{\"_estimator_type\": \"regressor\"}"},"feature_names":[],"feature_types":[],"gradient_booster":{"model":{"gbtree_model_param":{"num_parallel_tree":"1","num_trees":"80"},"iteration_indptr":[0,1,2,3,4,5,6,7,8,9,10,11,12,13,14,15,16,17,18,19,20,21,22,23,24,25,26,27,28,29,30,31,32,33,34,35,36,37,38,39,40,41,42,43,44,45,46,47,48,49,50,51,52,53,54,55,56,57,58,59,60,61,62,63,64,65,66,67,68,69,70,71,72,73,74,75,76,77,78,79,80],"tree_info":[0,0,0,0,0,0,0,0,0,0,0,0,0,0,0,0,0,0,0,0,0,0,0,0,0,0,0,0,0,0,0,0,0,0,0,0,0,0,0,0,0,0,0,0,0,0,0,0,0,0,0,0,0,0,0,0,0,0,0,0,0,0,0,0,0,0,0,0,0,0,0,0,0,0,0,0,0,0,0,0],"trees":[{"base_weights":[-1.7202076E-2,-1.1242106E0,6.707485E-1,-1.2388097E0,-7.2461903E-1,2.1488E-2,1.0406312E0,-2.6791438E-1,-2.005748E-1,-4.6995887E-1,-1.8611927E-1,-7.323982E-2,3.2117444E-1,8.836767E-1,2.8191006E-1,-1.2076823E-1,-1.9243552E-1,-1.3016382E-2,-2.953254E-1,1.3386364E-1,8.457036E-2,1.4865819E-1,1.9595627E-1,-4.6258688E-2,-2.9973865E-2,-1.0175832E-2,-1.1241543E-2,2.1998757E-1,-1.473815E-1,7.838948E-3,3.139252E-2,1.6283773E-2,-1.4333628E-2,3.138677E-3,-1.2111509E-2,1.28531335E-2,6.005415E-2,-1.9955456E-3,6.337885E-3,-2.457455E-3,3.291856E-4,7.9258755E-3,-8.353867E-3,-6.8316236E-3,3.035251E-3],"categories":[],"categories_nodes":[],"categories_segments":[],"categories_sizes":[],"default_left":[0,0,0,0,0,0,0,0,0,0,0,0,0,0,0,0,0,0,0,0,0,0,0,0,0,0,0,0,0,0,0,0,0,0,0,0,0,0,0,0,0,0,0,0,0],"id":0,"left_children":[1,3,5,7,9,11,13,-1,-1,15,-1,17,19,21,-1,-1,23,25,27,29,-1,-1,-1,-1,31,-1,33,35,-1,-1,-1,37,-1,-1,39,41,-1,-1,-1,-1,-1,-1,43,-1,-1],"loss_changes":[5.544058E2,1.0980896E1,1.0778273E2,2.4006958E0,2.6397438E0,4.7311716E0,1.4069244E1,0E0,0E0,1.0308847E0,0E0,1.6909063E0,6.48602E-1,1.3227692E0,0E0,0E0,7.451546E-2,5.7105124E-3,6.4681516E0,2.4870574E-2,0E0,0E0,0E0,0E0,1.1977448E-2,0E0,2.7233874E-3,2.2509277E-1,0E0,0E0,0E0,2.2506786E-3,0E0,0E0,2.774205E-4,4.0691798E-3,0E0,0E0,0E0,0E0,0E0,0E0,4.072671E-3,0E0,0E0],"parents":[2147483647,0,0,1,1,2,2,3,3,4,4,5,5,6,6,9,9,11,11,12,12,13,13,16,16,17,17,18,18,19,19,24,24,26,26,27,27,31,31,34,34,35,35,42,42],"right_children":[2,4,6,8,10,12,14,-1,-1,16,-1,18,20,22,-1,-1,24,26,28,30,-1,-1,-1,-1,32,-1,34,36,-1,-1,-1,38,-1,-1,40,42,-1,-1,-1,-1,-1,-1,44,-1,-1],"split_conditions":[-2.7705457E-2,-7.634792E-1,5.9798425E-1,-5.430248E-1,-1.045707E0,5.0563926E-1,1.1136178E0,-2.6791438E-1,-2.005748E-1,-3.836612E-1,-1.8611927E-1,2.0510495E-2,2.3607282E-1,8.179244E-1,2.8191006E-1,-1.2076823E-1,-1.7032962E-1,-1.6062906E-2,-1.045707E0,6.690163E-2,8.457036E-2,1.4865819E-1,1.9595627E-1,-4.6258688E-2,-6.0539994E-2,-1.0175832E-2,-1.045707E0,2.1266676E-1,-1.473815E-1,7.838948E-3,3.139252E-2,-1.4150093E-1,-1.4333628E-2,3.138677E-3,5.061461E-1,6.690163E-2,6.005415E-2,-1.9955456E-3,6.337885E-3,-2.457455E-3,3.291856E-4,7.9258755E-3,8.092346E-2,-6.8316236E-3,3.035251E-3],"split_indices":[1,1,1,4,4,4,1,0,0,1,0,1,1,1,0,0,1,1,4,1,0,0,0,0,1,0,4,1,0,0,0,1,0,0,5,1,0,0,0,0,0,0,1,0,0],"split_type":[0,0,0,0,0,0,0,0,0,0,0,0,0,0,0,0,0,0,0,0,0,0,0,0,0,0,0,0,0,0,0,0,0,0,0,0,0,0,0,0,0,0,0,0,0],"sum_hessian":[7.24E2,2.77E2,4.47E2,2.12E2,6.5E1,1.63E2,2.84E2,1.42E2,7E1,3.2E1,3.3E1,1.25E2,3.8E1,2.04E2,8E1,2E1,1.2E1,1E2,2.5E1,1.5E1,2.3E1,9E1,1.14E2,9E0,3E0,2E0,9.8E1,1.2E1,1.3E1,4E0,1.1E1,2E0,1E0,2E0,9.6E1,4E0,8E0,1E0,1E0,9.5E1,1E0,1E0,3E0,1E0,2E0],"tree_param":{"num_deleted":"0","num_feature":"7","num_nodes":"45","size_leaf_vector":"1"}},{"base_weights":[1.613981E-2,-5.5703574E-1,7.7470464E-1,4.609281E-1,-6.729553E-1,6.287124E-1,1.0347694E0,1.515933E-1,1.367238E-1,-9.03677E-1,-9.728973E-3,6.9657314E-1,2.3691052E-1,2.2502582E-1,1.4220443E-1,5.6207236E-2,3.803546E-3,-4.9308428E-1,-9.5991474E-1,-1.9756646E-3,3.072399E-4,1.4296232E-1,9.4892435E-2,6.298586E-2,1.0129743E-1,1.2179078E-2,-2.2838846E-2,-5.2022435E-2,-1.1432816E-1,-1.0844276E0,-1.5958297E-1,2.4071887E-2,6.516923E-3,1.8806495E-4,-6.3982233E-3,-1.5420859E-1,-2.2555636E-1],"categories":[],"categories_nodes":[],"categories_segments":[],"categories_sizes":[],"default_left":[0,0,0,0,0,0,0,0,0,0,0,0,0,0,0,0,0,0,0,0,0,0,0,0,0,0,0,0,0,0,0,0,0,0,0,0,0],"id":1,"left_children":[1,3,5,7,9,11,13,-1,15,17,19,21,23,-1,-1,-1,25,27,29,-1,-1,-1,-1,-1,31,-1,33,-1,-1,35,-1,-1,-1,-1,-1,-1,-1],"loss_changes":[3.121733E2,4.888314E1,1.0430786E1,3.9336834E0,5.6294052E1,5.0673065E0,1.5594101E0,0E0,4.39049E-1,5.357147E0,1.9354746E-4,1.8463135E-2,2.853489E-1,0E0,0E0,0E0,2.4076447E-2,3.7977314E-1,3.07016E0,0E0,0E0,0E0,0E0,0E0,1.1803344E-2,0E0,2.454131E-3,0E0,0E0,1.3519287E-2,0E0,0E0,0E0,0E0,0E0,0E0,0E0],"parents":[2147483647,0,0,1,1,2,2,3,3,4,4,5,5,6,6,8,8,9,9,10,10,11,11,12,12,16,16,17,17,18,18,24,24,26,26,29,29],"right_children":[2,4,6,8,10,12,14,-1,16,18,20,22,24,-1,-1,-1,26,28,30,-1,-1,-1,-1,-1,32,-1,34,-1,-1,36,-1,-1,-1,-1,-1,-1,-1],"split_conditions":[5.0563926E-1,-1.9672415E0,1.4406763E0,-2.8373876E0,3.749186E-2,9.75359E-1,8.957227E-1,1.515933E-1,-2.4004762E0,-1.224068E0,8.985226E-2,7.7263427E-1,1.3100903E0,2.2502582E-1,1.4220443E-1,5.6207236E-2,-2.2890117E0,-1.6220856E0,-5.430248E-1,-1.9756646E-3,3.072399E-4,1.4296232E-1,9.4892435E-2,6.298586E-2,1.4819179E0,1.2179078E-2,-2.2060537E0,-5.2022435E-2,-1.1432816E-1,-6.8133944E-1,-1.5958297E-1,2.4071887E-2,6.516923E-3,1.8806495E-4,-6.3982233E-3,-1.5420859E-1,-2.2555636E-1],"split_indices":[4,3,4,3,4,3,3,0,3,3,3,3,3,0,0,0,3,3,4,0,0,0,0,0,3,0,3,0,0,3,0,0,0,0,0,0,0],"split_type":[0,0,0,0,0,0,0,0,0,0,0,0,0,0,0,0,0,0,0,0,0,0,0,0,0,0,0,0,0,0,0,0,0,0,0,0,0],"sum_hessian":[7.14E2,4.07E2,3.07E2,4.1E1,3.66E2,2.01E2,1.06E2,2E1,2.1E1,2.71E2,9.5E1,1.7E2,3.1E1,7.9E1,2.7E1,9E0,1.2E1,3.5E1,2.36E2,9.4E1,1E0,1.53E2,1.7E1,1.8E1,1.3E1,3E0,9E0,1.1E1,2.4E1,1.27E2,1.09E2,9E0,4E0,3E0,6E0,2E1,1.07E2],"tree_param":{"num_deleted":"0","num_feature":"7","num_nodes":"37","size_leaf_vector":"1"}},{"base_weights":[7.842299E-3,-7.2699857E-1,4.321757E-1,-3.0340752E-1,-7.8496194E-1,1.525948E-2,6.763269E-1,-3.6769697E-1,-1.3309593E-1,-7.908053E-1,-5.9083667E-2,-4.4258334E-2,2.1983296E-1,5.7403237E-1,1.888151E-1,-1.5777474E-2,-7.719021E-2,-5.0729614E-2,-3.168599E-2,-5.2091338E-2,-7.954379E-1,1.7379631E-1,-7.168057E-2,1.15334325E-1,6.2559634E-2,4.857214E-1,1.3369273E-1,-1.2417148E-2,-1.2735455E-2,-1.22128725E-1,-8.232907E-1,7.623395E-2,4.6547454E-2,-7.845173E-3,-4.2362934E-1,4.423556E-2,2.8523136E-2,2.2374208E-1,9.909975E-2,7.903328E-6,-3.3191429E-3,-8.5816795E-1,-1.290466E-1,8.229171E-2,1.8514628E-3,-1.5919525E-3,2.8675722E-4,-6.5735714E-3,-9.314689E-2,1.4236573E-3,9.41913E-3,6.447861E-2,-3.112099E-2,-1.7694192E-1,-1.1757737E-1,1.8968032E-3,1.7996617E-2],"categories":[],"categories_nodes":[],"categories_segments":[],"categories_sizes":[],"default_left":[0,0,0,0,0,0,0,0,0,0,0,0,0,0,0,0,0,0,0,0,0,0,0,0,0,0,0,0,0,0,0,0,0,0,0,0,0,0,0,0,0,0,0,0,0,0,0,0,0,0,0,0,0,0,0,0,0],"id":2,"left_children":[1,3,5,7,9,11,13,15,17,19,-1,21,23,25,-1,-1,-1,27,-1,-1,29,31,33,35,-1,37,-1,39,-1,-1,41,43,-1,45,47,49,-1,51,-1,-1,-1,53,-1,55,-1,-1,-1,-1,-1,-1,-1,-1,-1,-1,-1,-1,-1],"loss_changes":[2.3168517E2,6.2020264E0,4.792273E1,2.9629445E-1,2.1359253E-1,2.1623936E0,7.0507355E0,7.0905685E-2,1.1052489E-2,1.6055298E-1,0E0,8.5009295E-1,3.1643665E-1,1.1852798E0,0E0,0E0,0E0,1.3949601E-3,0E0,0E0,1.8348694E-1,5.6521773E-2,2.779235E0,3.0055344E-2,0E0,8.8207245E-2,0E0,2.0951557E-4,0E0,0E0,1.03530884E-1,2.1279491E-3,0E0,1.3659522E-4,2.819929E-1,2.8494745E-4,0E0,3.9971554E-1,0E0,0E0,0E0,8.605957E-2,0E0,2.7731322E-3,0E0,0E0,0E0,0E0,0E0,0E0,0E0,0E0,0E0,0E0,0E0,0E0,0E0],"parents":[2147483647,0,0,1,1,2,2,3,3,4,4,5,5,6,6,7,7,8,8,9,9,11,11,12,12,13,13,17,17,20,20,21,21,22,22,23,23,25,25,27,27,30,30,31,31,33,33,34,34,35,35,37,37,41,41,43,43],"right_children":[2,4,6,8,10,12,14,16,18,20,-1,22,24,26,-1,-1,-1,28,-1,-1,30,32,34,36,-1,38,-1,40,-1,-1,42,44,-1,46,48,50,-1,52,-1,-1,-1,54,-1,56,-1,-1,-1,-1,-1,-1,-1,-1,-1,-1,-1,-1,-1],"split_conditions":[-1.7800773E-2,-1.3360848E0,5.8846337E-1,-3.1153825E-1,1.5822376E0,1.1436652E-1,1.1251081E0,-1.928177E0,-1.928177E0,-1.9760448E0,-5.9083667E-2,-2.2060537E0,3.208896E-1,8.6608285E-1,1.888151E-1,-1.5777474E-2,-7.719021E-2,-2.0035157E0,-3.168599E-2,-5.2091338E-2,-6.481393E-1,3.208896E-1,-5.2093854E-3,1.3540849E-1,6.2559634E-2,-1.5705588E0,1.3369273E-1,-1.4309758E-1,-1.2735455E-2,-1.22128725E-1,1.0135155E0,2.7417687E-1,4.6547454E-2,8.985226E-2,-2.206455E0,-5.2093854E-3,2.8523136E-2,-2.8382168E0,9.909975E-2,7.903328E-6,-3.3191429E-3,-5.583529E-1,-1.290466E-1,3.0738983E-2,1.8514628E-3,-1.5919525E-3,2.8675722E-4,-6.5735714E-3,-9.314689E-2,1.4236573E-3,9.41913E-3,6.447861E-2,-3.112099E-2,-1.7694192E-1,-1.1757737E-1,1.8968032E-3,1.7996617E-2],"split_indices":[0,2,0,0,3,2,0,3,3,0,0,3,0,0,0,0,0,2,0,0,3,0,0,0,0,2,0,0,0,0,2,0,0,3,2,0,0,2,0,0,0,0,0,0,0,0,0,0,0,0,0,0,0,0,0,0,0],"split_type":[0,0,0,0,0,0,0,0,0,0,0,0,0,0,0,0,0,0,0,0,0,0,0,0,0,0,0,0,0,0,0,0,0,0,0,0,0,0,0,0,0,0,0,0,0,0,0,0,0,0,0,0,0,0,0,0,0],"sum_hessian":[7.39E2,2.7E2,4.69E2,3.4E1,2.36E2,1.74E2,2.95E2,2.3E1,1.1E1,2.32E2,4E0,1.36E2,3.8E1,2.18E2,7.7E1,2E0,2.1E1,4E0,7E0,3E0,2.29E2,1.4E1,1.22E2,2E1,1.8E1,1.19E2,9.9E1,2E0,2E0,3.6E1,1.93E2,7E0,7E0,1.05E2,1.7E1,7E0,1.3E1,6E0,1.13E2,1E0,1E0,1.55E2,3.8E1,6E0,1E0,1.04E2,1E0,2E0,1.5E1,1E0,6E0,5E0,1E0,1.37E2,1.8E1,1E0,5E0],"tree_param":{"num_deleted":"0","num_feature":"7","num_nodes":"57","size_leaf_vector":"1"}},{"base_weights":[-2.3908518E-2,-6.008133E-1,3.318269E-1,-3.2490242E-1,-6.5165526E-1,1.1296211E-2,5.254715E-1,-1.3687177E-1,-7.523531E-2,-1.4406306E-1,-5.436716E-1,-3.6698785E-2,1.761581E-1,4.0903065E-1,6.5879107E-1,-3.276578E-2,-5.081214E-2,-5.29939E-2,-1.1259723E-1,-1.6427072E-2,-6.8853915E-2,9.814124E-2,5.4232728E-2,3.1350175E-1,8.756136E-2,1.13781296E-1,1.5462975E-1,-1.1589338E-2,-1.2925774E-2,2.0448142E-1,-3.7092067E-2,2.4384469E-2,4.046322E-2,-3.0924952E-2,6.83164E-2,-3.0978664E-3,7.376323E-6,6.185172E-3,4.3130364E-2,-7.7196956E-3,-2.6862398E-1,8.548911E-3,1.3287467E-3,2.8176693E-2,-4.787724E-2,-6.760612E-3,-1.2579466E-3,9.537967E-3,-7.079603E-2,2.5957366E-3,2.487126E-3,1.7703495E-3,-1.078153E-3],"categories":[],"categories_nodes":[],"categories_segments":[],"categories_sizes":[],"default_left":[0,0,0,0,0,0,0,0,0,0,0,0,0,0,0,0,0,0,0,0,0,0,0,0,0,0,0,0,0,0,0,0,0,0,0,0,0,0,0,0,0,0,0,0,0,0,0,0,0,0,0,0,0],"id":3,"left_children":[1,3,5,7,9,11,13,15,-1,-1,17,19,21,23,25,-1,27,-1,-1,29,-1,31,-1,33,-1,-1,-1,35,-1,37,39,-1,41,43,-1,-1,-1,-1,-1,45,47,-1,-1,-1,-1,-1,-1,49,-1,51,-1,-1,-1],"loss_changes":[1.4528792E2,3.364067E0,2.7174362E1,3.4051466E-1,8.923645E-1,1.3343245E0,3.6990814E0,1.3509989E-2,0E0,0E0,2.1842194E-1,8.054726E-1,2.2843266E-1,1.4058685E-1,3.9489746E-1,0E0,1.7535733E-3,0E0,0E0,5.858034E-1,0E0,2.3052767E-2,0E0,4.2733335E-1,0E0,0E0,0E0,1.8251128E-4,0E0,7.987052E-3,7.84727E-1,0E0,2.0356663E-4,2.465281E-1,0E0,0E0,0E0,0E0,0E0,3.491091E-3,3.1540948E-1,0E0,0E0,0E0,0E0,0E0,0E0,3.6022015E-5,0E0,2.9528994E-4,0E0,0E0,0E0],"parents":[2147483647,0,0,1,1,2,2,3,3,4,4,5,5,6,6,7,7,10,10,11,11,12,12,13,13,14,14,16,16,19,19,21,21,23,23,27,27,29,29,30,30,32,32,33,33,39,39,40,40,47,47,49,49],"right_children":[2,4,6,8,10,12,14,16,-1,-1,18,20,22,24,26,-1,28,-1,-1,30,-1,32,-1,34,-1,-1,-1,36,-1,38,40,-1,42,44,-1,-1,-1,-1,-1,46,48,-1,-1,-1,-1,-1,-1,50,-1,52,-1,-1,-1],"split_conditions":[-2.7705457E-2,-1.1018102E0,5.9798425E-1,-1.76899E0,-5.430248E-1,8.4315634E-1,9.427759E-1,-2.6820743E-1,-7.523531E-2,-1.4406306E-1,-4.2463502E-1,1.1436652E-1,3.4681204E-1,7.319668E-1,1.2709823E0,-3.276578E-2,-2.0035157E0,-5.29939E-2,-1.1259723E-1,-2.428347E0,-6.8853915E-2,1.4064682E0,5.4232728E-2,-4.8220536E-1,8.756136E-2,1.13781296E-1,1.5462975E-1,-2.0693342E-1,-1.2925774E-2,6.690163E-2,8.092346E-2,2.4384469E-2,1.5473807E0,6.857609E-1,6.83164E-2,-3.0978664E-3,7.376323E-6,6.185172E-3,4.3130364E-2,-1.9283899E0,-2.1249132E0,8.548911E-3,1.3287467E-3,2.8176693E-2,-4.787724E-2,-6.760612E-3,-1.2579466E-3,2.1266676E-1,-7.079603E-2,1.7870761E-1,2.487126E-3,1.7703495E-3,-1.078153E-3],"split_indices":[1,2,1,2,4,2,1,1,0,0,4,2,1,1,1,0,2,0,0,2,0,2,0,2,0,0,0,1,0,1,1,0,2,1,0,0,0,0,0,2,2,0,0,0,0,0,0,1,0,1,0,0,0],"split_type":[0,0,0,0,0,0,0,0,0,0,0,0,0,0,0,0,0,0,0,0,0,0,0,0,0,0,0,0,0,0,0,0,0,0,0,0,0,0,0,0,0,0,0,0,0,0,0,0,0,0,0,0,0],"sum_hessian":[7.04E2,2.68E2,4.36E2,4.4E1,2.24E2,1.65E2,2.71E2,1.1E1,3.3E1,1.3E2,9.4E1,1.29E2,3.6E1,1.49E2,1.22E2,7E0,4E0,8E0,8.6E1,1.23E2,6E0,2.2E1,1.4E1,4E1,1.09E2,7.5E1,4.7E1,2E0,2E0,9E0,1.14E2,1.4E1,8E0,3E0,3.7E1,1E0,1E0,1E0,8E0,1.03E2,1.1E1,7E0,1E0,2E0,1E0,3E0,1E2,3E0,8E0,2E0,1E0,1E0,1E0],"tree_param":{"num_deleted":"0","num_feature":"7","num_nodes":"53","size_leaf_vector":"1"}},{"base_weights":[5.573986E-4,-4.6766937E-1,2.7617016E-1,-1.9145261E-1,-5.0630766E-1,6.18684E-3,4.3655023E-1,-6.5364674E-2,-4.6014078E-2,-5.5711186E-1,-4.336219E-1,-3.1484045E-2,1.3473529E-1,3.680201E-1,1.2481042E-1,-9.982146E-4,-1.4080765E-2,-7.9790175E-2,-1.1805093E-1,-4.2398572E-2,-4.4548947E-1,1.8636307E-1,-4.8824232E-2,8.115482E-2,4.505786E-2,2.778776E-1,8.219867E-2,-4.3100305E-2,-9.123031E-2,5.772827E-3,3.9489742E-2,-5.5648126E-3,-2.688908E-1,4.01338E-2,2.086801E-2,7.6529376E-2,5.8086347E-2,-3.1491213E-3,-5.0564515E-3,4.4790566E-2,-6.5903164E-2,1.8727541E-3,8.80517E-3,4.019957E-2,-4.4685427E-2,-1.0317438E-3,3.515032E-4,1.3615148E-2,4.931406E-3,-1.0062762E-3,2.3213178E-3],"categories":[],"categories_nodes":[],"categories_segments":[],"categories_sizes":[],"default_left":[0,0,0,0,0,0,0,0,0,0,0,0,0,0,0,0,0,0,0,0,0,0,0,0,0,0,0,0,0,0,0,0,0,0,0,0,0,0,0,0,0,0,0,0,0,0,0,0,0,0,0],"id":4,"left_children":[1,3,5,7,9,11,13,15,-1,17,19,21,23,25,-1,-1,-1,-1,-1,-1,27,29,31,33,-1,35,-1,-1,-1,-1,-1,37,39,41,-1,43,-1,-1,45,47,-1,-1,-1,-1,-1,-1,-1,-1,49,-1,-1],"loss_changes":[9.0205666E1,2.5703163E0,1.904657E1,1.4034617E-1,3.514099E-1,8.123446E-1,3.0871468E0,2.643764E-3,0E0,1.8951416E-1,7.93972E-2,5.0927436E-1,1.4780664E-1,5.734463E-1,0E0,0E0,0E0,0E0,0E0,0E0,3.6352158E-2,6.061375E-3,1.1584414E0,1.7304063E-2,0E0,1.4007282E-1,0E0,0E0,0E0,0E0,0E0,3.7902012E-4,4.0985715E-1,7.3236413E-4,0E0,3.5116267E-1,0E0,0E0,8.921139E-5,3.9692177E-3,0E0,0E0,0E0,0E0,0E0,0E0,0E0,0E0,3.8280804E-4,0E0,0E0],"parents":[2147483647,0,0,1,1,2,2,3,3,4,4,5,5,6,6,7,7,9,9,10,10,11,11,12,12,13,13,20,20,21,21,22,22,23,23,25,25,31,31,32,32,33,33,35,35,38,38,39,39,48,48],"right_children":[2,4,6,8,10,12,14,16,-1,18,20,22,24,26,-1,-1,-1,-1,-1,-1,28,30,32,34,-1,36,-1,-1,-1,-1,-1,38,40,42,-1,44,-1,-1,46,48,-1,-1,-1,-1,-1,-1,-1,-1,50,-1,-1],"split_conditions":[-2.7705457E-2,-1.2427051E0,5.9798425E-1,-1.8345298E0,-5.423641E-1,8.4315634E-1,1.2288052E0,-2.206455E0,-4.6014078E-2,-7.654871E-1,-1.9298921E0,-2.428347E0,3.8134494E-1,7.7329934E-1,1.2481042E-1,-9.982146E-4,-1.4080765E-2,-7.9790175E-2,-1.1805093E-1,-4.2398572E-2,-4.2399174E-1,6.690163E-2,2.0510495E-2,1.605052E-1,4.505786E-2,-4.8220536E-1,8.219867E-2,-4.3100305E-2,-9.123031E-2,5.772827E-3,3.9489742E-2,-1.9283899E0,-2.206455E0,5.6099594E-2,2.086801E-2,-2.6527154E0,5.8086347E-2,-3.1491213E-3,5.061461E-1,1.16892196E-1,-6.5903164E-2,1.8727541E-3,8.80517E-3,4.019957E-2,-4.4685427E-2,-1.0317438E-3,3.515032E-4,1.3615148E-2,2.1266676E-1,-1.0062762E-3,2.3213178E-3],"split_indices":[1,2,1,2,5,2,1,2,0,2,1,2,1,1,0,0,0,0,0,0,5,1,1,1,0,2,0,0,0,0,0,2,2,1,0,2,0,0,5,1,0,0,0,0,0,0,0,0,1,0,0],"split_type":[0,0,0,0,0,0,0,0,0,0,0,0,0,0,0,0,0,0,0,0,0,0,0,0,0,0,0,0,0,0,0,0,0,0,0,0,0,0,0,0,0,0,0,0,0,0,0,0,0,0,0],"sum_hessian":[6.95E2,2.57E2,4.38E2,3.3E1,2.24E2,1.64E2,2.74E2,9E0,2.4E1,1.24E2,1E2,1.28E2,3.6E1,2.05E2,6.9E1,1E0,8E0,2.6E1,9.8E1,7E0,9.3E1,8E0,1.2E2,2.5E1,1.1E1,7.1E1,1.34E2,6E0,8.7E1,1E0,7E0,1.02E2,1.8E1,1.1E1,1.4E1,5E0,6.6E1,2E0,1E2,3E0,1.5E1,2E0,9E0,4E0,1E0,9.9E1,1E0,1E0,2E0,1E0,1E0],"tree_param":{"num_deleted":"0","num_feature":"7","num_nodes":"51","size_leaf_vector":"1"}},{"base_weights":[-2.7430414E-3,-3.816254E-1,2.2628249E-1,-1.8243401E-1,-4.0854827E-1,1.1765538E-2,3.5521427E-1,6.8462007E-3,-1.9058049E-1,-4.2587683E-1,-2.9139167E-1,-2.4289645E-2,1.2727171E-1,2.6691628E-1,4.467526E-1,-2.5117382E-2,-2.2676697E-1,-4.5082483E-1,-3.211271E-1,-6.446668E-2,-3.1930137E-2,1.6449268E-1,-4.2460207E-2,3.9426144E-2,6.679149E-2,1.9902478E-1,5.673459E-2,7.603871E-2,1.0829395E-1,-9.593502E-3,-4.8260774E-2,-3.4138376E-1,-9.460488E-2,-2.5053283E-2,-3.3381543E-1,5.827518E-2,3.7389692E-2,-4.5168586E-3,-2.053888E-1,4.5847916E-3,1.6260795E-2,-3.9762937E-2,4.4628527E-2,-7.1976684E-2,-2.7018163E-2,-6.884926E-2,-2.378572E-2,1.2892211E-2,2.2354475E-3,-6.562002E-3,-3.2824513E-3,3.9980404E-2,-5.5597838E-2,2.1339064E-2,-4.1706398E-2,1.6962085E-2,-4.0495982E-3,-1.3231918E-3,4.9951784E-2,-1.2595233E-3,5.7827462E-3,-8.286085E-4,3.2806964E-4,1.4065007E-2,4.6026455E-3,-9.3919114E-4,2.1665634E-3],"categories":[],"categories_nodes":[],"categories_segments":[],"categories_sizes":[],"default_left":[0,0,0,0,0,0,0,0,0,0,0,0,0,0,0,0,0,0,0,0,0,0,0,0,0,0,0,0,0,0,0,0,0,0,0,0,0,0,0,0,0,0,0,0,0,0,0,0,0,0,0,0,0,0,0,0,0,0,0,0,0,0,0,0,0,0,0],"id":5,"left_children":[1,3,5,7,9,11,13,-1,15,17,19,21,23,25,27,-1,29,31,33,-1,-1,35,37,-1,39,41,-1,-1,-1,-1,-1,43,-1,-1,45,47,-1,49,51,-1,-1,53,-1,-1,-1,-1,-1,-1,-1,-1,55,57,-1,-1,-1,59,61,-1,63,-1,-1,-1,-1,-1,65,-1,-1],"loss_changes":[6.26498E1,1.3096161E0,1.2437767E1,7.6589584E-2,2.3498154E-1,7.1832865E-1,2.03273E0,0E0,2.535832E-2,2.4095917E-1,4.7901392E-2,4.6676585E-1,1.4689535E-1,5.5454254E-2,4.3935204E-1,0E0,2.8834343E-2,6.332779E-2,3.0684948E-2,0E0,0E0,6.833464E-3,7.5235546E-1,0E0,1.2188047E-2,2.2507131E-1,0E0,0E0,0E0,0E0,0E0,3.2521963E-2,0E0,0E0,1.225996E-2,1.5717E-5,0E0,3.3120576E-3,4.3194783E-1,0E0,0E0,1.6808689E-1,0E0,0E0,0E0,0E0,0E0,0E0,0E0,0E0,1.674902E-3,3.913368E-3,0E0,0E0,0E0,1.4761422E-3,6.516627E-5,0E0,4.896092E-3,0E0,0E0,0E0,0E0,0E0,3.3346834E-4,0E0,0E0],"parents":[2147483647,0,0,1,1,2,2,3,3,4,4,5,5,6,6,8,8,9,9,10,10,11,11,12,12,13,13,14,14,16,16,17,17,18,18,21,21,22,22,24,24,25,25,31,31,34,34,35,35,37,37,38,38,41,41,50,50,51,51,55,55,56,56,58,58,64,64],"right_children":[2,4,6,8,10,12,14,-1,16,18,20,22,24,26,28,-1,30,32,34,-1,-1,36,38,-1,40,42,-1,-1,-1,-1,-1,44,-1,-1,46,48,-1,50,52,-1,-1,54,-1,-1,-1,-1,-1,-1,-1,-1,56,58,-1,-1,-1,60,62,-1,64,-1,-1,-1,-1,-1,66,-1,-1],"split_conditions":[-2.7705457E-2,-1.224068E0,6.268192E-1,-2.206455E0,-7.555808E-1,8.4315634E-1,9.5956236E-1,6.8462007E-3,-1.5990936E0,1.0849345E0,1.0722522E0,-2.428347E0,1.1156638E0,7.2884876E-1,1.3310025E0,-2.5117382E-2,-8.338807E-1,-6.046127E-1,-9.124939E-2,-6.446668E-2,-3.1930137E-2,3.371341E-1,2.0510495E-2,3.9426144E-2,1.3714154E-1,-4.8220536E-1,5.673459E-2,7.603871E-2,1.0829395E-1,-9.593502E-3,-4.8260774E-2,-5.2179784E-1,-9.460488E-2,-2.5053283E-2,1.5731189E0,2.6454514E-1,3.7389692E-2,-1.6062906E-2,-2.1249132E0,4.5847916E-3,1.6260795E-2,6.857609E-1,4.4628527E-2,-7.1976684E-2,-2.7018163E-2,-6.884926E-2,-2.378572E-2,1.2892211E-2,2.2354475E-3,-6.562002E-3,-2.0035157E0,8.092346E-2,-5.5597838E-2,2.1339064E-2,-4.1706398E-2,-2.3453445E0,8.985226E-2,-1.3231918E-3,1.7870761E-1,-1.2595233E-3,5.7827462E-3,-8.286085E-4,3.2806964E-4,1.4065007E-2,2.1266676E-1,-9.3919114E-4,2.1665634E-3],"split_indices":[1,3,1,2,1,2,1,0,2,3,2,2,2,1,1,0,1,2,2,0,0,1,1,0,1,2,0,0,0,0,0,3,0,0,2,1,0,1,2,0,0,1,0,0,0,0,0,0,0,0,2,1,0,0,0,2,3,0,1,0,0,0,0,0,1,0,0],"split_type":[0,0,0,0,0,0,0,0,0,0,0,0,0,0,0,0,0,0,0,0,0,0,0,0,0,0,0,0,0,0,0,0,0,0,0,0,0,0,0,0,0,0,0,0,0,0,0,0,0,0,0,0,0,0,0,0,0,0,0,0,0,0,0,0,0,0,0],"sum_hessian":[7.18E2,2.7E2,4.48E2,3.4E1,2.36E2,1.69E2,2.79E2,1E0,3.3E1,2.01E2,3.5E1,1.3E2,3.9E1,1.46E2,1.33E2,1.5E1,1.8E1,1.57E2,4.4E1,2.6E1,9E0,1E1,1.2E2,1.6E1,2.3E1,3.4E1,1.12E2,8.4E1,4.9E1,2E0,1.6E1,3.2E1,1.25E2,4E0,4E1,3E0,7E0,9.9E1,2.1E1,7E0,1.6E1,3E0,3.1E1,2.8E1,4E0,3.7E1,3E0,2E0,1E0,2E0,9.7E1,5E0,1.6E1,2E0,1E0,2E0,9.5E1,1E0,4E0,1E0,1E0,9.4E1,1E0,2E0,2E0,1E0,1E0],"tree_param":{"num_deleted":"0","num_feature":"7","num_nodes":"67","size_leaf_vector":"1"}},{"base_weights":[-1.018074E-3,-3.18645E-1,1.9641067E-1,-7.9889536E-2,-1.9122358E-1,1.8266192E-2,2.7533394E-1,-2.012638E-1,-8.611675E-2,-4.0875366E-3,7.613041E-2,2.1162999E-1,3.6460018E-1,-4.928444E-2,-3.562231E-2,-2.0789936E-2,-3.0661786E-2,-4.706748E-3,-3.000876E-3,3.7550755E-2,1.8637557E-2,3.779622E-2,4.8133682E-2,6.263743E-2,9.1855004E-2,1.0330275E-2,-1.12645915E-2,7.2408505E-3,-3.3689302E-3,-8.3224106E-5,4.345583E-2,3.8346131E-3,-1.0798733E-3,-2.7813215E-4,2.2090257E-3,-3.7052513E-3,1.2269997E-3,9.435329E-3,2.2991365E-3,-2.487701E-3,-6.4798765E-4],"categories":[],"categories_nodes":[],"categories_segments":[],"categories_sizes":[],"default_left":[0,0,0,0,0,0,0,0,0,0,0,0,0,0,0,0,0,0,0,0,0,0,0,0,0,0,0,0,0,0,0,0,0,0,0,0,0,0,0,0,0],"id":6,"left_children":[1,3,5,-1,7,9,11,13,15,17,19,21,23,-1,-1,-1,25,-1,27,29,-1,-1,-1,-1,-1,31,-1,33,35,-1,37,-1,-1,-1,-1,39,-1,-1,-1,-1,-1],"loss_changes":[4.433479E1,2.6374474E0,6.1199913E0,0E0,8.0363035E-2,1.765358E-1,1.563036E0,1.467967E-2,6.4814463E-3,1.9718988E-3,1.8008009E-2,2.8077126E-2,3.1102562E-1,0E0,0E0,0E0,7.475088E-3,0E0,4.144304E-4,3.3991262E-3,0E0,0E0,0E0,0E0,0E0,7.634205E-4,0E0,1.620667E-4,3.4911872E-4,0E0,4.6127476E-4,0E0,0E0,0E0,0E0,2.9732392E-4,0E0,0E0,0E0,0E0,0E0],"parents":[2147483647,0,0,1,1,2,2,4,4,5,5,6,6,7,7,8,8,9,9,10,10,11,11,12,12,16,16,18,18,19,19,25,25,27,27,28,28,30,30,35,35],"right_children":[2,4,6,-1,8,10,12,14,16,18,20,22,24,-1,-1,-1,26,-1,28,30,-1,-1,-1,-1,-1,32,-1,34,36,-1,38,-1,-1,-1,-1,40,-1,-1,-1,-1,-1],"split_conditions":[-1.7319658E-1,-1.0775024E0,4.7851843E-1,-7.9889536E-2,-5.2048194E-1,4.684675E-2,1.0176374E0,-9.602972E-1,-1.633205E0,-2.206455E0,2.0720667E-1,8.4467775E-1,1.4488628E0,-4.928444E-2,-3.562231E-2,-2.0789936E-2,-1.5705588E0,-4.706748E-3,-8.138183E-2,-2.428347E0,1.8637557E-2,3.779622E-2,4.8133682E-2,6.263743E-2,9.1855004E-2,-1.5990936E0,-1.12645915E-2,-2.1249132E0,1.1436652E-1,-8.3224106E-5,1.4438626E0,3.8346131E-3,-1.0798733E-3,-2.7813215E-4,2.2090257E-3,-1.9283899E0,1.2269997E-3,9.435329E-3,2.2991365E-3,-2.487701E-3,-6.4798765E-4],"split_indices":[6,6,6,0,6,6,6,6,2,2,6,6,6,0,0,0,2,0,6,2,0,0,0,0,0,2,0,2,2,0,2,0,0,0,0,2,0,0,0,0,0],"split_type":[0,0,0,0,0,0,0,0,0,0,0,0,0,0,0,0,0,0,0,0,0,0,0,0,0,0,0,0,0,0,0,0,0,0,0,0,0,0,0,0,0],"sum_hessian":[7.03E2,2.69E2,4.34E2,1.62E2,1.07E2,1.34E2,3E2,9.6E1,1.1E1,9.8E1,3.6E1,1.79E2,1.21E2,2.6E1,7E1,7E0,4E0,3E0,9.5E1,1.3E1,2.3E1,1.09E2,7E1,8.4E1,3.7E1,2E0,2E0,2E0,9.3E1,2E0,1.1E1,1E0,1E0,1E0,1E0,9.1E1,2E0,9E0,2E0,2E0,8.9E1],"tree_param":{"num_deleted":"0","num_feature":"7","num_nodes":"41","size_leaf_vector":"1"}},{"base_weights":[-7.611646E-3,-2.517132E-1,1.436889E-1,-2.7625197E-1,-1.6317886E-1,-5.8661886E-3,2.2390309E-1,-2.790695E-1,-1.711094E-2,-8.6262755E-2,-2.1328965E-1,-1.1133223E-1,8.428756E-3,1.9199888E-1,7.0185944E-2,-1.7972078E-2,-2.8187102E-1,-1.20293565E-1,-1.800352E-2,-9.269737E-2,-4.6907935E-2,-2.376583E-3,-2.629287E-2,-3.461302E-3,6.973091E-2,1.6111425E-1,4.7601823E-2,-2.4640022E-2,-5.7079833E-2,-4.290076E-2,-2.5888426E-2,-8.128005E-3,3.4747375E-3,-1.970621E-2,-3.0685307E-3,1.7574258E-2,-5.4786634E-3,-1.2408741E-4,-8.01676E-2,-5.6279526E-4,1.4656844E-2,-1.5183635E-2,3.275192E-2,-9.969279E-3,-1.0078808E-3,-1.018393E-2,1.142227E-2,-1.0742971E-3,5.760766E-3,4.669687E-2,-2.6079598E-3,5.1310672E-3,-2.3890201E-2,-2.4561246E-3,-2.5959016E-4,1.691412E-2,-1.069132E-3,-8.61772E-4,1.1724313E-2,-1.6692532E-2,-3.956383E-4,3.2618716E-3,4.7682077E-3,-5.4022175E-4,2.1263883E-2,2.7859414E-3,-1.9161089E-3,1.1042998E-3,4.707038E-3],"categories":[],"categories_nodes":[],"categories_segments":[],"categories_sizes":[],"default_left":[0,0,0,0,0,0,0,0,0,0,0,0,0,0,0,0,0,0,0,0,0,0,0,0,0,0,0,0,0,0,0,0,0,0,0,0,0,0,0,0,0,0,0,0,0,0,0,0,0,0,0,0,0,0,0,0,0,0,0,0,0,0,0,0,0,0,0,0,0],"id":7,"left_children":[1,3,5,7,9,11,13,15,-1,17,19,21,23,25,-1,-1,27,29,31,33,-1,35,-1,37,39,41,-1,-1,-1,43,-1,-1,45,-1,-1,47,-1,49,51,-1,-1,-1,-1,-1,-1,53,55,-1,-1,57,59,-1,-1,-1,-1,61,-1,-1,-1,-1,63,65,-1,-1,67,-1,-1,-1,-1],"loss_changes":[2.6737743E1,5.116348E-1,5.365035E0,6.722832E-2,2.1373332E-1,2.4008252E-1,1.0445747E0,6.06575E-2,0E0,6.303318E-2,5.389607E-2,4.105179E-2,1.0325566E-1,2.6008606E-1,0E0,0E0,4.499626E-2,2.3462772E-3,6.1167376E-3,1.0379106E-3,0E0,3.4583588E-3,0E0,3.069835E-2,6.341256E-3,1.17666006E-1,0E0,0E0,0E0,8.124644E-4,0E0,0E0,1.1010689E-3,0E0,0E0,1.3401222E-3,0E0,1.3850351E-2,2.6914537E-2,0E0,0E0,0E0,0E0,0E0,0E0,4.2645406E-5,7.3335605E-4,0E0,0E0,4.154549E-3,2.014701E-2,0E0,0E0,0E0,0E0,3.173073E-4,0E0,0E0,0E0,0E0,5.7076355E-3,8.149113E-4,0E0,0E0,1.3341475E-4,0E0,0E0,0E0,0E0],"parents":[2147483647,0,0,1,1,2,2,3,3,4,4,5,5,6,6,7,7,9,9,10,10,11,11,12,12,13,13,16,16,17,17,18,18,19,19,21,21,23,23,24,24,25,25,29,29,32,32,35,35,37,37,38,38,45,45,46,46,49,49,50,50,55,55,60,60,61,61,64,64],"right_children":[2,4,6,8,10,12,14,16,-1,18,20,22,24,26,-1,-1,28,30,32,34,-1,36,-1,38,40,42,-1,-1,-1,44,-1,-1,46,-1,-1,48,-1,50,52,-1,-1,-1,-1,-1,-1,54,56,-1,-1,58,60,-1,-1,-1,-1,62,-1,-1,-1,-1,64,66,-1,-1,68,-1,-1,-1,-1],"split_conditions":[-1.7800773E-2,-7.171961E-1,4.5849916E-1,-2.7478543E-1,-1.0449727E0,-1.6062906E-2,1.2576946E0,-1.9760448E0,-1.711094E-2,-2.9496688E-1,-1.4932094E0,-1.0449727E0,1.7870761E-1,9.14664E-1,7.0185944E-2,-1.7972078E-2,-1.9343612E0,-6.442146E-1,-1.7431414E-1,-2.0693342E-1,-4.6907935E-2,7.32143E-2,-2.629287E-2,2.7417687E-1,1.6077636E-1,2.7417687E-1,4.7601823E-2,-2.4640022E-2,-5.7079833E-2,-7.2682434E-1,-2.5888426E-2,-8.128005E-3,-2.0693342E-1,-1.970621E-2,-3.0685307E-3,3.0738983E-2,-5.4786634E-3,-1.0449727E0,-1.0449727E0,-5.6279526E-4,1.4656844E-2,-1.5183635E-2,3.275192E-2,-9.969279E-3,-1.0078808E-3,-5.5004407E-2,-5.5004407E-2,-1.0742971E-3,5.760766E-3,2.0510495E-2,3.8067374E-2,5.1310672E-3,-2.3890201E-2,-2.4561246E-3,-2.5959016E-4,-1.4309758E-1,-1.069132E-3,-8.61772E-4,1.1724313E-2,-1.6692532E-2,2.0510495E-2,-1.7032962E-1,4.7682077E-3,-5.4022175E-4,3.0738983E-2,2.7859414E-3,-1.9161089E-3,1.1042998E-3,4.707038E-3],"split_indices":[0,1,1,0,5,1,0,0,0,1,0,5,1,0,0,0,1,1,0,1,0,0,0,0,0,0,0,0,0,0,0,0,1,0,0,0,0,5,5,0,0,0,0,0,0,0,0,0,0,1,5,0,0,0,0,0,0,0,0,0,1,1,0,0,0,0,0,0,0],"split_type":[0,0,0,0,0,0,0,0,0,0,0,0,0,0,0,0,0,0,0,0,0,0,0,0,0,0,0,0,0,0,0,0,0,0,0,0,0,0,0,0,0,0,0,0,0,0,0,0,0,0,0,0,0,0,0,0,0,0,0,0,0,0,0,0,0,0,0,0,0],"sum_hessian":[7.2E2,2.75E2,4.45E2,2.12E2,6.3E1,1.56E2,2.89E2,2.08E2,4E0,2.7E1,3.6E1,1.7E1,1.39E2,2.35E2,5.4E1,4E0,2.04E2,1.7E1,1E1,7E0,2.9E1,3E0,1.4E1,1.18E2,2.1E1,1.46E2,8.9E1,6E0,1.98E2,3E0,1.4E1,4E0,6E0,6E0,1E0,2E0,1E0,1.15E2,3E0,1E0,2E1,1E0,1.45E2,2E0,1E0,2E0,4E0,1E0,1E0,4E0,1.11E2,1E0,2E0,1E0,1E0,3E0,1E0,1E0,3E0,1E0,1.1E2,2E0,1E0,1.01E2,9E0,1E0,1E0,2E0,7E0],"tree_param":{"num_deleted":"0","num_feature":"7","num_nodes":"69","size_leaf_vector":"1"}},{"base_weights":[-6.7146315E-4,-2.0993225E-1,1.2880574E-1,-5.3339023E-2,-1.2458684E-1,1.0224129E-2,1.8213902E-1,-8.764402E-2,-1.505378E-1,6.70568E-4,5.7933625E-2,1.5939264E-1,5.9172798E-2,-2.4349628E-2,-6.1663087E-2,-1.6533545E-1,-6.009191E-2,4.7787647E-3,-1.2417086E-3,3.812214E-2,1.3948093E-2,1.2986399E-1,3.8138807E-2,-7.225765E-2,-1.6668098E-3,-1.9118226E-1,-2.2306949E-2,-4.8578777E-3,-8.649445E-2,-3.1962886E-3,1.6930655E-2,-5.4189115E-4,9.2077395E-3,2.6130004E-2,1.4786482E-3,-3.441329E-2,-1.9267851E-2,-8.112569E-3,2.4671832E-3,-4.1041754E-2,-1.920945E-2,-2.7925335E-2,2.0638518E-2,-1.8863548E-2,-2.1154324E-3,-2.3865968E-3,-5.6110313E-3,7.922486E-4,3.7864938E-3,-4.070841E-2,-6.7987083E-3,9.026448E-4,-1.2443018E-2,-1.0167997E-3,-6.4299563E-3,1.9873779E-4,5.304867E-3,-5.1134187E-3,-1.6359433E-3,-7.4495474E-4,-8.7323645E-3,4.0076077E-3,-3.3349318E-3,-2.784589E-3,-4.3488742E-4,-4.453973E-4,3.7524186E-3,-1.9153753E-4,1.260233E-3],"categories":[],"categories_nodes":[],"categories_segments":[],"categories_sizes":[],"default_left":[0,0,0,0,0,0,0,0,0,0,0,0,0,0,0,0,0,0,0,0,0,0,0,0,0,0,0,0,0,0,0,0,0,0,0,0,0,0,0,0,0,0,0,0,0,0,0,0,0,0,0,0,0,0,0,0,0,0,0,0,0,0,0,0,0,0,0,0,0],"id":8,"left_children":[1,3,5,-1,7,9,11,13,15,17,19,21,-1,-1,23,25,27,-1,29,31,-1,33,-1,35,37,39,-1,41,43,45,47,-1,-1,-1,-1,49,-1,51,-1,-1,-1,53,55,-1,-1,57,-1,-1,-1,59,61,-1,63,-1,-1,-1,-1,-1,65,-1,-1,67,-1,-1,-1,-1,-1,-1,-1],"loss_changes":[1.9209894E1,1.2463932E0,2.7663403E0,0E0,8.098698E-2,6.282209E-2,6.8690586E-1,3.0174166E-2,6.444776E-2,5.2552246E-3,6.264448E-5,1.8708944E-1,0E0,0E0,2.0735055E-2,3.1053543E-2,1.6659472E-2,0E0,4.0153577E-3,4.4516716E-3,0E0,1.13527775E-2,0E0,1.8887192E-2,8.319595E-4,4.6161413E-3,0E0,4.681497E-3,2.7561523E-3,1.8990175E-3,1.3559381E-4,0E0,0E0,0E0,0E0,1.8801894E-3,0E0,4.4036834E-4,0E0,0E0,0E0,5.9069367E-5,4.0978985E-4,0E0,0E0,1.6563993E-3,0E0,0E0,0E0,8.76246E-4,6.672641E-4,0E0,1.5434576E-5,0E0,0E0,0E0,0E0,0E0,1.2771216E-3,0E0,0E0,5.7621844E-5,0E0,0E0,0E0,0E0,0E0,0E0,0E0],"parents":[2147483647,0,0,1,1,2,2,4,4,5,5,6,6,7,7,8,8,9,9,10,10,11,11,14,14,15,15,16,16,18,18,19,19,21,21,23,23,24,24,25,25,27,27,28,28,29,29,30,30,35,35,37,37,41,41,42,42,45,45,49,49,50,50,52,52,58,58,61,61],"right_children":[2,4,6,-1,8,10,12,14,16,18,20,22,-1,-1,24,26,28,-1,30,32,-1,34,-1,36,38,40,-1,42,44,46,48,-1,-1,-1,-1,50,-1,52,-1,-1,-1,54,56,-1,-1,58,-1,-1,-1,60,62,-1,64,-1,-1,-1,-1,-1,66,-1,-1,68,-1,-1,-1,-1,-1,-1,-1],"split_conditions":[-2.6399314E-1,-1.0961512E0,5.042792E-1,-5.3339023E-2,-7.634792E-1,1.7974769E-1,1.3862067E0,-9.7733754E-1,-5.78676E-1,-6.0539994E-2,3.4839723E-1,9.260093E-1,5.9172798E-2,-2.4349628E-2,-9.5756E-1,-5.2179784E-1,-5.253936E-1,4.7787647E-3,8.985226E-2,-2.5591085E0,1.3948093E-2,9.0591943E-1,3.8138807E-2,-8.653989E-1,-6.954783E-1,-7.878861E-1,-2.2306949E-2,-5.2048194E-1,-2.0693342E-1,2.1266676E-1,5.6099594E-2,-5.4189115E-4,9.2077395E-3,2.6130004E-2,1.4786482E-3,-8.803403E-1,-1.9267851E-2,-9.313544E-1,2.4671832E-3,-4.1041754E-2,-1.920945E-2,-7.171961E-1,-5.512748E-1,-1.8863548E-2,-2.1154324E-3,-1.6062906E-2,-5.6110313E-3,7.922486E-4,3.7864938E-3,-1.8995829E0,-8.678082E-1,9.026448E-4,-8.338807E-1,-1.0167997E-3,-6.4299563E-3,1.9873779E-4,5.304867E-3,-5.1134187E-3,4.684675E-2,-7.4495474E-4,-8.7323645E-3,-1.9298921E0,-3.3349318E-3,-2.784589E-3,-4.3488742E-4,-4.453973E-4,3.7524186E-3,-1.9153753E-4,1.260233E-3],"split_indices":[6,6,6,0,1,6,6,6,6,1,6,6,0,0,1,3,1,0,3,3,0,1,0,6,6,6,0,6,1,1,1,0,0,0,0,6,0,1,0,0,0,1,1,0,0,1,0,0,0,1,6,0,1,0,0,0,0,0,6,0,0,1,0,0,0,0,0,0,0],"split_type":[0,0,0,0,0,0,0,0,0,0,0,0,0,0,0,0,0,0,0,0,0,0,0,0,0,0,0,0,0,0,0,0,0,0,0,0,0,0,0,0,0,0,0,0,0,0,0,0,0,0,0,0,0,0,0,0,0,0,0,0,0,0,0,0,0,0,0,0,0],"sum_hessian":[7.05E2,2.69E2,4.36E2,1.59E2,1.1E2,1.36E2,3E2,4.9E1,6.1E1,1.15E2,2.1E1,2.54E2,4.6E1,1.8E1,3.1E1,5.1E1,1E1,7E0,1.08E2,1.1E1,1E1,1.36E2,1.18E2,2.6E1,5E0,3.1E1,2E1,4E0,6E0,9.9E1,9E0,2E0,9E0,1.35E2,1E0,1.2E1,1.4E1,4E0,1E0,2.5E1,6E0,2E0,2E0,5E0,1E0,9.8E1,1E0,2E0,7E0,9E0,3E0,1E0,3E0,1E0,1E0,1E0,1E0,1E0,9.7E1,1E0,8E0,2E0,1E0,2E0,1E0,9.6E1,1E0,1E0,1E0],"tree_param":{"num_deleted":"0","num_feature":"7","num_nodes":"69","size_leaf_vector":"1"}},{"base_weights":[4.4771026E-5,-1.6232131E-1,9.631473E-2,-9.0144746E-2,-1.7531377E-1,1.7727224E-2,1.591061E-1,-9.982594E-2,6.0583833E-3,-1.8752153E-1,-1.1814844E-1,-1.0984152E-2,7.259267E-2,1.3983527E-1,4.7359865E-2,-3.3515178E-2,-2.065941E-2,2.3224961E-3,-1.4474735E-3,-1.928937E-1,-2.342852E-2,-2.4028784E-2,-2.0231407E-3,5.643502E-2,-2.0997401E-2,2.6960261E-2,1.660758E-2,2.4039738E-2,3.1649213E-2,-1.6850997E-2,2.1297261E-2,-2.5308743E-2,-3.9561737E-2,-4.9692187E-3,6.47317E-2,-3.3340743E-4,-2.3303201E-2,1.6552246E-3,5.999747E-3,-4.0589573E-4,6.0851653E-3,3.447399E-3,-4.7725243E-3,6.964894E-2,-6.017844E-4,3.8870133E-2,1.874379E-2,9.961384E-3,-4.877016E-4],"categories":[],"categories_nodes":[],"categories_segments":[],"categories_sizes":[],"default_left":[0,0,0,0,0,0,0,0,0,0,0,0,0,0,0,0,0,0,0,0,0,0,0,0,0,0,0,0,0,0,0,0,0,0,0,0,0,0,0,0,0,0,0,0,0,0,0,0,0],"id":9,"left_children":[1,3,5,7,9,11,13,15,17,19,21,23,25,27,-1,29,-1,-1,-1,31,-1,-1,-1,33,35,37,-1,-1,-1,-1,39,-1,-1,41,43,-1,-1,-1,-1,-1,-1,-1,-1,45,-1,47,-1,-1,-1],"loss_changes":[1.1254309E1,2.1971035E-1,2.2248063E0,4.312083E-2,1.1270809E-1,3.2137302E-1,3.0957508E-1,2.5129914E-3,6.111629E-4,2.3619652E-2,7.2702765E-3,9.3506455E-2,2.888745E-2,3.6432266E-2,0E0,1.749466E-2,0E0,0E0,0E0,4.0712357E-3,0E0,0E0,0E0,9.813458E-3,2.1933426E-1,4.1179452E-4,0E0,0E0,0E0,0E0,9.7525574E-4,0E0,0E0,2.5008433E-3,5.7486743E-3,0E0,0E0,0E0,0E0,0E0,0E0,0E0,0E0,3.8269535E-3,0E0,4.7607487E-3,0E0,0E0,0E0],"parents":[2147483647,0,0,1,1,2,2,3,3,4,4,5,5,6,6,7,7,8,8,9,9,10,10,11,11,12,12,13,13,15,15,19,19,23,23,24,24,25,25,30,30,33,33,34,34,43,43,45,45],"right_children":[2,4,6,8,10,12,14,16,18,20,22,24,26,28,-1,30,-1,-1,-1,32,-1,-1,-1,34,36,38,-1,-1,-1,-1,40,-1,-1,42,44,-1,-1,-1,-1,-1,-1,-1,-1,46,-1,48,-1,-1,-1],"split_conditions":[-1.7800773E-2,-1.0342804E0,7.2683257E-1,-1.7431414E-1,9.695819E-1,5.0563926E-1,1.3538381E0,-9.741393E-1,-2.0035157E0,-4.0812433E-1,-1.440088E0,-2.1249132E0,3.164694E-1,9.3705374E-1,4.7359865E-2,-1.0117317E0,-2.065941E-2,2.3224961E-3,-1.4474735E-3,-6.046127E-1,-2.342852E-2,-2.4028784E-2,-2.0231407E-3,9.521338E-2,-5.2093854E-3,7.32143E-2,1.660758E-2,2.4039738E-2,3.1649213E-2,-1.6850997E-2,-1.0031778E0,-2.5308743E-2,-3.9561737E-2,3.0738983E-2,6.672789E-1,-3.3340743E-4,-2.3303201E-2,1.6552246E-3,5.999747E-3,-4.0589573E-4,6.0851653E-3,3.447399E-3,-4.7725243E-3,4.5747083E-1,-6.017844E-4,3.9358023E-1,1.874379E-2,9.961384E-3,-4.877016E-4],"split_indices":[0,2,0,0,2,4,0,0,2,0,0,2,0,0,0,0,0,0,0,2,0,0,0,0,0,0,0,0,0,0,0,0,0,0,0,0,0,0,0,0,0,0,0,0,0,0,0,0,0],"split_type":[0,0,0,0,0,0,0,0,0,0,0,0,0,0,0,0,0,0,0,0,0,0,0,0,0,0,0,0,0,0,0,0,0,0,0,0,0,0,0,0,0,0,0,0,0,0,0,0,0],"sum_hessian":[7.16E2,2.66E2,4.5E2,4.3E1,2.23E2,2.01E2,2.49E2,3.9E1,4E0,1.8E2,4.3E1,1.33E2,6.8E1,2.04E2,4.5E1,3E0,3.6E1,3E0,1E0,1.64E2,1.6E1,4.2E1,1E0,1.6E1,1.17E2,1.4E1,5.4E1,1.06E2,9.8E1,1E0,2E0,1.5E1,1.49E2,2E0,1.4E1,9.9E1,1.8E1,3E0,1.1E1,1E0,1E0,1E0,1E0,1.3E1,1E0,8E0,5E0,6E0,2E0],"tree_param":{"num_deleted":"0","num_feature":"7","num_nodes":"49","size_leaf_vector":"1"}},{"base_weights":[1.5566096E-3,-8.167615E-2,1.1233957E-1,6.549705E-2,-9.8753974E-2,8.955229E-2,1.540009E-1,1.0305669E-1,1.8801288E-3,-1.3403444E-1,-1.337313E-3,9.771648E-2,2.4585677E-2,4.0009234E-2,2.3271164E-2,2.3125472E-2,5.8561094E-2,-2.5361307E-2,8.455472E-3,-5.1440664E-2,-1.4220929E-1,-2.8119385E-4,3.5482293E-4,1.0064502E-1,6.06649E-2,5.930659E-3,2.2107188E-3,-5.616665E-4,1.3200799E-2,-5.901055E-3,-8.6196064E-4,2.1109488E-2,7.192182E-4,-2.1403074E-2,-1.2816268E-2,-1.5255946E-1,-9.787005E-2,8.9875154E-2,2.32435E-2,2.1980533E-2,1.37155E-2,5.04647E-3,6.4318813E-3,-5.8240755E-3,4.8463633E-3,-3.3036135E-2,6.328503E-3,-1.1311969E-1,-1.618314E-1,-5.1280413E-2,-1.2461947E-1,2.3929613E-2,1.5590416E-2,4.877527E-3,6.6300237E-4,2.8381653E-3,-1.1229967E-3,3.4358026E-3,-4.7493526E-3,-1.1394443E-2,-1.2809064E-2,-2.3764234E-2,-3.8353514E-2,-3.298006E-2,-1.0404776E-2,-1.17523065E-2,2.3530722E-3,1.9944906E-3,-1.3348901E-1,1.1877818E-2,-2.6111254E-3,5.955266E-3,-1.0054166E-2,-2.2650033E-3,-9.241051E-3,1.3231396E-3,-7.912755E-4,-1.7520905E-3,-1.3731787E-1,-1.8874363E-3,4.6290956E-3,-1.433773E-1,-5.854517E-3,-4.454356E-3,2.868908E-3,-2.9440379E-2,-3.1841637E-3],"categories":[],"categories_nodes":[],"categories_segments":[],"categories_sizes":[],"default_left":[0,0,0,0,0,0,0,0,0,0,0,0,0,0,0,0,0,0,0,0,0,0,0,0,0,0,0,0,0,0,0,0,0,0,0,0,0,0,0,0,0,0,0,0,0,0,0,0,0,0,0,0,0,0,0,0,0,0,0,0,0,0,0,0,0,0,0,0,0,0,0,0,0,0,0,0,0,0,0,0,0,0,0,0,0,0,0],"id":10,"left_children":[1,3,5,7,9,11,13,15,17,19,21,23,25,-1,-1,-1,27,29,31,33,35,-1,-1,37,39,-1,-1,-1,-1,-1,-1,41,43,45,-1,47,49,51,-1,53,-1,-1,55,57,-1,59,-1,61,63,65,67,-1,-1,-1,-1,-1,-1,69,-1,-1,71,-1,73,-1,-1,-1,-1,75,77,79,-1,-1,-1,-1,-1,-1,-1,-1,81,83,-1,85,-1,-1,-1,-1,-1],"loss_changes":[6.4913325E0,1.0233221E0,2.5912023E-1,1.02357924E-1,1.240365E0,1.0127509E-1,1.3371849E-1,1.5596151E-3,3.6530755E-3,1.642952E-1,2.5923335E-5,6.994486E-3,1.0588346E-3,0E0,0E0,0E0,4.9383864E-3,9.462307E-5,1.5359502E-3,7.508695E-3,8.027792E-2,0E0,0E0,6.111741E-3,2.4949536E-3,0E0,0E0,0E0,0E0,0E0,0E0,3.849948E-5,2.128454E-3,8.878602E-3,0E0,3.3233166E-2,5.0777435E-2,1.826483E-2,0E0,1.078879E-4,0E0,0E0,5.3324626E-4,1.9887593E-3,0E0,3.3820467E-3,0E0,9.215534E-3,3.339076E-2,1.1759061E-2,3.5345763E-2,0E0,0E0,0E0,0E0,0E0,0E0,1.5631329E-3,0E0,0E0,1.5756354E-2,0E0,2.2677425E-4,0E0,0E0,0E0,0E0,1.623492E-4,1.1443496E-2,1.1730865E-3,0E0,0E0,0E0,0E0,0E0,0E0,0E0,0E0,9.937406E-3,2.2933478E-3,0E0,7.987082E-3,0E0,0E0,0E0,0E0,0E0],"parents":[2147483647,0,0,1,1,2,2,3,3,4,4,5,5,6,6,7,7,8,8,9,9,10,10,11,11,12,12,16,16,17,17,18,18,19,19,20,20,23,23,24,24,31,31,32,32,33,33,35,35,36,36,37,37,39,39,42,42,43,43,45,45,47,47,48,48,49,49,50,50,57,57,60,60,62,62,67,67,68,68,69,69,78,78,79,79,81,81],"right_children":[2,4,6,8,10,12,14,16,18,20,22,24,26,-1,-1,-1,28,30,32,34,36,-1,-1,38,40,-1,-1,-1,-1,-1,-1,42,44,46,-1,48,50,52,-1,54,-1,-1,56,58,-1,60,-1,62,64,66,68,-1,-1,-1,-1,-1,-1,70,-1,-1,72,-1,74,-1,-1,-1,-1,76,78,80,-1,-1,-1,-1,-1,-1,-1,-1,82,84,-1,86,-1,-1,-1,-1,-1],"split_conditions":[5.0563926E-1,-1.9283899E0,1.4406763E0,-2.5617976E0,3.749186E-2,1.0537258E0,5.7204E-1,-2.9696772E0,-2.4004762E0,-1.3360848E0,8.985226E-2,8.290182E-1,1.4027262E0,4.0009234E-2,2.3271164E-2,2.3125472E-2,-2.968759E0,-2.428347E0,-2.2060537E0,-1.5990936E0,7.537856E-1,-2.8119385E-4,3.5482293E-4,1.3224025E-2,8.840116E-1,5.930659E-3,2.2107188E-3,-5.616665E-4,1.3200799E-2,-5.901055E-3,-8.6196064E-4,-2.2890117E0,-1.8343804E0,-1.633205E0,-1.2816268E-2,-6.742383E-1,5.931153E-1,-2.9854017E-1,2.32435E-2,8.8570416E-1,1.37155E-2,5.04647E-3,-2.428347E0,-2.0035157E0,4.8463633E-3,-1.8343804E0,6.328503E-3,1.0291626E-2,1.4438626E0,1.4417921E0,8.9214545E-1,2.3929613E-2,1.5590416E-2,4.877527E-3,6.6300237E-4,2.8381653E-3,-1.1229967E-3,-1.9672415E0,-4.7493526E-3,-1.1394443E-2,-1.6220856E0,-2.3764234E-2,-9.311072E-1,-3.298006E-2,-1.0404776E-2,-1.17523065E-2,2.3530722E-3,1.568073E0,-4.2463502E-1,-2.206455E0,-2.6111254E-3,5.955266E-3,-1.0054166E-2,-2.2650033E-3,-9.241051E-3,1.3231396E-3,-7.912755E-4,-1.7520905E-3,1.5822376E0,-2.1402287E0,4.6290956E-3,1.5731189E0,-5.854517E-3,-4.454356E-3,2.868908E-3,-2.9440379E-2,-3.1841637E-3],"split_indices":[4,2,4,2,4,2,2,2,3,2,3,2,3,0,0,0,3,2,3,2,3,0,0,2,3,0,0,0,0,0,0,3,3,2,0,2,2,3,0,2,0,0,2,2,0,3,0,3,2,3,3,0,0,0,0,0,0,3,0,0,3,0,2,0,0,0,0,2,4,2,0,0,0,0,0,0,0,0,3,3,0,2,0,0,0,0,0],"split_type":[0,0,0,0,0,0,0,0,0,0,0,0,0,0,0,0,0,0,0,0,0,0,0,0,0,0,0,0,0,0,0,0,0,0,0,0,0,0,0,0,0,0,0,0,0,0,0,0,0,0,0,0,0,0,0,0,0,0,0,0,0,0,0,0,0,0,0,0,0,0,0,0,0,0,0,0,0,0,0,0,0,0,0,0,0,0,0],"sum_hessian":[7E2,4E2,3E2,4.1E1,3.59E2,1.98E2,1.02E2,2.5E1,1.6E1,2.63E2,9.6E1,1.75E2,2.3E1,4.2E1,6E1,1.7E1,8E0,2E0,1.4E1,2.5E1,2.38E2,9.5E1,1E0,1.59E2,1.6E1,1.5E1,8E0,1E0,7E0,1E0,1E0,4E0,1E1,9E0,1.6E1,1.89E2,4.9E1,1.02E2,5.7E1,4E0,1.2E1,2E0,2E0,9E0,1E0,8E0,1E0,4.1E1,1.48E2,2E1,2.9E1,2.4E1,7.8E1,3E0,1E0,1E0,1E0,7E0,2E0,2E0,6E0,3.7E1,4E0,1.43E2,5E0,1.8E1,2E0,2E0,2.7E1,5E0,2E0,3E0,3E0,2E0,2E0,1E0,1E0,1E0,2.6E1,3E0,2E0,2.4E1,2E0,1E0,2E0,2.3E1,1E0],"tree_param":{"num_deleted":"0","num_feature":"7","num_nodes":"87","size_leaf_vector":"1"}},{"base_weights":[1.0482197E-3,-1.1037885E-1,6.7173205E-2,-1.5250783E-1,-6.0271673E-2,1.8097583E-2,1.06832184E-1,-2.6909111E-2,-4.27182E-2,-8.521575E-2,-2.1757757E-2,-5.449243E-4,4.793922E-2,9.251522E-2,3.7159685E-2,-1.1381083E-1,-6.797229E-2,-1.325241E-2,-6.946534E-3,-1.4161185E-2,1.6145718E-3,2.6961142E-2,5.274406E-2,7.3744334E-2,2.0620476E-2,-3.27488E-2,-5.5360634E-2,-6.9720246E-2,1.5281161E-3,-1.3183598E-2,1.8852392E-2,-3.141642E-2,1.526196E-2,6.62883E-3,-1.3457918E-4,-1.7590091E-3,3.2202464E-2,-5.2422285E-4,5.37216E-2,3.0631621E-4,1.4911572E-2,-1.8302012E-2,-1.0925455E-2,-7.528383E-2,-7.059055E-3,-3.1880916E-3,-2.3392007E-2,3.5966873E-2,-9.22594E-3,-3.4494076E-2,1.6252002E-4,-2.3670554E-2,7.22593E-3,-2.2634793E-4,1.0063373E-2,8.193787E-3,1.5305834E-2,4.0783087E-4,5.4501995E-2,-2.336602E-2,5.9066038E-3,-1.0093937E-2,-1.7250005E-2,-1.5087128E-2,1.8432245E-2,-6.877232E-3,-5.978061E-3,1.2349288E-3,7.891092E-3,6.350994E-4,-2.7828098E-3,-8.560593E-3,-2.6604685E-3,-5.5076513E-3,-8.0449687E-4,2.2341087E-3,5.634687E-4,-8.3155034E-4,4.730342E-3,6.405438E-2,4.036091E-2,-8.110317E-3,-4.1203E-3,3.5781115E-3,-2.9980585E-2,-3.3514649E-3,5.3621274E-3,3.6364973E-3,-3.6152143E-3,-3.8643032E-3,7.532974E-4,1.3224234E-2,3.201911E-3,1.4095445E-2,4.3317482E-2,1.9203514E-3,-3.1564415E-3,-8.2702935E-3,2.056869E-3,-1.1044741E-4,-6.805371E-3,-9.681542E-4,7.44303E-5,-9.3028946E-5,-9.374519E-4,4.43395E-4,3.11687E-3,4.064693E-3,9.371337E-3,-2.7058283E-3,5.004168E-4],"categories":[],"categories_nodes":[],"categories_segments":[],"categories_sizes":[],"default_left":[0,0,0,0,0,0,0,0,0,0,0,0,0,0,0,0,0,0,0,0,0,0,0,0,0,0,0,0,0,0,0,0,0,0,0,0,0,0,0,0,0,0,0,0,0,0,0,0,0,0,0,0,0,0,0,0,0,0,0,0,0,0,0,0,0,0,0,0,0,0,0,0,0,0,0,0,0,0,0,0,0,0,0,0,0,0,0,0,0,0,0,0,0,0,0,0,0,0,0,0,0,0,0,0,0,0,0,0,0,0,0],"id":11,"left_children":[1,3,5,7,9,11,13,-1,-1,15,17,19,21,23,-1,25,27,-1,29,31,33,35,37,39,-1,-1,41,43,-1,45,47,49,51,-1,53,-1,55,-1,57,-1,-1,-1,59,61,-1,63,65,67,69,71,-1,73,-1,-1,75,-1,77,-1,79,81,-1,-1,-1,83,85,-1,87,-1,-1,-1,-1,-1,-1,-1,-1,-1,-1,89,-1,91,93,-1,95,97,99,101,-1,-1,-1,103,-1,-1,-1,105,107,-1,-1,109,-1,-1,-1,-1,-1,-1,-1,-1,-1,-1,-1,-1,-1],"loss_changes":[5.4009194E0,5.579095E-1,8.914263E-1,1.0381174E-1,1.1926067E-1,1.1576742E-1,2.527833E-1,0E0,0E0,2.2495031E-2,3.401506E-2,3.8682825E-3,5.2196085E-3,2.8315425E-2,0E0,5.775377E-2,8.070365E-3,0E0,7.255287E-3,1.009761E-2,6.29602E-3,4.1272286E-3,3.6913007E-3,4.8238635E-3,0E0,0E0,2.2095017E-2,4.64502E-3,0E0,3.4221858E-3,4.988571E-3,1.2463378E-3,8.20987E-3,0E0,1.1413676E-3,0E0,1.263978E-3,0E0,2.2783428E-3,0E0,0E0,0E0,5.9100743E-3,2.9949844E-3,0E0,5.7014027E-3,2.8435523E-3,1.3634982E-4,3.790644E-4,7.981183E-4,0E0,8.242717E-5,0E0,0E0,1.7283368E-5,0E0,1.2514608E-3,0E0,3.069356E-3,2.3118192E-3,0E0,0E0,0E0,4.106407E-3,1.6398095E-3,0E0,3.2879869E-3,0E0,0E0,0E0,0E0,0E0,0E0,0E0,0E0,0E0,0E0,9.8833254E-5,0E0,1.1597276E-3,1.108516E-3,0E0,1.263226E-3,8.0577435E-4,9.150179E-4,2.578543E-5,0E0,0E0,0E0,6.8289264E-6,0E0,0E0,0E0,3.7015183E-5,2.1130964E-4,0E0,0E0,2.943033E-4,0E0,0E0,0E0,0E0,0E0,0E0,0E0,0E0,0E0,0E0,0E0,0E0,0E0],"parents":[2147483647,0,0,1,1,2,2,3,3,4,4,5,5,6,6,9,9,10,10,11,11,12,12,13,13,15,15,16,16,18,18,19,19,20,20,21,21,22,22,23,23,26,26,27,27,29,29,30,30,31,31,32,32,34,34,36,36,38,38,42,42,43,43,45,45,46,46,47,47,48,48,49,49,51,51,54,54,56,56,58,58,59,59,63,63,64,64,66,66,77,77,79,79,80,80,82,82,83,83,84,84,85,85,89,89,93,93,94,94,97,97],"right_children":[2,4,6,8,10,12,14,-1,-1,16,18,20,22,24,-1,26,28,-1,30,32,34,36,38,40,-1,-1,42,44,-1,46,48,50,52,-1,54,-1,56,-1,58,-1,-1,-1,60,62,-1,64,66,68,70,72,-1,74,-1,-1,76,-1,78,-1,80,82,-1,-1,-1,84,86,-1,88,-1,-1,-1,-1,-1,-1,-1,-1,-1,-1,90,-1,92,94,-1,96,98,100,102,-1,-1,-1,104,-1,-1,-1,106,108,-1,-1,110,-1,-1,-1,-1,-1,-1,-1,-1,-1,-1,-1,-1,-1],"split_conditions":[-3.6908004E-1,-1.1599492E0,7.580417E-1,5.464966E-1,1.1436652E-1,2.0720667E-1,1.5103995E0,-2.6909111E-2,-4.27182E-2,-1.2894976E0,-1.0218692E0,-1.8343804E0,3.9055872E-1,9.337525E-1,3.7159685E-2,-6.954783E-1,-7.9739606E-1,-1.325241E-2,1.505858E0,4.684675E-2,-1.633205E0,-2.5617976E0,-2.968759E0,-3.0761116E0,2.0620476E-2,-3.27488E-2,-1.5991036E0,7.963786E-1,1.5281161E-3,1.1317377E0,1.5731189E0,-1.9283899E0,-2.4004762E0,6.62883E-3,1.1436652E-1,-1.7590091E-3,1.24037E0,-5.2422285E-4,-2.9696772E0,3.0631621E-4,1.4911572E-2,-1.8302012E-2,-4.473448E-1,-7.968183E-1,-7.059055E-3,8.4315634E-1,1.3490405E0,-9.0379685E-1,-8.5396314E-1,-8.138183E-2,1.6252002E-4,-2.428347E0,7.22593E-3,-2.2634793E-4,1.4911109E0,8.193787E-3,1.3147002E0,4.0783087E-4,7.1531624E-1,-1.5990936E0,5.9066038E-3,-1.0093937E-2,-1.7250005E-2,-8.678082E-1,-9.602972E-1,-6.877232E-3,1.429331E0,1.2349288E-3,7.891092E-3,6.350994E-4,-2.7828098E-3,-8.560593E-3,-2.6604685E-3,-5.5076513E-3,-8.0449687E-4,2.2341087E-3,5.634687E-4,2.7470455E-1,4.730342E-3,1.0722522E0,-1.0129633E-1,-8.110317E-3,-1.5705588E0,-1.0072625E0,-1.0346729E0,9.695819E-1,5.3621274E-3,3.6364973E-3,-3.6152143E-3,1.2781262E0,7.532974E-4,1.3224234E-2,3.201911E-3,7.378736E-1,7.239883E-1,1.9203514E-3,-3.1564415E-3,5.413386E-1,2.056869E-3,-1.1044741E-4,-6.805371E-3,-9.681542E-4,7.44303E-5,-9.3028946E-5,-9.374519E-4,4.43395E-4,3.11687E-3,4.064693E-3,9.371337E-3,-2.7058283E-3,5.004168E-4],"split_indices":[6,6,6,2,2,6,6,0,0,3,6,3,6,6,0,6,6,0,2,6,2,2,3,2,0,0,3,3,0,2,2,2,3,0,2,0,3,0,2,0,0,0,6,3,0,2,2,6,6,6,0,2,0,0,2,0,2,0,6,2,0,0,0,6,6,0,2,0,0,0,0,0,0,0,0,0,0,6,0,2,3,0,2,6,3,2,0,0,0,2,0,0,0,6,6,0,0,2,0,0,0,0,0,0,0,0,0,0,0,0,0],"split_type":[0,0,0,0,0,0,0,0,0,0,0,0,0,0,0,0,0,0,0,0,0,0,0,0,0,0,0,0,0,0,0,0,0,0,0,0,0,0,0,0,0,0,0,0,0,0,0,0,0,0,0,0,0,0,0,0,0,0,0,0,0,0,0,0,0,0,0,0,0,0,0,0,0,0,0,0,0,0,0,0,0,0,0,0,0,0,0,0,0,0,0,0,0,0,0,0,0,0,0,0,0,0,0,0,0,0,0,0,0,0,0],"sum_hessian":[7.29E2,2.71E2,4.58E2,1.45E2,1.26E2,2.06E2,2.52E2,1.17E2,2.8E1,7.5E1,5.1E1,1.28E2,7.8E1,2.17E2,3.5E1,2.4E1,5.1E1,1.1E1,4E1,1.6E1,1.12E2,1.7E1,6.1E1,8.4E1,1.33E2,1.1E1,1.3E1,5E1,1E0,3.3E1,7E0,1E1,6E0,4E0,1.08E2,2E0,1.5E1,1E0,6E1,1E0,8.3E1,6E0,7E0,4.1E1,9E0,1.8E1,1.5E1,4E0,3E0,9E0,1E0,2E0,4E0,1E2,8E0,8E0,7E0,1E0,5.9E1,6E0,1E0,1.6E1,2.5E1,1.2E1,6E0,8E0,7E0,1E0,3E0,1E0,2E0,5E0,4E0,1E0,1E0,6E0,2E0,3E0,4E0,3.1E1,2.8E1,2E0,4E0,6E0,6E0,2E0,4E0,2E0,5E0,2E0,1E0,2.9E1,2E0,4E0,2.4E1,2E0,2E0,2E0,4E0,1E0,5E0,1E0,1E0,1E0,1E0,1E0,3E0,5E0,1.9E1,1E0,1E0],"tree_param":{"num_deleted":"0","num_feature":"7","num_nodes":"111","size_leaf_vector":"1"}},{"base_weights":[-1.5134472E-4,-8.796916E-2,5.2022282E-2,-6.317144E-2,-9.486626E-2,1.1514977E-2,8.90832E-2,-7.353555E-2,-2.0201555E-2,-2.0958764E-2,-8.317591E-2,-5.277575E-3,3.692676E-2,7.523128E-2,2.6950104E-2,-3.28661E-2,-1.5318732E-2,-3.1776838E-2,1.5659748E-2,-6.962283E-2,-9.664824E-2,3.291505E-2,-1.12154E-2,1.2728353E-2,8.5204E-3,1.2744531E-2,1.7890887E-2,-4.151662E-2,1.2691339E-3,5.5128294E-3,-8.436627E-3,4.0813508E-3,8.539239E-4,-8.1199765E-2,-1.171131E-2,-2.5303477E-2,-7.567315E-2,3.0145464E-3,4.7362875E-2,-1.0318424E-3,-6.541306E-2,5.9938245E-4,2.8356768E-3,-1.1344329E-2,-1.5786957E-2,-4.0710285E-2,-8.504539E-2,2.6900305E-3,-3.2949198E-2,-2.0151935E-3,-1.5427825E-2,2.1395408E-2,-3.3144269E-3,1.0467157E-2,-4.892747E-4,-1.2719949E-3,-8.457797E-4,-1.5046107E-2,-3.433358E-2,7.059177E-4,-4.476178E-3,-1.1379326E-2,-8.23983E-3,-5.4992507E-3,-1.7612437E-2,-7.4362243E-3,3.8131922E-3,-8.772767E-3,7.1395637E-4,2.9081106E-5,5.3270417E-3,-1.8173855E-4,3.462579E-4,-6.287992E-4,-8.736422E-3,-2.5045276E-3,5.927602E-4,4.253042E-3,-1.93082E-2,-1.0308425E-4,-4.5721172E-3],"categories":[],"categories_nodes":[],"categories_segments":[],"categories_sizes":[],"default_left":[0,0,0,0,0,0,0,0,0,0,0,0,0,0,0,0,0,0,0,0,0,0,0,0,0,0,0,0,0,0,0,0,0,0,0,0,0,0,0,0,0,0,0,0,0,0,0,0,0,0,0,0,0,0,0,0,0,0,0,0,0,0,0,0,0,0,0,0,0,0,0,0,0,0,0,0,0,0,0,0,0],"id":12,"left_children":[1,3,5,7,9,11,13,15,17,-1,19,21,23,25,-1,27,-1,29,31,33,35,37,39,41,-1,-1,-1,43,-1,-1,-1,-1,-1,45,47,-1,49,51,53,55,57,-1,-1,-1,59,61,63,65,67,-1,-1,69,-1,-1,-1,-1,71,-1,73,-1,-1,-1,75,-1,-1,77,-1,-1,-1,-1,-1,-1,-1,-1,-1,-1,-1,-1,79,-1,-1],"loss_changes":[3.220976E0,3.2824755E-2,6.599946E-1,2.5085658E-2,5.894661E-3,9.128298E-2,1.2521863E-1,1.1839271E-3,7.2218063E-3,0E0,5.1665306E-3,3.0219857E-2,1.0588683E-2,1.82271E-2,0E0,2.9013166E-3,0E0,9.735723E-3,9.608688E-5,3.698346E-2,9.67142E-3,7.4903946E-3,6.278445E-2,1.8312433E-4,0E0,0E0,0E0,5.5639725E-4,0E0,0E0,0E0,0E0,0E0,5.494952E-4,3.8475175E-3,0E0,1.5227497E-3,3.5892955E-3,3.228426E-3,8.639567E-5,3.2632798E-4,0E0,0E0,0E0,7.948505E-4,3.2669855E-3,2.4490058E-3,1.7759992E-3,2.3061251E-3,0E0,0E0,5.4898276E-4,0E0,0E0,0E0,0E0,1.887315E-5,0E0,2.0579416E-3,0E0,0E0,0E0,3.1414424E-4,0E0,0E0,3.2063846E-3,0E0,0E0,0E0,0E0,0E0,0E0,0E0,0E0,0E0,0E0,0E0,0E0,3.769896E-4,0E0,0E0],"parents":[2147483647,0,0,1,1,2,2,3,3,4,4,5,5,6,6,7,7,8,8,10,10,11,11,12,12,13,13,15,15,17,17,18,18,19,19,20,20,21,21,22,22,23,23,27,27,33,33,34,34,36,36,37,37,38,38,39,39,40,40,44,44,45,45,46,46,47,47,48,48,51,51,56,56,58,58,62,62,65,65,78,78],"right_children":[2,4,6,8,10,12,14,16,18,-1,20,22,24,26,-1,28,-1,30,32,34,36,38,40,42,-1,-1,-1,44,-1,-1,-1,-1,-1,46,48,-1,50,52,54,56,58,-1,-1,-1,60,62,64,66,68,-1,-1,70,-1,-1,-1,-1,72,-1,74,-1,-1,-1,76,-1,-1,78,-1,-1,-1,-1,-1,-1,-1,-1,-1,-1,-1,-1,80,-1,-1],"split_conditions":[-5.5004407E-2,-1.045707E0,7.488591E-1,-5.027847E-1,-5.430248E-1,5.0563926E-1,1.3292813E0,-1.3316925E0,-2.3898529E-1,-2.0958764E-2,-1.1476085E0,-1.045707E0,3.164694E-1,9.592831E-1,2.6950104E-2,-1.3534839E0,-1.5318732E-2,-4.3602931E-1,-1.7431414E-1,-1.3534839E0,-6.9763356E-1,2.1211377E-1,-5.2093854E-3,5.7437915E-2,8.5204E-3,1.2744531E-2,1.7890887E-2,-1.5369074E0,1.2691339E-3,5.5128294E-3,-8.436627E-3,4.0813508E-3,8.539239E-4,-1.9364966E0,-1.2352128E0,-2.5303477E-2,-6.484041E-1,7.32143E-2,6.672789E-1,-1.7800773E-2,3.7383187E-1,5.9938245E-4,2.8356768E-3,-1.1344329E-2,-1.4642434E0,-4.2463502E-1,-4.2463502E-1,-1.2687802E0,-1.1584483E0,-2.0151935E-3,-1.5427825E-2,-1.7800773E-2,-3.3144269E-3,1.0467157E-2,-4.892747E-4,-1.2719949E-3,5.061461E-1,-1.5046107E-2,5.0820357E-1,7.059177E-4,-4.476178E-3,-1.1379326E-2,-1.9760448E0,-5.4992507E-3,-1.7612437E-2,-1.3159635E0,3.8131922E-3,-8.772767E-3,7.1395637E-4,2.9081106E-5,5.3270417E-3,-1.8173855E-4,3.462579E-4,-6.287992E-4,-8.736422E-3,-2.5045276E-3,5.927602E-4,4.253042E-3,-4.2463502E-1,-1.0308425E-4,-4.5721172E-3],"split_indices":[0,4,0,0,4,4,0,0,0,0,0,4,0,0,0,0,0,0,0,0,0,0,0,0,0,0,0,0,0,0,0,0,0,0,0,0,0,0,0,0,0,0,0,0,0,4,4,0,0,0,0,0,0,0,0,0,5,0,0,0,0,0,0,0,0,0,0,0,0,0,0,0,0,0,0,0,0,0,4,0,0],"split_type":[0,0,0,0,0,0,0,0,0,0,0,0,0,0,0,0,0,0,0,0,0,0,0,0,0,0,0,0,0,0,0,0,0,0,0,0,0,0,0,0,0,0,0,0,0,0,0,0,0,0,0,0,0,0,0,0,0,0,0,0,0,0,0,0,0,0,0,0,0,0,0,0,0,0,0,0,0,0,0,0,0],"sum_hessian":[6.99E2,2.6E2,4.39E2,6.1E1,1.99E2,2.11E2,2.28E2,4.8E1,1.3E1,9.9E1,1E2,1.28E2,8.3E1,1.79E2,4.9E1,5E0,4.3E1,1E1,3E0,5.6E1,4.4E1,1.6E1,1.12E2,1.7E1,6.6E1,1.05E2,7.4E1,4E0,1E0,1E0,9E0,1E0,2E0,4.6E1,1E1,1.4E1,3E1,6E0,1E1,9.6E1,1.6E1,3E0,1.4E1,1E0,3E0,6E0,4E1,7E0,3E0,1E0,2.9E1,3E0,3E0,9E0,1E0,1E0,9.5E1,1E1,6E0,1E0,2E0,3E0,3E0,3E0,3.7E1,5E0,2E0,2E0,1E0,1E0,2E0,9.4E1,1E0,2E0,4E0,2E0,1E0,1E0,4E0,1E0,3E0],"tree_param":{"num_deleted":"0","num_feature":"7","num_nodes":"81","size_leaf_vector":"1"}},{"base_weights":[-6.1762246E-4,-7.659817E-2,3.933346E-2,-5.527674E-2,-8.231436E-2,7.975403E-3,6.998645E-2,-9.209871E-3,-5.9129734E-2,-8.404647E-2,-4.160327E-2,-5.0850883E-3,2.9758967E-2,6.019479E-2,2.1532988E-2,-6.4536273E-3,2.584138E-3,-6.299309E-2,-3.695689E-2,-7.474523E-2,-1.9132838E-2,-2.0440469E-2,-1.0175886E-2,2.7554674E-2,-1.1890584E-2,1.3195071E-2,3.5978526E-2,4.4676293E-2,6.60965E-2,-3.869429E-2,-1.3749515E-2,-1.2690332E-2,-1.0826199E-2,-1.5663426E-2,-3.8298696E-2,-5.387983E-3,-1.4129448E-3,9.740646E-3,5.5890393E-2,-5.5825662E-2,-6.7814917E-4,7.4756104E-3,3.1083855E-3,8.030846E-3,3.8928543E-3,9.965769E-3,3.1012328E-2,1.4169614E-2,9.807905E-3,-9.034189E-3,-1.6081214E-2,-2.3079634E-2,1.8477574E-3,-9.889502E-3,-1.3022022E-2,1.657435E-2,-3.7992825E-3,1.2608001E-2,-5.6374073E-4,-3.1873519E-3,-7.4883215E-2,-1.4635947E-4,3.2317403E-4,2.6617126E-4,1.5584502E-3,2.9037398E-4,6.4563393E-3,2.326417E-3,-5.2553415E-3,-3.98953E-3,-7.90201E-3,7.277727E-3,-4.810603E-3,3.2584295E-3,7.31529E-3,7.194964E-5,-1.5412979E-3,-5.660999E-3,7.028602E-3,-2.428901E-2,-5.5117697E-2,-3.796655E-3,3.7323635E-3,2.3267628E-3,-3.8603545E-4,1.0316418E-2,-4.885702E-3,-1.0977797E-3,6.7593576E-4,-1.5875186E-3,4.4894298E-3,-3.632928E-2,-2.3715492E-2,-7.018E-4,1.8983627E-2,-3.2097348E-3,8.72012E-3,7.19892E-3,-3.62041E-3,-4.6657994E-2,-1.7927395E-2,7.141272E-4,4.3481733E-3,3.1980698E-3,-8.727044E-4,-3.3763648E-4,2.4973124E-3,-7.795493E-5,-1.0468815E-2,3.1524898E-5,-4.627916E-3],"categories":[],"categories_nodes":[],"categories_segments":[],"categories_sizes":[],"default_left":[0,0,0,0,0,0,0,0,0,0,0,0,0,0,0,0,0,0,0,0,0,0,0,0,0,0,0,0,0,0,0,0,0,0,0,0,0,0,0,0,0,0,0,0,0,0,0,0,0,0,0,0,0,0,0,0,0,0,0,0,0,0,0,0,0,0,0,0,0,0,0,0,0,0,0,0,0,0,0,0,0,0,0,0,0,0,0,0,0,0,0,0,0,0,0,0,0,0,0,0,0,0,0,0,0,0,0,0,0,0,0],"id":13,"left_children":[1,3,5,7,9,11,13,15,17,19,21,23,25,27,-1,-1,-1,29,31,33,-1,35,-1,37,39,41,43,45,47,49,-1,51,-1,-1,53,-1,-1,55,57,59,61,63,-1,-1,-1,-1,65,-1,-1,-1,67,69,-1,-1,71,73,75,-1,-1,77,79,-1,-1,-1,-1,-1,-1,-1,-1,81,-1,83,-1,85,-1,87,-1,-1,89,-1,91,-1,-1,-1,-1,93,95,-1,-1,97,-1,99,-1,-1,101,-1,103,105,-1,107,109,-1,-1,-1,-1,-1,-1,-1,-1,-1,-1],"loss_changes":[2.2462285E0,2.1978498E-2,4.6507442E-1,9.56057E-3,6.898403E-3,6.915264E-2,7.742739E-2,4.4058994E-3,5.532801E-5,5.9062243E-3,2.7571432E-4,3.4641135E-2,8.425355E-3,1.2319624E-2,0E0,0E0,0E0,8.3212554E-4,4.0439516E-3,8.711815E-3,0E0,2.2789859E-4,0E0,1.2540063E-2,6.297954E-2,1.4346559E-4,2.9191673E-3,1.2040511E-3,4.3979287E-3,4.5113452E-4,0E0,2.2490816E-3,0E0,0E0,2.6574545E-3,0E0,0E0,1.8839702E-3,4.5528524E-3,2.5604717E-2,1.5164245E-5,2.6074122E-6,0E0,0E0,0E0,0E0,7.3176995E-4,0E0,0E0,0E0,2.3066103E-3,1.5666974E-3,0E0,0E0,1.917587E-3,3.2241386E-3,1.2211458E-4,0E0,0E0,2.7072951E-3,4.0985197E-3,0E0,0E0,0E0,0E0,0E0,0E0,0E0,0E0,2.4066672E-3,0E0,2.0535235E-4,0E0,6.756178E-4,0E0,1.474641E-4,0E0,0E0,1.134055E-3,0E0,1.165358E-2,0E0,0E0,0E0,0E0,8.521938E-4,1.1911812E-3,0E0,0E0,1.2763579E-3,0E0,1.3681706E-3,0E0,0E0,1.4731777E-5,0E0,5.2003283E-4,3.2411012E-4,0E0,2.3269616E-3,8.5565704E-4,0E0,0E0,0E0,0E0,0E0,0E0,0E0,0E0,0E0,0E0],"parents":[2147483647,0,0,1,1,2,2,3,3,4,4,5,5,6,6,7,7,8,8,9,9,10,10,11,11,12,12,13,13,17,17,18,18,19,19,21,21,23,23,24,24,25,25,26,26,27,27,28,28,29,29,31,31,34,34,37,37,38,38,39,39,40,40,41,41,46,46,50,50,51,51,54,54,55,55,56,56,59,59,60,60,69,69,71,71,73,73,75,75,78,78,80,80,85,85,86,86,89,89,91,91,94,94,96,96,97,97,99,99,100,100],"right_children":[2,4,6,8,10,12,14,16,18,20,22,24,26,28,-1,-1,-1,30,32,34,-1,36,-1,38,40,42,44,46,48,50,-1,52,-1,-1,54,-1,-1,56,58,60,62,64,-1,-1,-1,-1,66,-1,-1,-1,68,70,-1,-1,72,74,76,-1,-1,78,80,-1,-1,-1,-1,-1,-1,-1,-1,82,-1,84,-1,86,-1,88,-1,-1,90,-1,92,-1,-1,-1,-1,94,96,-1,-1,98,-1,100,-1,-1,102,-1,104,106,-1,108,110,-1,-1,-1,-1,-1,-1,-1,-1,-1,-1],"split_conditions":[-2.5496715E-1,-1.045707E0,7.546678E-1,-1.3474857E0,-4.336671E-1,5.0563926E-1,1.3751514E0,-1.4490745E0,-5.253936E-1,-1.2235447E0,-3.836612E-1,-1.045707E0,4.4956166E-1,8.665012E-1,2.1532988E-2,-6.4536273E-3,2.584138E-3,-1.1008027E0,-3.4424132E-1,-1.3389537E0,-1.9132838E-2,-4.0903896E-1,-1.0175886E-2,3.371341E-1,3.749186E-2,1.605052E-1,7.2884876E-1,8.179244E-1,1.1471632E0,-1.1547209E0,-1.3749515E-2,-3.836612E-1,-1.0826199E-2,-1.5663426E-2,-4.2463502E-1,-5.387983E-3,-1.4129448E-3,1.7870761E-1,6.857609E-1,-2.7705457E-2,5.061461E-1,5.6099594E-2,3.1083855E-3,8.030846E-3,3.8928543E-3,9.965769E-3,-1.045707E0,1.4169614E-2,9.807905E-3,-9.034189E-3,-1.1221635E0,-4.0903896E-1,1.8477574E-3,-9.889502E-3,-1.2685012E0,8.092346E-2,2.6454514E-1,1.2608001E-2,-5.6374073E-4,-4.2463502E-1,5.6099594E-2,-1.4635947E-4,3.2317403E-4,2.6617126E-4,1.5584502E-3,2.9037398E-4,6.4563393E-3,2.326417E-3,-5.2553415E-3,-5.0343794E-1,-7.90201E-3,-1.3098233E0,-4.810603E-3,-6.0539994E-2,7.31529E-3,2.1266676E-1,-1.5412979E-3,-5.660999E-3,-6.0539994E-2,-2.428901E-2,5.9798425E-1,-3.796655E-3,3.7323635E-3,2.3267628E-3,-3.8603545E-4,-2.0693342E-1,-1.6062906E-2,-1.0977797E-3,6.7593576E-4,-1.4150093E-1,4.4894298E-3,2.6454514E-1,-2.3715492E-2,-7.018E-4,-1.7032962E-1,-3.2097348E-3,2.0510495E-2,-1.7032962E-1,-3.62041E-3,6.690163E-2,3.371341E-1,7.141272E-4,4.3481733E-3,3.1980698E-3,-8.727044E-4,-3.3763648E-4,2.4973124E-3,-7.795493E-5,-1.0468815E-2,3.1524898E-5,-4.627916E-3],"split_indices":[1,4,1,1,1,4,1,1,1,1,1,4,1,1,0,0,0,1,1,1,0,1,0,1,4,1,1,1,1,1,0,1,0,0,4,0,0,1,1,1,5,1,0,0,0,0,4,0,0,0,1,1,0,0,1,1,1,0,0,4,1,0,0,0,0,0,0,0,0,1,0,1,0,1,0,1,0,0,1,0,1,0,0,0,0,1,1,0,0,1,0,1,0,0,1,0,1,1,0,1,1,0,0,0,0,0,0,0,0,0,0],"split_type":[0,0,0,0,0,0,0,0,0,0,0,0,0,0,0,0,0,0,0,0,0,0,0,0,0,0,0,0,0,0,0,0,0,0,0,0,0,0,0,0,0,0,0,0,0,0,0,0,0,0,0,0,0,0,0,0,0,0,0,0,0,0,0,0,0,0,0,0,0,0,0,0,0,0,0,0,0,0,0,0,0,0,0,0,0,0,0,0,0,0,0,0,0,0,0,0,0,0,0,0,0,0,0,0,0,0,0,0,0,0,0],"sum_hessian":[7.36E2,2.53E2,4.83E2,5.8E1,1.95E2,2.4E2,2.43E2,5E0,5.3E1,1.85E2,1E1,1.51E2,8.9E1,1.97E2,4.6E1,2E0,3E0,4.2E1,1.1E1,1.11E2,7.4E1,5E0,5E0,2.5E1,1.26E2,2.6E1,6.3E1,5.9E1,1.38E2,1.1E1,3.1E1,6E0,5E0,9.9E1,1.2E1,2E0,3E0,1.7E1,8E0,2.4E1,1.02E2,1E1,1.6E1,4.8E1,1.5E1,3.9E1,2E1,1.03E2,3.5E1,7E0,4E0,4E0,2E0,7E0,5E0,1.1E1,6E0,7E0,1E0,7E0,1.7E1,1.01E2,1E0,1E0,9E0,1E0,1.9E1,1E0,3E0,3E0,1E0,2E0,3E0,8E0,3E0,4E0,2E0,1E0,6E0,2E0,1.5E1,2E0,1E0,1E0,1E0,4E0,4E0,1E0,3E0,5E0,1E0,1.4E1,1E0,2E0,2E0,2E0,2E0,4E0,1E0,7E0,7E0,1E0,1E0,1E0,1E0,2E0,2E0,1E0,6E0,2E0,5E0],"tree_param":{"num_deleted":"0","num_feature":"7","num_nodes":"111","size_leaf_vector":"1"}},{"base_weights":[-2.0130447E-3,-5.904597E-2,3.2577116E-2,-1.3476403E-2,-6.1832324E-2,2.660817E-3,5.330328E-2,9.285522E-4,-1.771927E-2,-6.522229E-2,-4.4270862E-2,-3.8959007E-3,1.8890347E-2,4.816729E-2,1.766029E-2,-7.375208E-3,-1.1082925E-2,-6.310623E-2,-1.1507485E-1,-1.0315458E-1,-2.8808482E-2,-6.6299253E-4,-1.438615E-2,7.2301026E-3,2.3541799E-2,4.1176658E-2,5.721283E-2,8.087148E-3,-2.0368384E-2,-6.534381E-2,7.770717E-3,-3.5391986E-2,-2.7444059E-2,-1.1309546E-1,-1.5751681E-3,8.874223E-3,-3.4995362E-2,2.220175E-3,-8.2433614E-4,1.0533422E-2,-3.614738E-2,-1.3157427E-3,9.778544E-3,1.0127127E-2,5.1993495E-3,3.6105413E-2,9.782801E-3,1.2472276E-2,4.415598E-2,2.6133226E-3,-1.8717795E-4,-1.1325579E-2,-6.783575E-3,-6.661162E-2,-5.662718E-3,-6.299764E-3,4.998216E-3,3.6474864E-4,-9.8026125E-3,-2.4824978E-3,-2.4786463E-2,-4.694376E-2,-1.2832036E-3,1.2214993E-3,-5.554468E-4,-1.6010723E-3,-1.17537136E-4,-2.2099984E-3,1.3445648E-2,-8.543006E-3,-1.4560725E-2,3.5595262E-4,2.133395E-3,3.554821E-5,2.2652731E-3,2.3721645E-2,3.8509037E-2,2.6533987E-2,5.6871757E-2,-5.0190985E-3,3.9245416E-3,-5.971701E-2,-7.792695E-2,1.398848E-2,-4.6876254E-3,-2.122283E-2,-5.510985E-2,-7.471422E-3,1.03688715E-2,2.590852E-2,6.0118437E-3,1.1607249E-3,-3.977865E-3,5.4633925E-3,1.1499427E-2,8.349451E-3,2.783923E-2,-7.647852E-3,3.7392776E-2,2.5957724E-2,1.4364948E-2,1.8910153E-3,-9.635955E-4,-6.378135E-2,-3.1797864E-2,-1.580132E-2,-5.8863166E-4,3.803019E-3,-7.275741E-5,2.340436E-4,-4.794199E-3,-1.8944343E-3,-1.1302953E-2,4.039772E-3,-6.637398E-3,4.7302367E-3,-4.7772974E-3,3.399549E-3,7.729627E-3,-5.278515E-3,1.5584533E-2,3.2191872E-4,2.8519013E-3,-2.27049E-4,6.106767E-3,-3.2028991E-3,8.625507E-5,9.166396E-3,1.0863185E-2,1.0201905E-2,-3.5713513E-3,2.8405114E-4,-6.999334E-4,-7.421177E-3,-1.3522783E-2,-4.7316015E-2,2.0183155E-2,1.7253771E-2,-6.116152E-3,-3.5618066E-3,2.2878607E-3,4.0582954E-3,-3.1517488E-3,8.5501E-3,-5.883347E-3,3.7070413E-3,-1.4130077E-4,-3.578977E-3,3.5184305E-3,-9.2383625E-4,4.182792E-3,7.6778233E-3,-1.303485E-2,-2.2484541E-3,-1.01726735E-2,4.61787E-5,6.008768E-3,4.1901353E-3,4.108707E-4,2.8626323E-3,-3.185456E-3,-1.6524944E-3,4.2175245E-3,-4.6723685E-4,2.5146564E-3,-3.1694174E-3,-3.065427E-4],"categories":[],"categories_nodes":[],"categories_segments":[],"categories_sizes":[],"default_left":[0,0,0,0,0,0,0,0,0,0,0,0,0,0,0,0,0,0,0,0,0,0,0,0,0,0,0,0,0,0,0,0,0,0,0,0,0,0,0,0,0,0,0,0,0,0,0,0,0,0,0,0,0,0,0,0,0,0,0,0,0,0,0,0,0,0,0,0,0,0,0,0,0,0,0,0,0,0,0,0,0,0,0,0,0,0,0,0,0,0,0,0,0,0,0,0,0,0,0,0,0,0,0,0,0,0,0,0,0,0,0,0,0,0,0,0,0,0,0,0,0,0,0,0,0,0,0,0,0,0,0,0,0,0,0,0,0,0,0,0,0,0,0,0,0,0,0,0,0,0,0,0,0,0,0,0,0,0,0,0,0,0,0,0,0,0,0],"id":14,"left_children":[1,3,5,7,9,11,13,-1,15,17,19,21,23,25,-1,-1,27,29,31,33,35,37,39,41,43,45,47,49,51,53,55,57,-1,59,-1,-1,61,63,65,67,69,-1,71,73,-1,75,-1,-1,77,-1,-1,79,-1,81,-1,83,-1,-1,-1,-1,-1,85,87,-1,-1,-1,-1,-1,89,-1,91,-1,-1,-1,-1,93,95,97,99,-1,101,103,105,107,-1,109,111,113,115,117,119,-1,-1,-1,121,-1,123,125,127,129,-1,-1,131,133,135,-1,-1,-1,-1,-1,-1,-1,-1,137,-1,-1,139,141,-1,143,145,-1,-1,147,-1,-1,-1,-1,149,-1,151,-1,-1,-1,-1,153,155,157,159,-1,-1,-1,-1,161,-1,-1,-1,-1,-1,-1,-1,163,165,-1,-1,-1,-1,-1,-1,-1,-1,-1,-1,-1,-1,-1,-1],"loss_changes":[1.4005741E0,3.2362103E-2,2.737784E-1,1.5483226E-3,9.227335E-3,1.9620668E-2,3.840834E-2,0E0,1.0895762E-3,7.3128343E-3,3.6849223E-2,4.4575734E-3,2.5341455E-3,9.958684E-3,0E0,0E0,2.8214853E-3,3.320992E-2,8.7468326E-4,6.742947E-3,2.12157E-2,5.1573956E-5,1.7572206E-2,7.620977E-4,6.919522E-4,1.8827319E-3,9.4622374E-4,2.940372E-4,4.5697484E-4,5.4764748E-3,2.2532663E-3,2.2064475E-3,0E0,5.6520775E-3,0E0,0E0,1.5186161E-2,1.5048309E-4,1.588306E-4,1.302841E-3,1.1662263E-3,0E0,7.573236E-5,1.0335876E-4,0E0,8.8169426E-4,0E0,0E0,4.600562E-3,0E0,0E0,2.0869118E-3,0E0,5.437672E-3,0E0,2.741971E-3,0E0,0E0,0E0,0E0,0E0,3.5419352E-3,1.0202077E-3,0E0,0E0,0E0,0E0,0E0,1.0781824E-3,0E0,9.904547E-4,0E0,0E0,0E0,0E0,2.5059655E-4,1.9782037E-4,7.2530704E-3,4.591815E-3,0E0,1.8042579E-4,1.02413595E-2,4.797101E-3,3.02408E-4,0E0,6.7150034E-4,2.1170452E-4,2.9322882E-3,1.231858E-3,1.1710059E-3,1.4614755E-3,0E0,0E0,0E0,1.7246976E-4,0E0,1.7532986E-3,4.1938442E-4,2.1386761E-3,7.0221554E-3,0E0,0E0,4.016893E-5,6.023705E-3,1.8042957E-2,0E0,0E0,0E0,0E0,0E0,0E0,0E0,0E0,1.2846563E-3,0E0,0E0,1.2527676E-3,1.9340181E-3,0E0,2.8396193E-3,3.6267703E-4,0E0,0E0,1.8889259E-3,0E0,0E0,0E0,0E0,1.1268693E-3,0E0,8.3889783E-4,0E0,0E0,0E0,0E0,9.038225E-4,1.166584E-3,1.386829E-4,1.658547E-3,0E0,0E0,0E0,0E0,1.6132E-3,0E0,0E0,0E0,0E0,0E0,0E0,0E0,2.5483963E-4,8.080888E-5,0E0,0E0,0E0,0E0,0E0,0E0,0E0,0E0,0E0,0E0,0E0,0E0,0E0,0E0],"parents":[2147483647,0,0,1,1,2,2,3,3,4,4,5,5,6,6,8,8,9,9,10,10,11,11,12,12,13,13,16,16,17,17,18,18,19,19,20,20,21,21,22,22,23,23,24,24,25,25,26,26,27,27,28,28,29,29,30,30,31,31,33,33,36,36,37,37,38,38,39,39,40,40,42,42,43,43,45,45,48,48,51,51,53,53,55,55,61,61,62,62,68,68,70,70,75,75,76,76,77,77,78,78,80,80,81,81,82,82,83,83,85,85,86,86,87,87,88,88,89,89,90,90,94,94,96,96,97,97,98,98,99,99,102,102,103,103,104,104,113,113,116,116,117,117,119,119,120,120,123,123,128,128,130,130,135,135,136,136,137,137,138,138,143,143,151,151,152,152],"right_children":[2,4,6,8,10,12,14,-1,16,18,20,22,24,26,-1,-1,28,30,32,34,36,38,40,42,44,46,48,50,52,54,56,58,-1,60,-1,-1,62,64,66,68,70,-1,72,74,-1,76,-1,-1,78,-1,-1,80,-1,82,-1,84,-1,-1,-1,-1,-1,86,88,-1,-1,-1,-1,-1,90,-1,92,-1,-1,-1,-1,94,96,98,100,-1,102,104,106,108,-1,110,112,114,116,118,120,-1,-1,-1,122,-1,124,126,128,130,-1,-1,132,134,136,-1,-1,-1,-1,-1,-1,-1,-1,138,-1,-1,140,142,-1,144,146,-1,-1,148,-1,-1,-1,-1,150,-1,152,-1,-1,-1,-1,154,156,158,160,-1,-1,-1,-1,162,-1,-1,-1,-1,-1,-1,-1,164,166,-1,-1,-1,-1,-1,-1,-1,-1,-1,-1,-1,-1,-1,-1],"split_conditions":[-9.134669E-2,-1.5705588E0,6.672789E-1,-5.325166E-1,9.9332136E-1,5.0563926E-1,1.3955513E0,9.285522E-4,-5.027847E-1,8.9384353E-1,-1.9244449E0,-5.2093854E-3,2.7417687E-1,9.592831E-1,1.766029E-2,-7.375208E-3,-3.7124288E-1,7.3173547E-1,-1.3930622E0,1.7267668E0,-1.9041368E0,-2.0035157E0,-2.206455E0,1.3147002E0,6.1350543E-2,5.148375E-1,6.4964193E-1,-4.0812433E-1,-1.4309758E-1,-2.6121232E-1,-1.2687802E0,9.695819E-1,-2.7444059E-2,1.4628911E0,-1.5751681E-3,8.874223E-3,-1.6308595E0,-5.5004407E-2,-5.5004407E-2,3.0738983E-2,3.7383187E-1,-1.3157427E-3,5.7437915E-2,6.3718015E-1,5.1993495E-3,7.1951675E-1,9.782801E-3,1.2472276E-2,8.107521E-1,2.6133226E-3,-1.8717795E-4,-3.1153825E-1,-6.783575E-3,-9.741393E-1,-5.662718E-3,-1.2793577E0,4.998216E-3,3.6474864E-4,-9.8026125E-3,-2.4824978E-3,-2.4786463E-2,-1.8401574E0,-1.4827793E0,1.2214993E-3,-5.554468E-4,-1.6010723E-3,-1.17537136E-4,-2.2099984E-3,1.3540849E-1,-8.543006E-3,3.9358023E-1,3.5595262E-4,2.133395E-3,3.554821E-5,2.2652731E-3,7.048065E-1,8.6608285E-1,1.1572076E0,1.0492136E0,-5.0190985E-3,-2.0035157E0,-1.0362281E0,3.8013083E-1,-1.3159635E0,-4.6876254E-3,1.3147002E0,-4.2463502E-1,-1.4932094E0,-1.4642434E0,9.521338E-2,3.208896E-1,1.1607249E-3,-3.977865E-3,5.4633925E-3,7.116897E-1,8.349451E-3,-3.0761116E0,1.1458312E0,1.2433497E0,9.760328E-1,1.4364948E-2,1.8910153E-3,-1.7431414E-1,-5.2838045E-1,-3.366355E-1,-1.580132E-2,-5.8863166E-4,3.803019E-3,-7.275741E-5,2.340436E-4,-4.794199E-3,-1.8944343E-3,-1.1302953E-2,1.1317377E0,-6.637398E-3,4.7302367E-3,-1.440088E0,7.32143E-2,7.729627E-3,2.7417687E-1,5.660771E-1,3.2191872E-4,2.8519013E-3,9.015049E-1,6.106767E-3,-3.2028991E-3,8.625507E-5,9.166396E-3,1.2576946E0,1.0201905E-2,1.0418123E0,2.8405114E-4,-6.999334E-4,-7.421177E-3,-1.3522783E-2,-1.0886343E0,-1.015163E0,-1.5369074E0,-1.6212456E0,-3.5618066E-3,2.2878607E-3,4.0582954E-3,-3.1517488E-3,2.0251709E-1,-5.883347E-3,3.7070413E-3,-1.4130077E-4,-3.578977E-3,3.5184305E-3,-9.2383625E-4,4.182792E-3,1.0323792E0,1.0448396E0,-2.2484541E-3,-1.01726735E-2,4.61787E-5,6.008768E-3,4.1901353E-3,4.108707E-4,2.8626323E-3,-3.185456E-3,-1.6524944E-3,4.2175245E-3,-4.6723685E-4,2.5146564E-3,-3.1694174E-3,-3.065427E-4],"split_indices":[0,2,0,0,2,4,0,0,0,2,0,0,0,0,0,0,0,2,0,2,0,2,2,2,2,2,2,0,0,0,0,2,0,2,0,0,0,0,0,0,0,0,0,0,0,0,0,0,2,0,0,0,0,0,0,0,0,0,0,0,0,0,0,0,0,0,0,0,0,0,0,0,0,0,0,0,0,0,0,0,2,0,2,0,0,2,4,0,0,0,0,0,0,0,0,0,2,0,0,0,0,0,0,2,2,0,0,0,0,0,0,0,0,2,0,0,0,0,0,0,0,0,0,0,0,0,0,0,0,0,0,0,0,0,0,2,0,0,0,0,0,0,0,0,0,0,0,0,0,0,0,0,0,0,0,0,0,0,0,0,0,0,0,0,0,0,0],"split_type":[0,0,0,0,0,0,0,0,0,0,0,0,0,0,0,0,0,0,0,0,0,0,0,0,0,0,0,0,0,0,0,0,0,0,0,0,0,0,0,0,0,0,0,0,0,0,0,0,0,0,0,0,0,0,0,0,0,0,0,0,0,0,0,0,0,0,0,0,0,0,0,0,0,0,0,0,0,0,0,0,0,0,0,0,0,0,0,0,0,0,0,0,0,0,0,0,0,0,0,0,0,0,0,0,0,0,0,0,0,0,0,0,0,0,0,0,0,0,0,0,0,0,0,0,0,0,0,0,0,0,0,0,0,0,0,0,0,0,0,0,0,0,0,0,0,0,0,0,0,0,0,0,0,0,0,0,0,0,0,0,0,0,0,0,0,0,0],"sum_hessian":[7.06E2,2.66E2,4.4E2,1.6E1,2.5E2,1.81E2,2.59E2,3E0,1.3E1,2.05E2,4.5E1,1.3E2,5.1E1,2.3E2,2.9E1,1E0,1.2E1,2.01E2,4E0,7E0,3.8E1,1.01E2,2.9E1,1.6E1,3.5E1,1.36E2,9.4E1,4E0,8E0,1.95E2,6E0,2E0,2E0,6E0,1E0,2E0,3.6E1,4E0,9.7E1,1.4E1,1.5E1,2E0,1.4E1,7E0,2.8E1,8.9E1,4.7E1,6.2E1,3.2E1,2E0,2E0,7E0,1E0,1.87E2,8E0,4E0,2E0,1E0,1E0,1E0,5E0,2.6E1,1E1,2E0,2E0,1E0,9.6E1,1E0,1.3E1,1E1,5E0,2E0,1.2E1,1E0,6E0,1.8E1,7.1E1,1.6E1,1.6E1,3E0,4E0,1.24E2,6.3E1,2E0,2E0,8E0,1.8E1,7E0,3E0,3E0,1E1,1E0,4E0,1.2E1,6E0,5E1,2.1E1,4E0,1.2E1,7E0,9E0,1E0,3E0,1.06E2,1.8E1,6.2E1,1E0,1E0,1E0,1E0,7E0,1E0,1.7E1,6E0,1E0,1E0,2E0,2E0,1E0,5E0,5E0,2E0,4E0,2E0,1.9E1,1E0,3E0,8E0,4E0,3E0,4E0,2E0,1E0,1.6E1,9E1,1.4E1,4E0,2E0,4E0,1E0,1E0,1E0,1E0,4E0,1E0,4E0,1E0,1E0,1E0,2E0,2E0,2E0,2E0,2E0,1.2E1,2E0,2E0,1E0,1E0,1E0,3E0,2E0,2E0,1E0,1E0,1E0,1E0],"tree_param":{"num_deleted":"0","num_feature":"7","num_nodes":"167","size_leaf_vector":"1"}},{"base_weights":[9.93419E-4,-7.155569E-2,2.2938553E-2,-5.730356E-2,-1.11244015E-1,-1.9819043E-3,4.2693604E-2,-5.0060373E-2,-1.6570186E-2,-3.584238E-2,-5.0688904E-2,2.5683548E-2,-9.123906E-3,3.6144633E-2,2.1120314E-2,-1.3137015E-2,-3.4321874E-2,-1.3182217E-2,-3.175264E-2,2.4126202E-3,3.7177093E-2,-4.566782E-2,3.2616216E-3,2.51884E-2,4.235948E-2,-3.8415316E-2,-1.2910038E-2,-1.5114614E-2,-7.4097454E-3,-5.880687E-3,2.1620559E-2,1.8171264E-2,4.5891974E-2,-6.1345562E-2,-2.776859E-2,3.77762E-2,1.5385293E-3,2.6254049E-2,-3.0758232E-3,4.4412922E-2,1.2106811E-2,-6.3207164E-2,-2.9869286E-2,7.4350834E-3,-2.494137E-2,-3.7711286E-3,-5.762041E-4,8.192956E-3,7.965508E-3,2.1262804E-2,-1.8899143E-4,5.8171332E-2,2.5963956E-2,-9.73316E-3,-7.024953E-2,-1.9751973E-2,-1.7441243E-2,7.5576752E-3,9.368108E-3,-1.4379752E-3,1.2945112E-2,5.2287295E-2,2.2724114E-2,3.8954664E-2,5.161164E-2,-3.2087185E-3,2.270121E-2,9.919405E-4,-1.5900984E-2,-7.1352758E-3,-1.4817647E-2,-2.4777493E-3,3.2710694E-3,-5.588988E-3,-2.6109218E-4,2.6942313E-2,-1.3287385E-2,3.927946E-4,5.07165E-3,2.67179E-3,-2.722188E-3,1.2921334E-3,6.1697636E-2,8.766803E-3,6.0704276E-3,-5.295807E-3,2.375859E-3,-1.5203859E-2,-3.0485353E-2,1.7088737E-3,-3.4099754E-2,5.618934E-3,-3.6035539E-3,-1.9004472E-2,3.8854272E-5,1.6408237E-2,-3.553863E-3,1.8643593E-2,1.20485565E-2,2.5999982E-2,1.68379E-2,4.018763E-2,-2.2693635E-3,1.4335214E-2,3.6370214E-2,5.356431E-3,5.073057E-3,1.3880968E-3,-1.1235793E-3,-3.0927109E-3,-4.2805672E-4,8.0320437E-4,5.9842328E-3,-1.9466847E-2,-4.6423078E-4,9.238561E-4,-8.191109E-4,1.5800277E-3,1.3099471E-2,-1.4426367E-3,3.910792E-3,-1.0128062E-3,-6.708801E-3,-8.601541E-3,1.8323272E-2,-4.046091E-2,2.0335913E-3,1.343737E-3,-7.1641067E-3,6.026653E-3,-1.0868968E-3,2.9609106E-2,9.188031E-3,4.7598095E-3,-1.3188124E-4,9.391005E-3,5.442498E-3,7.8121945E-4,2.5423713E-2,9.001284E-3,3.333516E-2,8.207957E-3,1.0747484E-2,1.5819231E-3,-1.5354156E-4,-5.0127585E-3,-1.7840067E-4,2.116116E-3,-2.2399107E-3,-4.9123885E-3,3.615871E-3,4.3186545E-3,-1.5372668E-2,4.920082E-3,-8.708279E-4,-8.821025E-3,-1.1119932E-2,1.0833422E-3,-5.4105127E-4,-2.70458E-3,3.1077012E-3,-3.0230763E-4,-1.41933765E-2,8.015809E-3,5.2015423E-3,2.0244693E-4,1.8991195E-3,3.480216E-4,2.017224E-3,-2.0614096E-3,2.0679624E-3,5.7445597E-3,1.0820068E-2,-6.936709E-4,3.4246415E-2,1.916349E-2,-2.2480162E-3,3.834804E-4,-1.5157074E-3,8.970499E-5,8.7452726E-4,-2.225701E-3,2.7489394E-3,-3.567906E-3,-3.809929E-5,2.5868455E-3,-5.552161E-3,8.3375705E-4,-9.467887E-5,-3.5512352E-3,2.4137448E-4,-7.083168E-4,1.8316231E-3,7.229175E-4,-1.2035966E-3,-1.1188388E-3,2.952661E-3,7.6957146E-4,6.945891E-3,-6.402493E-4,5.293611E-3,-2.7851423E-3,1.6807454E-3],"categories":[],"categories_nodes":[],"categories_segments":[],"categories_sizes":[],"default_left":[0,0,0,0,0,0,0,0,0,0,0,0,0,0,0,0,0,0,0,0,0,0,0,0,0,0,0,0,0,0,0,0,0,0,0,0,0,0,0,0,0,0,0,0,0,0,0,0,0,0,0,0,0,0,0,0,0,0,0,0,0,0,0,0,0,0,0,0,0,0,0,0,0,0,0,0,0,0,0,0,0,0,0,0,0,0,0,0,0,0,0,0,0,0,0,0,0,0,0,0,0,0,0,0,0,0,0,0,0,0,0,0,0,0,0,0,0,0,0,0,0,0,0,0,0,0,0,0,0,0,0,0,0,0,0,0,0,0,0,0,0,0,0,0,0,0,0,0,0,0,0,0,0,0,0,0,0,0,0,0,0,0,0,0,0,0,0,0,0,0,0,0,0,0,0,0,0,0,0,0,0,0,0,0,0,0,0,0,0,0,0,0,0,0,0,0,0,0,0,0,0,0,0],"id":15,"left_children":[1,3,5,7,9,11,13,15,-1,-1,17,19,21,23,-1,-1,25,-1,27,29,31,33,35,37,39,41,43,45,-1,-1,47,49,51,53,55,57,59,61,-1,63,65,67,69,71,73,-1,-1,75,-1,77,79,81,83,85,87,-1,89,91,-1,93,95,97,99,101,103,-1,105,107,-1,-1,109,-1,-1,-1,-1,111,113,115,-1,-1,-1,-1,117,-1,119,-1,-1,-1,121,123,125,-1,-1,127,129,131,-1,133,-1,135,137,139,-1,-1,141,143,-1,-1,-1,-1,-1,-1,-1,145,147,-1,-1,-1,-1,149,-1,-1,-1,151,153,155,157,159,-1,-1,161,163,165,-1,-1,167,-1,169,171,-1,173,175,-1,-1,-1,-1,-1,-1,-1,177,179,181,183,-1,-1,-1,185,-1,-1,-1,-1,187,189,-1,191,-1,-1,-1,-1,193,-1,-1,195,-1,197,199,201,-1,-1,-1,-1,-1,-1,-1,-1,-1,-1,-1,-1,-1,-1,-1,-1,-1,-1,-1,-1,-1,-1,-1,-1,-1,-1],"loss_changes":[1.1448184E0,8.171308E-2,2.7192155E-1,1.52055025E-2,1.5469563E-1,4.9074993E-2,1.19256675E-1,2.1065682E-2,0E0,0E0,3.0205771E-3,1.3461348E-2,8.946318E-2,1.706785E-2,0E0,0E0,3.9163977E-3,0E0,2.0179246E-4,1.2882732E-2,3.9637126E-3,1.0624021E-2,8.745059E-3,5.4332167E-3,9.92021E-3,5.9702024E-3,3.308229E-3,2.1171675E-4,0E0,0E0,2.5255783E-3,8.026976E-4,2.3627542E-3,1.0121375E-2,1.6350104E-2,1.2093643E-3,4.9262806E-3,7.272683E-3,0E0,2.462238E-3,4.90373E-3,1.0620747E-2,2.2641607E-3,1.4662474E-3,4.9497467E-4,0E0,0E0,4.743412E-3,0E0,1.0057422E-3,1.0910148E-3,1.3909563E-3,3.7337989E-3,2.8006216E-3,1.8308312E-4,0E0,8.410867E-3,3.1133771E-3,0E0,3.010832E-3,3.7741624E-3,6.978903E-4,9.755455E-4,7.2380304E-3,1.466392E-2,0E0,2.3655128E-4,2.3525745E-4,0E0,0E0,4.844484E-5,0E0,0E0,0E0,0E0,1.6943552E-4,4.5736704E-4,1.137168E-4,0E0,0E0,0E0,0E0,1.2136921E-3,0E0,8.6683966E-4,0E0,0E0,0E0,1.2679445E-4,2.7134353E-3,3.3824593E-3,0E0,0E0,3.175857E-3,3.758294E-3,2.1246658E-3,0E0,5.2896515E-4,0E0,6.5692887E-4,5.4746615E-3,3.014803E-4,0E0,0E0,1.9170944E-2,7.468878E-5,0E0,0E0,0E0,0E0,0E0,0E0,0E0,3.7113554E-4,7.11274E-4,0E0,0E0,0E0,0E0,1.583875E-4,0E0,0E0,0E0,1.0076214E-3,1.0683229E-3,3.0220486E-4,9.343555E-5,1.6864223E-3,0E0,0E0,1.0917209E-3,1.8829638E-3,3.3582794E-5,0E0,0E0,2.1258602E-6,0E0,4.7737366E-4,6.3108094E-4,0E0,1.8808879E-3,2.1480732E-3,0E0,0E0,0E0,0E0,0E0,0E0,0E0,1.20108365E-4,5.6652752E-6,1.0339437E-3,2.5536946E-4,0E0,0E0,0E0,2.3192577E-3,0E0,0E0,0E0,0E0,8.2736246E-5,3.7206698E-4,0E0,2.3783257E-4,0E0,0E0,0E0,0E0,3.5791006E-4,0E0,0E0,6.8297994E-4,0E0,4.3755025E-4,1.6397433E-3,1.6023217E-3,0E0,0E0,0E0,0E0,0E0,0E0,0E0,0E0,0E0,0E0,0E0,0E0,0E0,0E0,0E0,0E0,0E0,0E0,0E0,0E0,0E0,0E0,0E0,0E0,0E0,0E0],"parents":[2147483647,0,0,1,1,2,2,3,3,4,4,5,5,6,6,7,7,10,10,11,11,12,12,13,13,16,16,18,18,19,19,20,20,21,21,22,22,23,23,24,24,25,25,26,26,27,27,30,30,31,31,32,32,33,33,34,34,35,35,36,36,37,37,39,39,40,40,41,41,42,42,43,43,44,44,47,47,49,49,50,50,51,51,52,52,53,53,54,54,56,56,57,57,59,59,60,60,61,61,62,62,63,63,64,64,66,66,67,67,70,70,75,75,76,76,77,77,82,82,84,84,88,88,89,89,90,90,93,93,94,94,95,95,97,97,99,99,100,100,101,101,104,104,105,105,113,113,114,114,119,119,123,123,124,124,125,125,126,126,127,127,130,130,131,131,132,132,135,135,137,137,138,138,140,140,141,141,149,149,150,150,151,151,152,152,156,156,161,161,162,162,164,164,169,169,172,172,174,174,175,175,176,176],"right_children":[2,4,6,8,10,12,14,16,-1,-1,18,20,22,24,-1,-1,26,-1,28,30,32,34,36,38,40,42,44,46,-1,-1,48,50,52,54,56,58,60,62,-1,64,66,68,70,72,74,-1,-1,76,-1,78,80,82,84,86,88,-1,90,92,-1,94,96,98,100,102,104,-1,106,108,-1,-1,110,-1,-1,-1,-1,112,114,116,-1,-1,-1,-1,118,-1,120,-1,-1,-1,122,124,126,-1,-1,128,130,132,-1,134,-1,136,138,140,-1,-1,142,144,-1,-1,-1,-1,-1,-1,-1,146,148,-1,-1,-1,-1,150,-1,-1,-1,152,154,156,158,160,-1,-1,162,164,166,-1,-1,168,-1,170,172,-1,174,176,-1,-1,-1,-1,-1,-1,-1,178,180,182,184,-1,-1,-1,186,-1,-1,-1,-1,188,190,-1,192,-1,-1,-1,-1,194,-1,-1,196,-1,198,200,202,-1,-1,-1,-1,-1,-1,-1,-1,-1,-1,-1,-1,-1,-1,-1,-1,-1,-1,-1,-1,-1,-1,-1,-1,-1,-1],"split_conditions":[-1.0218692E0,-5.430248E-1,3.9055872E-1,-1.0117317E0,-1.2379192E0,-7.631615E-1,1.5444705E0,-1.4227853E0,-1.6570186E-2,-3.584238E-2,-1.1599492E0,-4.2463502E-1,-5.2048194E-1,8.4467775E-1,2.1120314E-2,-1.3137015E-2,-1.2468334E0,-1.3182217E-2,-1.0961512E0,-1.3534839E0,-9.252862E-1,-4.2463502E-1,-4.0812433E-1,8.247253E-1,1.3955513E0,-1.045707E0,-1.2937119E0,-1.1060702E0,-7.4097454E-3,-5.880687E-3,-7.762977E-1,-9.374398E-1,-1.7029972E0,-6.9763356E-1,-7.2682434E-1,-5.3750616E-1,4.684675E-2,-1.045707E0,-3.0758232E-3,1.0764601E0,1.4302047E0,-1.4528775E0,-1.3980316E0,-1.3534839E0,-1.0741377E0,-3.7711286E-3,-5.762041E-4,-1.0031778E0,7.965508E-3,-1.0072625E0,-1.6212456E0,-1.9760448E0,-8.678082E-1,-8.1056434E-1,2.7417687E-1,-1.9751973E-2,-1.7800773E-2,-6.484041E-1,9.368108E-3,-1.7319658E-1,3.7383187E-1,5.042792E-1,7.341299E-1,1.0418123E0,1.1135689E0,-3.2087185E-3,1.4777969E0,-1.4642434E0,-1.5900984E-2,-7.1352758E-3,-1.3785359E0,-2.4777493E-3,3.2710694E-3,-5.588988E-3,-2.6109218E-4,-1.2687802E0,-9.4577605E-1,-1.2352128E0,5.07165E-3,2.67179E-3,-2.722188E-3,1.2921334E-3,-9.0379685E-1,8.766803E-3,-8.159347E-1,-5.295807E-3,2.375859E-3,-1.5203859E-2,-8.138041E-1,-8.803403E-1,3.7383187E-1,5.618934E-3,-3.6035539E-3,-2.6121232E-1,-1.7431414E-1,-1.045707E0,-3.553863E-3,3.9358023E-1,1.20485565E-2,4.8839146E-1,7.8986645E-1,9.189106E-1,-2.2693635E-3,1.4335214E-2,1.3007721E0,1.4173576E0,5.073057E-3,1.3880968E-3,-1.1235793E-3,-3.0927109E-3,-4.2805672E-4,8.0320437E-4,5.9842328E-3,-9.607055E-1,-9.607055E-1,9.238561E-4,-8.191109E-4,1.5800277E-3,1.3099471E-2,-1.2687802E0,3.910792E-3,-1.0128062E-3,-6.708801E-3,-9.374398E-1,-1.4309758E-1,-8.249198E-1,3.9358023E-1,-3.6908004E-1,-7.1641067E-3,6.026653E-3,-5.2093854E-3,1.3540849E-1,5.7437915E-2,4.7598095E-3,-1.3188124E-4,4.4851995E-1,5.442498E-3,7.727416E-1,7.9698837E-1,9.001284E-3,-1.045707E0,1.1848544E0,1.0747484E-2,1.5819231E-3,-1.5354156E-4,-5.0127585E-3,-1.7840067E-4,2.116116E-3,-2.2399107E-3,-8.502169E-1,-1.0513675E0,-9.8988503E-1,-1.4309758E-1,4.920082E-3,-8.708279E-4,-8.821025E-3,3.208896E-1,1.0833422E-3,-5.4105127E-4,-2.70458E-3,3.1077012E-3,-1.4309758E-1,-1.045707E0,8.015809E-3,2.1211377E-1,2.0244693E-4,1.8991195E-3,3.480216E-4,2.017224E-3,7.4231565E-1,2.0679624E-3,5.7445597E-3,8.0025506E-1,-6.936709E-4,9.4178015E-1,1.1435575E0,1.2387757E0,3.834804E-4,-1.5157074E-3,8.970499E-5,8.7452726E-4,-2.225701E-3,2.7489394E-3,-3.567906E-3,-3.809929E-5,2.5868455E-3,-5.552161E-3,8.3375705E-4,-9.467887E-5,-3.5512352E-3,2.4137448E-4,-7.083168E-4,1.8316231E-3,7.229175E-4,-1.2035966E-3,-1.1188388E-3,2.952661E-3,7.6957146E-4,6.945891E-3,-6.402493E-4,5.293611E-3,-2.7851423E-3,1.6807454E-3],"split_indices":[6,4,6,0,6,0,6,6,0,0,6,4,6,6,0,0,6,0,6,0,6,4,0,0,0,4,0,6,0,0,6,6,0,0,0,0,6,4,0,6,6,0,6,0,6,0,0,0,0,6,0,0,6,6,0,0,0,0,0,6,0,6,0,0,0,0,6,0,0,0,6,0,0,0,0,0,6,0,0,0,0,0,6,0,6,0,0,0,6,6,0,0,0,0,0,4,0,0,0,0,6,0,0,0,6,0,0,0,0,0,0,0,0,0,0,0,0,0,0,0,0,0,0,6,0,6,0,6,0,0,0,0,0,0,0,0,0,0,0,0,4,0,0,0,0,0,0,0,0,6,0,6,0,0,0,0,0,0,0,0,0,0,4,0,0,0,0,0,0,0,0,0,0,0,6,6,6,0,0,0,0,0,0,0,0,0,0,0,0,0,0,0,0,0,0,0,0,0,0,0,0,0,0],"split_type":[0,0,0,0,0,0,0,0,0,0,0,0,0,0,0,0,0,0,0,0,0,0,0,0,0,0,0,0,0,0,0,0,0,0,0,0,0,0,0,0,0,0,0,0,0,0,0,0,0,0,0,0,0,0,0,0,0,0,0,0,0,0,0,0,0,0,0,0,0,0,0,0,0,0,0,0,0,0,0,0,0,0,0,0,0,0,0,0,0,0,0,0,0,0,0,0,0,0,0,0,0,0,0,0,0,0,0,0,0,0,0,0,0,0,0,0,0,0,0,0,0,0,0,0,0,0,0,0,0,0,0,0,0,0,0,0,0,0,0,0,0,0,0,0,0,0,0,0,0,0,0,0,0,0,0,0,0,0,0,0,0,0,0,0,0,0,0,0,0,0,0,0,0,0,0,0,0,0,0,0,0,0,0,0,0,0,0,0,0,0,0,0,0,0,0,0,0,0,0,0,0,0,0],"sum_hessian":[7.15E2,1.65E2,5.5E2,1.25E2,4E1,2.44E2,3.06E2,1.02E2,2.3E1,1.7E1,2.3E1,4.9E1,1.95E2,2.8E2,2.6E1,4.8E1,5.4E1,1E1,1.3E1,1.7E1,3.2E1,4.8E1,1.47E2,1.05E2,1.75E2,4.4E1,1E1,5E0,8E0,6E0,1.1E1,1.2E1,2E1,2.3E1,2.5E1,5E0,1.42E2,1.03E2,2E0,1.63E2,1.2E1,8E0,3.6E1,4E0,6E0,3E0,2E0,8E0,3E0,1E1,2E0,1E1,1E1,4E0,1.9E1,1E0,2.4E1,2E0,3E0,1.14E2,2.8E1,9E0,9.4E1,1E2,6.3E1,3E0,9E0,2E0,6E0,2.4E1,1.2E1,1E0,3E0,5E0,1E0,4E0,4E0,2E0,8E0,1E0,1E0,1E0,9E0,4E0,6E0,2E0,2E0,1.5E1,4E0,1.2E1,1.2E1,1E0,1E0,7E0,1.07E2,2.6E1,2E0,3E0,6E0,5.6E1,3.8E1,9.8E1,2E0,2.4E1,3.9E1,2E0,7E0,1E0,1E0,1.1E1,1E0,1E0,3E0,2E0,2E0,1E0,1E0,1E0,8E0,5E0,1E0,1E0,3E0,8E0,4E0,1E1,2E0,4E0,3E0,2E0,1.05E2,7E0,1.9E1,2E0,1E0,5E0,5.1E1,1.4E1,2.4E1,5.1E1,4.7E1,1.6E1,2.3E1,1E0,1E0,1E0,1E0,1E0,1E0,3E0,2E0,3E0,5E0,3E0,1E0,8E0,2E0,1E0,1E0,2E0,2E0,1.01E2,4E0,4E0,3E0,1E0,1.8E1,1E0,4E0,1.2E1,2E0,1.8E1,6E0,1E0,4.6E1,7E0,9E0,1E0,2E0,1E0,1E0,1E0,2E0,4E0,1E0,1E0,1E0,2E0,9.9E1,3E0,1E0,1E0,2E0,5E0,7E0,1E0,5E0,1E0,4.5E1,2E0,5E0,4E0,5E0],"tree_param":{"num_deleted":"0","num_feature":"7","num_nodes":"203","size_leaf_vector":"1"}},{"base_weights":[-9.017035E-4,-4.02866E-2,2.0802347E-2,-3.8076728E-3,-4.2064004E-2,-2.6072382E-3,3.210991E-2,6.0755215E-3,-1.1110787E-2,-3.4525625E-2,-5.0777815E-2,-1.4847151E-2,1.1711632E-3,2.2169884E-2,4.560841E-2,-2.2110227E-2,1.5332406E-2,-3.6861934E-2,1.9061182E-2,6.942117E-3,-5.3045724E-2,5.844182E-3,-3.3975627E-2,-2.7399466E-4,7.164119E-3,-3.0241788E-3,2.274902E-2,4.1424673E-2,1.6667414E-2,-3.7736475E-2,8.610612E-3,4.3647434E-3,-7.0885516E-4,-5.9917185E-2,-3.33064E-2,4.9235923E-3,-9.5196563E-4,-4.316501E-2,-6.660466E-2,1.1160364E-2,-9.394336E-3,-7.52248E-3,-1.1255792E-2,-3.6184158E-4,5.43954E-4,9.194331E-3,3.2776443E-3,3.254912E-2,2.1197783E-2,4.9437575E-2,3.4389175E-2,-4.120785E-3,-1.2177571E-2,-7.233044E-4,1.34756565E-2,-8.374096E-2,3.7321348E-3,1.1003392E-2,-3.546176E-2,-5.3461734E-2,7.830886E-3,-2.850532E-2,-1.6080804E-2,1.0952859E-3,2.2350373E-2,-5.6132316E-3,5.5664927E-3,-1.4877149E-2,3.5654604E-3,-6.512205E-5,-2.5358796E-4,2.5078126E-3,3.5510175E-3,7.747009E-4,-1.787305E-4,4.3519966E-2,2.3554396E-3,-4.0871203E-3,2.222268E-2,2.4937391E-3,5.0417583E-2,4.8321147E-2,2.7834123E-2,-3.473264E-3,3.2574236E-3,4.7181846E-4,3.12169E-3,6.1048666E-4,-9.303079E-2,-1.4507509E-3,3.910772E-3,-1.6162133E-2,7.891721E-3,-1.3175696E-2,-3.736962E-2,7.4672797E-3,-5.8435783E-2,-4.6413965E-3,1.6786411E-2,2.3007214E-2,-6.2236108E-2,6.7340806E-3,-7.237141E-3,5.545635E-3,-6.61096E-4,2.4660893E-3,-1.4326215E-3,-3.3763784E-3,-1.8991232E-4,2.960503E-3,-1.890865E-3,-1.3740808E-3,9.314959E-3,2.700382E-2,1.1828856E-2,-2.4533987E-3,5.4570043E-4,-2.1966696E-3,2.3228742E-2,4.3193023E-3,1.03969565E-2,9.291808E-4,1.002616E-2,3.463099E-2,-8.318615E-3,-1.3678998E-2,-1.09448984E-1,-4.687232E-3,8.6226466E-4,6.1084926E-3,-6.89921E-3,-5.930957E-2,-3.4534216E-2,9.883404E-3,-2.0689476E-2,-4.95783E-2,-7.9697676E-2,1.1863038E-2,-1.5988385E-2,4.8517394E-3,2.5995611E-3,6.5737427E-3,5.915129E-3,-1.7029803E-2,-2.2396648E-2,-6.407423E-3,1.4553651E-2,-2.652524E-3,1.1243185E-3,-1.6642413E-4,2.3354448E-3,6.0418784E-3,-1.2308956E-4,-1.618737E-2,6.3825487E-3,2.3817E-2,6.8328977E-3,9.899654E-3,2.7554726E-2,-5.2219154E-3,6.7659616E-3,-1.4791886E-4,-3.4998138E-3,-2.4916999E-2,-3.202048E-2,2.8785372E-3,-4.619098E-3,-2.1877328E-2,2.191176E-3,-3.728305E-2,3.0407835E-2,-8.087254E-3,3.8865132E-3,-5.280718E-2,-2.2653773E-2,-8.8044E-2,-1.8983021E-2,3.1611563E-3,2.3206076E-6,-3.5514624E-3,-5.9417885E-4,8.764863E-5,7.496556E-4,-4.7917566E-3,5.0725997E-3,1.0297447E-3,-6.9249435E-3,1.1727015E-4,-1.8259162E-3,4.2167995E-3,-7.711823E-4,-3.8905311E-3,-8.024156E-4,1.923567E-2,2.7099472E-2,-6.3618424E-4,1.8344555E-3,3.1724352E-2,1.8121174E-3,3.067255E-3,-2.7966737E-3,3.830433E-3,-1.2369228E-2,-1.2476385E-3,1.2381873E-4,-9.0008025E-4,2.3766041E-3,-8.013858E-3,-2.3595414E-3,8.195738E-3,1.4551551E-3,-1.620472E-2,-8.352464E-3,4.882318E-3,-9.2958845E-3,-2.2314604E-2,-7.033398E-3,-8.788562E-3,3.7264228E-3,2.401189E-3,-2.1265903E-3,5.305152E-3,1.8116843E-3,6.926021E-3,4.6745627E-3,-1.0105769E-4,6.574114E-3,4.1869404E-3,-1.6706428E-3,-8.9501543E-4,-2.7906895E-5],"categories":[],"categories_nodes":[],"categories_segments":[],"categories_sizes":[],"default_left":[0,0,0,0,0,0,0,0,0,0,0,0,0,0,0,0,0,0,0,0,0,0,0,0,0,0,0,0,0,0,0,0,0,0,0,0,0,0,0,0,0,0,0,0,0,0,0,0,0,0,0,0,0,0,0,0,0,0,0,0,0,0,0,0,0,0,0,0,0,0,0,0,0,0,0,0,0,0,0,0,0,0,0,0,0,0,0,0,0,0,0,0,0,0,0,0,0,0,0,0,0,0,0,0,0,0,0,0,0,0,0,0,0,0,0,0,0,0,0,0,0,0,0,0,0,0,0,0,0,0,0,0,0,0,0,0,0,0,0,0,0,0,0,0,0,0,0,0,0,0,0,0,0,0,0,0,0,0,0,0,0,0,0,0,0,0,0,0,0,0,0,0,0,0,0,0,0,0,0,0,0,0,0,0,0,0,0,0,0,0,0,0,0,0,0,0,0,0,0,0,0,0,0,0,0,0,0,0,0,0,0,0,0,0,0,0,0,0,0,0,0,0,0,0,0,0,0,0,0,0,0],"id":16,"left_children":[1,3,5,7,9,11,13,-1,15,17,19,21,23,25,27,29,31,33,35,-1,37,39,41,43,45,-1,47,49,-1,51,53,-1,-1,55,57,-1,-1,59,61,63,65,67,-1,69,-1,71,73,75,77,79,81,83,-1,-1,85,87,89,91,93,95,97,99,-1,101,103,-1,105,107,109,-1,-1,-1,111,-1,-1,113,-1,115,117,-1,119,121,123,-1,-1,-1,-1,-1,125,-1,-1,127,-1,129,131,133,135,137,139,141,143,145,147,-1,-1,-1,-1,-1,-1,-1,-1,-1,149,151,-1,-1,-1,153,155,-1,-1,-1,-1,157,159,161,163,-1,-1,165,-1,167,169,-1,171,173,175,177,179,-1,181,-1,183,-1,185,187,189,-1,-1,-1,-1,-1,-1,191,-1,193,195,-1,197,-1,199,-1,-1,-1,201,-1,203,-1,205,207,209,-1,-1,211,213,215,217,-1,-1,-1,-1,-1,-1,-1,-1,219,-1,-1,-1,-1,-1,-1,-1,221,223,-1,-1,225,227,-1,229,-1,-1,-1,-1,-1,-1,-1,-1,-1,-1,-1,-1,-1,-1,-1,-1,-1,-1,-1,-1,-1,-1,-1,-1,-1,-1,-1,-1,-1,-1],"loss_changes":[6.111569E-1,1.6148478E-2,1.221966E-1,4.1702646E-3,1.2390256E-2,7.064367E-3,3.970629E-2,0E0,4.4591897E-3,1.8431827E-2,2.4621487E-2,1.464569E-2,1.0258963E-3,4.6401024E-3,1.3615668E-2,5.450383E-3,7.6737045E-4,6.7472905E-3,1.1609308E-3,0E0,8.451045E-3,1.7488922E-3,1.0363162E-2,2.7478574E-5,1.2120709E-4,0E0,1.3716742E-3,3.421113E-3,0E0,4.9459348E-3,3.9489774E-4,0E0,0E0,2.3370579E-2,1.2049824E-2,0E0,0E0,3.60184E-2,1.6971707E-2,1.6404646E-3,1.9885357E-3,1.0031173E-3,0E0,2.3258908E-6,0E0,1.7520227E-4,3.4263743E-5,3.7605092E-3,4.379779E-3,6.2666833E-4,3.7941113E-3,1.9172624E-3,0E0,0E0,2.1193817E-5,9.4371885E-3,1.3265721E-3,6.6864756E-3,3.819853E-3,1.784429E-2,1.6078707E-3,2.7189579E-2,0E0,5.673194E-4,1.1491142E-3,0E0,6.0716073E-4,1.6338786E-4,1.1577198E-3,0E0,0E0,0E0,6.085428E-4,0E0,0E0,1.6045198E-4,0E0,5.1294843E-4,3.934562E-3,0E0,1.3038516E-5,1.1149347E-3,1.3599612E-2,0E0,0E0,0E0,0E0,0E0,1.0033831E-2,0E0,0E0,9.4670395E-4,0E0,5.3551868E-3,2.3110658E-3,9.131836E-3,1.8904507E-3,1.6902711E-3,7.219417E-4,7.9103E-4,4.4014305E-3,9.0582913E-4,5.365143E-4,0E0,0E0,0E0,0E0,0E0,0E0,0E0,0E0,0E0,1.6325421E-4,9.225402E-4,0E0,0E0,0E0,4.8508835E-3,1.1212751E-3,0E0,0E0,0E0,0E0,2.006393E-3,3.0370038E-3,1.7183344E-4,1.3971329E-3,0E0,0E0,8.4391783E-4,0E0,2.8197363E-2,1.9404843E-2,0E0,5.532969E-3,1.2587458E-3,2.7382448E-3,1.8654182E-4,9.624753E-6,0E0,9.128395E-6,0E0,4.1202526E-3,0E0,1.7900667E-3,8.685891E-5,7.637002E-4,0E0,0E0,0E0,0E0,0E0,0E0,1.2219953E-4,0E0,1.1229292E-3,2.4576162E-4,0E0,3.6418214E-3,0E0,6.5946457E-4,0E0,0E0,0E0,8.474005E-3,0E0,5.012969E-5,0E0,4.9607904E-4,5.6583136E-3,6.2632514E-4,0E0,0E0,4.451804E-3,1.1240176E-2,4.5940727E-3,5.392958E-3,0E0,0E0,0E0,0E0,0E0,0E0,0E0,0E0,7.673657E-4,0E0,0E0,0E0,0E0,0E0,0E0,0E0,4.49037E-3,5.9825554E-4,0E0,0E0,1.1414811E-3,1.7104559E-3,0E0,2.1049895E-5,0E0,0E0,0E0,0E0,0E0,0E0,0E0,0E0,0E0,0E0,0E0,0E0,0E0,0E0,0E0,0E0,0E0,0E0,0E0,0E0,0E0,0E0,0E0,0E0,0E0,0E0,0E0,0E0,0E0,0E0],"parents":[2147483647,0,0,1,1,2,2,3,3,4,4,5,5,6,6,8,8,9,9,10,10,11,11,12,12,13,13,14,14,15,15,16,16,17,17,18,18,20,20,21,21,22,22,23,23,24,24,26,26,27,27,29,29,30,30,33,33,34,34,37,37,38,38,39,39,40,40,41,41,43,43,45,45,46,46,47,47,48,48,49,49,50,50,51,51,54,54,55,55,56,56,57,57,58,58,59,59,60,60,61,61,63,63,64,64,66,66,67,67,68,68,72,72,75,75,77,77,78,78,80,80,81,81,82,82,88,88,91,91,93,93,94,94,95,95,96,96,97,97,98,98,99,99,100,100,101,101,102,102,112,112,113,113,117,117,118,118,123,123,124,124,125,125,126,126,129,129,131,131,132,132,134,134,135,135,136,136,137,137,138,138,140,140,142,142,144,144,145,145,146,146,153,153,155,155,156,156,158,158,160,160,164,164,166,166,168,168,169,169,170,170,173,173,174,174,175,175,176,176,185,185,193,193,194,194,197,197,198,198,200,200],"right_children":[2,4,6,8,10,12,14,-1,16,18,20,22,24,26,28,30,32,34,36,-1,38,40,42,44,46,-1,48,50,-1,52,54,-1,-1,56,58,-1,-1,60,62,64,66,68,-1,70,-1,72,74,76,78,80,82,84,-1,-1,86,88,90,92,94,96,98,100,-1,102,104,-1,106,108,110,-1,-1,-1,112,-1,-1,114,-1,116,118,-1,120,122,124,-1,-1,-1,-1,-1,126,-1,-1,128,-1,130,132,134,136,138,140,142,144,146,148,-1,-1,-1,-1,-1,-1,-1,-1,-1,150,152,-1,-1,-1,154,156,-1,-1,-1,-1,158,160,162,164,-1,-1,166,-1,168,170,-1,172,174,176,178,180,-1,182,-1,184,-1,186,188,190,-1,-1,-1,-1,-1,-1,192,-1,194,196,-1,198,-1,200,-1,-1,-1,202,-1,204,-1,206,208,210,-1,-1,212,214,216,218,-1,-1,-1,-1,-1,-1,-1,-1,220,-1,-1,-1,-1,-1,-1,-1,222,224,-1,-1,226,228,-1,230,-1,-1,-1,-1,-1,-1,-1,-1,-1,-1,-1,-1,-1,-1,-1,-1,-1,-1,-1,-1,-1,-1,-1,-1,-1,-1,-1,-1,-1,-1],"split_conditions":[-9.134669E-2,-1.633205E0,3.8134494E-1,-4.0812433E-1,-1.1378939E0,-6.046127E-1,9.7720927E-1,6.0755215E-3,-2.3898529E-1,-5.027847E-1,-1.8735769E0,-2.0035157E0,1.1781261E0,2.7417687E-1,1.5877227E0,-2.9496688E-1,-1.7032962E-1,-1.8995829E0,-1.4291848E0,6.942117E-3,-9.0383863E-1,2.7417687E-1,-4.0903896E-1,3.3953938E-1,1.4064682E0,-3.0241788E-3,5.9798425E-1,4.40915E-1,1.6667414E-2,-4.0903896E-1,-2.0693342E-1,4.3647434E-3,-7.0885516E-4,-1.3534839E0,-1.8554432E0,4.9235923E-3,-9.5196563E-4,-4.336671E-1,-1.3360848E0,8.092346E-2,3.208896E-1,1.6077636E-1,-1.1255792E-2,-5.2093854E-3,5.43954E-4,2.1211377E-1,1.3540849E-1,9.9332136E-1,6.526575E-1,9.786126E-1,1.1136178E0,-2.7478543E-1,-1.2177571E-2,-7.233044E-4,-3.7124288E-1,-1.8401574E0,-1.9343612E0,8.618082E-1,-6.742383E-1,-1.0886343E0,-2.5496715E-1,-6.484041E-1,-1.6080804E-2,7.32143E-2,2.6454514E-1,-5.6132316E-3,3.9358023E-1,-6.742383E-1,3.9358023E-1,-6.512205E-5,-2.5358796E-4,2.5078126E-3,2.7417687E-1,7.747009E-4,-1.787305E-4,5.9716445E-1,2.3554396E-3,5.9716445E-1,-2.8382168E0,2.4937391E-3,9.873035E-1,4.466436E-1,7.837341E-1,-3.473264E-3,3.2574236E-3,4.7181846E-4,3.12169E-3,6.1048666E-4,-2.0177348E0,-1.4507509E-3,3.910772E-3,-1.2937119E0,7.891721E-3,-1.1087298E0,-1.9244449E0,-9.741393E-1,4.3064454E-1,-3.836612E-1,-2.7705457E-2,-7.2682434E-1,-5.583529E-1,-1.4150093E-1,2.0251709E-1,5.545635E-3,-6.61096E-4,2.4660893E-3,-1.4326215E-3,-3.3763784E-3,-1.8991232E-4,2.960503E-3,-1.890865E-3,-1.3740808E-3,2.797479E-1,5.8846337E-1,1.1828856E-2,-2.4533987E-3,5.4570043E-4,9.1165465E-1,9.6732616E-1,4.3193023E-3,1.03969565E-2,9.291808E-4,1.002616E-2,1.2569233E0,1.1471632E0,-1.5619206E0,-1.9298921E0,-4.687232E-3,8.6226466E-4,-1.2937119E0,-6.89921E-3,-1.6272833E0,1.4840155E0,9.883404E-3,-9.388431E-1,-8.908353E-1,1.4438626E0,-1.7348456E0,-1.2687802E0,4.8517394E-3,1.16892196E-1,6.5737427E-3,-9.313544E-1,-1.7029803E-2,-6.442146E-1,-1.7800773E-2,2.0510495E-2,-2.652524E-3,1.1243185E-3,-1.6642413E-4,2.3354448E-3,6.0418784E-3,-1.2308956E-4,9.015049E-1,6.3825487E-3,7.8261346E-1,9.14664E-1,9.899654E-3,6.642665E-1,-5.2219154E-3,1.1135689E0,-1.4791886E-4,-3.4998138E-3,-2.4916999E-2,-1.4642434E0,2.8785372E-3,-1.1584483E0,-2.1877328E-2,-1.9760448E0,1.0355257E0,-1.9041368E0,-8.087254E-3,3.8865132E-3,-6.9743663E-1,-8.9397025E-1,-6.948808E-1,-1.1261657E0,3.1611563E-3,2.3206076E-6,-3.5514624E-3,-5.9417885E-4,8.764863E-5,7.496556E-4,-4.7917566E-3,5.0725997E-3,-5.325166E-1,-6.9249435E-3,1.1727015E-4,-1.8259162E-3,4.2167995E-3,-7.711823E-4,-3.8905311E-3,-8.024156E-4,7.319668E-1,8.179244E-1,-6.3618424E-4,1.8344555E-3,1.2709823E0,1.2289284E0,3.067255E-3,1.2288052E0,3.830433E-3,-1.2369228E-2,-1.2476385E-3,1.2381873E-4,-9.0008025E-4,2.3766041E-3,-8.013858E-3,-2.3595414E-3,8.195738E-3,1.4551551E-3,-1.620472E-2,-8.352464E-3,4.882318E-3,-9.2958845E-3,-2.2314604E-2,-7.033398E-3,-8.788562E-3,3.7264228E-3,2.401189E-3,-2.1265903E-3,5.305152E-3,1.8116843E-3,6.926021E-3,4.6745627E-3,-1.0105769E-4,6.574114E-3,4.1869404E-3,-1.6706428E-3,-8.9501543E-4,-2.7906895E-5],"split_indices":[0,2,1,0,1,2,1,0,0,0,0,2,2,0,0,1,1,1,1,0,0,0,1,0,2,0,1,2,0,1,1,0,0,0,1,0,0,1,2,1,0,0,0,0,0,0,0,2,1,0,1,0,0,0,0,0,1,2,2,2,1,0,0,0,1,0,0,2,0,0,0,0,0,0,0,0,0,0,2,0,1,2,2,0,0,0,0,0,1,0,0,0,0,0,0,0,2,1,1,0,0,1,0,0,0,0,0,0,0,0,0,0,1,0,0,0,0,1,1,0,0,0,0,1,1,0,1,0,0,0,0,1,2,0,0,1,2,0,0,0,1,0,1,0,1,0,1,0,0,0,0,0,0,0,0,0,0,0,2,0,0,0,0,0,0,0,0,0,0,2,0,0,0,2,2,1,1,0,0,0,0,0,0,0,0,0,0,0,0,0,0,0,0,1,1,0,0,1,0,0,1,0,0,0,0,0,0,0,0,0,0,0,0,0,0,0,0,0,0,0,0,0,0,0,0,0,0,0,0,0,0],"split_type":[0,0,0,0,0,0,0,0,0,0,0,0,0,0,0,0,0,0,0,0,0,0,0,0,0,0,0,0,0,0,0,0,0,0,0,0,0,0,0,0,0,0,0,0,0,0,0,0,0,0,0,0,0,0,0,0,0,0,0,0,0,0,0,0,0,0,0,0,0,0,0,0,0,0,0,0,0,0,0,0,0,0,0,0,0,0,0,0,0,0,0,0,0,0,0,0,0,0,0,0,0,0,0,0,0,0,0,0,0,0,0,0,0,0,0,0,0,0,0,0,0,0,0,0,0,0,0,0,0,0,0,0,0,0,0,0,0,0,0,0,0,0,0,0,0,0,0,0,0,0,0,0,0,0,0,0,0,0,0,0,0,0,0,0,0,0,0,0,0,0,0,0,0,0,0,0,0,0,0,0,0,0,0,0,0,0,0,0,0,0,0,0,0,0,0,0,0,0,0,0,0,0,0,0,0,0,0,0,0,0,0,0,0,0,0,0,0,0,0,0,0,0,0,0,0,0,0,0,0,0,0],"sum_hessian":[7.11E2,2.52E2,4.59E2,1.2E1,2.4E2,1.5E2,3.09E2,1E0,1.1E1,1.34E2,1.06E2,3.4E1,1.16E2,1.81E2,1.28E2,8E0,3E0,1.29E2,5E0,2E0,1.04E2,1.7E1,1.7E1,9.5E1,2.1E1,2E0,1.79E2,1.19E2,9E0,5E0,3E0,2E0,1E0,1.3E1,1.16E2,4E0,1E0,6.5E1,3.9E1,1.3E1,4E0,9E0,8E0,9.4E1,1E0,1.2E1,9E0,1.9E1,1.6E2,5E1,6.9E1,3E0,2E0,1E0,2E0,9E0,4E0,5E0,1.11E2,5.4E1,1.1E1,1.2E1,2.7E1,8E0,5E0,1E0,3E0,5E0,4E0,9.3E1,1E0,6E0,6E0,8E0,1E0,1.1E1,8E0,6E0,1.54E2,2E0,4.8E1,1.8E1,5.1E1,2E0,1E0,1E0,1E0,1E0,8E0,3E0,1E0,3E0,2E0,1E1,1.01E2,4E0,5E1,5E0,6E0,5E0,7E0,5E0,3E0,4E0,1E0,2E0,1E0,4E0,1E0,2E0,2E0,2E0,4E0,8E0,3E0,2E0,4E0,6E0,1.48E2,4E0,4.4E1,1E0,1.7E1,4.3E1,8E0,2E0,6E0,2E0,1E0,6E0,4E0,7E0,9.4E1,1E0,3E0,4E1,1E1,2E0,3E0,3E0,3E0,2E0,3E0,3E0,4E0,2E0,3E0,2E0,1E0,1E0,3E0,7E0,1E0,5E0,1E0,1.42E2,6E0,1E1,3.3E1,3E0,5E0,1E0,1E0,4E0,2E0,3E0,3E0,3E0,4E0,9.1E1,3E0,2E0,1E0,3.4E1,6E0,8E0,2E0,1E0,1E0,2E0,1E0,2E0,1E0,1E0,2E0,2E0,2E0,1E0,1E0,2E0,1E0,3E0,2E0,6.5E1,7.7E1,1E0,5E0,2.8E1,5E0,2E0,3E0,1E0,1E0,2E0,1E0,3E0,1E0,8.1E1,1E1,1E0,2E0,6E0,2.8E1,2E0,4E0,4E0,4E0,1E0,1E0,1E0,1E0,3.6E1,2.9E1,2E1,5.7E1,1E0,2.7E1,1E0,4E0,1E0,2E0],"tree_param":{"num_deleted":"0","num_feature":"7","num_nodes":"231","size_leaf_vector":"1"}},{"base_weights":[-3.4556293E-4,-5.0234526E-2,1.4210253E-2,-3.8884327E-2,-8.089281E-2,-2.2161123E-3,2.7097475E-2,-5.3024907E-2,-3.465606E-2,-2.575077E-2,-4.2993393E-2,-1.5021915E-2,3.0731186E-3,2.2778511E-2,7.211895E-2,-1.75438E-2,-2.9786203E-2,-4.3296933E-2,-1.3048086E-2,-1.0586672E-2,-1.55087765E-2,-3.4292653E-2,-3.790205E-3,-1.4869622E-2,4.5317626E-3,1.6219571E-2,2.7504627E-2,8.306555E-3,1.6559457E-2,-6.5879556E-3,-8.411002E-3,-9.206754E-3,-5.8053453E-3,-3.5125234E-3,-4.734746E-3,6.268561E-4,-4.1906224E-3,1.7188977E-2,-4.2160273E-2,1.1304562E-2,-8.240379E-3,3.3403202E-3,-9.796729E-3,1.5839176E-2,5.112091E-4,2.8542617E-2,1.340896E-2,3.1174945E-2,1.966709E-2,2.3285548E-4,-2.2773922E-3,-1.2738561E-3,-8.645455E-5,4.0771603E-3,2.934456E-4,-2.4666114E-2,-5.835044E-2,4.7579678E-4,8.694733E-3,-3.3650522E-3,-8.052221E-4,7.6424396E-3,-2.792259E-3,5.4602204E-3,1.7842265E-2,-9.124937E-5,9.420283E-3,8.195569E-3,1.8757178E-2,-6.696619E-3,1.4722947E-2,2.5528748E-2,9.711113E-3,-1.9920499E-3,4.6793977E-3,-5.9937384E-2,4.9569965E-3,-6.3268736E-2,-6.111622E-4,7.639551E-3,-4.120499E-3,2.3837462E-3,-3.428939E-3,-2.1237732E-4,2.309785E-3,2.1696092E-6,-6.7144394E-4,1.6983867E-3,-1.936531E-4,2.0667763E-2,1.1130866E-2,-1.7865038E-3,2.8814247E-4,5.3084193E-4,2.1581808E-3,8.54646E-3,4.634863E-3,-3.3293725E-3,4.3381655E-4,1.0505438E-2,4.3128445E-3,5.178461E-3,4.947901E-3,-1.8292617E-2,-1.640493E-2,9.533207E-3,-5.3931493E-3,-3.4974203E-2,-1.7644688E-2,-1.0185321E-3,2.6737868E-3,6.6474284E-4,-2.6453137E-3,-2.2297334E-3,6.310222E-3,1.0505729E-2,4.7600875E-3,-4.3163323E-3,4.5811883E-3,3.3266228E-3,-1.3954025E-4,1.8559805E-3,2.2749107E-4,1.370079E-4,1.3752906E-2,2.665639E-3,-1.3461987E-3,-6.458798E-3,2.5141917E-3,-8.450699E-3,-2.741046E-3,1.6179681E-3,-2.884005E-3,2.815267E-3,-1.9913912E-4,7.497153E-5,-1.2366712E-3,3.2106203E-3,-2.6878328E-3,1.6336534E-2,4.590954E-3,-9.532479E-4,3.7693125E-3,-6.3289386E-5,7.5952144E-4,-2.9498155E-4,-8.839786E-4,5.7616592E-3,2.8210361E-3,-2.7577342E-3,1.9904673E-3],"categories":[],"categories_nodes":[],"categories_segments":[],"categories_sizes":[],"default_left":[0,0,0,0,0,0,0,0,0,0,0,0,0,0,0,0,0,0,0,0,0,0,0,0,0,0,0,0,0,0,0,0,0,0,0,0,0,0,0,0,0,0,0,0,0,0,0,0,0,0,0,0,0,0,0,0,0,0,0,0,0,0,0,0,0,0,0,0,0,0,0,0,0,0,0,0,0,0,0,0,0,0,0,0,0,0,0,0,0,0,0,0,0,0,0,0,0,0,0,0,0,0,0,0,0,0,0,0,0,0,0,0,0,0,0,0,0,0,0,0,0,0,0,0,0,0,0,0,0,0,0,0,0,0,0,0,0,0,0,0,0,0,0,0,0,0,0,0,0,0,0],"id":17,"left_children":[1,3,5,7,9,11,13,15,17,-1,19,21,23,25,27,-1,29,31,33,-1,35,37,39,41,43,45,47,-1,-1,-1,49,-1,-1,-1,51,-1,-1,53,55,57,59,61,-1,63,65,67,69,71,73,-1,-1,-1,-1,-1,-1,75,77,79,-1,-1,81,83,85,87,89,91,93,-1,95,97,99,101,-1,-1,-1,103,105,107,-1,109,111,113,-1,-1,-1,-1,-1,-1,-1,115,117,-1,119,-1,-1,121,-1,-1,-1,123,-1,-1,125,127,-1,-1,-1,129,-1,-1,-1,-1,-1,131,-1,133,-1,-1,-1,-1,135,-1,-1,137,139,-1,-1,-1,-1,-1,-1,141,-1,-1,-1,143,-1,-1,145,147,149,-1,-1,-1,-1,-1,-1,-1,-1,-1,-1],"loss_changes":[5.3371364E-1,5.147335E-2,1.20571844E-1,3.7984997E-3,6.692678E-2,1.7161006E-2,5.8742777E-2,1.49305165E-2,1.7914735E-2,0E0,5.7344325E-3,1.5756855E-2,4.845743E-3,8.221269E-3,1.9408464E-3,0E0,6.592348E-4,1.3954937E-4,1.034677E-3,0E0,1.1463363E-3,1.2385406E-2,3.4778507E-3,9.024244E-3,7.621431E-3,3.667865E-3,3.6064982E-3,0E0,0E0,0E0,1.6899334E-4,0E0,0E0,0E0,9.294905E-5,0E0,0E0,1.9147713E-4,3.9190426E-3,4.13885E-3,2.4622716E-3,3.3289328E-4,0E0,7.199133E-4,6.780049E-4,1.1397935E-3,3.050385E-3,8.413799E-3,6.9859885E-3,0E0,0E0,0E0,0E0,0E0,0E0,1.626689E-2,2.6048347E-3,4.2515158E-4,0E0,0E0,1.2801767E-3,2.6255057E-4,9.574709E-6,2.1133813E-4,2.2257026E-4,4.0766437E-4,1.6907114E-5,0E0,3.255182E-4,7.77944E-4,2.4899375E-3,4.0221214E-4,0E0,0E0,0E0,3.4378413E-3,1.6204597E-2,8.897297E-4,0E0,5.0090556E-4,6.3022284E-4,2.9665253E-3,0E0,0E0,0E0,0E0,0E0,0E0,0E0,2.32107E-4,6.7665842E-3,0E0,8.22526E-4,0E0,0E0,2.2361695E-5,0E0,0E0,0E0,2.2521978E-3,0E0,0E0,5.7091424E-4,2.9725947E-3,0E0,0E0,0E0,8.039549E-5,0E0,0E0,0E0,0E0,0E0,9.847543E-4,0E0,3.9763504E-4,0E0,0E0,0E0,0E0,1.5131764E-4,0E0,0E0,8.955837E-4,1.0572243E-3,0E0,0E0,0E0,0E0,0E0,0E0,2.0495E-3,0E0,0E0,0E0,1.6851383E-4,0E0,0E0,2.2676744E-5,2.7263537E-4,1.6540217E-3,0E0,0E0,0E0,0E0,0E0,0E0,0E0,0E0,0E0,0E0],"parents":[2147483647,0,0,1,1,2,2,3,3,4,4,5,5,6,6,7,7,8,8,10,10,11,11,12,12,13,13,14,14,16,16,17,17,18,18,20,20,21,21,22,22,23,23,24,24,25,25,26,26,30,30,34,34,37,37,38,38,39,39,40,40,41,41,43,43,44,44,45,45,46,46,47,47,48,48,55,55,56,56,57,57,60,60,61,61,62,62,63,63,64,64,65,65,66,66,68,68,69,69,70,70,71,71,75,75,76,76,77,77,79,79,80,80,81,81,89,89,90,90,92,92,95,95,99,99,102,102,103,103,107,107,113,113,115,115,120,120,123,123,124,124,131,131,135,135,138,138,139,139,140,140],"right_children":[2,4,6,8,10,12,14,16,18,-1,20,22,24,26,28,-1,30,32,34,-1,36,38,40,42,44,46,48,-1,-1,-1,50,-1,-1,-1,52,-1,-1,54,56,58,60,62,-1,64,66,68,70,72,74,-1,-1,-1,-1,-1,-1,76,78,80,-1,-1,82,84,86,88,90,92,94,-1,96,98,100,102,-1,-1,-1,104,106,108,-1,110,112,114,-1,-1,-1,-1,-1,-1,-1,116,118,-1,120,-1,-1,122,-1,-1,-1,124,-1,-1,126,128,-1,-1,-1,130,-1,-1,-1,-1,-1,132,-1,134,-1,-1,-1,-1,136,-1,-1,138,140,-1,-1,-1,-1,-1,-1,142,-1,-1,-1,144,-1,-1,146,148,150,-1,-1,-1,-1,-1,-1,-1,-1,-1,-1],"split_conditions":[-1.0218692E0,-5.423641E-1,3.9055872E-1,-1.045707E0,-1.2737511E0,-4.2399174E-1,1.5444705E0,-1.2737511E0,-1.415139E0,-2.575077E-2,-1.1060702E0,-7.91471E-1,-9.602972E-1,8.7129563E-1,1.5840168E0,-1.75438E-2,-1.0775024E0,-1.4298471E0,-1.3941015E0,-1.0586672E-2,-1.0961512E0,-9.8988503E-1,-6.4810413E-1,-9.7733754E-1,-8.138041E-1,6.2756795E-1,1.1600589E0,8.306555E-3,1.6559457E-2,-6.5879556E-3,-1.0741377E0,-9.206754E-3,-5.8053453E-3,-3.5125234E-3,-1.385286E0,6.268561E-4,-4.1906224E-3,-1.0011705E0,-8.1056434E-1,-6.954783E-1,-2.6399314E-1,-1.0011705E0,-9.796729E-3,-9.252862E-1,2.7470455E-1,-1.045707E0,6.704471E-1,1.0764601E0,1.2145464E0,2.3285548E-4,-2.2773922E-3,-1.2738561E-3,-8.645455E-5,4.0771603E-3,2.934456E-4,-8.678082E-1,-4.2463502E-1,-7.878861E-1,8.694733E-3,-3.3650522E-3,2.7470455E-1,-1.0072625E0,-9.8988503E-1,-9.374398E-1,-8.502169E-1,-7.9739606E-1,3.243037E-1,8.195569E-3,5.4405266E-1,-1.045707E0,1.0809274E0,1.0716661E0,9.711113E-3,-1.9920499E-3,4.6793977E-3,-9.1864055E-1,-8.3941734E-1,-7.9739606E-1,-6.111622E-4,-1.045707E0,-1.045707E0,2.0720667E-1,-3.428939E-3,-2.1237732E-4,2.309785E-3,2.1696092E-6,-6.7144394E-4,1.6983867E-3,-1.936531E-4,-8.9711714E-1,-8.3941734E-1,-1.7865038E-3,3.749186E-2,5.3084193E-4,2.1581808E-3,5.042792E-1,4.634863E-3,-3.3293725E-3,4.3381655E-4,7.407123E-1,4.3128445E-3,5.178461E-3,1.0805049E0,-9.4577605E-1,-1.640493E-2,9.533207E-3,-5.3931493E-3,-8.0692255E-1,-1.7644688E-2,-1.0185321E-3,2.6737868E-3,6.6474284E-4,-2.6453137E-3,1.3973357E-1,6.310222E-3,-9.0379685E-1,4.7600875E-3,-4.3163323E-3,4.5811883E-3,3.3266228E-3,2.4861312E-1,1.8559805E-3,2.2749107E-4,-1.045707E0,8.3189833E-1,2.665639E-3,-1.3461987E-3,-6.458798E-3,2.5141917E-3,-8.450699E-3,-2.741046E-3,4.684675E-2,-2.884005E-3,2.815267E-3,-1.9913912E-4,5.061461E-1,-1.2366712E-3,3.2106203E-3,7.338118E-1,-1.045707E0,-1.045707E0,-9.532479E-4,3.7693125E-3,-6.3289386E-5,7.5952144E-4,-2.9498155E-4,-8.839786E-4,5.7616592E-3,2.8210361E-3,-2.7577342E-3,1.9904673E-3],"split_indices":[6,5,6,4,6,5,6,6,6,0,6,6,6,6,6,0,6,6,6,0,6,6,6,6,6,6,6,0,0,0,6,0,0,0,6,0,0,6,6,6,6,6,0,6,6,4,6,6,6,0,0,0,0,0,0,6,4,6,0,0,6,6,6,6,6,6,6,0,6,4,5,6,0,0,0,6,6,6,0,4,4,6,0,0,0,0,0,0,0,6,6,0,4,0,0,6,0,0,0,6,0,0,4,6,0,0,0,6,0,0,0,0,0,6,0,6,0,0,0,0,6,0,0,4,6,0,0,0,0,0,0,6,0,0,0,5,0,0,6,4,4,0,0,0,0,0,0,0,0,0,0],"split_type":[0,0,0,0,0,0,0,0,0,0,0,0,0,0,0,0,0,0,0,0,0,0,0,0,0,0,0,0,0,0,0,0,0,0,0,0,0,0,0,0,0,0,0,0,0,0,0,0,0,0,0,0,0,0,0,0,0,0,0,0,0,0,0,0,0,0,0,0,0,0,0,0,0,0,0,0,0,0,0,0,0,0,0,0,0,0,0,0,0,0,0,0,0,0,0,0,0,0,0,0,0,0,0,0,0,0,0,0,0,0,0,0,0,0,0,0,0,0,0,0,0,0,0,0,0,0,0,0,0,0,0,0,0,0,0,0,0,0,0,0,0,0,0,0,0,0,0,0,0,0,0],"sum_hessian":[7.31E2,1.64E2,5.67E2,1.23E2,4.1E1,2.5E2,3.17E2,2.3E1,1E2,1.6E1,2.5E1,7.2E1,1.78E2,2.92E2,2.5E1,7E0,1.6E1,7E1,3E1,1.7E1,8E0,2.5E1,4.7E1,1.2E1,1.66E2,1.26E2,1.66E2,9E0,1.6E1,1.3E1,3E0,5.5E1,1.5E1,1.8E1,1.2E1,2E0,6E0,3E0,2.2E1,1E1,3.7E1,9E0,3E0,4.2E1,1.24E2,2E1,1.06E2,1.09E2,5.7E1,1E0,2E0,8E0,4E0,2E0,1E0,1.3E1,9E0,9E0,1E0,1.6E1,2.1E1,5E0,4E0,8E0,3.4E1,1.18E2,6E0,6E0,1.4E1,6E0,1E2,8.6E1,2.3E1,6E0,5.1E1,5E0,8E0,8E0,1E0,3E0,6E0,1.9E1,2E0,2E0,3E0,1E0,3E0,5E0,3E0,2.1E1,1.3E1,3E0,1.15E2,2E0,4E0,6E0,8E0,2E0,4E0,6.5E1,3.5E1,8.4E1,2E0,3E0,2E0,3E0,5E0,6E0,2E0,1E0,2E0,4E0,2E0,1.8E1,1E0,7E0,1.4E1,3E0,1E1,1E0,1.14E2,5E0,1E0,1.6E1,4.9E1,1E0,1E0,2E0,1E0,3E0,3E0,1.5E1,3E0,5E0,2E0,1.12E2,2E0,1E0,1.5E1,3.7E1,1.2E1,1.2E1,3E0,1.03E2,9E0,1.1E1,4E0,2E0,3.5E1,2E0,1E1],"tree_param":{"num_deleted":"0","num_feature":"7","num_nodes":"151","size_leaf_vector":"1"}},{"base_weights":[-1.0737781E-3,-2.7682355E-2,1.4999686E-2,-1.0816615E-2,-3.001296E-2,1.4843444E-3,2.426215E-2,6.5511763E-3,-1.7734403E-2,-2.8189799E-2,-4.158538E-2,-1.1758981E-3,9.628312E-3,2.2144856E-2,5.5635422E-2,-7.6494515E-3,2.3160314E-2,-1.3011316E-2,-8.744103E-3,-2.9050423E-2,-1.8441412E-3,-2.4636121E-2,-1.9669099E-2,-1.1722826E-2,6.9917564E-4,1.6566372E-2,2.3812056E-4,2.0861328E-2,3.209191E-2,1.1486552E-2,1.9116959E-3,4.1104257E-2,-2.503733E-3,5.333729E-3,-1.8840488E-2,-2.9486267E-2,-4.403025E-3,-9.1101015E-3,2.358672E-3,-6.397077E-2,-1.345678E-2,5.5184383E-3,-2.4508078E-2,-1.2471624E-7,7.284275E-3,5.248357E-3,2.632619E-2,-1.0644086E-2,5.6494586E-3,1.8570704E-2,2.7893767E-2,2.5032487E-2,1.0345696E-2,9.798819E-3,2.5324584E-3,5.1305015E-3,-3.679197E-3,-1.0842391E-2,1.9985927E-2,-2.2814805E-2,6.992573E-4,-6.1974943E-2,-2.7891856E-2,-3.4669638E-3,2.1460564E-3,6.668667E-4,-4.5181275E-3,-1.7819082E-2,-2.6283802E-3,5.0990107E-3,-1.990147E-2,3.7337394E-4,2.8671229E-3,-5.7041645E-4,-5.1674796E-3,-2.474356E-4,5.2922533E-4,3.604088E-3,9.763099E-3,-7.833046E-3,9.824215E-3,6.053071E-3,1.4259112E-3,-1.3717413E-3,-3.1317591E-3,9.410009E-4,1.6572665E-3,-1.0259648E-2,1.9325376E-2,3.3035E-2,1.8714309E-2,2.7349973E-2,1.1499095E-3,1.6131758E-3,-5.811307E-3,5.467689E-3,1.6046315E-4,-5.6386515E-3,-1.0149487E-2,-2.4641217E-3,-1.4883905E-2,-2.9108329E-2,6.2387823E-3,-9.018767E-3,3.2730026E-3,-2.547365E-2,7.0045353E-3,5.5601266E-3,