{"learner":{"attributes":{"scikit_learn":"{\"_estimator_type\": \"regressor\"}"},"feature_names":[],"feature_types":[],"gradient_booster":{"model":{"gbtree_model_param":{"num_parallel_tree":"1","num_trees":"80"},"iteration_indptr":[0,1,2,3,4,5,6,7,8,9,10,11,12,13,14,15,16,17,18,19,20,21,22,23,24,25,26,27,28,29,30,31,32,33,34,35,36,37,38,39,40,41,42,43,44,45,46,47,48,49,50,51,52,53,54,55,56,57,58,59,60,61,62,63,64,65,66,67,68,69,70,71,72,73,74,75,76,77,78,79,80],"tree_info":[0,0,0,0,0,0,0,0,0,0,0,0,0,0,0,0,0,0,0,0,0,0,0,0,0,0,0,0,0,0,0,0,0,0,0,0,0,0,0,0,0,0,0,0,0,0,0,0,0,0,0,0,0,0,0,0,0,0,0,0,0,0,0,0,0,0,0,0,0,0,0,0,0,0,0,0,0,0,0,0],"trees":[{"base_weights":[1.3459676E-2,-9.9497694E-1,6.764798E-1,-1.3351167E0,-6.411133E-1,2.7718738E-1,2.910263E-1,-3.0446336E-1,-2.1696007E-1,-1.4668298E-1,-7.424123E-2,3.658627E-2,5.172873E-1,-5.6241337E-2,1.1689577E-1,8.791813E-2,1.1698627E-1,-2.5154848E-3,-7.2015055E-2,1.99648E-2,3.1070456E-2,-3.1744E-2,-3.399916E-2,-4.7045057E-3,-9.092842E-3],"categories":[],"categories_nodes":[],"categories_segments":[],"categories_sizes":[],"default_left":[0,0,0,0,0,0,0,0,0,0,0,0,0,0,0,0,0,0,0,0,0,0,0,0,0],"id":0,"left_children":[1,3,5,7,9,11,-1,-1,-1,-1,-1,13,15,17,19,-1,-1,-1,21,-1,-1,-1,23,-1,-1],"loss_changes":[4.8542255E2,3.2952667E1,1.3537177E2,3.4917603E0,3.067871E0,1.6830494E1,0E0,0E0,0E0,0E0,0E0,1.1164798E0,2.5307083E-1,4.6400428E-2,2.1505833E-2,0E0,0E0,0E0,1.5731177E-1,0E0,0E0,0E0,2.425503E-3,0E0,0E0],"parents":[2147483647,0,0,1,1,2,2,3,3,4,4,5,5,11,11,12,12,13,13,14,14,18,18,22,22],"right_children":[2,4,6,8,10,12,-1,-1,-1,-1,-1,14,16,18,20,-1,-1,-1,22,-1,-1,-1,24,-1,-1],"split_conditions":[-1.889709E-1,-8.5401314E-1,1.4192818E0,-1.1649158E0,-3.5649258E-1,4.767959E-1,2.910263E-1,-3.0446336E-1,-2.1696007E-1,-1.4668298E-1,-7.424123E-2,7.311856E-2,5.635901E-1,-1.8942058E-1,1.6864835E-1,8.791813E-2,1.1698627E-1,-2.5154848E-3,-5.7750706E-2,1.99648E-2,3.1070456E-2,-3.1744E-2,-5.704873E-2,-4.7045057E-3,-9.092842E-3],"split_indices":[5,5,5,5,5,5,0,0,0,0,0,5,5,1,1,0,0,0,5,0,0,0,1,0,0],"split_type":[0,0,0,0,0,0,0,0,0,0,0,0,0,0,0,0,0,0,0,0,0,0,0,0,0],"sum_hessian":[7.22E2,2.86E2,4.36E2,1.43E2,1.43E2,2.9E2,1.46E2,7.6E1,6.7E1,1.04E2,3.9E1,1.46E2,1.44E2,6.8E1,7.8E1,7.4E1,7E1,1.9E1,4.9E1,5.9E1,1.9E1,1.3E1,3.6E1,2.2E1,1.4E1],"tree_param":{"num_deleted":"0","num_feature":"7","num_nodes":"25","size_leaf_vector":"1"}},{"base_weights":[1.8344778E-3,-6.553503E-1,6.719675E-1,-9.4628906E-1,-2.409443E-1,3.0953935E-1,2.3611593E-1,-2.4697982E-1,-7.736301E-1,-4.540601E-1,-1.6193973E-1,1.0522157E-1,4.1019508E-1,-1.7560823E-1,-1.250932E-1,5.2409895E-2,-9.717207E-2,-1.3803056E-1,-5.462944E-1,-2.85775E-3,2.1461463E-2,4.1948998E-1,-2.3115326E-2,2.1384497E-1,-1.553437E-1,-1.2005599E-1,-1.842445E-2,3.4272254E-1,9.606802E-2,5.9167456E-2,4.986033E-3,-5.6402255E-2,-7.924626E-2,1.3152702E-1,7.036241E-2,-2.2479061E-2,-8.90028E-3,4.910753E-2,-2.9235074E-2],"categories":[],"categories_nodes":[],"categories_segments":[],"categories_sizes":[],"default_left":[0,0,0,0,0,0,0,0,0,0,0,0,0,0,0,0,0,0,0,0,0,0,0,0,0,0,0,0,0,0,0,0,0,0,0,0,0,0,0],"id":1,"left_children":[1,3,5,7,9,11,-1,-1,13,15,17,19,21,-1,-1,-1,-1,23,25,-1,-1,27,-1,29,31,-1,-1,33,-1,-1,-1,-1,35,37,-1,-1,-1,-1,-1],"loss_changes":[3.157676E2,4.318918E1,6.4708176E1,8.653473E0,2.4121819E0,4.232485E0,0E0,0E0,1.0364838E0,1.1655359E0,8.968036E-1,2.1013796E-2,7.81147E-1,0E0,0E0,0E0,0E0,7.365663E-1,3.6514163E-2,0E0,0E0,3.1539345E-1,0E0,7.818681E-2,9.770458E-1,0E0,0E0,3.7991047E-2,0E0,0E0,0E0,0E0,6.946787E-2,2.617492E-1,0E0,0E0,0E0,0E0,0E0],"parents":[2147483647,0,0,1,1,2,2,3,3,4,4,5,5,8,8,9,9,10,10,11,11,12,12,17,17,18,18,21,21,23,23,24,24,27,27,32,32,33,33],"right_children":[2,4,6,8,10,12,-1,-1,14,16,18,20,22,-1,-1,-1,-1,24,26,-1,-1,28,-1,30,32,-1,-1,34,-1,-1,-1,-1,36,38,-1,-1,-1,-1,-1],"split_conditions":[9.1690086E-2,-7.1324325E-1,1.1651853E0,-1.1649158E0,-5.17651E-1,4.767959E-1,2.3611593E-1,-2.4697982E-1,-9.3396574E-1,-6.875695E-1,1.6645746E-1,7.357835E-2,1.4723009E0,-1.7560823E-1,-1.250932E-1,5.2409895E-2,-9.717207E-2,-3.560998E-1,-5.7993628E-2,-2.85775E-3,2.1461463E-2,5.6412643E-1,-2.3115326E-2,-7.861532E-1,-1.88552E-1,-1.2005599E-1,-1.842445E-2,4.0967494E-1,9.606802E-2,5.9167456E-2,4.986033E-3,-5.6402255E-2,-5.867247E-2,5.215185E-1,7.036241E-2,-2.2479061E-2,-8.90028E-3,4.910753E-2,-2.9235074E-2],"split_indices":[3,3,3,5,3,5,0,0,3,3,4,4,4,0,0,0,0,4,3,0,0,4,0,4,4,0,0,3,0,0,0,0,3,4,0,0,0,0,0],"split_type":[0,0,0,0,0,0,0,0,0,0,0,0,0,0,0,0,0,0,0,0,0,0,0,0,0,0,0,0,0,0,0,0,0,0,0,0,0,0,0],"sum_hessian":[7.13E2,3.6E2,3.53E2,2.1E2,1.5E2,2.08E2,1.45E2,7.4E1,1.36E2,3.8E1,1.12E2,7E1,1.38E2,7.4E1,6.2E1,1E0,3.7E1,1.08E2,4E0,1E0,6.9E1,1.36E2,2E0,4E0,1.04E2,3E0,1E0,6.6E1,7E1,2E0,2E0,3.7E1,6.7E1,4E0,6.2E1,3.2E1,3.5E1,3E0,1E0],"tree_param":{"num_deleted":"0","num_feature":"7","num_nodes":"39","size_leaf_vector":"1"}},{"base_weights":[1.2266267E-2,-5.740344E-1,4.986181E-1,-8.552551E-1,-3.3525148E-1,2.3708E-1,1.8991433E-1,-1.9532458E-1,-1.4131795E-1,-4.6712166E-1,-1.5821646E-1,5.640171E-2,3.5374483E-1,4.8915897E-2,-9.573368E-2,6.442299E-2,-1.7827763E-1,-3.4697286E-3,1.7374372E-2,3.6681366E-1,-3.1105408E-2,-4.648006E-2,-1.12534925E-1,3.950947E-2,-2.624484E-2,7.020693E-2,1.3806055E-1,3.9667595E-2,-2.0803792E-2,-1.4897997E-2,-2.934871E-2,-1.3325489E-2,-9.843075E-2,1.1917325E-2,-2.6672336E-3,-1.5341819E-2,8.459736E-3,-2.2607263E-2,-2.6672336E-3,-1.4302141E-3,-5.6378567E-3,4.5203282E-3,-2.2643984E-3],"categories":[],"categories_nodes":[],"categories_segments":[],"categories_sizes":[],"default_left":[0,0,0,0,0,0,0,0,0,0,0,0,0,0,0,0,0,0,0,0,0,0,0,0,0,0,0,0,0,0,0,0,0,0,0,0,0,0,0,0,0,0,0],"id":2,"left_children":[1,3,5,7,9,11,-1,-1,-1,13,15,17,19,-1,-1,-1,21,23,-1,25,27,-1,29,-1,31,-1,-1,33,-1,-1,-1,35,37,-1,-1,39,41,-1,-1,-1,-1,-1,-1],"loss_changes":[2.1129712E2,2.198919E1,4.7316063E1,1.3804779E0,4.171131E0,5.419507E0,0E0,0E0,0E0,1.0970154E0,9.05004E-1,1.903291E-1,8.1245613E-1,0E0,0E0,0E0,2.3234749E-1,1.7976211E-1,0E0,2.912197E-1,4.437454E-2,0E0,3.0196786E-2,0E0,3.0017555E-2,0E0,0E0,6.868231E-3,0E0,0E0,0E0,1.6652145E-3,3.199324E-3,0E0,0E0,2.7537434E-3,1.6307964E-3,0E0,0E0,0E0,0E0,0E0,0E0],"parents":[2147483647,0,0,1,1,2,2,3,3,4,4,5,5,9,9,10,10,11,11,12,12,16,16,17,17,19,19,20,20,22,22,24,24,27,27,31,31,32,32,35,35,36,36],"right_children":[2,4,6,8,10,12,-1,-1,-1,14,16,18,20,-1,-1,-1,22,24,-1,26,28,-1,30,-1,32,-1,-1,34,-1,-1,-1,36,38,-1,-1,40,42,-1,-1,-1,-1,-1,-1],"split_conditions":[-5.7993628E-2,-9.3396574E-1,1.1651853E0,-1.1742285E0,-5.17651E-1,2.2225948E-1,1.8991433E-1,-1.9532458E-1,-1.4131795E-1,-1.1742282E0,-6.8643737E-1,1.2347861E-1,6.085822E-1,4.8915897E-2,-9.573368E-2,6.442299E-2,-1.9032241E-1,-6.8643737E-1,1.7374372E-2,7.014136E-1,1.1658463E0,-4.648006E-2,-1.8894769E-1,3.950947E-2,1.2133991E-1,7.020693E-2,1.3806055E-1,1.4864943E0,-2.0803792E-2,-1.4897997E-2,-2.934871E-2,7.2593894E-3,5.5769724E-1,1.1917325E-2,-2.6672336E-3,-5.655404E-2,8.913918E-2,-2.2607263E-2,-2.6672336E-3,-1.4302141E-3,-5.6378567E-3,4.5203282E-3,-2.2643984E-3],"split_indices":[3,3,3,2,3,3,0,0,0,2,0,3,0,0,0,0,3,0,0,3,2,0,0,0,2,0,0,0,0,0,0,3,0,0,0,0,0,0,0,0,0,0,0],"split_type":[0,0,0,0,0,0,0,0,0,0,0,0,0,0,0,0,0,0,0,0,0,0,0,0,0,0,0,0,0,0,0,0,0,0,0,0,0,0,0,0,0,0,0],"sum_hessian":[7.37E2,3.34E2,4.03E2,1.51E2,1.83E2,2.57E2,1.46E2,7.7E1,7.4E1,1.03E2,8E1,1.02E2,1.55E2,1E0,1.02E2,2E0,7.8E1,3.5E1,6.7E1,1.5E2,5E0,4E1,3.8E1,2E0,3.3E1,1.47E2,3E0,3E0,2E0,2.1E1,1.7E1,3E1,3E0,2E0,1E0,2.8E1,2E0,2E0,1E0,1.9E1,9E0,1E0,1E0],"tree_param":{"num_deleted":"0","num_feature":"7","num_nodes":"43","size_leaf_vector":"1"}},{"base_weights":[-1.2388358E-2,-4.6652538E-1,3.8174316E-1,-6.900109E-1,-2.7966323E-1,1.5711164E-1,1.4810716E-1,-1.6851287E-1,-1.19986795E-1,-3.8178626E-1,-1.4581111E-1,7.750743E-2,2.6490113E-1,-8.27237E-2,-6.0701407E-2,3.9883904E-2,-1.6396973E-1,3.2699768E-2,1.2682372E-1,1.08317964E-1,5.384275E-2,-4.1165765E-2,-1.0532811E-1,-3.0640352E-3,5.9457205E-2,1.6618504E-1,4.573272E-2,3.5409715E-2,-1.5689002E-2,-7.1240075E-2,-7.0186876E-2,3.2149546E-3,-3.6453612E-2,2.9727811E-2,4.785618E-2,1.9936744E-2,2.5616544E-1,-2.489418E-3,9.868926E-3,-1.0471135E-2,-1.7424168E-2,-4.7213533E-3,-1.2707718E-2,-1.2922041E-2,1.0666914E-2,5.3094458E-2,7.1503944E-3,4.2189728E-3,-6.3947397E-3],"categories":[],"categories_nodes":[],"categories_segments":[],"categories_sizes":[],"default_left":[0,0,0,0,0,0,0,0,0,0,0,0,0,0,0,0,0,0,0,0,0,0,0,0,0,0,0,0,0,0,0,0,0,0,0,0,0,0,0,0,0,0,0,0,0,0,0,0,0],"id":3,"left_children":[1,3,5,7,9,11,-1,-1,-1,13,15,17,19,-1,-1,-1,21,23,25,27,-1,-1,29,31,33,35,37,-1,-1,39,-1,-1,41,-1,43,-1,45,-1,-1,-1,-1,-1,-1,47,-1,-1,-1,-1,-1],"loss_changes":[1.26364944E2,1.3311661E1,3.0232647E1,1.0227814E0,2.3764906E0,1.9753537E0,0E0,0E0,0E0,3.0918121E-3,5.794482E-1,2.96651E-1,8.531094E-3,0E0,0E0,0E0,1.505611E-1,7.2135426E-2,1.9227004E-1,1.0479515E-1,0E0,0E0,2.5977153E-1,2.2899214E-2,3.0261219E-2,2.0623302E-1,6.2717646E-3,0E0,0E0,1.3739169E-3,0E0,0E0,1.5235525E-3,0E0,1.5030012E-2,0E0,1.5890718E-2,0E0,0E0,0E0,0E0,0E0,0E0,4.5893537E-3,0E0,0E0,0E0,0E0,0E0],"parents":[2147483647,0,0,1,1,2,2,3,3,4,4,5,5,9,9,10,10,11,11,12,12,16,16,17,17,18,18,19,19,22,22,23,23,24,24,25,25,26,26,29,29,32,32,34,34,36,36,43,43],"right_children":[2,4,6,8,10,12,-1,-1,-1,14,16,18,20,-1,-1,-1,22,24,26,28,-1,-1,30,32,34,36,38,-1,-1,40,-1,-1,42,-1,44,-1,46,-1,-1,-1,-1,-1,-1,48,-1,-1,-1,-1,-1],"split_conditions":[-5.7529826E-2,-8.53698E-1,7.7453506E-1,-1.502813E0,-4.802477E-1,5.215185E-1,1.4810716E-1,-1.6851287E-1,-1.19986795E-1,-6.8682903E-1,-6.868284E-1,1.6813059E-1,3.7492684E-1,-8.27237E-2,-6.0701407E-2,3.9883904E-2,-1.8987994E-1,7.733712E-3,4.816197E-1,1.163089E-1,5.384275E-2,-4.1165765E-2,-5.704891E-2,-5.704873E-2,-5.704873E-2,2.3936604E-1,7.357835E-2,3.5409715E-2,-1.5689002E-2,-1.8942058E-1,-7.0186876E-2,3.2149546E-3,-5.4665403E-3,2.9727811E-2,9.2178024E-2,1.9936744E-2,4.8218855E-1,-2.489418E-3,9.868926E-3,-1.0471135E-2,-1.7424168E-2,-4.7213533E-3,-1.2707718E-2,9.268336E-2,1.0666914E-2,5.3094458E-2,7.1503944E-3,4.2189728E-3,-6.3947397E-3],"split_indices":[2,4,2,2,2,4,0,0,0,1,1,2,2,0,0,0,2,2,2,1,0,0,1,1,1,2,4,0,0,1,0,0,1,0,2,0,1,0,0,0,0,0,0,1,0,0,0,0,0],"split_type":[0,0,0,0,0,0,0,0,0,0,0,0,0,0,0,0,0,0,0,0,0,0,0,0,0,0,0,0,0,0,0,0,0,0,0,0,0,0,0,0,0,0,0,0,0,0,0,0,0],"sum_hessian":[7.02E2,3.26E2,3.76E2,1.46E2,1.8E2,2.33E2,1.43E2,4.8E1,9.8E1,1E2,8E1,1.36E2,9.7E1,6.5E1,3.5E1,3E0,7.7E1,7.3E1,6.3E1,4E0,9.3E1,4.2E1,3.5E1,3.2E1,4.1E1,4.1E1,2.2E1,3E0,1E0,3.3E1,2E0,2.1E1,1.1E1,2E0,3.9E1,2.6E1,1.5E1,1E0,2.1E1,1.9E1,1.4E1,1E1,1E0,3E0,3.6E1,1.4E1,1E0,1E0,2E0],"tree_param":{"num_deleted":"0","num_feature":"7","num_nodes":"49","size_leaf_vector":"1"}},{"base_weights":[-6.2968987E-3,-3.3708274E-1,3.4306574E-1,-4.8523107E-1,-1.1531631E-1,1.6287036E-1,1.2063276E-1,-1.2821965E-1,-3.9717025E-1,-3.755363E-2,-4.172142E-2,4.3996684E-2,2.2209567E-1,-9.523856E-3,-3.9897388E-1,-1.28125595E-2,-1.7813334E-2,3.1720623E-2,6.961981E-2,3.6214784E-2,5.214029E-2,-8.73384E-2,-6.798953E-2,-2.403076E-3,-4.648515E-3,9.856787E-3,-2.571921E-3,1.5028672E-2,-2.7234168E-3],"categories":[],"categories_nodes":[],"categories_segments":[],"categories_sizes":[],"default_left":[0,0,0,0,0,0,0,0,0,0,0,0,0,0,0,0,0,0,0,0,0,0,0,0,0,0,0,0,0],"id":4,"left_children":[1,3,5,7,9,11,-1,-1,13,-1,15,17,19,-1,21,-1,23,25,27,-1,-1,-1,-1,-1,-1,-1,-1,-1,-1],"loss_changes":[8.0548416E1,1.1649937E1,1.5691929E1,2.42807E0,7.628164E-1,1.4096441E0,0E0,0E0,5.1527023E-2,0E0,3.777811E-2,1.7601803E-2,1.19383335E-1,0E0,1.701355E-2,0E0,6.6912547E-4,4.1199334E-2,1.1701502E-2,0E0,0E0,0E0,0E0,0E0,0E0,0E0,0E0,0E0,0E0],"parents":[2147483647,0,0,1,1,2,2,3,3,4,4,5,5,8,8,10,10,11,11,12,12,14,14,16,16,17,17,18,18],"right_children":[2,4,6,8,10,12,-1,-1,14,-1,16,18,20,-1,22,-1,24,26,28,-1,-1,-1,-1,-1,-1,-1,-1,-1,-1],"split_conditions":[7.311856E-2,-6.820523E-1,1.4192818E0,-1.1649158E0,-1.889709E-1,4.767959E-1,1.2063276E-1,-1.2821965E-1,-1.1742285E0,-3.755363E-2,-5.704891E-2,1.681306E-1,5.635901E-1,-9.523856E-3,-8.5401314E-1,-1.28125595E-2,-5.75298E-2,1.6864833E-1,8.353435E-1,3.6214784E-2,5.214029E-2,-8.73384E-2,-6.798953E-2,-2.403076E-3,-4.648515E-3,9.856787E-3,-2.571921E-3,1.5028672E-2,-2.7234168E-3],"split_indices":[5,5,5,5,5,5,0,0,2,0,1,2,5,0,5,0,2,1,1,0,0,0,0,0,0,0,0,0,0],"split_type":[0,0,0,0,0,0,0,0,0,0,0,0,0,0,0,0,0,0,0,0,0,0,0,0,0,0,0,0,0],"sum_hessian":[6.93E2,3.56E2,3.37E2,2.12E2,1.44E2,2.01E2,1.36E2,7.2E1,1.4E2,7.1E1,7.3E1,6.8E1,1.33E2,1E0,1.39E2,3.6E1,3.7E1,4.9E1,1.9E1,7E1,6.3E1,7.7E1,6.2E1,2.1E1,1.6E1,3.5E1,1.4E1,1.8E1,1E0],"tree_param":{"num_deleted":"0","num_feature":"7","num_nodes":"29","size_leaf_vector":"1"}},{"base_weights":[-5.105171E-3,-3.1636086E-1,2.6424614E-1,-4.2861462E-1,-1.5468615E-1,1.0781751E-1,5.0364524E-1,-1.17721215E-1,-7.5467266E-2,8.2138985E-2,-1.6883218E-1,3.0027736E-2,1.7187525E-1,8.869618E-2,1.12290524E-1,-1.5486902E-1,-1.11832775E-1,3.8253535E-2,-1.5637025E-1,2.3481881E-2,3.7779305E-2,-4.649413E-2,-7.943228E-2,-1.0640994E-2,5.783403E-2,-3.7582397E-2,-2.013556E-3,4.386334E-2,-8.981795E-2,-1.0068814E-3,-3.4260524E-3,3.325262E-2,4.3789737E-2,-2.4521885E-2,-4.9083315E-2,4.5910615E-2,-2.1459348E-3,-6.257893E-3,-1.3260466E-2,7.6705255E-3,1.2193474E-2,-3.8781562E-3,4.4555636E-3],"categories":[],"categories_nodes":[],"categories_segments":[],"categories_sizes":[],"default_left":[0,0,0,0,0,0,0,0,0,0,0,0,0,0,0,0,0,0,0,0,0,0,0,0,0,0,0,0,0,0,0,0,0,0,0,0,0,0,0,0,0,0,0],"id":5,"left_children":[1,3,5,7,9,11,13,-1,-1,-1,15,17,19,-1,-1,21,-1,23,25,-1,-1,-1,27,29,31,-1,-1,-1,33,-1,-1,-1,35,-1,37,39,41,-1,-1,-1,-1,-1,-1],"loss_changes":[6.036225E1,5.9290276E0,1.4346664E1,1.1637955E0,1.2583828E0,1.1656749E0,3.0658722E-2,0E0,0E0,0E0,5.789423E-1,1.7909008E-1,7.523632E-2,0E0,0E0,7.5921464E-1,0E0,1.0271302E-1,1.9289456E-2,0E0,0E0,0E0,2.6279208E-1,9.917631E-4,1.0117227E-1,0E0,0E0,0E0,8.280206E-2,0E0,0E0,0E0,7.0167184E-3,0E0,6.574616E-3,2.948001E-3,2.969888E-3,0E0,0E0,0E0,0E0,0E0,0E0],"parents":[2147483647,0,0,1,1,2,2,3,3,4,4,5,5,6,6,10,10,11,11,12,12,15,15,17,17,18,18,22,22,23,23,24,24,28,28,32,32,34,34,35,35,36,36],"right_children":[2,4,6,8,10,12,14,-1,-1,-1,16,18,20,-1,-1,22,-1,24,26,-1,-1,-1,28,30,32,-1,-1,-1,34,-1,-1,-1,36,-1,38,40,42,-1,-1,-1,-1,-1,-1],"split_conditions":[-5.7993628E-2,-7.937478E-1,7.014136E-1,-1.5065893E0,-8.6029875E-1,4.0967494E-1,1.4923004E0,-1.17721215E-1,-7.5467266E-2,8.2138985E-2,9.2178024E-2,2.8952497E-1,4.9842137E-1,8.869618E-2,1.12290524E-1,-5.17651E-1,-1.11832775E-1,-2.968638E-2,5.396447E-1,2.3481881E-2,3.7779305E-2,-4.649413E-2,-6.868284E-1,-5.75298E-2,-5.704873E-2,-3.7582397E-2,-2.013556E-3,4.386334E-2,-1.9032241E-1,-1.0068814E-3,-3.4260524E-3,3.325262E-2,2.2329511E-1,-2.4521885E-2,-1.8942058E-1,1.681306E-1,1.2347861E-1,-6.257893E-3,-1.3260466E-2,7.6705255E-3,1.2193474E-2,-3.8781562E-3,4.4555636E-3],"split_indices":[3,3,3,3,1,3,3,0,0,0,2,2,3,0,0,3,0,3,1,0,0,0,1,2,1,0,0,0,3,0,0,0,1,0,1,2,3,0,0,0,0,0,0],"split_type":[0,0,0,0,0,0,0,0,0,0,0,0,0,0,0,0,0,0,0,0,0,0,0,0,0,0,0,0,0,0,0,0,0,0,0,0,0,0,0,0,0,0,0],"sum_hessian":[7.16E2,3.32E2,3.84E2,1.94E2,1.38E2,2.34E2,1.5E2,4.2E1,1.52E2,2E0,1.36E2,1.07E2,1.27E2,8.2E1,6.8E1,1.34E2,2E0,1.04E2,3E0,3.4E1,9.3E1,6.4E1,7E1,3E1,7.4E1,2E0,1E0,1E0,6.9E1,1.8E1,1.2E1,6E0,6.8E1,3.6E1,3.3E1,6.5E1,3E0,1.9E1,1.4E1,4.8E1,1.7E1,2E0,1E0],"tree_param":{"num_deleted":"0","num_feature":"7","num_nodes":"43","size_leaf_vector":"1"}},{"base_weights":[5.3828824E-3,-2.3926255E-1,2.4930477E-1,-3.594887E-1,-1.1214053E-1,1.2016098E-1,8.3699875E-2,-1.04920365E-1,-3.1528506E-1,-1.9465752E-1,-5.8108706E-2,4.840806E-2,1.5175825E-1,-6.716076E-2,-4.824864E-2,1.1605713E-2,-4.0814623E-2,-5.0237503E-2,-4.0032092E-2,5.1146064E-2,-8.454937E-3,6.84633E-2,1.3962919E-1,-1.7987115E-2,-2.9544344E-2,6.3591124E-3,1.3701868E-2,8.8783085E-2,3.0740416E-2,-8.771058E-3,-1.3636408E-2,2.6079599E-2,5.133312E-3,-1.912339E-3,-3.6675525E-3],"categories":[],"categories_nodes":[],"categories_segments":[],"categories_sizes":[],"default_left":[0,0,0,0,0,0,0,0,0,0,0,0,0,0,0,0,0,0,0,0,0,0,0,0,0,0,0,0,0,0,0,0,0,0,0],"id":6,"left_children":[1,3,5,7,9,11,-1,-1,13,15,17,19,21,-1,-1,-1,-1,23,-1,25,-1,-1,27,-1,29,-1,-1,31,-1,-1,33,-1,-1,-1,-1],"loss_changes":[4.207039E1,5.2991276E0,7.612629E0,9.829521E-1,7.531638E-1,4.4554806E-1,0E0,0E0,6.1307907E-2,1.8546915E-1,1.006456E-1,2.0463184E-2,2.2798634E-1,0E0,0E0,0E0,0E0,8.094108E-2,0E0,1.7146647E-2,0E0,0E0,6.930733E-2,0E0,1.5195295E-2,0E0,0E0,8.261028E-2,0E0,0E0,3.581168E-4,0E0,0E0,0E0,0E0],"parents":[2147483647,0,0,1,1,2,2,3,3,4,4,5,5,8,8,9,9,10,10,11,11,12,12,17,17,19,19,22,22,24,24,27,27,30,30],"right_children":[2,4,6,8,10,12,-1,-1,14,16,18,20,22,-1,-1,-1,-1,24,-1,26,-1,-1,28,-1,30,-1,-1,32,-1,-1,34,-1,-1,-1,-1],"split_conditions":[7.2658926E-2,-7.868046E-1,1.4186126E0,-1.490911E0,-3.5688528E-1,4.762734E-1,8.3699875E-2,-1.04920365E-1,-8.543284E-1,-1.1742285E0,7.357835E-2,4.3456444E-1,-5.75298E-2,-6.716076E-2,-4.824864E-2,1.1605713E-2,-4.0814623E-2,-1.88552E-1,-4.0032092E-2,1.6813059E-1,-8.454937E-3,6.84633E-2,5.204595E-1,-1.7987115E-2,-5.8208775E-2,6.3591124E-3,1.3701868E-2,4.816197E-1,3.0740416E-2,-8.771058E-3,-5.75298E-2,2.6079599E-2,5.133312E-3,-1.912339E-3,-3.6675525E-3],"split_indices":[6,6,6,6,6,6,0,0,6,2,4,2,2,0,0,0,0,4,0,2,0,0,6,0,2,0,0,2,0,0,2,0,0,0,0],"split_type":[0,0,0,0,0,0,0,0,0,0,0,0,0,0,0,0,0,0,0,0,0,0,0,0,0,0,0,0,0,0,0,0,0,0,0],"sum_hessian":[7.01E2,3.5E2,3.51E2,1.78E2,1.72E2,2.01E2,1.5E2,3.3E1,1.45E2,6.6E1,1.06E2,6.3E1,1.38E2,1.08E2,3.7E1,2E0,6.4E1,1.03E2,3E0,6.2E1,1E0,5E0,1.33E2,3.3E1,7E1,3.2E1,3E1,3.2E1,1.01E2,3.5E1,3.5E1,1.8E1,1.4E1,2.2E1,1.3E1],"tree_param":{"num_deleted":"0","num_feature":"7","num_nodes":"35","size_leaf_vector":"1"}},{"base_weights":[1.5876845E-3,-1.9219643E-1,1.6471417E-1,-3.601847E-1,-1.4167693E-1,7.902377E-2,3.0645636E-1,-8.131514E-2,-5.8112573E-2,-1.9286321E-1,-6.976685E-2,1.8344946E-2,1.2145515E-1,5.267739E-2,3.4077936E-1,-2.153364E-1,-3.2989472E-2,-9.0668894E-2,-4.386582E-2,3.9919824E-3,2.4903594E-2,1.0524035E-1,1.4805363E-1,7.393911E-2,4.8651244E-2,-2.9646998E-2,-4.8120987E-2,-1.3591604E-2,-2.047175E-2,-1.130345E-2,-3.4129813E-2,3.6092598E-3,-2.9906612E-3,2.6950344E-2,-7.891273E-3,2.3425976E-2,7.8586996E-2,3.9071087E-2,2.2369264E-2,-5.181269E-3,-8.552822E-3,7.038185E-3,1.6154973E-2,1.0880872E-2,1.9842828E-2,-1.2282719E-3,7.834763E-3],"categories":[],"categories_nodes":[],"categories_segments":[],"categories_sizes":[],"default_left":[0,0,0,0,0,0,0,0,0,0,0,0,0,0,0,0,0,0,0,0,0,0,0,0,0,0,0,0,0,0,0,0,0,0,0,0,0,0,0,0,0,0,0,0,0,0,0],"id":7,"left_children":[1,3,5,7,9,11,13,-1,-1,15,17,19,21,-1,23,25,-1,27,29,31,33,35,37,-1,-1,-1,-1,-1,-1,-1,39,-1,-1,41,-1,-1,43,-1,-1,-1,-1,-1,45,-1,-1,-1,-1],"loss_changes":[2.2823467E1,2.6985455E0,4.712776E0,5.964279E-3,9.1905737E-1,6.314913E-1,3.7791252E-2,0E0,0E0,2.243805E-2,5.1597774E-2,9.591315E-3,3.1374454E-2,0E0,3.1638145E-2,5.7529926E-2,0E0,1.7515123E-3,2.6703924E-3,9.858911E-3,1.1479482E-2,1.2329102E-2,4.1933894E-2,0E0,0E0,0E0,0E0,0E0,0E0,0E0,2.69413E-4,0E0,0E0,5.0901882E-3,0E0,0E0,7.162094E-3,0E0,0E0,0E0,0E0,0E0,1.7931178E-2,0E0,0E0,0E0,0E0],"parents":[2147483647,0,0,1,1,2,2,3,3,4,4,5,5,6,6,9,9,10,10,11,11,12,12,14,14,15,15,17,17,18,18,19,19,20,20,21,21,22,22,30,30,33,33,36,36,42,42],"right_children":[2,4,6,8,10,12,14,-1,-1,16,18,20,22,-1,24,26,-1,28,30,32,34,36,38,-1,-1,-1,-1,-1,-1,-1,40,-1,-1,42,-1,-1,44,-1,-1,-1,-1,-1,46,-1,-1,-1,-1],"split_conditions":[-5.7750706E-2,-1.1649158E0,1.4192818E0,-1.4906949E0,-6.8682903E-1,4.767959E-1,1.5585349E0,-8.131514E-2,-5.8112573E-2,-8.5401314E-1,-3.5841227E-1,7.311856E-2,5.7034224E-1,5.267739E-2,1.5840855E0,-1.1736189E0,-3.2989472E-2,-6.8643737E-1,-1.889709E-1,-5.655404E-2,1.1665269E0,5.273601E-1,5.737398E-1,7.393911E-2,4.8651244E-2,-2.9646998E-2,-4.8120987E-2,-1.3591604E-2,-2.047175E-2,-1.130345E-2,-1.8894769E-1,3.6092598E-3,-2.9906612E-3,1.6918017E-1,-7.891273E-3,2.3425976E-2,5.396447E-1,3.9071087E-2,2.2369264E-2,-5.181269E-3,-8.552822E-3,7.038185E-3,1.6918021E-1,1.0880872E-2,1.9842828E-2,-1.2282719E-3,7.834763E-3],"split_indices":[5,5,5,5,1,5,5,0,0,5,1,5,0,0,0,0,0,0,5,0,1,0,0,0,0,0,0,0,0,0,0,0,0,0,0,0,1,0,0,0,0,0,0,0,0,0,0],"split_type":[0,0,0,0,0,0,0,0,0,0,0,0,0,0,0,0,0,0,0,0,0,0,0,0,0,0,0,0,0,0,0,0,0,0,0,0,0,0,0,0,0,0,0,0,0,0,0],"sum_hessian":[7.18E2,3.28E2,3.9E2,7.3E1,2.55E2,2.45E2,1.45E2,3.8E1,3.5E1,1.47E2,1.08E2,1.02E2,1.43E2,7.2E1,7.3E1,7.4E1,7.3E1,5.7E1,5.1E1,3.3E1,6.9E1,9.5E1,4.8E1,5.2E1,2.1E1,2.4E1,5E1,2.4E1,3.3E1,1.8E1,3.3E1,1.9E1,1.4E1,6.8E1,1E0,6.1E1,3.4E1,1.7E1,3.1E1,2.1E1,1.2E1,3.6E1,3.2E1,1.9E1,1.5E1,1.7E1,1.5E1],"tree_param":{"num_deleted":"0","num_feature":"7","num_nodes":"47","size_leaf_vector":"1"}},{"base_weights":[5.2120667E-3,-1.5555626E-1,1.6369313E-1,-2.6628E-1,-8.218376E-2,8.032119E-2,2.7977908E-1,-7.122252E-2,-4.631883E-2,-1.22547165E-1,-4.2521376E-2,7.853707E-2,7.2000116E-2,1.08327545E-1,2.6877227E-1,2.2432523E-2,-1.2696096E-1,-3.2586507E-2,-5.8397174E-2,2.640885E-2,9.441301E-2,4.1061107E-2,5.646203E-2,-2.4321994E-3,-2.5567878E-2,-1.1182195E-2,-1.8528033E-2,3.5689373E-2,-2.9376918E-2,6.84362E-2,2.0447884E-2,-2.7324565E-2,-7.918769E-3,2.074882E-2,5.2664965E-2,1.763622E-2,9.5782345E-3,-3.5207942E-3,-7.2338455E-3,-1.2648084E-3,-2.9915029E-3,5.437883E-3,2.9418617E-3,1.2912023E-2,6.2737577E-3],"categories":[],"categories_nodes":[],"categories_segments":[],"categories_sizes":[],"default_left":[0,0,0,0,0,0,0,0,0,0,0,0,0,0,0,0,0,0,0,0,0,0,0,0,0,0,0,0,0,0,0,0,0,0,0,0,0,0,0,0,0,0,0,0,0],"id":8,"left_children":[1,3,5,7,9,11,13,-1,-1,15,17,-1,19,-1,21,-1,23,25,-1,27,29,-1,-1,-1,-1,-1,31,33,-1,35,-1,37,39,41,43,-1,-1,-1,-1,-1,-1,-1,-1,-1,-1],"loss_changes":[1.8013433E1,2.807784E0,3.4005346E0,2.681656E-1,3.3217287E-1,4.8928642E-1,1.3541412E-1,0E0,0E0,1.372565E-1,2.5607246E-1,0E0,2.0653272E-1,0E0,9.524345E-3,0E0,7.37834E-3,3.3669963E-2,0E0,1.2467045E-1,1.4062285E-2,0E0,0E0,0E0,0E0,0E0,6.1933007E-3,1.5314639E-2,0E0,6.968856E-3,0E0,1.9936226E-3,2.0368677E-4,7.5604767E-4,3.8026124E-3,0E0,0E0,0E0,0E0,0E0,0E0,0E0,0E0,0E0,0E0],"parents":[2147483647,0,0,1,1,2,2,3,3,4,4,5,5,6,6,9,9,10,10,12,12,14,14,16,16,17,17,19,19,20,20,26,26,27,27,29,29,31,31,32,32,33,33,34,34],"right_children":[2,4,6,8,10,12,14,-1,-1,16,18,-1,20,-1,22,-1,24,26,-1,28,30,-1,-1,-1,-1,-1,32,34,-1,36,-1,38,40,42,44,-1,-1,-1,-1,-1,-1,-1,-1,-1,-1],"split_conditions":[7.2658926E-2,-8.543284E-1,1.4186126E0,-1.490911E0,-3.5688528E-1,-3.5925937E-1,1.1092749E0,-7.122252E-2,-4.631883E-2,-1.2734059E0,1.2347861E-1,7.853707E-2,4.762734E-1,1.08327545E-1,1.4709455E0,2.2432523E-2,-9.3396574E-1,-1.893897E-1,-5.8397174E-2,8.353435E-1,5.204595E-1,4.1061107E-2,5.646203E-2,-2.4321994E-3,-2.5567878E-2,-1.1182195E-2,-5.867247E-2,1.6864833E-1,-2.9376918E-2,4.8218855E-1,2.0447884E-2,-1.903224E-1,-5.4665403E-3,1.265591E-1,1.6864835E-1,1.763622E-2,9.5782345E-3,-3.5207942E-3,-7.2338455E-3,-1.2648084E-3,-2.9915029E-3,5.437883E-3,2.9418617E-3,1.2912023E-2,6.2737577E-3],"split_indices":[6,6,6,6,6,3,3,0,0,3,3,0,6,0,6,0,3,6,0,1,6,0,0,0,0,0,3,1,0,1,0,3,1,1,1,0,0,0,0,0,0,0,0,0,0],"split_type":[0,0,0,0,0,0,0,0,0,0,0,0,0,0,0,0,0,0,0,0,0,0,0,0,0,0,0,0,0,0,0,0,0,0,0,0,0,0,0,0,0,0,0,0,0],"sum_hessian":[7.03E2,3.49E2,3.54E2,1.37E2,2.12E2,2.08E2,1.46E2,3.3E1,1.04E2,1.03E2,1.09E2,3E0,2.05E2,2E0,1.44E2,1E0,1.02E2,1.07E2,2E0,6.9E1,1.36E2,3.1E1,1.13E2,1E0,1.01E2,3.8E1,6.9E1,6.7E1,2E0,3.6E1,1E2,3.6E1,3.3E1,3.8E1,2.9E1,1.5E1,2.1E1,2E1,1.6E1,3E1,3E0,1.5E1,2.3E1,1.6E1,1.3E1],"tree_param":{"num_deleted":"0","num_feature":"7","num_nodes":"45","size_leaf_vector":"1"}},{"base_weights":[-3.1706444E-3,-1.2310025E-1,1.0654188E-1,-1.8923888E-1,-6.911375E-2,4.54616E-2,4.056016E-2,-4.5466684E-2,-2.8252626E-2,-9.009063E-2,-3.814319E-2,1.0706168E-2,1.4055083E-2,-1.006176E-1,-6.669606E-2,1.27339875E-2,-4.2332638E-2,1.6644958E-2,-1.6265201E-3,-1.237966E-2,-2.4045328E-2,-7.7254847E-3,-2.1144977E-2,-1.4183732E-2,-2.7279878E-2,8.248702E-3,2.300686E-2,-3.0706739E-2,2.4563836E-2,-4.3315026E-3,-7.130609E-3,4.0740785E-3,-1.641053E-3,9.4681E-3,3.7822388E-3,-1.0203787E-3,-6.333861E-3,2.637582E-3,5.3666183E-3,-1.7543519E-3,2.4577072E-3],"categories":[],"categories_nodes":[],"categories_segments":[],"categories_sizes":[],"default_left":[0,0,0,0,0,0,0,0,0,0,0,0,0,0,0,0,0,0,0,0,0,0,0,0,0,0,0,0,0,0,0,0,0,0,0,0,0,0,0,0,0],"id":9,"left_children":[1,3,5,7,9,11,-1,-1,-1,13,15,17,-1,19,21,-1,23,25,27,-1,-1,-1,-1,-1,29,31,33,35,37,-1,-1,-1,-1,-1,-1,-1,-1,39,-1,-1,-1],"loss_changes":[9.447201E0,1.198556E0,2.1863813E0,2.1539688E-1,1.1786312E-1,1.9857547E-1,0E0,0E0,0E0,1.4407396E-2,3.9940417E-2,7.30503E-3,0E0,4.1300714E-2,3.6747172E-2,0E0,3.0124277E-2,3.1993296E-3,2.7403673E-2,0E0,0E0,0E0,0E0,0E0,1.0449216E-3,6.7166844E-3,1.8969793E-3,9.584054E-5,8.038208E-4,0E0,0E0,0E0,0E0,0E0,0E0,0E0,0E0,6.560283E-4,0E0,0E0,0E0],"parents":[2147483647,0,0,1,1,2,2,3,3,4,4,5,5,9,9,10,10,11,11,13,13,14,14,16,16,17,17,18,18,24,24,25,25,26,26,27,27,28,28,37,37],"right_children":[2,4,6,8,10,12,-1,-1,-1,14,16,18,-1,20,22,-1,24,26,28,-1,-1,-1,-1,-1,30,32,34,36,38,-1,-1,-1,-1,-1,-1,-1,-1,40,-1,-1,-1],"split_conditions":[-5.731133E-2,-8.53698E-1,7.7453506E-1,-1.1646492E0,-4.802477E-1,4.7731867E-1,4.056016E-2,-4.5466684E-2,-2.8252626E-2,-6.8643796E-1,-6.8643737E-1,1.6918017E-1,1.4055083E-2,-8.599363E-1,-6.8643737E-1,1.27339875E-2,-3.5796726E-1,9.2178024E-2,1.681306E-1,-1.237966E-2,-2.4045328E-2,-7.7254847E-3,-2.1144977E-2,-1.4183732E-2,-1.8894769E-1,-5.655404E-2,1.2133991E-1,9.2178024E-2,7.357835E-2,-4.3315026E-3,-7.130609E-3,4.0740785E-3,-1.641053E-3,9.4681E-3,3.7822388E-3,-1.0203787E-3,-6.333861E-3,1.167223E0,5.3666183E-3,-1.7543519E-3,2.4577072E-3],"split_indices":[4,4,2,4,2,4,0,0,0,0,0,0,0,0,0,0,0,2,2,0,0,0,0,0,0,0,2,2,4,0,0,0,0,0,0,0,0,0,0,0,0],"split_type":[0,0,0,0,0,0,0,0,0,0,0,0,0,0,0,0,0,0,0,0,0,0,0,0,0,0,0,0,0,0,0,0,0,0,0,0,0,0,0,0,0],"sum_hessian":[7.14E2,3.41E2,3.73E2,1.51E2,1.9E2,2.3E2,1.43E2,8E1,7.1E1,1.11E2,7.9E1,9.7E1,1.33E2,7.2E1,3.9E1,2E0,7.7E1,6.5E1,3.2E1,2.7E1,4.5E1,2.5E1,1.4E1,2.4E1,5.3E1,3E1,3.5E1,1.5E1,1.7E1,3.6E1,1.7E1,1.7E1,1.3E1,2E0,3.3E1,1E0,1.4E1,2E0,1.5E1,1E0,1E0],"tree_param":{"num_deleted":"0","num_feature":"7","num_nodes":"41","size_leaf_vector":"1"}},{"base_weights":[3.3825869E-3,-9.3036965E-2,9.978287E-2,-1.300194E-1,-3.4761317E-2,5.2646272E-2,1.6524662E-1,-4.1088402E-2,-1.1193171E-1,-2.1583766E-2,-3.7928614E-1,5.9583176E-2,-2.5143787E-1,2.672703E-2,3.8639378E-2,-1.0846407E-1,-4.1535057E-2,3.388384E-2,-2.69632E-2,-9.001917E-2,-6.4031566E-3,3.4161222E-1,5.1974658E-2,-8.110737E-3,-5.6776416E-2,-2.4190791E-2,-8.858546E-2,-7.170929E-2,-1.0923207E-2,7.893113E-3,7.9483226E-2,4.8370153E-2,5.1525038E-2,7.610599E-4,-8.993683E-2,-5.6671835E-2,-3.8865507E-2,3.2560233E-2,-1.5916474E-2,3.2500986E-2,1.2910159E-2,-1.3518974E-2,-1.9591434E-2,-7.79107E-3,-1.4783735E-2,-1.998877E-2,-1.3048645E-2,3.662173E-2,-6.456258E-2,-1.1632012E-2,-1.0125244E-2,1.0346685E-1,3.250588E-2,-3.056532E-2,6.783345E-3,-6.055523E-3,-1.6961338E-2,2.2838672E-3,2.4153812E-2,9.946266E-3,4.4000257E-2,-2.6674876E-3,1.7553185E-3,-5.49537E-3,-2.2370054E-3,-2.1209586E-3,2.3557926E-3,1.0608866E-2,4.3001994E-3],"categories":[],"categories_nodes":[],"categories_segments":[],"categories_sizes":[],"default_left":[0,0,0,0,0,0,0,0,0,0,0,0,0,0,0,0,0,0,0,0,0,0,0,0,0,0,0,0,0,0,0,0,0,0,0,0,0,0,0,0,0,0,0,0,0,0,0,0,0,0,0,0,0,0,0,0,0,0,0,0,0,0,0,0,0,0,0,0,0],"id":10,"left_children":[1,3,5,7,9,11,13,-1,15,17,19,21,23,-1,-1,25,-1,-1,27,-1,-1,29,31,-1,-1,-1,33,35,37,-1,-1,39,-1,-1,41,43,-1,-1,45,47,-1,-1,-1,-1,-1,-1,49,51,53,55,-1,57,59,-1,-1,61,63,-1,-1,65,67,-1,-1,-1,-1,-1,-1,-1,-1],"loss_changes":[6.524977E0,7.4742746E-1,1.0656955E0,2.4595213E-1,6.146862E-1,4.6660918E-1,7.736206E-2,0E0,1.37143135E-2,1.4887455E-1,9.413016E-2,4.0223736E-1,1.1184901E-2,0E0,0E0,2.2019625E-2,0E0,0E0,9.460882E-2,0E0,0E0,5.2936256E-2,1.24072194E-1,0E0,0E0,0E0,1.0048568E-2,4.2509496E-2,9.27951E-2,0E0,0E0,4.7158718E-2,0E0,0E0,1.7225742E-5,4.6297684E-3,0E0,0E0,2.148935E-2,4.6726063E-2,0E0,0E0,0E0,0E0,0E0,0E0,4.092358E-3,2.1336123E-2,5.3827643E-2,2.7070353E-3,0E0,5.2049235E-3,2.47963E-2,0E0,0E0,5.7424316E-3,2.3616431E-3,0E0,0E0,1.6057258E-3,1.0945499E-2,0E0,0E0,0E0,0E0,0E0,0E0,0E0,0E0],"parents":[2147483647,0,0,1,1,2,2,3,3,4,4,5,5,6,6,8,8,9,9,10,10,11,11,12,12,15,15,18,18,21,21,22,22,26,26,27,27,28,28,31,31,34,34,35,35,38,38,39,39,46,46,47,47,48,48,49,49,51,51,52,52,55,55,56,56,59,59,60,60],"right_children":[2,4,6,8,10,12,14,-1,16,18,20,22,24,-1,-1,26,-1,-1,28,-1,-1,30,32,-1,-1,-1,34,36,38,-1,-1,40,-1,-1,42,44,-1,-1,46,48,-1,-1,-1,-1,-1,-1,50,52,54,56,-1,58,60,-1,-1,62,64,-1,-1,66,68,-1,-1,-1,-1,-1,-1,-1,-1],"split_conditions":[7.2593894E-3,-7.1324325E-1,1.1651853E0,-1.4904791E0,9.2178024E-2,7.7453506E-1,1.5592264E0,-4.1088402E-2,-6.872072E-1,-7.861532E-1,-5.7993628E-2,-5.731133E-2,1.1658463E0,2.672703E-2,3.8639378E-2,-1.08078E0,-4.1535057E-2,3.388384E-2,-5.17651E-1,-9.001917E-2,-6.4031566E-3,-3.5884413E-1,7.014136E-1,-8.110737E-3,-5.6776416E-2,-2.4190791E-2,-1.1742285E0,-4.802477E-1,-6.8720716E-1,7.893113E-3,7.9483226E-2,4.9842137E-1,5.1525038E-2,7.610599E-4,-8.6064875E-1,-6.8720716E-1,-3.8865507E-2,3.2560233E-2,-3.5925937E-1,5.026936E-1,1.2910159E-2,-1.3518974E-2,-1.9591434E-2,-7.79107E-3,-1.4783735E-2,-1.998877E-2,1.6645746E-1,7.733712E-3,5.3906643E-1,-1.903224E-1,-1.0125244E-2,-5.8208775E-2,1.6763042E-1,-3.056532E-2,6.783345E-3,-1.8987994E-1,-5.731133E-2,2.2838672E-3,2.4153812E-2,7.357835E-2,4.816197E-1,-2.6674876E-3,1.7553185E-3,-5.49537E-3,-2.2370054E-3,-2.1209586E-3,2.3557926E-3,1.0608866E-2,4.3001994E-3],"split_indices":[3,3,3,4,2,2,4,0,2,4,3,4,2,0,0,3,0,0,3,0,0,2,3,0,0,0,2,2,2,0,0,3,0,0,2,2,0,0,3,2,0,0,0,0,0,0,4,2,2,3,0,2,3,0,0,2,4,0,0,4,2,0,0,0,0,0,0,0,0],"split_type":[0,0,0,0,0,0,0,0,0,0,0,0,0,0,0,0,0,0,0,0,0,0,0,0,0,0,0,0,0,0,0,0,0,0,0,0,0,0,0,0,0,0,0,0,0,0,0,0,0,0,0,0,0,0,0,0,0,0,0,0,0,0,0,0,0,0,0,0,0],"sum_hessian":[6.98E2,3.49E2,3.49E2,2.12E2,1.37E2,2.05E2,1.44E2,3.7E1,1.75E2,1.34E2,3E0,2.02E2,3E0,7.3E1,7.1E1,1.73E2,2E0,2E0,1.32E2,2E0,1E0,3E0,1.99E2,1E0,2E0,1E2,7.3E1,3.3E1,9.9E1,1E0,2E0,1.98E2,1E0,1E0,7.2E1,3.2E1,1E0,1E0,9.8E1,1.03E2,9.5E1,2.4E1,4.8E1,1.9E1,1.3E1,1E0,9.7E1,1E2,3E0,9.6E1,1E0,3E0,9.7E1,1E0,2E0,4.9E1,4.7E1,1E0,2E0,3.4E1,6.3E1,3.3E1,1.6E1,1.4E1,3.3E1,2E0,3.2E1,4.3E1,2E1],"tree_param":{"num_deleted":"0","num_feature":"7","num_nodes":"69","size_leaf_vector":"1"}},{"base_weights":[3.7304575E-3,-7.087546E-2,1.1523193E-1,-1.7706448E-1,-4.652153E-2,6.436902E-2,1.6286299E-1,-3.1716444E-2,-9.071144E-2,-7.131733E-2,-8.509501E-3,5.595274E-2,5.1046032E-2,8.565196E-2,1.5162006E-1,2.5580848E-2,-7.342395E-2,-1.4323419E-3,-5.1098775E-2,7.839763E-3,1.0914991E-2,2.4166226E-2,3.6067087E-2,-8.9072295E-2,-5.6126125E-2,-1.3066664E-2,1.0241767E-2,-1.6979514E-2,-3.6274474E-2,-4.8933197E-2,-2.9185772E-2,-1.826352E-2,-7.1635004E-3,8.566101E-3,6.889009E-3,-6.585015E-2,-3.8688604E-2,-2.810043E-3,-1.1329503E-2,-1.6259671E-3,1.841637E-3,3.3786488E-3,5.880985E-3,7.1032444E-4,-1.3607203E-2,-4.2483635E-2,-3.8724025E-3,3.1678772E-3,2.166189E-3,-5.7379464E-3,-4.7507603E-2,1.251194E-3,-4.1065048E-4,-1.222122E-2,-7.1095796E-3],"categories":[],"categories_nodes":[],"categories_segments":[],"categories_sizes":[],"default_left":[0,0,0,0,0,0,0,0,0,0,0,0,0,0,0,0,0,0,0,0,0,0,0,0,0,0,0,0,0,0,0,0,0,0,0,0,0,0,0,0,0,0,0,0,0,0,0,0,0,0,0,0,0,0,0],"id":11,"left_children":[1,3,5,7,9,11,13,-1,-1,15,17,-1,19,-1,21,-1,23,25,-1,-1,-1,-1,-1,27,29,31,33,-1,-1,35,-1,37,39,41,-1,43,45,-1,-1,-1,-1,-1,47,-1,-1,49,-1,51,-1,-1,53,-1,-1,-1,-1],"loss_changes":[6.080644E0,1.1162462E0,6.8887115E-1,2.7007532E-1,3.3715755E-1,3.8754493E-1,3.1771016E-1,0E0,0E0,1.0985398E-1,2.5097254E-1,0E0,1.5327632E-3,0E0,8.6384535E-2,0E0,4.846883E-2,1.955414E-2,0E0,0E0,0E0,0E0,0E0,1.1589885E-2,5.548048E-2,1.9471468E-3,2.3299572E-3,0E0,0E0,1.2755379E-2,0E0,4.3919515E-3,7.3508173E-4,1.366456E-3,0E0,5.94458E-3,3.415674E-3,0E0,0E0,0E0,0E0,0E0,6.8344513E-4,0E0,0E0,1.15484E-3,0E0,6.545001E-4,0E0,0E0,1.8357188E-3,0E0,0E0,0E0,0E0],"parents":[2147483647,0,0,1,1,2,2,3,3,4,4,5,5,6,6,9,9,10,10,12,12,14,14,16,16,17,17,23,23,24,24,25,25,26,26,29,29,31,31,32,32,33,33,35,35,36,36,42,42,45,45,47,47,50,50],"right_children":[2,4,6,8,10,12,14,-1,-1,16,18,-1,20,-1,22,-1,24,26,-1,-1,-1,-1,-1,28,30,32,34,-1,-1,36,-1,38,40,42,-1,44,46,-1,-1,-1,-1,-1,48,-1,-1,50,-1,52,-1,-1,54,-1,-1,-1,-1],"split_conditions":[4.762734E-1,-1.1651826E0,1.4186126E0,-1.1742285E0,-1.893897E-1,-5.75298E-2,1.1651853E0,-3.1716444E-2,-9.071144E-2,-1.2734059E0,7.7453506E-1,5.595274E-2,5.204595E-1,8.565196E-2,1.5578438E0,2.5580848E-2,-7.868046E-1,7.2658926E-2,-5.1098775E-2,7.839763E-3,1.0914991E-2,2.4166226E-2,3.6067087E-2,-6.872072E-1,-1.8987994E-1,-5.8189955E-2,2.3936604E-1,-1.6979514E-2,-3.6274474E-2,-6.872072E-1,-2.9185772E-2,9.2178024E-2,2.8952497E-1,1.2604822E-1,6.889009E-3,-1.1742285E0,-3.592593E-1,-2.810043E-3,-1.1329503E-2,-1.6259671E-3,1.841637E-3,3.3786488E-3,1.681306E-1,7.1032444E-4,-1.3607203E-2,-6.8720716E-1,-3.8724025E-3,1.6813059E-1,2.166189E-3,-5.7379464E-3,-4.802477E-1,1.251194E-3,-4.1065048E-4,-1.222122E-2,-7.1095796E-3],"split_indices":[6,6,6,2,6,2,3,0,0,3,2,0,6,0,6,0,6,6,0,0,0,0,0,2,2,6,2,0,0,2,0,2,2,2,0,2,3,0,0,0,0,0,2,0,0,2,0,2,0,0,2,0,0,0,0],"split_type":[0,0,0,0,0,0,0,0,0,0,0,0,0,0,0,0,0,0,0,0,0,0,0,0,0,0,0,0,0,0,0,0,0,0,0,0,0,0,0,0,0,0,0,0,0,0,0,0,0,0,0,0,0,0,0],"sum_hessian":[7.27E2,4.36E2,2.91E2,7.9E1,3.57E2,1.43E2,1.48E2,7.7E1,2E0,2.15E2,1.42E2,6E0,1.37E2,3E0,1.45E2,1E0,2.14E2,1.4E2,2E0,3.7E1,1E2,7.5E1,7E1,1.08E2,1.06E2,7E1,7E1,1.07E2,1E0,1.01E2,5E0,3.5E1,3.5E1,6.8E1,2E0,3.4E1,6.7E1,3.4E1,1E0,3.4E1,1E0,1.4E1,5.4E1,1E0,3.3E1,5.4E1,1.3E1,3.7E1,1.7E1,1.8E1,3.6E1,2.3E1,1.4E1,1.3E1,2.3E1],"tree_param":{"num_deleted":"0","num_feature":"7","num_nodes":"55","size_leaf_vector":"1"}},{"base_weights":[9.33025E-4,-7.3488615E-2,5.0131537E-2,-1.2768932E-1,-5.304187E-2,2.4650201E-2,1.0002924E-1,-2.9606655E-2,-1.0131883E-1,-6.5296784E-2,-2.7900932E-2,1.1236537E-2,3.8288195E-2,8.078448E-2,1.18596055E-1,-5.35645E-3,-2.1208463E-2,-3.7541997E-2,-6.995349E-2,-2.3573017E-2,-1.5120042E-2,9.282899E-3,5.1951865E-3,3.278964E-2,4.7346298E-2,1.8611858E-2,6.5084174E-2,2.6254022E-2,1.554568E-2,6.6297053E-4,-7.921326E-3,-1.6914306E-2,-5.653793E-2,-2.738706E-3,-2.7702618E-2,-1.9512445E-2,9.143796E-3,4.2787354E-2,1.2018802E-2,1.15921525E-2,7.1248966E-3,7.3101292E-3,1.987766E-2,-7.867711E-3,-1.2898576E-2,-9.454052E-3,-3.9282073E-3,-5.8223666E-3,-2.742198E-3,3.4043822E-3,2.0752346E-2,-1.5985727E-3,4.388188E-2,-9.578296E-5,5.809681E-3,6.654382E-3,-2.3217825E-3,2.31296E-2,-4.163436E-3,1.3985634E-3,8.852721E-3,3.2115253E-3,2.670767E-3,-3.325522E-3,1.7188614E-3,6.0830805E-3,1.3792567E-2,1.3042594E-3,-2.6847464E-3,-3.821357E-4,-1.8139061E-3,1.6241953E-3,6.200108E-3,-8.2674733E-4,-3.508584E-4],"categories":[],"categories_nodes":[],"categories_segments":[],"categories_sizes":[],"default_left":[0,0,0,0,0,0,0,0,0,0,0,0,0,0,0,0,0,0,0,0,0,0,0,0,0,0,0,0,0,0,0,0,0,0,0,0,0,0,0,0,0,0,0,0,0,0,0,0,0,0,0,0,0,0,0,0,0,0,0,0,0,0,0,0,0,0,0,0,0,0,0,0,0,0,0],"id":12,"left_children":[1,3,5,7,9,11,13,-1,15,17,19,21,23,25,27,-1,-1,29,31,33,-1,-1,35,37,39,-1,41,-1,-1,-1,-1,-1,43,-1,45,47,49,51,53,-1,-1,-1,-1,-1,-1,-1,-1,-1,-1,55,57,-1,59,-1,-1,61,63,65,-1,-1,-1,67,-1,69,-1,-1,71,-1,73,-1,-1,-1,-1,-1,-1],"loss_changes":[2.5667107E0,2.956499E-1,5.316247E-1,1.0238886E-2,5.9824884E-2,5.0727352E-2,3.157711E-2,0E0,8.05068E-3,1.2454271E-2,1.1092875E-2,3.0333484E-2,3.8181692E-3,2.5331974E-3,1.4814377E-2,0E0,0E0,2.287086E-3,1.2989521E-2,2.0155944E-3,0E0,0E0,1.2649493E-2,1.8283956E-2,1.8425509E-3,0E0,3.1887293E-2,0E0,0E0,0E0,0E0,0E0,3.95602E-3,0E0,5.399447E-3,2.0412356E-4,7.187592E-3,4.147455E-3,7.051251E-3,0E0,0E0,0E0,0E0,0E0,0E0,0E0,0E0,0E0,0E0,1.4452628E-3,4.520553E-3,0E0,2.3991615E-4,0E0,0E0,1.0444252E-3,3.7491144E-4,1.5419591E-3,0E0,0E0,0E0,7.1805203E-4,0E0,1.9289454E-4,0E0,0E0,1.3508257E-3,0E0,4.3715117E-6,0E0,0E0,0E0,0E0,0E0,0E0],"parents":[2147483647,0,0,1,1,2,2,3,3,4,4,5,5,6,6,8,8,9,9,10,10,11,11,12,12,13,13,14,14,17,17,18,18,19,19,22,22,23,23,24,24,26,26,32,32,34,34,35,35,36,36,37,37,38,38,49,49,50,50,52,52,55,55,56,56,57,57,61,61,63,63,66,66,68,68],"right_children":[2,4,6,8,10,12,14,-1,16,18,20,22,24,26,28,-1,-1,30,32,34,-1,-1,36,38,40,-1,42,-1,-1,-1,-1,-1,44,-1,46,48,50,52,54,-1,-1,-1,-1,-1,-1,-1,-1,-1,-1,56,58,-1,60,-1,-1,62,64,66,-1,-1,-1,68,-1,70,-1,-1,72,-1,74,-1,-1,-1,-1,-1,-1],"split_conditions":[-1.889709E-1,-1.1649158E0,1.4192818E0,-1.4906949E0,-6.8643796E-1,4.767959E-1,1.5585349E0,-2.9606655E-2,-1.6196165E0,-1.1736189E0,9.495163E-3,-1.8894769E-1,5.703422E-1,1.4864942E0,1.5840855E0,-5.35645E-3,-2.1208463E-2,-1.1646492E0,-8.53698E-1,-6.8643737E-1,-1.5120042E-2,9.282899E-3,-5.7750706E-2,5.273601E-1,5.737398E-1,1.8611858E-2,1.4864943E0,2.6254022E-2,1.554568E-2,6.6297053E-4,-7.921326E-3,-1.6914306E-2,-8.599363E-1,-2.738706E-3,-5.164364E-1,-1.8894748E-1,1.6645746E-1,-1.1736189E0,5.5769724E-1,1.15921525E-2,7.1248966E-3,7.3101292E-3,1.987766E-2,-7.867711E-3,-1.2898576E-2,-9.454052E-3,-3.9282073E-3,-5.8223666E-3,-2.742198E-3,1.27084E-1,4.7731867E-1,-1.5985727E-3,-7.861532E-1,-9.578296E-5,5.809681E-3,7.357835E-2,1.167223E0,1.6918021E-1,-4.163436E-3,1.3985634E-3,8.852721E-3,-5.655404E-2,2.670767E-3,1.6918017E-1,1.7188614E-3,6.0830805E-3,4.4678846E-1,1.3042594E-3,-5.6551125E-2,-3.821357E-4,-1.8139061E-3,1.6241953E-3,6.200108E-3,-8.2674733E-4,-3.508584E-4],"split_indices":[5,5,5,5,0,5,5,0,0,0,0,0,0,0,0,0,0,4,4,0,0,0,5,0,0,0,0,0,0,0,0,0,0,0,0,0,4,0,0,0,0,0,0,0,0,0,0,0,0,0,4,0,4,0,0,4,0,0,0,0,0,0,0,0,0,0,0,0,0,0,0,0,0,0,0],"split_type":[0,0,0,0,0,0,0,0,0,0,0,0,0,0,0,0,0,0,0,0,0,0,0,0,0,0,0,0,0,0,0,0,0,0,0,0,0,0,0,0,0,0,0,0,0,0,0,0,0,0,0,0,0,0,0,0,0,0,0,0,0,0,0,0,0,0,0,0,0,0,0,0,0,0,0],"sum_hessian":[6.97E2,2.77E2,4.2E2,7.3E1,2.04E2,2.8E2,1.4E2,3.6E1,3.7E1,1.35E2,6.9E1,1.43E2,1.37E2,7.4E1,6.6E1,3E0,3.4E1,2.2E1,1.13E2,6.6E1,3E0,1.9E1,1.24E2,9.1E1,4.6E1,3.6E1,3.8E1,4.7E1,1.9E1,1E0,2.1E1,4.9E1,6.4E1,2.2E1,4.4E1,1.6E1,1.08E2,6E1,3.1E1,2E1,2.6E1,2.3E1,1.5E1,2.4E1,4E1,1E1,3.4E1,3E0,1.3E1,7.4E1,3.4E1,1E0,5.9E1,1.9E1,1.2E1,4.7E1,2.7E1,3.3E1,1E0,1E0,5.8E1,3.3E1,1.4E1,2.6E1,1E0,1.6E1,1.7E1,2.1E1,1.2E1,2.3E1,3E0,1.5E1,2E0,2E0,1E1],"tree_param":{"num_deleted":"0","num_feature":"7","num_nodes":"75","size_leaf_vector":"1"}},{"base_weights":[-3.3060105E-3,-4.029405E-2,6.431816E-2,-7.42135E-2,-2.2867575E-2,4.8807763E-2,9.4744936E-2,-2.2090811E-2,-6.081768E-2,-3.5551246E-2,-5.808422E-3,2.782872E-2,5.8308993E-2,2.1555183E-2,1.2010782E-2,-5.068449E-2,-1.4190042E-2,-2.0224994E-2,-3.8310047E-2,5.2796872E-3,-5.8916915E-2,5.0259735E-2,9.5754685E-3,1.7449144E-2,5.183894E-2,-6.6017956E-2,-4.8127943E-3,6.187717E-4,-4.235364E-3,-1.0699456E-2,-3.1131964E-2,4.1911448E-4,6.707214E-3,-1.5306719E-2,1.9444318E-2,-7.0002675E-4,5.456472E-2,-7.865975E-4,4.8682485E-3,4.4104964E-2,1.6691988E-2,-4.896772E-3,-1.3820268E-2,-2.2366086E-3,-3.5975106E-2,5.6574964E-3,-3.3490297E-3,1.2659896E-3,5.5800974E-3,1.3053258E-3,-1.4919996E-3,1.5367446E-2,4.06154E-2,5.0199777E-2,4.5560584E-3,-4.5184158E-2,-2.2559885E-2,2.9824656E-3,2.274361E-3,-6.5616514E-3,5.548972E-3,-1.2666732E-3,1.6042704E-3,8.770029E-3,2.8036118E-3,5.843584E-3,1.2645463E-2,-3.9643E-2,-7.168143E-2,-5.4838415E-3,-2.2258144E-3,9.0831117E-4,-2.7116886E-4,-2.0169935E-5,-2.9255138E-3,-8.198276E-4,1.3328743E-3,-9.0257665E-3,-2.2833645E-3,-1.775304E-2,-3.7513897E-3],"categories":[],"categories_nodes":[],"categories_segments":[],"categories_sizes":[],"default_left":[0,0,0,0,0,0,0,0,0,0,0,0,0,0,0,0,0,0,0,0,0,0,0,0,0,0,0,0,0,0,0,0,0,0,0,0,0,0,0,0,0,0,0,0,0,0,0,0,0,0,0,0,0,0,0,0,0,0,0,0,0,0,0,0,0,0,0,0,0,0,0,0,0,0,0,0,0,0,0,0,0],"id":13,"left_children":[1,3,5,7,9,11,13,-1,15,17,19,21,23,-1,-1,25,-1,27,29,31,33,35,37,-1,39,41,-1,-1,-1,-1,43,45,-1,-1,47,49,51,-1,-1,53,-1,-1,-1,-1,55,57,59,61,-1,-1,-1,-1,63,65,-1,67,69,71,-1,73,75,-1,-1,-1,-1,-1,-1,77,79,-1,-1,-1,-1,-1,-1,-1,-1,-1,-1,-1,-1],"loss_changes":[1.8461293E0,2.7855885E-1,1.13925576E-1,6.4725816E-2,6.839351E-2,3.203553E-2,2.5932252E-2,0E0,5.3341687E-3,6.145701E-3,8.1886575E-2,2.3194376E-2,1.3421178E-2,0E0,0E0,2.4579257E-2,0E0,8.412907E-4,1.3239354E-2,1.5903585E-2,3.6107436E-2,5.7802945E-3,7.1726656E-3,0E0,1.7827302E-2,1.995027E-3,0E0,0E0,0E0,0E0,9.629838E-3,2.031531E-3,0E0,0E0,8.5167075E-4,2.9278523E-4,1.2149289E-3,0E0,0E0,9.020239E-3,0E0,0E0,0E0,0E0,8.58587E-3,5.8946386E-4,1.7879757E-3,3.0694995E-4,0E0,0E0,0E0,0E0,4.0528923E-4,1.434584E-2,0E0,1.5111119E-3,1.5559923E-3,2.2875742E-4,0E0,2.3421026E-3,2.3758179E-4,0E0,0E0,0E0,0E0,0E0,0E0,5.9375316E-3,2.0949673E-3,0E0,0E0,0E0,0E0,0E0,0E0,0E0,0E0,0E0,0E0,0E0,0E0],"parents":[2147483647,0,0,1,1,2,2,3,3,4,4,5,5,6,6,8,8,9,9,10,10,11,11,12,12,15,15,17,17,18,18,19,19,20,20,21,21,22,22,24,24,25,25,30,30,31,31,34,34,35,35,36,36,39,39,44,44,45,45,46,46,47,47,52,52,53,53,55,55,56,56,57,57,59,59,60,60,67,67,68,68],"right_children":[2,4,6,8,10,12,14,-1,16,18,20,22,24,-1,-1,26,-1,28,30,32,34,36,38,-1,40,42,-1,-1,-1,-1,44,46,-1,-1,48,50,52,-1,-1,54,-1,-1,-1,-1,56,58,60,62,-1,-1,-1,-1,64,66,-1,68,70,72,-1,74,76,-1,-1,-1,-1,-1,-1,78,80,-1,-1,-1,-1,-1,-1,-1,-1,-1,-1,-1,-1],"split_conditions":[5.209889E-1,-8.5401314E-1,1.5585349E0,-1.4906949E0,-5.7750706E-2,5.697444E-1,1.5833207E0,-2.2090811E-2,-1.1739298E0,-8.6029875E-1,4.8218855E-1,5.2676934E-1,5.7176787E-1,2.1555183E-2,1.2010782E-2,-1.1739299E0,-1.4190042E-2,-1.1646492E0,-6.8682903E-1,4.767959E-1,5.032659E-1,-6.8682903E-1,5.396447E-1,1.7449144E-2,1.4857457E0,-1.510839E0,-4.8127943E-3,6.187717E-4,-4.235364E-3,-1.0699456E-2,-6.868284E-1,1.265591E-1,6.707214E-3,-1.5306719E-2,7.357835E-2,-8.6029875E-1,1.163089E-1,-7.865975E-4,4.8682485E-3,1.4857455E0,1.6691988E-2,-4.896772E-3,-1.3820268E-2,-2.2366086E-3,-1.889709E-1,-5.4665403E-3,1.6864835E-1,8.353435E-1,5.5800974E-3,1.3053258E-3,-1.4919996E-3,1.5367446E-2,5.6412643E-1,6.0797805E-1,4.5560584E-3,-1.7669986E-1,-1.8942058E-1,-5.704873E-2,2.274361E-3,1.6864833E-1,7.357835E-2,-1.2666732E-3,1.6042704E-3,8.770029E-3,2.8036118E-3,5.843584E-3,1.2645463E-2,-3.5841227E-1,1.6864835E-1,-5.4838415E-3,-2.2258144E-3,9.0831117E-4,-2.7116886E-4,-2.0169935E-5,-2.9255138E-3,-8.198276E-4,1.3328743E-3,-9.0257665E-3,-2.2833645E-3,-1.775304E-2,-3.7513897E-3],"split_indices":[5,5,5,5,5,1,1,0,1,1,1,1,4,0,0,1,0,4,1,5,1,1,1,0,1,1,0,0,0,0,1,1,0,0,4,1,1,0,0,1,0,0,0,0,5,1,1,1,0,0,0,0,4,1,0,1,1,1,0,1,4,0,0,0,0,0,0,1,1,0,0,0,0,0,0,0,0,0,0,0,0],"split_type":[0,0,0,0,0,0,0,0,0,0,0,0,0,0,0,0,0,0,0,0,0,0,0,0,0,0,0,0,0,0,0,0,0,0,0,0,0,0,0,0,0,0,0,0,0,0,0,0,0,0,0,0,0,0,0,0,0,0,0,0,0,0,0,0,0,0,0,0,0,0,0,0,0,0,0,0,0,0,0,0,0],"sum_hessian":[7.34E2,4.75E2,2.59E2,1.59E2,3.16E2,1.75E2,8.4E1,3.9E1,1.2E2,1.8E2,1.36E2,5.7E1,1.18E2,5.8E1,2.6E1,6.6E1,5.4E1,3E1,1.5E2,1.14E2,2.2E1,2.4E1,3.3E1,1.7E1,1.01E2,4E1,2.6E1,1E0,2.9E1,4.4E1,1.06E2,9.9E1,1.5E1,1.8E1,4E0,2E0,2.2E1,1.8E1,1.5E1,8.5E1,1.6E1,4E0,3.6E1,2.2E1,8.4E1,4.1E1,5.8E1,2E0,2E0,1E0,1E0,5E0,1.7E1,6.4E1,2.1E1,4.7E1,3.7E1,3E1,1.1E1,4.3E1,1.5E1,1E0,1E0,1.4E1,3E0,2.7E1,3.7E1,4.3E1,4E0,2.4E1,1.3E1,2.2E1,8E0,2.5E1,1.8E1,1E0,1.4E1,3.5E1,8E0,2E0,2E0],"tree_param":{"num_deleted":"0","num_feature":"7","num_nodes":"81","size_leaf_vector":"1"}},{"base_weights":[-6.93287E-4,-4.5694612E-2,3.0897515E-2,-6.068167E-2,-2.9663844E-2,1.6578704E-2,5.8293264E-2,-1.699771E-2,-1.03456015E-2,-1.1153124E-2,-3.3710312E-2,4.8933677E-2,1.3108915E-2,4.274131E-2,6.92775E-2,-2.4408225E-3,1.218303E-3,-1.0805503E-2,-3.0611767E-2,-1.3925314E-3,1.0345309E-2,-1.4981583E-3,2.5005287E-2,6.1050564E-2,-3.644114E-3,1.6462822E-2,5.962328E-3,-2.8663438E-2,-6.644953E-2,1.4682557E-3,-2.2644622E-2,2.2209967E-2,5.818512E-3,1.7811807E-2,1.0658111E-2,-4.2578806E-3,-9.488495E-5,-3.3061836E-2,-9.063859E-3,-1.5990674E-2,-1.7292002E-3,-1.5347715E-2,3.7475408E-3,2.792929E-2,1.1920483E-2,-2.279761E-2,-9.423428E-3,7.752514E-4,-1.1515062E-2,-5.343552E-3,-1.7999494E-3,7.1313838E-3,1.039608E-3,2.2943564E-2,3.377535E-2,-2.7724663E-3,1.34492675E-2,-3.20371E-2,-1.073836E-2,-6.270909E-4,-2.5388615E-3,2.847797E-3,1.5318852E-2,1.8112619E-3,-1.6037517E-3,5.760112E-3,3.2663855E-3,7.61665E-3,2.7326415E-3,1.8361273E-3,3.8521402E-3,-4.3707291E-4,-6.5894276E-3,-2.5455065E-3,2.5993944E-3,9.002247E-4,-2.2538798E-4,5.700111E-3,1.7812394E-3,-2.4835367E-4,3.612819E-3,-5.192051E-4,6.17907E-6,4.4016127E-4,9.824293E-4],"categories":[],"categories_nodes":[],"categories_segments":[],"categories_sizes":[],"default_left":[0,0,0,0,0,0,0,0,0,0,0,0,0,0,0,0,0,0,0,0,0,0,0,0,0,0,0,0,0,0,0,0,0,0,0,0,0,0,0,0,0,0,0,0,0,0,0,0,0,0,0,0,0,0,0,0,0,0,0,0,0,0,0,0,0,0,0,0,0,0,0,0,0,0,0,0,0,0,0,0,0,0,0,0,0],"id":14,"left_children":[1,3,5,7,9,11,13,-1,-1,15,17,19,21,23,25,-1,-1,-1,27,-1,-1,29,31,33,35,-1,-1,37,39,41,-1,43,-1,-1,-1,-1,-1,45,47,-1,-1,49,51,53,55,57,-1,-1,59,-1,-1,61,63,65,67,-1,69,71,73,-1,-1,75,77,79,-1,-1,-1,-1,-1,-1,-1,-1,-1,-1,-1,-1,-1,-1,-1,81,83,-1,-1,-1,-1],"loss_changes":[1.006493E0,6.655413E-2,1.612534E-1,2.3635149E-2,1.0108992E-2,2.9702187E-2,1.8335283E-2,0E0,0E0,6.742766E-4,4.120782E-3,4.77919E-3,4.3865263E-2,5.4799043E-2,3.625226E-2,0E0,0E0,0E0,3.661804E-3,0E0,0E0,3.8446065E-2,2.958104E-4,5.059093E-4,1.0984013E-3,0E0,0E0,8.452371E-3,1.7397255E-3,4.484469E-3,0E0,4.6893843E-3,0E0,0E0,0E0,0E0,0E0,1.0114364E-2,7.870853E-4,0E0,0E0,5.2956725E-4,9.1982074E-4,1.11516565E-4,1.791866E-3,5.2172784E-3,0E0,0E0,1.08145876E-4,0E0,0E0,1.4909778E-3,4.4145354E-4,4.920624E-4,8.6542405E-4,0E0,5.1458925E-4,6.4381585E-4,1.5583928E-3,0E0,0E0,2.2043422E-4,7.602824E-4,2.0958333E-4,0E0,0E0,0E0,0E0,0E0,0E0,0E0,0E0,0E0,0E0,0E0,0E0,0E0,0E0,0E0,1.8516792E-5,3.3418648E-5,0E0,0E0,0E0,0E0],"parents":[2147483647,0,0,1,1,2,2,3,3,4,4,5,5,6,6,9,9,10,10,11,11,12,12,13,13,14,14,18,18,21,21,22,22,23,23,24,24,27,27,28,28,29,29,31,31,37,37,38,38,41,41,42,42,43,43,44,44,45,45,48,48,51,51,52,52,53,53,54,54,56,56,57,57,58,58,61,61,62,62,63,63,79,79,80,80],"right_children":[2,4,6,8,10,12,14,-1,-1,16,18,20,22,24,26,-1,-1,-1,28,-1,-1,30,32,34,36,-1,-1,38,40,42,-1,44,-1,-1,-1,-1,-1,46,48,-1,-1,50,52,54,56,58,-1,-1,60,-1,-1,62,64,66,68,-1,70,72,74,-1,-1,76,78,80,-1,-1,-1,-1,-1,-1,-1,-1,-1,-1,-1,-1,-1,-1,-1,82,84,-1,-1,-1,-1],"split_conditions":[-1.88552E-1,-8.53698E-1,7.7453506E-1,-1.4904791E0,-8.599363E-1,-1.8894769E-1,1.4864943E0,-1.699771E-2,-1.03456015E-2,-8.6064875E-1,-8.0479395E-1,-1.1736189E0,2.8952497E-1,1.4864942E0,1.5840855E0,-2.4408225E-3,1.218303E-3,-1.0805503E-2,9.495163E-3,-1.3925314E-3,1.0345309E-2,4.7731867E-1,5.6916124E-1,1.1112851E0,1.1658463E0,1.6462822E-2,5.962328E-3,-3.5796726E-1,1.6918021E-1,-5.655422E-2,-2.2644622E-2,5.273601E-1,5.818512E-3,1.7811807E-2,1.0658111E-2,-4.2578806E-3,-9.488495E-5,-6.8643737E-1,-3.5796717E-1,-1.5990674E-2,-1.7292002E-3,-1.8987992E-1,1.27084E-1,5.215185E-1,3.7492684E-1,-6.8643796E-1,-9.423428E-3,7.752514E-4,-3.5796562E-1,-5.343552E-3,-1.7999494E-3,7.733712E-3,2.5046068E-1,4.82772E-1,5.6412643E-1,-2.7724663E-3,5.5769724E-1,-8.4639984E-1,-6.8720716E-1,-6.270909E-4,-2.5388615E-3,-5.655404E-2,1.2133991E-1,1.6918017E-1,-1.6037517E-3,5.760112E-3,3.2663855E-3,7.61665E-3,2.7326415E-3,1.8361273E-3,3.8521402E-3,-4.3707291E-4,-6.5894276E-3,-2.5455065E-3,2.5993944E-3,9.002247E-4,-2.2538798E-4,5.700111E-3,1.7812394E-3,9.2178024E-2,1.6918021E-1,-5.192051E-4,6.17907E-6,4.4016127E-4,9.824293E-4],"split_indices":[4,4,2,4,0,0,0,0,0,2,2,0,2,0,0,0,0,0,0,0,0,4,2,0,2,0,0,0,0,0,0,0,0,0,0,0,0,0,0,0,0,2,0,4,2,0,0,0,0,0,0,2,0,0,4,0,0,0,2,0,0,0,2,0,0,0,0,0,0,0,0,0,0,0,0,0,0,0,0,2,0,0,0,0,0],"split_type":[0,0,0,0,0,0,0,0,0,0,0,0,0,0,0,0,0,0,0,0,0,0,0,0,0,0,0,0,0,0,0,0,0,0,0,0,0,0,0,0,0,0,0,0,0,0,0,0,0,0,0,0,0,0,0,0,0,0,0,0,0,0,0,0,0,0,0,0,0,0,0,0,0,0,0,0,0,0,0,0,0,0,0,0,0],"sum_hessian":[7.04E2,2.9E2,4.14E2,1.47E2,1.43E2,2.74E2,1.4E2,3.5E1,1.12E2,2.7E1,1.16E2,2.4E1,2.5E2,6.2E1,7.8E1,2.6E1,1E0,1.1E1,1.05E2,1E0,2.3E1,1.13E2,1.37E2,4.4E1,1.8E1,5.7E1,2.1E1,1.03E2,2E0,1.12E2,1E0,8.9E1,4.8E1,5E0,3.9E1,1E0,1.7E1,8.3E1,2E1,1E0,1E0,1.2E1,1E2,5.5E1,3.4E1,5.1E1,3.2E1,3E0,1.7E1,2E0,1E1,4.3E1,5.7E1,3.5E1,2E1,1E0,3.3E1,2.7E1,2.4E1,3E0,1.4E1,3E1,1.3E1,5.4E1,3E0,1.5E1,2E1,1.5E1,5E0,2.2E1,1.1E1,1E0,2.6E1,2.3E1,1E0,2.1E1,9E0,2E0,1.1E1,2.6E1,2.8E1,1E0,2.5E1,1.6E1,1.2E1],"tree_param":{"num_deleted":"0","num_feature":"7","num_nodes":"85","size_leaf_vector":"1"}},{"base_weights":[-3.3015718E-3,-3.9440196E-2,4.9443826E-2,-3.289516E-2,-6.70767E-2,2.1598E-1,4.443971E-2,-5.1056944E-2,-4.318142E-3,2.4261018E-3,4.83271E-2,3.1963143E-2,7.931953E-2,-4.663317E-2,-3.0111035E-2,-1.4203444E-2,2.3913737E-3,2.3820896E-2,4.6418212E-2,3.2258373E-2,1.40054105E-2,-1.4437169E-2,-4.1898765E-2,-1.2094538E-2,-8.27429E-3,-3.322018E-3,5.3045973E-3,-1.2996952E-3,4.82606E-3,9.464766E-3,1.3363243E-3,-3.704014E-2,-6.313921E-2,-3.096205E-3,-1.0138818E-2,-3.909174E-3,1.1094183E-3,1.4878773E-3,4.5683016E-3,-4.229841E-2,-1.5302961E-2,-1.5255131E-2,-5.430519E-3,5.6851807E-4,-2.1684214E-3,-3.1493346E-3,-1.4113014E-3,8.0025516E-4,1.7276102E-3,3.901704E-3,-4.300844E-2,2.1125725E-2,-2.788964E-2,-8.1001915E-4,-2.0962271E-4,-4.8876546E-2,-3.576353E-2,-2.2773405E-3,-5.8481675E-3,-2.9264211E-3,-9.985222E-3,-6.235296E-3,-9.333267E-3],"categories":[],"categories_nodes":[],"categories_segments":[],"categories_sizes":[],"default_left":[0,0,0,0,0,0,0,0,0,0,0,0,0,0,0,0,0,0,0,0,0,0,0,0,0,0,0,0,0,0,0,0,0,0,0,0,0,0,0,0,0,0,0,0,0,0,0,0,0,0,0,0,0,0,0,0,0,0,0,0,0,0,0],"id":15,"left_children":[1,3,5,7,-1,9,11,13,15,-1,-1,17,19,21,-1,23,25,27,29,-1,-1,-1,31,33,-1,35,37,-1,-1,-1,-1,39,41,-1,43,45,-1,-1,47,49,51,-1,-1,-1,-1,53,-1,-1,-1,-1,55,-1,57,-1,-1,59,61,-1,-1,-1,-1,-1,-1],"loss_changes":[1.3687007E0,8.030797E-1,2.2414678E-1,2.1702415E-1,0E0,3.597659E-2,1.19390965E-1,9.863871E-2,1.1011654E-2,0E0,0E0,2.2975639E-2,3.37781E-2,2.39532E-2,0E0,2.8380128E-3,1.6996826E-3,1.6363189E-3,2.0665526E-3,0E0,0E0,0E0,1.7407298E-2,1.165783E-4,0E0,2.2563324E-4,3.7342194E-5,0E0,0E0,0E0,0E0,1.9165084E-2,1.3349071E-2,0E0,4.907339E-4,3.686332E-5,0E0,0E0,5.7794503E-5,7.953584E-3,6.373271E-2,0E0,0E0,0E0,0E0,5.0183706E-5,0E0,0E0,0E0,0E0,2.5409758E-3,0E0,1.3684109E-4,0E0,0E0,1.162678E-3,6.410405E-4,0E0,0E0,0E0,0E0,0E0,0E0],"parents":[2147483647,0,0,1,1,2,2,3,3,5,5,6,6,7,7,8,8,11,11,12,12,13,13,15,15,16,16,17,17,18,18,22,22,23,23,25,25,26,26,31,31,32,32,34,34,35,35,38,38,39,39,40,40,45,45,50,50,52,52,55,55,56,56],"right_children":[2,4,6,8,-1,10,12,14,16,-1,-1,18,20,22,-1,24,26,28,30,-1,-1,-1,32,34,-1,36,38,-1,-1,-1,-1,40,42,-1,44,46,-1,-1,48,50,52,-1,-1,-1,-1,54,-1,-1,-1,-1,56,-1,58,-1,-1,60,62,-1,-1,-1,-1,-1,-1],"split_conditions":[4.762734E-1,4.7731867E-1,7.357835E-2,-3.5688528E-1,-6.70767E-2,5.204595E-1,1.5578438E0,-3.579673E-1,-5.8189955E-2,2.4261018E-3,4.83271E-2,1.4199517E0,1.4723009E0,-1.490911E0,-3.0111035E-2,-5.731133E-2,7.357835E-2,-1.1736189E0,1.5592264E0,3.2258373E-2,1.40054105E-2,-1.4437169E-2,-6.8643796E-1,-3.5796726E-1,-8.27429E-3,1.167223E0,1.27084E-1,-1.2996952E-3,4.82606E-3,9.464766E-3,1.3363243E-3,-7.868046E-1,-6.8643737E-1,-3.096205E-3,-3.5796717E-1,8.913918E-2,1.1094183E-3,1.4878773E-3,2.5046068E-1,-1.4904791E0,-1.1646492E0,-1.5255131E-2,-5.430519E-3,5.6851807E-4,-2.1684214E-3,-5.6551125E-2,-1.4113014E-3,8.0025516E-4,1.7276102E-3,3.901704E-3,-1.1298758E0,2.1125725E-2,-7.969501E-1,-8.1001915E-4,-2.0962271E-4,-1.5210674E0,-8.599363E-1,-2.2773405E-3,-5.8481675E-3,-2.9264211E-3,-9.985222E-3,-6.235296E-3,-9.333267E-3],"split_indices":[6,4,4,6,0,6,6,0,6,0,0,4,4,6,0,4,4,0,4,0,0,0,0,0,0,0,0,0,0,0,0,6,0,0,0,0,0,0,0,4,4,0,0,0,0,0,0,0,0,0,6,0,0,0,0,0,0,0,0,0,0,0,0],"split_type":[0,0,0,0,0,0,0,0,0,0,0,0,0,0,0,0,0,0,0,0,0,0,0,0,0,0,0,0,0,0,0,0,0,0,0,0,0,0,0,0,0,0,0,0,0,0,0,0,0,0,0,0,0,0,0,0,0,0,0,0,0,0,0],"sum_hessian":[7.14E2,4.24E2,2.9E2,4.17E2,7E0,6E0,2.84E2,2.54E2,1.63E2,1E0,5E0,2.12E2,7.2E1,2.46E2,8E0,6.5E1,9.8E1,1.39E2,7.3E1,4E0,6.8E1,3.4E1,2.12E2,6.3E1,2E0,3.3E1,6.5E1,1E0,1.38E2,7.1E1,2E0,1.77E2,3.5E1,1.8E1,4.5E1,3.2E1,1E0,1.2E1,5.3E1,1.41E2,3.6E1,2.4E1,1.1E1,2E0,4.3E1,2.9E1,3E0,5E1,3E0,1E0,1.4E2,2E0,3.4E1,1.9E1,1E1,7.1E1,6.9E1,4E0,3E1,3E0,6.8E1,5.4E1,1.5E1],"tree_param":{"num_deleted":"0","num_feature":"7","num_nodes":"63","size_leaf_vector":"1"}},{"base_weights":[-1.5723944E-3,-3.165004E-2,2.524255E-2,-5.1925853E-2,-2.0629363E-2,7.3426883E-3,4.187378E-2,-4.4734463E-2,-1.2614814E-2,-1.9045845E-2,-1.9402469E-2,3.8843725E-2,6.211068E-3,7.215777E-2,3.83606E-2,-1.1164132E-2,-3.2573882E-2,-2.351695E-2,-9.0633435E-3,1.2586206E-3,1.0394498E-2,1.785597E-3,1.0797115E-2,1.7421341E-3,1.6737154E-2,2.6928334E-2,5.1227342E-2,-6.6819193E-4,-6.6247815E-3,-2.2522932E-2,-1.1441704E-2,-1.3555569E-2,-6.7700953E-3,6.8544387E-3,-7.5626206E-3,4.3223365E-3,6.066287E-3,2.7847975E-3,3.191802E-2,1.1020026E-2,6.946038E-3,-5.6080967E-3,-1.9983638E-2,6.7364424E-4,-3.009171E-3,-3.2485302E-3,-1.2359202E-2,4.2396067E-3,2.0770445E-3,-1.4539028E-2,3.212699E-3,-1.6604022E-3,1.1616608E-2,3.8762424E-2,1.6497098E-2,-1.0639946E-3,-2.4221158E-2,-2.0847241E-3,2.2643625E-3,8.201987E-4,-4.501866E-3,-1.9405628E-2,-8.612294E-3,1.4636907E-3,2.329123E-3,-5.2451517E-4,-2.9745186E-3,8.98698E-4,-9.812248E-4,4.748887E-3,5.0324136E-3,7.8534875E-3,1.0354569E-3,4.977584E-4,3.3746753E-3,-7.281994E-3,-2.0963771E-2,-1.3953396E-3,-4.1535796E-4,-4.592355E-3,-3.4540295E-4,-1.1703062E-3,-3.3349157E-3,-1.6772712E-3,5.293178E-3,1.506922E-4,2.2999002E-3,-2.561132E-4,-2.1208372E-2,-8.98397E-4,-6.9404766E-4,1.1158058E-3,6.702741E-5,-4.899178E-3,-3.3904319E-3,2.8170646E-6,-1.6769826E-4],"categories":[],"categories_nodes":[],"categories_segments":[],"categories_sizes":[],"default_left":[0,0,0,0,0,0,0,0,0,0,0,0,0,0,0,0,0,0,0,0,0,0,0,0,0,0,0,0,0,0,0,0,0,0,0,0,0,0,0,0,0,0,0,0,0,0,0,0,0,0,0,0,0,0,0,0,0,0,0,0,0,0,0,0,0,0,0,0,0,0,0,0,0,0,0,0,0,0,0,0,0,0,0,0,0,0,0,0,0,0,0,0,0,0,0,0,0],"id":16,"left_children":[1,3,5,7,9,11,13,15,-1,17,-1,19,21,23,25,-1,27,29,31,-1,-1,33,35,-1,-1,37,39,-1,-1,41,-1,43,45,47,49,-1,51,-1,53,-1,-1,-1,55,57,-1,59,61,63,-1,65,67,-1,69,71,73,-1,75,-1,-1,-1,77,79,81,-1,83,-1,-1,-1,-1,-1,85,-1,-1,-1,-1,-1,87,-1,-1,-1,-1,-1,-1,89,91,-1,-1,-1,93,-1,95,-1,-1,-1,-1,-1,-1],"loss_changes":[5.75041E-1,7.2937876E-2,1.116167E-1,3.7368238E-3,2.3035452E-2,6.076564E-3,1.52106285E-2,6.8789423E-3,0E0,9.348303E-3,0E0,1.9099591E-3,3.614617E-3,1.17075965E-2,2.3571253E-2,0E0,4.5397878E-4,2.446495E-3,5.478817E-4,0E0,0E0,4.5578307E-3,4.240039E-3,0E0,0E0,5.535014E-3,1.4117062E-3,0E0,0E0,9.668842E-4,0E0,4.867944E-4,9.235041E-4,4.8435037E-4,2.6493017E-3,0E0,5.2967975E-3,0E0,6.1093643E-3,0E0,0E0,0E0,6.515287E-3,7.086907E-4,0E0,3.501126E-4,1.6738987E-4,1.9531022E-4,0E0,5.4640695E-6,2.0006896E-4,0E0,3.514059E-3,3.905669E-4,4.7787093E-5,0E0,1.8085279E-3,0E0,0E0,0E0,1.510714E-4,2.3502787E-4,1.6098516E-4,0E0,3.3838587E-4,0E0,0E0,0E0,0E0,0E0,8.9585915E-4,0E0,0E0,0E0,0E0,0E0,2.875179E-4,0E0,0E0,0E0,0E0,0E0,0E0,2.9742107E-5,1.8936727E-5,0E0,0E0,0E0,1.4894828E-4,0E0,1.2510445E-6,0E0,0E0,0E0,0E0,0E0,0E0],"parents":[2147483647,0,0,1,1,2,2,3,3,4,4,5,5,6,6,7,7,9,9,11,11,12,12,13,13,14,14,16,16,17,17,18,18,21,21,22,22,25,25,26,26,29,29,31,31,32,32,33,33,34,34,36,36,38,38,42,42,43,43,45,45,46,46,47,47,49,49,50,50,52,52,53,53,54,54,56,56,60,60,61,61,62,62,64,64,70,70,76,76,83,83,84,84,88,88,90,90],"right_children":[2,4,6,8,10,12,14,16,-1,18,-1,20,22,24,26,-1,28,30,32,-1,-1,34,36,-1,-1,38,40,-1,-1,42,-1,44,46,48,50,-1,52,-1,54,-1,-1,-1,56,58,-1,60,62,64,-1,66,68,-1,70,72,74,-1,76,-1,-1,-1,78,80,82,-1,84,-1,-1,-1,-1,-1,86,-1,-1,-1,-1,-1,88,-1,-1,-1,-1,-1,-1,90,92,-1,-1,-1,94,-1,96,-1,-1,-1,-1,-1,-1],"split_conditions":[-5.7529826E-2,-1.1386122E0,5.6916124E-1,-1.173619E0,1.6918021E-1,-1.8894769E-1,5.751074E-1,-1.6704379E0,-1.2614814E-2,-4.802477E-1,-1.9402469E-2,-6.8643796E-1,2.8952497E-1,5.7034224E-1,1.4857457E0,-1.1164132E-2,-1.708024E0,-3.5841236E-1,-3.5796726E-1,1.2586206E-3,1.0394498E-2,1.6918017E-1,4.82772E-1,1.7421341E-3,1.6737154E-2,6.0797805E-1,1.5840855E0,-6.6819193E-4,-6.6247815E-3,-8.606488E-1,-1.1441704E-2,-3.5884413E-1,-1.8894769E-1,1.2604822E-1,1.681306E-1,4.3223365E-3,5.0013286E-1,2.7847975E-3,1.4857455E0,1.1020026E-2,6.946038E-3,-5.6080967E-3,-8.6064875E-1,-8.599363E-1,-3.009171E-3,-3.5841227E-1,-1.8942058E-1,-5.655404E-2,2.0770445E-3,1.163089E-1,2.9061434E-1,-1.6604022E-3,5.261932E-1,1.4864943E0,1.1658463E0,-1.0639946E-3,-8.0479395E-1,-2.0847241E-3,2.2643625E-3,8.201987E-4,-1.889477E-1,-1.8894748E-1,9.495163E-3,1.4636907E-3,-4.963362E-3,-5.2451517E-4,-2.9745186E-3,8.98698E-4,-9.812248E-4,4.748887E-3,5.396447E-1,7.8534875E-3,1.0354569E-3,4.977584E-4,3.3746753E-3,-7.281994E-3,-8.4639984E-1,-1.3953396E-3,-4.1535796E-4,-4.592355E-3,-3.4540295E-4,-1.1703062E-3,-3.3349157E-3,-5.704873E-2,1.2708399E-1,1.506922E-4,2.2999002E-3,-2.561132E-4,-6.8643796E-1,-8.98397E-4,-5.6551125E-2,1.1158058E-3,6.702741E-5,-4.899178E-3,-3.3904319E-3,2.8170646E-6,-1.6769826E-4],"split_indices":[2,2,2,0,0,0,2,2,0,2,0,0,2,0,1,0,1,1,0,0,0,0,0,0,0,1,0,0,0,2,0,2,0,2,2,0,0,0,1,0,0,0,2,0,0,1,1,0,0,1,0,0,2,0,2,0,2,0,0,0,0,0,0,0,0,0,0,0,0,0,1,0,0,0,0,0,0,0,0,0,0,0,0,1,0,0,0,0,0,0,0,0,0,0,0,0,0],"split_type":[0,0,0,0,0,0,0,0,0,0,0,0,0,0,0,0,0,0,0,0,0,0,0,0,0,0,0,0,0,0,0,0,0,0,0,0,0,0,0,0,0,0,0,0,0,0,0,0,0,0,0,0,0,0,0,0,0,0,0,0,0,0,0,0,0,0,0,0,0,0,0,0,0,0,0,0,0,0,0,0,0,0,0,0,0,0,0,0,0,0,0,0,0,0,0,0,0],"sum_hessian":[7.09E2,3.34E2,3.75E2,1.15E2,2.19E2,1.82E2,1.93E2,7.6E1,3.9E1,2.17E2,2E0,4E0,1.78E2,1.6E1,1.77E2,3.6E1,4E1,1.48E2,6.9E1,2E0,2E0,9.2E1,8.6E1,3E0,1.3E1,9.7E1,8E1,1E0,3.9E1,1.47E2,1E0,2E1,4.9E1,6E1,3.2E1,2.4E1,6.2E1,2.9E1,6.8E1,6.1E1,1.9E1,4E1,1.07E2,2E0,1.8E1,3.2E1,1.7E1,3.7E1,2.3E1,1.9E1,1.3E1,1.7E1,4.5E1,4.5E1,2.3E1,2.5E1,8.2E1,1E0,1E0,4E0,2.8E1,3E0,1.4E1,1.2E1,2.5E1,1E0,1.8E1,1.2E1,1E0,1.4E1,3.1E1,4.4E1,1E0,1E0,2.2E1,1.3E1,6.9E1,1.2E1,1.6E1,2E0,1E0,1.3E1,1E0,1.1E1,1.4E1,2E1,1.1E1,1E0,6.8E1,1E0,1E1,1.3E1,1E0,3.3E1,3.5E1,2E0,8E0],"tree_param":{"num_deleted":"0","num_feature":"7","num_nodes":"97","size_leaf_vector":"1"}},{"base_weights":[-9.599229E-5,-2.891534E-2,4.443457E-2,-2.3863537E-2,-7.811687E-2,7.4429765E-2,3.7198108E-2,-3.5725694E-2,-5.7671475E-3,2.3757447E-2,7.5396255E-2,-3.2663967E-2,-3.6496468E-2,-1.3426791E-2,9.530905E-4,2.0004217E-2,3.8085867E-2,3.678955E-2,6.877894E-2,-8.9632515E-3,-2.724575E-2,-1.2068038E-2,-1.0134646E-2,2.7339023E-2,1.4733315E-2,7.877318E-3,-1.0162513E-3,8.733643E-3,1.778962E-2,2.5933683E-2,-2.948366E-2,-1.4972465E-2,-5.652564E-3,2.340642E-3,8.641233E-3,9.358252E-3,4.9031232E-3,-4.8826556E-3,-9.85079E-3,-1.9948545E-3,-3.751215E-3,-1.3472209E-3,6.1129183E-3,-1.945742E-3,9.908887E-3,6.2559055E-5,1.5675524E-3,1.4289969E-3,2.424459E-3],"categories":[],"categories_nodes":[],"categories_segments":[],"categories_sizes":[],"default_left":[0,0,0,0,0,0,0,0,0,0,0,0,0,0,0,0,0,0,0,0,0,0,0,0,0,0,0,0,0,0,0,0,0,0,0,0,0,0,0,0,0,0,0,0,0,0,0,0,0],"id":17,"left_children":[1,3,5,7,-1,-1,9,11,13,15,17,19,-1,21,-1,23,25,-1,27,-1,29,31,-1,33,35,-1,-1,-1,-1,-1,37,39,41,-1,-1,43,-1,-1,-1,-1,-1,-1,45,-1,47,-1,-1,-1,-1],"loss_changes":[9.406925E-1,7.944092E-1,6.5530294E-1,9.425399E-2,0E0,0E0,1.4222553E-1,1.0760033E-1,1.4407616E-2,9.930924E-3,2.7133912E-2,1.4874816E-2,0E0,3.989646E-3,0E0,5.88277E-3,2.7584992E-3,0E0,2.8696865E-2,0E0,7.331303E-2,1.7313296E-3,0E0,1.6355395E-2,5.0621014E-3,0E0,0E0,0E0,0E0,0E0,1.6240284E-2,9.307172E-4,5.2854733E-4,0E0,0E0,9.390069E-4,0E0,0E0,0E0,0E0,0E0,0E0,3.511402E-5,0E0,2.550073E-4,0E0,0E0,0E0,0E0],"parents":[2147483647,0,0,1,1,2,2,3,3,6,6,7,7,8,8,9,9,10,10,11,11,13,13,15,15,16,16,18,18,20,20,21,21,23,23,24,24,30,30,31,31,32,32,35,35,42,42,44,44],"right_children":[2,4,6,8,-1,-1,10,12,14,16,18,20,-1,22,-1,24,26,-1,28,-1,30,32,-1,34,36,-1,-1,-1,-1,-1,38,40,42,-1,-1,44,-1,-1,-1,-1,-1,-1,46,-1,48,-1,-1,-1,-1],"split_conditions":[4.762734E-1,4.767959E-1,7.311856E-2,-3.5688528E-1,-7.811687E-2,7.4429765E-2,1.5578438E0,-3.560998E-1,7.2658926E-2,1.4723009E0,5.7123035E-1,-1.1651826E0,-3.6496468E-2,7.311856E-2,9.530905E-4,5.635901E-1,1.5592264E0,3.678955E-2,1.5676568E0,-8.9632515E-3,-1.1646492E0,-5.731133E-2,-1.0134646E-2,5.209889E-1,1.4199517E0,7.877318E-3,-1.0162513E-3,8.733643E-3,1.778962E-2,2.5933683E-2,-6.8171036E-1,-1.88552E-1,7.357835E-2,2.340642E-3,8.641233E-3,-7.861532E-1,4.9031232E-3,-4.8826556E-3,-9.85079E-3,-1.9948545E-3,-3.751215E-3,-1.3472209E-3,1.6645746E-1,-1.945742E-3,5.7176787E-1,6.2559055E-5,1.5675524E-3,1.4289969E-3,2.424459E-3],"split_indices":[6,5,5,6,0,0,6,4,6,4,5,6,0,5,0,5,4,0,6,0,4,4,0,5,4,0,0,0,0,0,4,4,4,0,0,4,0,0,0,0,0,0,4,0,4,0,0,0,0],"split_type":[0,0,0,0,0,0,0,0,0,0,0,0,0,0,0,0,0,0,0,0,0,0,0,0,0,0,0,0,0,0,0,0,0,0,0,0,0,0,0,0,0,0,0,0,0,0,0,0,0],"sum_hessian":[7.29E2,4.43E2,2.86E2,4.39E2,4E0,4E0,2.82E2,2.64E2,1.75E2,2.11E2,7.1E1,2.61E2,3E0,1.01E2,7.4E1,1.71E2,4E1,1E0,7E1,7.6E1,1.85E2,1E2,1E0,6.8E1,1.03E2,3.9E1,1E0,3.4E1,3.6E1,1E0,1.84E2,6.7E1,3.3E1,3.6E1,3.2E1,6.9E1,3.4E1,1.5E2,3.4E1,3.2E1,3.5E1,3.1E1,2E0,1E0,6.8E1,1E0,1E0,3.4E1,3.4E1],"tree_param":{"num_deleted":"0","num_feature":"7","num_nodes":"49","size_leaf_vector":"1"}},{"base_weights":[1.6870524E-4,-1.3157463E-2,2.462425E-2,-7.872441E-3,-8.1750555E-3,1.142183E-2,3.3505622E-2,-6.0062297E-3,-3.4884963E-2,2.8638912E-2,2.0177637E-3,3.887429E-2,1.9242615E-4,-1.3624607E-2,4.8427647E-3,-9.179984E-3,6.881148E-3,3.1508286E-3,7.315492E-3,-5.112758E-3,1.9695803E-3,2.6855975E-2,4.383096E-2,9.542329E-3,-1.6930206E-2,2.7559767E-2,3.290237E-4,-1.3440703E-3,3.5460375E-3,6.224237E-3,-2.8878006E-3,1.2673545E-2,2.3059528E-2,5.946907E-2,6.998557E-3,-1.3684471E-3,2.1232448E-3,-2.3614716E-2,-1.11081535E-2,4.443521E-3,9.16657E-3,-4.9606216E-4,7.28269E-3,-1.1077047E-3,7.493115E-3,6.625891E-4,4.6743853E-3,4.0103495E-4,1.2262459E-2,-7.3050945E-3,-2.04451E-2,-9.524372E-3,-1.203818E-2,-2.217733E-3,6.057125E-3,1.5517515E-3,1.984795E-4,-3.3813508E-3,-5.6204065E-3,-1.0909301E-2,-1.4645242E-3,3.1679837E-4,-2.928795E-3,3.777057E-3,1.5059154E-3,-6.9822074E-4,-1.12415375E-2,2.4422891E-3,-7.649958E-4,-1.4859518E-2,1.1817177E-3,1.5968562E-3,3.802882E-4,8.647044E-5,-2.3940802E-4,-1.8232059E-3,-2.6889122E-3,7.549596E-4,2.6572945E-5,-3.757997E-3,5.7489677E-5,6.9200754E-4,-8.2750287E-4],"categories":[],"categories_nodes":[],"categories_segments":[],"categories_sizes":[],"default_left":[0,0,0,0,0,0,0,0,0,0,0,0,0,0,0,0,0,0,0,0,0,0,0,0,0,0,0,0,0,0,0,0,0,0,0,0,0,0,0,0,0,0,0,0,0,0,0,0,0,0,0,0,0,0,0,0,0,0,0,0,0,0,0,0,0,0,0,0,0,0,0,0,0,0,0,0,0,0,0,0,0,0,0],"id":18,"left_children":[1,3,5,-1,7,9,11,13,15,17,19,21,-1,23,25,-1,27,-1,-1,29,-1,31,33,35,37,39,41,-1,-1,43,-1,-1,45,47,-1,-1,-1,49,51,-1,-1,53,-1,-1,55,-1,-1,-1,-1,-1,57,59,-1,61,63,-1,-1,-1,-1,65,67,69,-1,71,-1,73,75,77,-1,79,81,-1,-1,-1,-1,-1,-1,-1,-1,-1,-1,-1,-1],"loss_changes":[2.4116123E-1,6.189595E-2,2.9838324E-2,0E0,2.3042243E-2,1.7370768E-2,2.700603E-2,3.1291664E-2,1.4433246E-2,2.7343873E-3,4.120674E-3,5.5686682E-3,0E0,1.7324008E-2,1.6080435E-2,0E0,1.418812E-3,0E0,0E0,4.3032756E-3,0E0,3.176596E-3,8.415356E-3,6.5554096E-4,7.0642903E-3,5.014669E-4,3.995902E-3,0E0,0E0,3.6658626E-4,0E0,0E0,1.10397115E-4,2.9316843E-3,0E0,0E0,0E0,2.148535E-3,7.2489604E-3,0E0,0E0,1.5161472E-3,0E0,0E0,1.5684054E-5,0E0,0E0,0E0,0E0,0E0,1.1088327E-3,1.1624144E-3,0E0,3.3477168E-3,3.7124846E-5,0E0,0E0,0E0,0E0,2.930183E-4,1.8467684E-4,1.2164856E-3,0E0,8.8003784E-5,0E0,3.854844E-6,1.6694143E-4,2.3615547E-5,0E0,3.0847546E-4,1.082977E-3,0E0,0E0,0E0,0E0,0E0,0E0,0E0,0E0,0E0,0E0,0E0,0E0],"parents":[2147483647,0,0,1,1,2,2,4,4,5,5,6,6,7,7,8,8,9,9,10,10,11,11,13,13,14,14,16,16,19,19,21,21,22,22,23,23,24,24,25,25,26,26,29,29,32,32,33,33,37,37,38,38,41,41,44,44,50,50,51,51,53,53,54,54,59,59,60,60,61,61,63,63,65,65,66,66,67,67,69,69,70,70],"right_children":[2,4,6,-1,8,10,12,14,16,18,20,22,-1,24,26,-1,28,-1,-1,30,-1,32,34,36,38,40,42,-1,-1,44,-1,-1,46,48,-1,-1,-1,50,52,-1,-1,54,-1,-1,56,-1,-1,-1,-1,-1,58,60,-1,62,64,-1,-1,-1,-1,66,68,70,-1,72,-1,74,76,78,-1,80,82,-1,-1,-1,-1,-1,-1,-1,-1,-1,-1,-1,-1],"split_conditions":[5.215185E-1,-1.1646492E0,7.7453506E-1,-7.872441E-3,4.82772E-1,5.6412643E-1,1.5840855E0,-3.2321388E-1,5.0013286E-1,5.261932E-1,5.7176787E-1,1.4723009E0,1.9242615E-4,-1.1736189E0,-1.8894769E-1,-9.179984E-3,2.8952497E-1,3.1508286E-3,7.315492E-3,5.7034224E-1,1.9695803E-3,-1.8894769E-1,1.4864943E0,-1.173619E0,-8.0479395E-1,9.2178024E-2,4.816197E-1,-1.3440703E-3,3.5460375E-3,-1.1736189E0,-2.8878006E-3,1.2673545E-2,2.5046068E-1,1.1658463E0,6.998557E-3,-1.3684471E-3,2.1232448E-3,-1.1386122E0,-1.889477E-1,4.443521E-3,9.16657E-3,1.681306E-1,7.28269E-3,-1.1077047E-3,5.703422E-1,6.625891E-4,4.6743853E-3,4.0103495E-4,1.2262459E-2,-7.3050945E-3,-8.599363E-1,-3.5796726E-1,-1.203818E-2,1.6645746E-1,2.3936604E-1,1.5517515E-3,1.984795E-4,-3.3813508E-3,-5.6204065E-3,-7.934026E-1,-3.5796562E-1,-1.8894748E-1,-2.928795E-3,1.6918021E-1,1.5059154E-3,-8.4639984E-1,-6.8720716E-1,-3.5796717E-1,-7.649958E-4,-1.8987992E-1,1.27084E-1,1.5968562E-3,3.802882E-4,8.647044E-5,-2.3940802E-4,-1.8232059E-3,-2.6889122E-3,7.549596E-4,2.6572945E-5,-3.757997E-3,5.7489677E-5,6.9200754E-4,-8.2750287E-4],"split_indices":[4,4,2,0,0,4,0,2,0,2,4,4,0,0,0,0,2,0,0,0,0,0,0,0,2,2,2,0,0,0,0,0,0,2,0,0,0,2,0,0,0,2,0,0,0,0,0,0,0,0,0,0,0,4,2,0,0,0,0,2,0,0,0,0,0,0,2,0,0,2,0,0,0,0,0,0,0,0,0,0,0,0,0],"split_type":[0,0,0,0,0,0,0,0,0,0,0,0,0,0,0,0,0,0,0,0,0,0,0,0,0,0,0,0,0,0,0,0,0,0,0,0,0,0,0,0,0,0,0,0,0,0,0,0,0,0,0,0,0,0,0,0,0,0,0,0,0,0,0,0,0,0,0,0,0,0,0,0,0,0,0,0,0,0,0,0,0,0,0],"sum_hessian":[7.36E2,4.77E2,2.59E2,7.4E1,4.03E2,1.06E2,1.53E2,3.75E2,2.8E1,3.6E1,7E1,1.31E2,2.2E1,2.2E2,1.55E2,2.2E1,6E0,1.6E1,2E1,3.7E1,3.3E1,4.2E1,8.9E1,2.7E1,1.93E2,2.4E1,1.31E2,3E0,3E0,1.7E1,2E1,1E0,4.1E1,2.8E1,6.1E1,1E0,2.6E1,8.7E1,1.06E2,2.2E1,2E0,1.3E2,1E0,1E0,1.6E1,1E0,4E1,1E0,2.7E1,1.3E1,7.4E1,1.05E2,1E0,1.04E2,2.6E1,1.5E1,1E0,5.5E1,1.9E1,8.9E1,1.6E1,8.8E1,1.6E1,1.3E1,1.3E1,3E0,8.6E1,6E0,1E1,3E0,8.5E1,2E0,1.1E1,1E0,2E0,4.9E1,3.7E1,3E0,3E0,2E0,1E0,6E1,2.5E1],"tree_param":{"num_deleted":"0","num_feature":"7","num_nodes":"83","size_leaf_vector":"1"}},{"base_weights":[2.448941E-3,-1.5568643E-2,2.9645994E-2,-1.0640225E-2,-2.7596286E-1,5.029407E-2,2.2330295E-2,-2.3154704E-2,-7.7858486E-4,-4.151853E-2,-6.8054296E-2,1.7387686E-2,3.5204764E-2,-2.0545887E-2,-2.6707908E-2,2.4729606E-2,-2.3210025E-3,-1.2324604E-2,1.252995E-3,2.626055E-2,1.2669154E-2,3.452944E-2,2.8768273E-2,-2.9491734E-2,-1.3456024E-2,-6.0093943E-3,6.0028885E-3,1.9146565E-2,8.668111E-3,9.674339E-3,1.6181398E-2,6.269831E-3,4.219714E-3,-2.4731275E-2,-7.1871527E-3,-2.5871902E-4,-1.6900204E-2,-5.2300636E-3,-2.9323544E-2,2.8912812E-3,8.880438E-3,1.2723423E-2,1.584455E-2,-1.0338585E-3,1.9986203E-3,1.6804855E-2,-1.4150699E-3,-6.5443413E-3,-3.9607496E-3,-5.574341E-3,-1.5011843E-2,-1.1925892E-2,-3.6874728E-3,-1.3900511E-3,-9.403835E-3,7.6822814E-4,4.104137E-4,7.6094316E-3,3.7271802E-3,1.7234705E-2,1.9218343E-3,1.7083632E-2,8.720338E-4,1.6564826E-2,-2.5649492E-3,-1.1871443E-2,-4.762372E-3,-1.2394905E-4,-2.627245E-3,-4.3565134E-4,-6.136013E-3,-4.842361E-4,1.1355579E-4,2.1545547E-3,4.2218977E-4,1.1578036E-2,4.0817875E-3,3.0110865E-3,4.761582E-3,5.508248E-3,6.706095E-4,-2.937199E-3,-1.2133288E-3,4.5772013E-4,-1.9803136E-3,-7.2507714E-3,-1.9111559E-3,3.6965234E-3,1.2943482E-3,-2.005877E-3,3.528928E-4,-6.140088E-4,-1.5900256E-3,-5.4010603E-4,8.1983855E-4],"categories":[],"categories_nodes":[],"categories_segments":[],"categories_sizes":[],"default_left":[0,0,0,0,0,0,0,0,0,0,0,0,0,0,0,0,0,0,0,0,0,0,0,0,0,0,0,0,0,0,0,0,0,0,0,0,0,0,0,0,0,0,0,0,0,0,0,0,0,0,0,0,0,0,0,0,0,0,0,0,0,0,0,0,0,0,0,0,0,0,0,0,0,0,0,0,0,0,0,0,0,0,0,0,0,0,0,0,0,0,0,0,0,0,0],"id":19,"left_children":[1,3,5,7,9,-1,11,13,15,17,-1,19,21,23,-1,-1,25,-1,-1,27,29,-1,31,33,35,37,39,41,-1,43,45,-1,-1,47,-1,-1,49,51,53,55,57,-1,59,-1,-1,61,-1,-1,63,-1,65,67,69,71,-1,-1,-1,73,-1,75,-1,77,-1,79,-1,81,-1,-1,-1,83,85,-1,-1,-1,-1,87,-1,-1,-1,-1,-1,-1,-1,-1,89,91,93,-1,-1,-1,-1,-1,-1,-1,-1],"loss_changes":[3.5423127E-1,5.5237657E-1,4.5613563E-1,5.2908245E-2,9.2359126E-2,0E0,1.6656741E-2,4.8939675E-2,4.7018085E-2,4.6147844E-3,0E0,8.001052E-3,5.729965E-2,1.1066757E-2,0E0,0E0,7.4712746E-3,0E0,0E0,6.8458393E-3,1.1489857E-3,0E0,1.6175583E-4,7.073283E-4,4.4803508E-3,2.7457364E-3,6.2018377E-4,5.7666767E-3,0E0,4.818421E-4,1.1222772E-3,0E0,0E0,8.536961E-3,0E0,0E0,9.0351515E-4,1.6163196E-3,2.3407857E-3,1.532369E-5,1.8755486E-4,0E0,1.1952128E-4,0E0,0E0,5.917996E-5,0E0,0E0,3.517836E-3,0E0,1.5349407E-3,3.9424375E-4,1.0854771E-3,1.0824495E-5,0E0,0E0,0E0,5.980809E-4,0E0,2.456326E-4,0E0,7.4138865E-5,0E0,6.854136E-4,0E0,8.020848E-4,0E0,0E0,0E0,2.6575528E-4,3.3964147E-4,0E0,0E0,0E0,0E0,4.3065054E-4,0E0,0E0,0E0,0E0,0E0,0E0,0E0,0E0,1.2410723E-3,1.2953882E-4,1.12283844E-4,0E0,0E0,0E0,0E0,0E0,0E0,0E0,0E0],"parents":[2147483647,0,0,1,1,2,2,3,3,4,4,6,6,7,7,8,8,9,9,11,11,12,12,13,13,16,16,19,19,20,20,22,22,23,23,24,24,25,25,26,26,27,27,29,29,30,30,33,33,36,36,37,37,38,38,39,39,40,40,42,42,45,45,48,48,50,50,51,51,52,52,53,53,57,57,59,59,61,61,63,63,65,65,69,69,70,70,75,75,84,84,85,85,86,86],"right_children":[2,4,6,8,10,-1,12,14,16,18,-1,20,22,24,-1,-1,26,-1,-1,28,30,-1,32,34,36,38,40,42,-1,44,46,-1,-1,48,-1,-1,50,52,54,56,58,-1,60,-1,-1,62,-1,-1,64,-1,66,68,70,72,-1,-1,-1,74,-1,76,-1,78,-1,80,-1,82,-1,-1,-1,84,86,-1,-1,-1,-1,88,-1,-1,-1,-1,-1,-1,-1,-1,90,92,94,-1,-1,-1,-1,-1,-1,-1,-1],"split_conditions":[4.762734E-1,4.7731867E-1,-5.731133E-2,-7.868046E-1,3.7492684E-1,5.029407E-2,1.5578438E0,-6.872072E-1,-1.1742285E0,-5.8208775E-2,-6.8054296E-2,5.6412643E-1,5.751074E-1,-1.1646492E0,-2.6707908E-2,2.4729606E-2,7.2658926E-2,-1.2324604E-2,1.252995E-3,5.261932E-1,1.4322213E0,3.452944E-2,1.5825722E0,-1.502813E0,-1.1742282E0,7.357835E-2,1.6813059E-1,-5.75298E-2,8.668111E-3,-5.8208775E-2,1.5527025E0,6.269831E-3,4.219714E-3,-1.490911E0,-7.1871527E-3,-2.5871902E-4,-1.1597902E0,-6.872072E-1,9.2178024E-2,1.2604822E-1,4.3456444E-1,1.2723423E-2,5.026936E-1,-1.0338585E-3,1.9986203E-3,1.4930141E0,-1.4150699E-3,-6.5443413E-3,-1.5110828E0,-5.574341E-3,-8.6064875E-1,-7.934026E-1,-3.5884386E-1,-5.7529826E-2,-9.403835E-3,7.6822814E-4,4.104137E-4,1.6813062E-1,3.7271802E-3,4.816197E-1,1.9218343E-3,1.4850141E0,8.720338E-4,-1.7082356E0,-2.5649492E-3,-8.606488E-1,-4.762372E-3,-1.2394905E-4,-2.627245E-3,-6.8720716E-1,-5.75298E-2,-4.842361E-4,1.1355579E-4,2.1545547E-3,4.2218977E-4,4.3456444E-1,4.0817875E-3,3.0110865E-3,4.761582E-3,5.508248E-3,6.706095E-4,-2.937199E-3,-1.2133288E-3,4.5772013E-4,-4.802477E-1,-1.8987994E-1,2.8952497E-1,3.6965234E-3,1.2943482E-3,-2.005877E-3,3.528928E-4,-6.140088E-4,-1.5900256E-3,-5.4010603E-4,8.1983855E-4],"split_indices":[6,4,4,6,2,0,6,2,2,2,0,4,2,4,0,0,6,0,0,2,2,0,2,2,2,4,2,2,0,2,2,0,0,6,0,0,2,2,2,2,2,0,2,0,0,2,0,0,2,0,2,2,2,2,0,0,0,2,0,2,0,2,0,2,0,2,0,0,0,2,2,0,0,0,0,2,0,0,0,0,0,0,0,0,2,2,2,0,0,0,0,0,0,0,0],"split_type":[0,0,0,0,0,0,0,0,0,0,0,0,0,0,0,0,0,0,0,0,0,0,0,0,0,0,0,0,0,0,0,0,0,0,0,0,0,0,0,0,0,0,0,0,0,0,0,0,0,0,0,0,0,0,0,0,0,0,0,0,0,0,0,0,0,0,0,0,0,0,0,0,0,0,0,0,0,0,0,0,0,0,0,0,0,0,0,0,0,0,0,0,0,0,0],"sum_hessian":[7.19E2,4.33E2,2.86E2,4.27E2,6E0,7E0,2.79E2,1.87E2,2.4E2,2E0,4E0,2.05E2,7.4E1,1.85E2,2E0,1E0,2.39E2,1E0,1E0,6.8E1,1.37E2,1E0,7.3E1,7.9E1,1.06E2,1.66E2,7.3E1,5.1E1,1.7E1,7.8E1,5.9E1,5E1,2.3E1,5.1E1,2.8E1,2.4E1,8.2E1,1.63E2,3E0,3.7E1,3.6E1,1E0,5E1,1E0,7.7E1,5.8E1,1E0,3.6E1,1.5E1,8E0,7.4E1,2.8E1,1.35E2,2E0,1E0,1.4E1,2.3E1,3.5E1,1E0,3.8E1,1.2E1,5.6E1,2E0,4E0,1.1E1,5.8E1,1.6E1,3E0,2.5E1,5.9E1,7.6E1,1E0,1E0,2.1E1,1.4E1,1.7E1,2.1E1,4.8E1,8E0,1E0,3E0,3.7E1,2.1E1,2.1E1,3.8E1,5.9E1,1.7E1,5E0,1.2E1,1.1E1,2.7E1,1E1,4.9E1,1.6E1,1E0],"tree_param":{"num_deleted":"0","num_feature":"7","num_nodes":"95","size_leaf_vector":"1"}},{"base_weights":[-4.3806257E-3,-2.1476462E-2,1.3116115E-2,-1.7892133E-2,-2.3355904E-1,5.4062527E-2,1.09121865E-2,-2.8120212E-2,-6.595099E-3,-1.548765E-2,-6.761087E-2,4.887309E-3,1.8986212E-2,-2.0036204E-2,-4.9684383E-2,3.277279E-2,-9.425706E-3,4.776672E-2,4.0157116E-3,1.1585013E-1,1.4180711E-2,-2.7522301E-2,-1.1889573E-2,-1.352838E-2,-2.8711634E-2,-1.50712645E-2,-5.413144E-3,1.18751945E-2,8.6259743E-4,-9.956681E-4,6.7403195E-3,3.0085603E-2,1.47027075E-2,-9.753583E-2,1.7812364E-2,-2.1239107E-2,-3.5590656E-2,2.6126322E-4,-1.7374404E-2,-1.6817426E-2,-1.2947111E-2,-7.763048E-3,-2.197923E-2,-6.574495E-3,9.950727E-4,1.7241766E-3,-3.2848608E-2,1.2065072E-2,3.0044413E-3,4.8517386E-4,3.4355482E-3,4.9112528E-3,-2.8067399E-2,1.8060239E-3,1.8534986E-2,-5.1501305E-3,-7.248342E-3,-7.2363913E-3,-1.2689511E-3,-5.4766615E-3,-2.3365465E-3,-1.8480912E-2,-3.4365177E-3,-2.1098233E-3,-9.5665065E-4,-4.525728E-3,-2.307846E-3,1.1694611E-3,2.1728962E-5,1.027058E-3,1.2596627E-3,-6.38175E-4,-1.2926717E-2,7.889995E-3,1.4179679E-2,-2.676303E-3,7.3822946E-3,1.94233E-2,2.4574574E-3,2.950716E-3,-2.1132797E-3,-3.9629938E-4,-3.8281449E-3,3.4476072E-3,-2.0648679E-3,-5.0759264E-3,-1.9415845E-3,9.672523E-5,-3.4424997E-4,2.0954276E-3,-4.962334E-4,-9.649356E-4,5.6415796E-4,1.3346219E-2,5.7369396E-3,2.5940895E-2,2.3646594E-3,8.799335E-3,1.042942E-3,1.6262285E-2,4.525673E-3,7.1400404E-4,7.9317094E-4,8.896987E-5,8.3039206E-4,-7.1927364E-4,-1.4463078E-3,-9.0528134E-4,-8.475494E-4,6.0485373E-4,2.4533636E-4,-2.7889834E-4,1.867719E-4,3.042169E-3,3.9251448E-4,7.689397E-5,1.1956356E-3,3.9251448E-4,6.525058E-3,4.552807E-3,2.0946888E-3,1.6717969E-2,8.396054E-4,4.5402846E-4,-2.6362736E-4,-2.1013197E-4,1.0598501E-4,1.1534095E-4,1.0238747E-3,2.842401E-3,4.501599E-3],"categories":[],"categories_nodes":[],"categories_segments":[],"categories_sizes":[],"default_left":[0,0,0,0,0,0,0,0,0,0,0,0,0,0,0,0,0,0,0,0,0,0,0,0,0,0,0,0,0,0,0,0,0,0,0,0,0,0,0,0,0,0,0,0,0,0,0,0,0,0,0,0,0,0,0,0,0,0,0,0,0,0,0,0,0,0,0,0,0,0,0,0,0,0,0,0,0,0,0,0,0,0,0,0,0,0,0,0,0,0,0,0,0,0,0,0,0,0,0,0,0,0,0,0,0,0,0,0,0,0,0,0,0,0,0,0,0,0,0,0,0,0,0,0,0,0,0,0,0,0,0],"id":20,"left_children":[1,3,5,7,9,-1,11,13,15,-1,-1,17,19,21,23,-1,25,27,29,31,33,35,37,-1,39,41,43,-1,-1,45,47,-1,49,51,53,55,57,-1,59,61,-1,63,-1,65,67,69,71,73,75,-1,-1,-1,-1,-1,77,-1,79,-1,-1,-1,-1,81,83,-1,-1,85,-1,-1,87,89,-1,91,-1,93,95,-1,97,99,-1,101,-1,-1,-1,103,-1,105,107,-1,-1,109,111,-1,-1,113,115,117,-1,119,-1,121,-1,123,-1,-1,-1,-1,-1,-1,125,-1,-1,-1,-1,-1,-1,-1,-1,-1,-1,127,-1,129,-1,-1,-1,-1,-1,-1,-1,-1,-1],"loss_changes":[2.1952026E-1,2.7366668E-1,1.9986442E-1,4.203482E-2,4.5526654E-2,0E0,1.7423913E-2,3.147942E-2,8.849203E-2,0E0,0E0,7.4648177E-3,6.8398215E-2,8.066606E-3,1.5323326E-2,0E0,3.8237907E-3,1.505685E-3,2.8534634E-3,2.005884E-2,6.3926324E-2,2.188906E-3,5.2565522E-3,0E0,9.391481E-3,4.8189797E-2,8.019565E-4,0E0,0E0,6.6109016E-3,2.6130066E-3,0E0,3.8200465E-5,3.3020716E-2,5.918108E-4,2.530219E-3,4.2367727E-5,0E0,2.265512E-3,3.8493564E-4,0E0,4.7191326E-4,0E0,8.1099547E-4,8.475791E-5,2.1346138E-4,6.0603525E-3,2.6182085E-4,6.079868E-3,0E0,0E0,0E0,0E0,0E0,2.6081875E-4,0E0,5.361314E-4,0E0,0E0,0E0,0E0,1.4187535E-4,3.0827164E-4,0E0,0E0,7.554935E-5,0E0,0E0,1.5351192E-5,1.0623569E-4,0E0,9.9623634E-5,0E0,1.17060845E-4,3.288593E-4,0E0,1.1095102E-4,4.0885434E-4,0E0,5.689588E-6,0E0,0E0,0E0,4.766018E-6,0E0,1.2021058E-4,3.474559E-5,0E0,0E0,2.324357E-5,3.8573115E-5,0E0,0E0,4.642643E-5,2.1227519E-5,5.130633E-4,0E0,1.6767113E-4,0E0,2.1147355E-4,0E0,1.8633884E-5,0E0,0E0,0E0,0E0,0E0,0E0,4.750673E-6,0E0,0E0,0E0,0E0,0E0,0E0,0E0,0E0,0E0,0E0,2.563346E-5,0E0,2.4531968E-4,0E0,0E0,0E0,0E0,0E0,0E0,0E0,0E0,0E0],"parents":[2147483647,0,0,1,1,2,2,3,3,4,4,6,6,7,7,8,8,11,11,12,12,13,13,14,14,16,16,17,17,18,18,19,19,20,20,21,21,22,22,24,24,25,25,26,26,29,29,30,30,32,32,33,33,34,34,35,35,36,36,38,38,39,39,41,41,43,43,44,44,45,45,46,46,47,47,48,48,54,54,56,56,61,61,62,62,65,65,68,68,69,69,71,71,73,73,74,74,76,76,77,77,79,79,83,83,85,85,86,86,89,89,90,90,93,93,94,94,95,95,97,97,99,99,101,101,108,108,119,119,121,121],"right_children":[2,4,6,8,10,-1,12,14,16,-1,-1,18,20,22,24,-1,26,28,30,32,34,36,38,-1,40,42,44,-1,-1,46,48,-1,50,52,54,56,58,-1,60,62,-1,64,-1,66,68,70,72,74,76,-1,-1,-1,-1,-1,78,-1,80,-1,-1,-1,-1,82,84,-1,-1,86,-1,-1,88,90,-1,92,-1,94,96,-1,98,100,-1,102,-1,-1,-1,104,-1,106,108,-1,-1,110,112,-1,-1,114,116,118,-1,120,-1,122,-1,124,-1,-1,-1,-1,-1,-1,126,-1,-1,-1,-1,-1,-1,-1,-1,-1,-1,128,-1,130,-1,-1,-1,-1,-1,-1,-1,-1,-1],"split_conditions":[9.1690086E-2,1.24260075E-1,-5.7750706E-2,-7.937478E-1,1.6918021E-1,5.4062527E-2,7.014136E-1,-8.599364E-1,-1.1736189E0,-1.548765E-2,-6.761087E-2,1.2347861E-1,5.737398E-1,-1.173619E0,-8.599363E-1,3.277279E-2,-3.5925937E-1,-5.655404E-2,4.0967494E-1,1.1651853E0,1.1651853E0,-1.5030438E0,-1.1736189E0,-1.352838E-2,-5.164364E-1,-3.579673E-1,-5.7993602E-2,1.18751945E-2,8.6259743E-4,5.209889E-1,5.256353E-1,3.0085603E-2,2.5046068E-1,1.1092749E0,1.4315174E0,-1.620292E0,-9.3396574E-1,2.6126322E-4,-1.1389017E0,-8.2069874E-1,-1.2947111E-2,-6.8643796E-1,-2.197923E-2,-5.867247E-2,-1.889709E-1,1.6924246E-1,-6.8643796E-1,4.8277166E-1,5.635901E-1,4.8517386E-4,3.4355482E-3,4.9112528E-3,-2.8067399E-2,1.8060239E-3,1.5840855E0,-5.1501305E-3,-1.5065893E0,-7.2363913E-3,-1.2689511E-3,-5.4766615E-3,-2.3365465E-3,-1.08078E0,-7.969501E-1,-2.1098233E-3,-9.5665065E-4,-1.8894748E-1,-2.307846E-3,1.1694611E-3,8.913918E-2,1.6918017E-1,1.2596627E-3,-1.1736189E0,-1.2926717E-2,4.7259548E-1,4.82772E-1,-2.676303E-3,5.737398E-1,1.5585349E0,2.4574574E-3,-1.6196165E0,-2.1132797E-3,-3.9629938E-4,-3.8281449E-3,-8.4639984E-1,-2.0648679E-3,-1.889477E-1,-1.889709E-1,9.672523E-5,-3.4424997E-4,1.27084E-1,1.6918021E-1,-9.649356E-4,5.6415796E-4,1.2237414E-1,-5.655422E-2,4.8106897E-1,2.3646594E-3,5.6859636E-1,1.042942E-3,1.550978E0,4.525673E-3,-1.7078046E0,7.9317094E-4,8.896987E-5,8.3039206E-4,-7.1927364E-4,-1.4463078E-3,-9.0528134E-4,8.913918E-2,6.0485373E-4,2.4533636E-4,-2.7889834E-4,1.867719E-4,3.042169E-3,3.9251448E-4,7.689397E-5,1.1956356E-3,3.9251448E-4,6.525058E-3,4.4678846E-1,2.0946888E-3,1.4864943E0,8.396054E-4,4.5402846E-4,-2.6362736E-4,-2.1013197E-4,1.0598501E-4,1.1534095E-4,1.0238747E-3,2.842401E-3,4.501599E-3],"split_indices":[3,5,5,3,0,0,3,0,0,0,0,3,0,0,0,0,3,0,3,3,3,3,0,0,0,0,3,0,0,5,3,0,0,3,3,3,3,0,3,3,0,0,0,3,5,3,0,0,5,0,0,0,0,0,0,0,3,0,0,0,0,3,0,0,0,0,0,0,0,0,0,0,0,3,0,0,0,5,0,0,0,0,0,0,0,0,5,0,0,0,0,0,0,0,0,3,0,3,0,0,0,0,0,0,0,0,0,0,0,0,0,0,0,0,0,0,0,0,0,0,0,0,0,0,0,0,0,0,0,0,0],"split_type":[0,0,0,0,0,0,0,0,0,0,0,0,0,0,0,0,0,0,0,0,0,0,0,0,0,0,0,0,0,0,0,0,0,0,0,0,0,0,0,0,0,0,0,0,0,0,0,0,0,0,0,0,0,0,0,0,0,0,0,0,0,0,0,0,0,0,0,0,0,0,0,0,0,0,0,0,0,0,0,0,0,0,0,0,0,0,0,0,0,0,0,0,0,0,0,0,0,0,0,0,0,0,0,0,0,0,0,0,0,0,0,0,0,0,0,0,0,0,0,0,0,0,0,0,0,0,0,0,0,0,0],"sum_hessian":[7.3E2,3.69E2,3.61E2,3.65E2,4E0,1E0,3.6E2,1.9E2,1.75E2,3E0,1E0,2.08E2,1.52E2,1.41E2,4.9E1,1E0,1.74E2,2E0,2.06E2,5E0,1.47E2,7.1E1,7E1,2.4E1,2.5E1,7E1,1.04E2,1E0,1E0,7.3E1,1.33E2,3E0,2E0,3E0,1.44E2,4.4E1,2.7E1,2.1E1,4.9E1,2.1E1,4E0,6.7E1,3E0,8.8E1,1.6E1,6.9E1,4E0,5.3E1,8E1,1E0,1E0,1E0,2E0,1.3E1,1.31E2,3.2E1,1.2E1,2.6E1,1E0,1.5E1,3.4E1,1.8E1,3E0,3.2E1,3.5E1,6.5E1,2.3E1,1E0,1.5E1,6.2E1,7E0,3E0,1E0,2.1E1,3.2E1,1.6E1,6.4E1,1.11E2,2E1,3E0,9E0,1E0,1.7E1,2E0,1E0,5.2E1,1.3E1,1.3E1,2E0,3.6E1,2.6E1,1E0,2E0,3E0,1.8E1,2E0,3E1,3.5E1,2.9E1,6.2E1,4.9E1,2E0,1E0,1E0,1E0,3.4E1,1.8E1,2E0,1.1E1,1.5E1,2.1E1,1.6E1,1E1,2E0,1E0,1E0,1.7E1,1E0,1E0,1.2E1,2.3E1,5.9E1,3E0,1E0,1E0,1E1,1E0,2E0,1E1,4.6E1,1.3E1],"tree_param":{"num_deleted":"0","num_feature":"7","num_nodes":"131","size_leaf_vector":"1"}},{"base_weights":[-7.2237925E-4,-1.8532611E-2,1.6994476E-2,-1.6513525E-2,-2.0850716E-2,1.2724254E-1,1.381998E-2,-2.2806227E-2,-9.443437E-3,2.6871422E-2,4.2140884E-3,9.525676E-3,1.5707947E-2,-1.4568344E-2,-5.0748944E-2,-1.1311099E-2,-1.4865237E-3,5.8800885E-3,2.890742E-2,-4.2937873E-3,-1.2051011E-2,-4.1125916E-2,-2.11018E-2,-7.353954E-3,-2.10805E-2,-1.8307766E-3,6.812051E-4,1.0918625E-2,-3.5832178E-5,2.5071217E-2,2.0209195E-2,4.4310926E-3,-1.3066541E-2,-1.0701759E-2,-3.3273862E-3,-7.89661E-3,-4.8479714E-4,-9.729422E-3,-1.7794687E-2,-5.2471756E-4,-6.109157E-4,6.5491707E-3,2.8688073E-2,-2.8092429E-2,8.248227E-3,5.872764E-3,3.587488E-3,-1.4619491E-2,-1.8627594E-3,-6.4852987E-3,-2.5124147E-3,-5.0397865E-3,-1.5018487E-3,5.0086583E-5,-6.640356E-4,5.447613E-3,9.689697E-3,7.6809986E-3,9.843144E-4,3.0642375E-3,-3.581517E-2,6.7547555E-3,1.4716142E-2,-1.2167222E-2,-4.428266E-3,-6.942231E-3,1.7913858E-3,-5.187931E-4,-9.5210475E-4,2.9218318E-3,1.2110208E-2,7.1017543E-4,1.6043187E-4,1.4485385E-2,-8.289746E-3,8.049663E-3,4.158768E-4,3.6694638E-3,-2.0638467E-3,-1.2316576E-3,-1.3242857E-2,-1.826272E-3,-8.369993E-4,1.365766E-4,-1.7228804E-4,1.9535741E-3,5.1798355E-3,2.8684307E-3,1.2596543E-3,5.4171187E-4,3.3210577E-3,4.310025E-3,2.1410563E-3,2.969265E-4,-7.3865656E-4,-3.4104332E-3,-1.6829729E-3,5.5065093E-4,3.299802E-4,-9.0060633E-4,1.1797281E-3,8.803941E-4,9.731452E-5],"categories":[],"categories_nodes":[],"categories_segments":[],"categories_sizes":[],"default_left":[0,0,0,0,0,0,0,0,0,0,0,0,0,0,0,0,0,0,0,0,0,0,0,0,0,0,0,0,0,0,0,0,0,0,0,0,0,0,0,0,0,0,0,0,0,0,0,0,0,0,0,0,0,0,0,0,0,0,0,0,0,0,0,0,0,0,0,0,0,0,0,0,0,0,0,0,0,0,0,0,0,0,0,0,0,0,0,0,0,0,0,0,0,0,0,0,0,0,0,0,0,0,0],"id":21,"left_children":[1,3,5,7,-1,9,11,13,15,-1,-1,17,-1,19,21,23,25,27,29,-1,31,33,-1,35,37,39,-1,41,43,-1,45,-1,47,-1,-1,49,-1,-1,51,-1,53,55,57,59,61,-1,-1,63,-1,65,-1,-1,67,-1,-1,69,-1,-1,-1,71,73,75,77,79,-1,81,-1,83,-1,85,87,-1,-1,89,-1,91,-1,-1,93,-1,95,-1,-1,-1,-1,97,99,-1,-1,-1,-1,101,-1,-1,-1,-1,-1,-1,-1,-1,-1,-1,-1],"loss_changes":[2.3034397E-1,5.9557214E-2,1.2457644E-1,1.5496671E-2,0E0,1.891762E-3,9.800132E-2,4.1796856E-2,2.5224322E-3,0E0,0E0,2.35424E-2,0E0,2.0534769E-3,1.3453916E-2,5.063543E-3,7.142094E-5,8.5555585E-3,3.939671E-2,0E0,4.504353E-3,1.0046065E-2,0E0,2.345955E-4,1.8012468E-3,2.9676485E-5,0E0,1.1658866E-2,3.1608038E-2,0E0,7.228926E-6,0E0,3.7456304E-4,0E0,0E0,4.36245E-4,0E0,0E0,4.508483E-3,0E0,3.9000875E-5,5.3337663E-3,6.5500904E-3,7.6785516E-3,8.1545487E-4,0E0,0E0,8.4462203E-4,0E0,6.465106E-4,0E0,0E0,3.9908962E-5,0E0,0E0,2.0495926E-3,0E0,0E0,0E0,3.1098025E-6,8.285079E-3,5.0534494E-4,1.1724923E-3,2.3116171E-4,0E0,3.641944E-4,0E0,6.529286E-6,0E0,1.8527667E-4,2.6038382E-4,0E0,0E0,9.910145E-6,0E0,5.9296284E-4,0E0,0E0,3.9876435E-5,0E0,6.3258316E-4,0E0,0E0,0E0,0E0,7.6708675E-6,2.4104607E-4,0E0,0E0,0E0,0E0,6.965769E-6,0E0,0E0,0E0,0E0,0E0,0E0,0E0,0E0,0E0,0E0,0E0],"parents":[2147483647,0,0,1,1,2,2,3,3,5,5,6,6,7,7,8,8,11,11,13,13,14,14,15,15,16,16,17,17,18,18,20,20,21,21,23,23,24,24,25,25,27,27,28,28,30,30,32,32,35,35,38,38,40,40,41,41,42,42,43,43,44,44,47,47,49,49,52,52,55,55,59,59,60,60,61,61,62,62,63,63,65,65,67,67,69,69,70,70,73,73,75,75,78,78,80,80,85,85,86,86,91,91],"right_children":[2,4,6,8,-1,10,12,14,16,-1,-1,18,-1,20,22,24,26,28,30,-1,32,34,-1,36,38,40,-1,42,44,-1,46,-1,48,-1,-1,50,-1,-1,52,-1,54,56,58,60,62,-1,-1,64,-1,66,-1,-1,68,-1,-1,70,-1,-1,-1,72,74,76,78,80,-1,82,-1,84,-1,86,88,-1,-1,90,-1,92,-1,-1,94,-1,96,-1,-1,-1,-1,98,100,-1,-1,-1,-1,102,-1,-1,-1,-1,-1,-1,-1,-1,-1,-1,-1],"split_conditions":[7.2658926E-2,1.6645746E-1,7.357835E-2,-7.868046E-1,-2.0850716E-2,1.4186126E0,1.5833207E0,-9.333052E-1,-5.731133E-2,2.6871422E-2,4.2140884E-3,1.5578438E0,1.5707947E-2,-1.490911E0,-5.168554E-1,-1.8942061E-1,8.353435E-1,5.6973594E-1,5.756915E-1,-4.2937873E-3,-1.708024E0,-8.6029875E-1,-2.11018E-2,-3.5841227E-1,-3.560998E-1,-5.704873E-2,6.812051E-4,5.2676934E-1,5.7069314E-1,2.5071217E-2,1.4857455E0,4.4310926E-3,-1.1298758E0,-1.0701759E-2,-3.3273862E-3,-3.5841236E-1,-4.8479714E-4,-9.729422E-3,-1.8942058E-1,-5.2471756E-4,1.6864833E-1,1.4199517E0,5.396447E-1,5.697444E-1,1.4857457E0,5.872764E-3,3.587488E-3,-1.1739298E0,-1.8627594E-3,-5.168554E-1,-2.5124147E-3,-5.0397865E-3,-5.704891E-2,5.0086583E-5,-6.640356E-4,4.8218855E-1,9.689697E-3,7.6809986E-3,9.843144E-4,5.697442E-1,4.7731867E-1,1.4857455E0,1.5223583E0,-1.5025679E0,-4.428266E-3,-6.8682903E-1,1.7913858E-3,-1.8942001E-1,-9.5210475E-4,4.7731867E-1,5.032659E-1,7.1017543E-4,1.6043187E-4,8.353435E-1,-8.289746E-3,1.1665269E0,4.158768E-4,3.6694638E-3,1.5560945E0,-1.2316576E-3,-1.1739299E0,-1.826272E-3,-8.369993E-4,1.365766E-4,-1.7228804E-4,1.265591E-1,-6.8682903E-1,2.8684307E-3,1.2596543E-3,5.4171187E-4,3.3210577E-3,8.353435E-1,2.1410563E-3,2.969265E-4,-7.3865656E-4,-3.4104332E-3,-1.6829729E-3,5.5065093E-4,3.299802E-4,-9.0060633E-4,1.1797281E-3,8.803941E-4,9.731452E-5],"split_indices":[6,4,4,6,0,6,1,1,4,0,0,6,0,6,1,1,1,1,1,0,1,1,0,1,4,1,0,1,6,0,1,0,6,0,0,1,0,0,1,0,1,4,1,1,1,0,0,1,0,1,0,0,1,0,0,1,0,0,0,1,4,1,1,1,0,1,0,1,0,4,1,0,0,1,0,1,0,0,1,0,1,0,0,0,0,1,1,0,0,0,0,1,0,0,0,0,0,0,0,0,0,0,0],"split_type":[0,0,0,0,0,0,0,0,0,0,0,0,0,0,0,0,0,0,0,0,0,0,0,0,0,0,0,0,0,0,0,0,0,0,0,0,0,0,0,0,0,0,0,0,0,0,0,0,0,0,0,0,0,0,0,0,0,0,0,0,0,0,0,0,0,0,0,0,0,0,0,0,0,0,0,0,0,0,0,0,0,0,0,0,0,0,0,0,0,0,0,0,0,0,0,0,0,0,0,0,0,0,0],"sum_hessian":[7.26E2,3.62E2,3.64E2,3.56E2,6E0,8E0,3.56E2,1.86E2,1.7E2,7E0,1E0,3.36E2,2E1,1.46E2,4E1,1.37E2,3.3E1,2.85E2,5.1E1,3.5E1,1.11E2,3.7E1,3E0,1E2,3.7E1,3.2E1,1E0,1.53E2,1.32E2,2E0,4.9E1,2E0,1.09E2,2.3E1,1.4E1,8.9E1,1.1E1,1E0,3.6E1,1.8E1,1.4E1,1.25E2,2.8E1,2.9E1,1.03E2,5E0,4.4E1,7.3E1,3.6E1,7.2E1,1.7E1,2.4E1,1.2E1,1.2E1,2E0,1.24E2,1E0,1.9E1,9E0,6E0,2.3E1,8.7E1,1.6E1,5.9E1,1.4E1,7.1E1,1E0,1.1E1,1E0,9.2E1,3.2E1,4E0,2E0,2E0,2.1E1,6.7E1,2E1,1.3E1,3E0,1.1E1,4.8E1,3.7E1,3.4E1,2E0,9E0,6.7E1,2.5E1,2.1E1,1.1E1,1E0,1E0,3E1,3.7E1,1E0,2E0,2.4E1,2.4E1,1.4E1,5.3E1,1E0,2.4E1,2.9E1,1E0],"tree_param":{"num_deleted":"0","num_feature":"7","num_nodes":"103","size_leaf_vector":"1"}},{"base_weights":[4.5724236E-4,-1.1729262E-2,1.3297087E-2,-9.2657255E-3,-6.1713427E-2,5.0177414E-2,1.1196621E-2,-1.5779581E-3,-2.6569236E-2,6.9446447E-3,1.2795131E-2,-3.7605185E-3,2.7888108E-2,-4.1078754E-2,-8.31946E-3,7.938055E-3,-2.1193368E-2,-6.051529E-3,9.761441E-3,-1.53061235E-2,-8.168377E-2,-1.8826453E-3,-1.3871963E-2,1.3745431E-3,1.436557E-2,-3.3613404E-3,-3.9848587E-3,2.8796507E-2,-1.6489964E-3,-7.4847385E-2,-2.8783157E-3,-1.7177282E-2,9.984453E-4,-2.680723E-3,2.4815442E-3,3.9577875E-3,-8.030204E-3,3.731291E-2,1.0123212E-2,5.1889583E-3,-4.4223946E-3,2.447486E-4,-6.025513E-3,-8.869803E-3,-2.3979133E-2,-6.750455E-4,-3.230559E-4,-3.6382757E-3,2.329126E-4,3.2169253E-2,3.014339E-3,-1.0674889E-2,-3.6846858E-3,1.8587833E-2,2.5265131E-2,6.687617E-3,3.4942476E-3,-6.107364E-3,-1.4974491E-3,-2.505663E-3,-6.1952975E-4,-4.0161135E-3,7.946342E-4,-5.047709E-4,-5.2935267E-3,6.9370864E-5,-8.322199E-5,9.2920875E-3,-7.1362057E-4,1.37613E-3,4.7138473E-3,-1.6534182E-3,3.5274664E-3,6.3579134E-4,3.7998483E-3,2.9724415E-3,8.42875E-3,-1.838077E-3,-1.0930798E-2,1.9048838E-3,-7.5309314E-3,9.158254E-6,-1.426602E-4,-1.1172029E-3,9.558003E-5,9.561781E-4,2.4364209E-3,8.990711E-3,3.43881E-3,-1.2202263E-4,7.8203337E-4,7.7119875E-3,-1.0544808E-2,1.4243646E-3,1.2761859E-2,-3.7611069E-3,-1.4048531E-4,-3.611058E-3,-1.6205574E-3,-2.3248324E-3,-9.3367026E-4,4.2835317E-4,8.133164E-5,1.2166068E-3,2.4404303E-4,-6.185472E-4,2.3500032E-3,4.5654198E-4,1.0964912E-3,7.6953095E-4,5.717211E-3,2.7535462E-3,7.2295667E-4],"categories":[],"categories_nodes":[],"categories_segments":[],"categories_sizes":[],"default_left":[0,0,0,0,0,0,0,0,0,0,0,0,0,0,0,0,0,0,0,0,0,0,0,0,0,0,0,0,0,0,0,0,0,0,0,0,0,0,0,0,0,0,0,0,0,0,0,0,0,0,0,0,0,0,0,0,0,0,0,0,0,0,0,0,0,0,0,0,0,0,0,0,0,0,0,0,0,0,0,0,0,0,0,0,0,0,0,0,0,0,0,0,0,0,0,0,0,0,0,0,0,0,0,0,0,0,0,0,0,0,0,0,0],"id":22,"left_children":[1,3,5,7,-1,-1,9,11,13,15,-1,17,-1,19,21,23,-1,25,27,29,31,33,-1,35,37,-1,39,-1,41,43,45,-1,-1,47,-1,49,51,53,55,-1,57,-1,59,61,-1,-1,-1,63,65,67,69,-1,71,73,-1,75,-1,77,79,-1,-1,-1,-1,81,83,-1,-1,-1,-1,85,87,-1,89,-1,-1,91,93,95,97,-1,99,-1,-1,-1,-1,101,103,105,107,-1,-1,109,-1,-1,111,-1,-1,-1,-1,-1,-1,-1,-1,-1,-1,-1,-1,-1,-1,-1,-1,-1,-1],"loss_changes":[1.1344178E-1,2.663146E-1,1.7054641E-1,4.9268566E-2,0E0,0E0,7.810557E-2,8.076411E-2,2.9503174E-2,3.8473263E-2,0E0,8.079735E-3,0E0,6.342887E-2,2.0562828E-2,1.3755679E-2,0E0,4.7783097E-3,5.867266E-2,2.990779E-2,9.599939E-3,6.367644E-4,0E0,4.0479046E-3,1.530743E-2,0E0,2.6913919E-3,0E0,4.7993325E-4,1.8678341E-2,1.1690368E-5,0E0,0E0,1.3840283E-4,0E0,3.2661515E-3,6.700255E-3,3.6973022E-2,3.3510858E-3,0E0,9.0332795E-4,0E0,2.0797312E-4,8.794648E-4,0E0,0E0,0E0,1.8656522E-4,1.3239696E-6,2.374468E-3,3.4339738E-4,0E0,1.2150388E-3,2.5008805E-5,0E0,5.967533E-4,0E0,2.3897463E-3,4.8649726E-3,0E0,0E0,0E0,0E0,1.7874577E-6,4.585297E-5,0E0,0E0,0E0,0E0,2.5619142E-5,2.7626136E-4,0E0,2.8523093E-5,0E0,0E0,1.00523755E-2,1.9764947E-4,1.2260725E-3,8.155517E-4,0E0,4.4217706E-4,0E0,0E0,0E0,0E0,3.213628E-5,6.498535E-5,5.0612434E-4,9.546592E-5,0E0,0E0,2.5226087E-3,0E0,0E0,2.0075357E-5,0E0,0E0,0E0,0E0,0E0,0E0,0E0,0E0,0E0,0E0,0E0,0E0,0E0,0E0,0E0,0E0,0E0,0E0],"parents":[2147483647,0,0,1,1,2,2,3,3,6,6,7,7,8,8,9,9,11,11,13,13,14,14,15,15,17,17,18,18,19,19,20,20,21,21,23,23,24,24,26,26,28,28,29,29,30,30,33,33,35,35,36,36,37,37,38,38,40,40,42,42,43,43,47,47,48,48,49,49,50,50,52,52,53,53,55,55,57,57,58,58,63,63,64,64,69,69,70,70,72,72,75,75,76,76,77,77,78,78,80,80,85,85,86,86,87,87,88,88,91,91,94,94],"right_children":[2,4,6,8,-1,-1,10,12,14,16,-1,18,-1,20,22,24,-1,26,28,30,32,34,-1,36,38,-1,40,-1,42,44,46,-1,-1,48,-1,50,52,54,56,-1,58,-1,60,62,-1,-1,-1,64,66,68,70,-1,72,74,-1,76,-1,78,80,-1,-1,-1,-1,82,84,-1,-1,-1,-1,86,88,-1,90,-1,-1,92,94,96,98,-1,100,-1,-1,-1,-1,102,104,106,108,-1,-1,110,-1,-1,112,-1,-1,-1,-1,-1,-1,-1,-1,-1,-1,-1,-1,-1,-1,-1,-1,-1,-1],"split_conditions":[9.1690086E-2,3.7492684E-1,-1.8987992E-1,-6.527729E-1,-6.1713427E-2,5.0177414E-2,1.5818441E0,-5.17651E-1,-1.903224E-1,1.5825722E0,1.2795131E-2,-7.1324325E-1,2.7888108E-2,-1.8987994E-1,1.24260075E-1,5.6916124E-1,-2.1193368E-2,-1.6925619E0,-1.1742282E0,-3.5925937E-1,-5.8208775E-2,1.2133991E-1,-1.3871963E-2,5.261932E-1,5.7123035E-1,-3.3613404E-3,-1.7082356E0,2.8796507E-2,-6.8720716E-1,-4.802477E-1,-3.5884386E-1,-1.7177282E-2,9.984453E-4,-5.7993602E-2,2.4815442E-3,7.311856E-2,4.0967494E-1,5.7199234E-1,1.5585349E0,5.1889583E-3,-8.6098313E-1,2.447486E-4,-6.8756944E-1,-8.2069874E-1,-2.3979133E-2,-6.750455E-4,-3.230559E-4,-5.8208775E-2,9.2178024E-2,-5.75298E-2,2.2225948E-1,-1.0674889E-2,5.3906643E-1,2.907259E-1,2.5265131E-2,1.4035208E0,3.4942476E-3,-1.1745123E0,-8.6064875E-1,-2.505663E-3,-6.1952975E-4,-4.0161135E-3,7.946342E-4,-1.8987934E-1,7.733712E-3,6.9370864E-5,-8.322199E-5,9.2920875E-3,-7.1362057E-4,1.681306E-1,4.7259548E-1,-1.6534182E-3,5.664443E-1,6.3579134E-4,3.7998483E-3,1.3733053E0,1.4850141E0,-1.4906949E0,-1.1386122E0,1.9048838E-3,-8.0479395E-1,9.158254E-6,-1.426602E-4,-1.1172029E-3,9.558003E-5,1.2604822E-1,1.6813062E-1,7.733712E-3,5.026936E-1,-1.2202263E-4,7.8203337E-4,7.7453506E-1,-1.0544808E-2,1.4243646E-3,1.4930141E0,-3.7611069E-3,-1.4048531E-4,-3.611058E-3,-1.6205574E-3,-2.3248324E-3,-9.3367026E-4,4.2835317E-4,8.133164E-5,1.2166068E-3,2.4404303E-4,-6.185472E-4,2.3500032E-3,4.5654198E-4,1.0964912E-3,7.6953095E-4,5.717211E-3,2.7535462E-3,7.2295667E-4],"split_indices":[3,2,2,2,0,0,3,3,3,2,0,3,0,2,5,2,0,3,2,3,2,2,0,2,5,0,2,0,2,2,2,0,0,3,0,5,3,3,5,0,3,0,3,3,0,0,0,2,2,2,3,0,2,3,0,3,0,3,2,0,0,0,0,2,2,0,0,0,0,2,3,0,2,0,0,2,2,5,2,0,2,0,0,0,0,2,2,2,2,0,0,2,0,0,2,0,0,0,0,0,0,0,0,0,0,0,0,0,0,0,0,0,0],"split_type":[0,0,0,0,0,0,0,0,0,0,0,0,0,0,0,0,0,0,0,0,0,0,0,0,0,0,0,0,0,0,0,0,0,0,0,0,0,0,0,0,0,0,0,0,0,0,0,0,0,0,0,0,0,0,0,0,0,0,0,0,0,0,0,0,0,0,0,0,0,0,0,0,0,0,0,0,0,0,0,0,0,0,0,0,0,0,0,0,0,0,0,0,0,0,0,0,0,0,0,0,0,0,0,0,0,0,0,0,0,0,0,0,0],"sum_hessian":[7.21E2,3.7E2,3.51E2,3.69E2,1E0,1E0,3.5E2,2.57E2,1.12E2,3.26E2,2.4E1,2.55E2,2E0,6.1E1,5.1E1,3.25E2,1E0,2.19E2,3.6E1,3.9E1,2.2E1,4.8E1,3E0,1.62E2,1.63E2,3.3E1,1.86E2,1E0,3.5E1,5E0,3.4E1,2.1E1,1E0,4.7E1,1E0,1.28E2,3.4E1,2.3E1,1.4E2,1E0,1.85E2,2.2E1,1.3E1,3E0,2E0,2.2E1,1.2E1,3.5E1,1.2E1,2E0,1.26E2,1E0,3.3E1,2.1E1,2E0,9.8E1,4.2E1,1.16E2,6.9E1,2E0,1.1E1,1E0,2E0,1.3E1,2.2E1,1.1E1,1E0,1E0,1E0,6.6E1,6E1,2E1,1.3E1,1E0,2E1,3.3E1,6.5E1,6.3E1,5.3E1,2.4E1,4.5E1,4E0,9E0,2.1E1,1E0,5E1,1.6E1,1.1E1,4.9E1,1E0,1.2E1,3.2E1,1E0,5.4E1,1.1E1,2E0,6.1E1,1.2E1,4.1E1,1.6E1,2.9E1,1.4E1,3.6E1,2E0,1.4E1,2E0,9E0,3.4E1,1.5E1,2.9E1,3E0,9E0,2E0],"tree_param":{"num_deleted":"0","num_feature":"7","num_nodes":"113","size_leaf_vector":"1"}},{"base_weights":[-1.82461E-4,-2.6486605E-2,6.742773E-3,-2.3847232E-2,-2.204806E-2,2.931836E-2,5.4768217E-3,-3.0256834E-2,-8.458459E-3,3.4285323E-3,1.0238455E-2,-1.6013633E-2,-1.3099434E-2,-2.6730408E-3,-6.542483E-3,3.984339E-3,-1.978048E-2,-4.070492E-3,-1.10910665E-2,-1.0324796E-3,-3.7483692E-3,-3.328371E-3,9.900794E-3,1.5311638E-3,-1.2578602E-2,1.0009172E-3,-1.3052668E-2,2.5099296E-2,8.277277E-3,-2.4268031E-4,5.0788524E-4,-1.5419305E-3,-2.7716449E-3,1.4185794E-2,-1.1506968E-3,-6.9725723E-3,-3.279709E-3,3.414699E-2,6.263542E-3,1.3771058E-4,-2.0242532E-4,-9.545684E-4,3.0850226E-3,-7.389153E-3,1.6307491E-3,-4.34102E-2,7.832688E-4,-1.6541287E-2,4.801968E-2,-1.2829008E-3,9.379419E-3,-2.1112764E-3,-5.3437166E-3,2.302587E-3,-7.0535805E-4,2.3161075E-3,-1.2589631E-2,6.209125E-4,5.9340545E-4,-4.0041506E-3,5.7069465E-5,1.3301274E-3,9.954783E-3,5.017872E-4,-9.841821E-3,5.830606E-3,1.1243636E-2,4.7563316E-4,-1.2613087E-3,-2.347437E-3,2.801616E-4,1.6749516E-4,-6.6604593E-4,5.6319934E-4,-1.2131387E-3,1.5955934E-3,5.618605E-4,9.423966E-3,1.9831401E-3],"categories":[],"categories_nodes":[],"categories_segments":[],"categories_sizes":[],"default_left":[0,0,0,0,0,0,0,0,0,0,0,0,0,0,0,0,0,0,0,0,0,0,0,0,0,0,0,0,0,0,0,0,0,0,0,0,0,0,0,0,0,0,0,0,0,0,0,0,0,0,0,0,0,0,0,0,0,0,0,0,0,0,0,0,0,0,0,0,0,0,0,0,0,0,0,0,0,0,0],"id":23,"left_children":[1,3,5,7,-1,-1,9,11,13,15,-1,17,-1,-1,19,21,-1,-1,23,-1,-1,25,27,29,31,33,35,-1,37,39,-1,-1,-1,41,43,-1,45,47,49,-1,-1,-1,-1,51,53,55,57,59,61,63,65,-1,67,-1,69,-1,-1,71,-1,-1,-1,-1,-1,73,-1,75,77,-1,-1,-1,-1,-1,-1,-1,-1,-1,-1,-1,-1],"loss_changes":[1.3023895E-1,2.7679682E-2,9.8600104E-2,1.3987623E-2,0E0,0E0,5.2367434E-2,4.960163E-2,2.5757216E-4,3.1558163E-2,0E0,1.1717565E-3,0E0,0E0,4.2943214E-4,2.3429178E-2,0E0,0E0,7.895599E-4,0E0,0E0,1.0256255E-2,5.403623E-2,1.1963539E-5,1.0611024E-5,4.855337E-3,1.575758E-2,0E0,1.5044386E-2,4.259941E-6,0E0,0E0,0E0,7.111421E-4,2.592185E-3,0E0,8.8726645E-3,1.6355453E-2,6.5608965E-3,0E0,0E0,0E0,0E0,1.8518395E-4,2.4171693E-3,6.829978E-3,1.4397363E-5,3.6271173E-4,5.716495E-4,7.14865E-3,1.1721905E-3,0E0,2.6791065E-4,0E0,2.0310811E-3,0E0,0E0,4.8361584E-5,0E0,0E0,0E0,0E0,0E0,1.2804411E-3,0E0,4.222989E-4,5.1159915E-3,0E0,0E0,0E0,0E0,0E0,0E0,0E0,0E0,0E0,0E0,0E0,0E0],"parents":[2147483647,0,0,1,1,2,2,3,3,6,6,7,7,8,8,9,9,11,11,14,14,15,15,18,18,21,21,22,22,23,23,24,24,25,25,26,26,28,28,29,29,33,33,34,34,36,36,37,37,38,38,43,43,44,44,45,45,46,46,47,47,48,48,49,49,50,50,52,52,54,54,57,57,63,63,65,65,66,66],"right_children":[2,4,6,8,-1,-1,10,12,14,16,-1,18,-1,-1,20,22,-1,-1,24,-1,-1,26,28,30,32,34,36,-1,38,40,-1,-1,-1,42,44,-1,46,48,50,-1,-1,-1,-1,52,54,56,58,60,62,64,66,-1,68,-1,70,-1,-1,72,-1,-1,-1,-1,-1,74,-1,76,78,-1,-1,-1,-1,-1,-1,-1,-1,-1,-1,-1,-1],"split_conditions":[-8.543284E-1,-4.802477E-1,-1.1742282E0,-1.1745123E0,-2.204806E-2,2.931836E-2,1.5818441E0,-1.1742285E0,-1.1386122E0,1.5825722E0,1.0238455E-2,-1.490911E0,-1.3099434E-2,-2.6730408E-3,-8.0479395E-1,1.6550907E-1,-1.978048E-2,-4.070492E-3,-1.5110828E0,-1.0324796E-3,-3.7483692E-3,-5.867247E-2,-6.8720716E-1,-1.521791E0,-1.502813E0,-8.6064875E-1,-5.7993602E-2,2.5099296E-2,1.681306E-1,-1.5860933E0,5.0788524E-4,-1.5419305E-3,-2.7716449E-3,-1.0674385E0,-6.872072E-1,-6.9725723E-3,-5.8189955E-2,7.733712E-3,5.63054E-1,1.3771058E-4,-2.0242532E-4,-9.545684E-4,3.0850226E-3,-7.868046E-1,-6.8720716E-1,7.2593894E-3,2.8952497E-1,-5.8208775E-2,9.2178024E-2,1.1658463E0,7.014136E-1,-2.1112764E-3,-7.937478E-1,2.302587E-3,-3.5925937E-1,2.3161075E-3,-1.2589631E-2,1.6813059E-1,5.9340545E-4,-4.0041506E-3,5.7069465E-5,1.3301274E-3,9.954783E-3,5.261932E-1,-9.841821E-3,5.7199234E-1,1.1651853E0,4.7563316E-4,-1.2613087E-3,-2.347437E-3,2.801616E-4,1.6749516E-4,-6.6604593E-4,5.6319934E-4,-1.2131387E-3,1.5955934E-3,5.618605E-4,9.423966E-3,1.9831401E-3],"split_indices":[6,2,2,3,0,0,3,2,2,2,0,6,0,0,2,6,0,0,2,0,0,3,2,3,2,2,3,0,2,2,0,0,0,2,2,0,6,2,6,0,0,0,0,6,2,3,2,2,2,2,3,0,3,0,3,0,0,2,0,0,0,0,0,2,0,3,3,0,0,0,0,0,0,0,0,0,0,0,0],"split_type":[0,0,0,0,0,0,0,0,0,0,0,0,0,0,0,0,0,0,0,0,0,0,0,0,0,0,0,0,0,0,0,0,0,0,0,0,0,0,0,0,0,0,0,0,0,0,0,0,0,0,0,0,0,0,0,0,0,0,0,0,0,0,0,0,0,0,0,0,0,0,0,0,0,0,0,0,0,0,0],"sum_hessian":[7.11E2,1.47E2,5.64E2,1.45E2,2E0,3E0,5.61E2,1.01E2,4.4E1,5.39E2,2.2E1,7.4E1,2.7E1,9E0,3.5E1,5.38E2,1E0,3.6E1,3.8E1,3.4E1,1E0,2.41E2,2.97E2,4E0,3.4E1,1.68E2,7.3E1,2E0,2.95E2,2E0,2E0,1E1,2.4E1,2.2E1,1.46E2,2.1E1,5.2E1,1.9E1,2.76E2,1E0,1E0,1E0,2.1E1,4.4E1,1.02E2,3E0,4.9E1,4E0,1.5E1,8.1E1,1.95E2,1.4E1,3E1,1.8E1,8.4E1,1E0,2E0,4.8E1,1E0,3E0,1E0,1E0,1.4E1,8E1,1E0,7E1,1.25E2,3E0,2.7E1,1.2E1,7.2E1,4.7E1,1E0,6E1,2E1,3.9E1,3.1E1,2E0,1.23E2],"tree_param":{"num_deleted":"0","num_feature":"7","num_nodes":"79","size_leaf_vector":"1"}},{"base_weights":[-1.5104442E-5,9.2322036E-4,-6.6085258E-3,-1.6403547E-3,8.750666E-3,9.0103917E-4,-1.0572042E-2,5.7684956E-3,4.83126E-3,-2.6875273E-3,1.0228151E-2,-1.0126934E-2,-8.646328E-3,4.8451694E-3,4.2337202E-3,2.3609772E-3,-5.1728664E-3,4.0621217E-2,3.0499867E-3,-1.8294634E-2,-6.478711E-3,1.3443066E-3,8.448811E-3,-4.4276365E-3,4.456821E-3,-2.734015E-3,-4.24925E-3,8.647595E-3,-9.5537305E-4,2.1182937E-3,1.4290571E-2,-7.8300637E-4,-4.514933E-3,4.27664E-3,-1.2158084E-2,3.6934277E-3,-1.0651364E-3,2.2421114E-3,5.231069E-3,-7.9013E-3,2.5903538E-3,6.857098E-4,-6.9749067E-3,4.421852E-3,5.890886E-4,-2.4330418E-4,1.7280594E-2,9.132068E-4,-3.6792278E-3,1.7855777E-3,2.268958E-2,-4.7051893E-3,-5.0832066E-3,3.0049551E-3,2.2057008E-3,5.9951544E-3,-5.8481697E-4,-2.2422743E-3,-1.2234853E-2,5.5292607E-3,-3.414598E-3,-1.0652973E-3,1.8276842E-3,-8.429328E-3,2.8288628E-3,-1.1220034E-3,1.6103521E-3,1.1757797E-3,-1.1692016E-5,5.3290924E-4,3.8275968E-3,-8.531768E-4,-8.884023E-5,1.0386258E-3,1.230695E-3,2.1971464E-4,5.8308407E-3,3.1775145E-3,-8.219431E-3,2.1646705E-3,8.4500806E-4,4.0100757E-3,1.9030623E-3,-4.7957274E-4,-2.2649765E-4,-1.0068257E-2,-4.148388E-3,-1.3802052E-3,1.324455E-3,-5.3471015E-3,-1.7864686E-2,1.9068609E-3,-3.1082434E-4,-5.323847E-4,-6.644189E-4,3.710785E-5,2.1674791E-3,-8.094697E-5,2.8145025E-3,7.41187E-4,1.3560057E-4,-2.2560682E-3,3.539072E-4,4.4442058E-4,1.01602076E-4,9.6718475E-5,8.2638947E-4,1.2853146E-4,-1.8893083E-4,-2.8985809E-3,-9.1923075E-4,-1.1841564E-3,-1.135501E-4,-5.3033065E-3,-2.8548588E-3,2.2768577E-4,-1.911653E-4,2.2055805E-4,-5.4534794E-5,7.2865735E-4,3.1666408E-4,6.3878665E-4,1.5848875E-5,-1.5803972E-4,1.9419989E-4],"categories":[],"categories_nodes":[],"categories_segments":[],"categories_sizes":[],"default_left":[0,0,0,0,0,0,0,0,0,0,0,0,0,0,0,0,0,0,0,0,0,0,0,0,0,0,0,0,0,0,0,0,0,0,0,0,0,0,0,0,0,0,0,0,0,0,0,0,0,0,0,0,0,0,0,0,0,0,0,0,0,0,0,0,0,0,0,0,0,0,0,0,0,0,0,0,0,0,0,0,0,0,0,0,0,0,0,0,0,0,0,0,0,0,0,0,0,0,0,0,0,0,0,0,0,0,0,0,0,0,0,0,0,0,0,0,0,0,0,0,0,0,0,0,0],"id":24,"left_children":[1,3,-1,5,7,9,11,-1,13,15,17,-1,19,-1,21,23,25,27,29,31,33,35,37,39,-1,-1,41,-1,-1,43,45,47,-1,49,51,53,-1,-1,55,57,59,61,63,65,67,-1,69,-1,71,73,75,-1,77,79,-1,81,-1,83,85,87,-1,-1,-1,89,91,93,-1,95,-1,-1,-1,-1,-1,-1,97,-1,-1,99,101,103,-1,105,-1,-1,107,109,-1,-1,-1,111,113,-1,-1,-1,115,117,119,-1,121,-1,123,-1,-1,-1,-1,-1,-1,-1,-1,-1,-1,-1,-1,-1,-1,-1,-1,-1,-1,-1,-1,-1,-1,-1,-1],"loss_changes":[2.2436185E-2,1.4155345E-2,0E0,1.2094886E-2,1.3423454E-2,1.3978897E-2,8.227998E-3,0E0,1.5100478E-3,3.8136947E-3,2.5059521E-2,0E0,2.1680389E-3,0E0,1.7554385E-3,1.3857623E-2,1.4770012E-3,3.026586E-3,9.4484305E-4,1.4636545E-3,6.0291057E-3,1.4338463E-3,4.0702242E-4,1.9180505E-3,0E0,0E0,2.5114522E-3,0E0,0E0,3.1534804E-4,3.6661013E-4,1.2655098E-4,0E0,1.5243441E-3,4.9081035E-3,2.7206965E-4,0E0,0E0,2.2822886E-4,1.2203639E-3,1.749098E-3,3.5530676E-3,1.7587487E-3,7.425209E-4,2.17924E-5,0E0,6.089837E-5,0E0,5.6994177E-6,4.9613795E-5,4.942545E-4,0E0,1.1403486E-3,4.7322363E-5,0E0,1.263317E-4,0E0,6.7546353E-6,1.1684047E-4,4.3106283E-4,0E0,0E0,0E0,2.8625512E-3,5.2926224E-4,7.737031E-6,0E0,3.3715747E-5,0E0,0E0,0E0,0E0,0E0,0E0,8.257464E-5,0E0,0E0,1.9891275E-5,9.877572E-4,1.73843E-6,0E0,5.4587726E-6,0E0,0E0,3.7109348E-6,5.205043E-4,0E0,0E0,0E0,2.1810597E-4,1.9578263E-5,0E0,0E0,0E0,1.0056731E-5,5.8834685E-6,2.256711E-6,0E0,1.6099235E-5,0E0,4.628211E-6,0E0,0E0,0E0,0E0,0E0,0E0,0E0,0E0,0E0,0E0,0E0,0E0,0E0,0E0,0E0,0E0,0E0,0E0,0E0,0E0,0E0,0E0,0E0,0E0],"parents":[2147483647,0,0,1,1,3,3,4,4,5,5,6,6,8,8,9,9,10,10,12,12,14,14,15,15,16,16,17,17,18,18,19,19,20,20,21,21,22,22,23,23,26,26,29,29,30,30,31,31,33,33,34,34,35,35,38,38,39,39,40,40,41,41,42,42,43,43,44,44,46,46,48,48,49,49,50,50,52,52,53,53,55,55,57,57,58,58,59,59,63,63,64,64,65,65,67,67,74,74,77,77,78,78,79,79,81,81,84,84,85,85,89,89,90,90,94,94,95,95,96,96,98,98,100,100],"right_children":[2,4,-1,6,8,10,12,-1,14,16,18,-1,20,-1,22,24,26,28,30,32,34,36,38,40,-1,-1,42,-1,-1,44,46,48,-1,50,52,54,-1,-1,56,58,60,62,64,66,68,-1,70,-1,72,74,76,-1,78,80,-1,82,-1,84,86,88,-1,-1,-1,90,92,94,-1,96,-1,-1,-1,-1,-1,-1,98,-1,-1,100,102,104,-1,106,-1,-1,108,110,-1,-1,-1,112,114,-1,-1,-1,116,118,120,-1,122,-1,124,-1,-1,-1,-1,-1,-1,-1,-1,-1,-1,-1,-1,-1,-1,-1,-1,-1,-1,-1,-1,-1,-1,-1,-1],"split_conditions":[1.5840855E0,5.6916124E-1,-6.6085258E-3,1.6918017E-1,5.737398E-1,-1.8987994E-1,-5.8208775E-2,5.7684956E-3,4.767959E-1,-1.1736189E0,-1.8987992E-1,-1.0126934E-2,1.681306E-1,4.8451694E-3,1.4864943E0,-1.173619E0,-1.1386122E0,-1.8894769E-1,2.3936604E-1,1.2133991E-1,4.82772E-1,1.4864942E0,1.5741832E0,-1.502311E0,4.456821E-3,-2.734015E-3,-8.6064875E-1,8.647595E-3,