{"learner":{"attributes":{"scikit_learn":"{\"_estimator_type\": \"regressor\"}"},"feature_names":[],"feature_types":[],"gradient_booster":{"model":{"gbtree_model_param":{"num_parallel_tree":"1","num_trees":"80"},"iteration_indptr":[0,1,2,3,4,5,6,7,8,9,10,11,12,13,14,15,16,17,18,19,20,21,22,23,24,25,26,27,28,29,30,31,32,33,34,35,36,37,38,39,40,41,42,43,44,45,46,47,48,49,50,51,52,53,54,55,56,57,58,59,60,61,62,63,64,65,66,67,68,69,70,71,72,73,74,75,76,77,78,79,80],"tree_info":[0,0,0,0,0,0,0,0,0,0,0,0,0,0,0,0,0,0,0,0,0,0,0,0,0,0,0,0,0,0,0,0,0,0,0,0,0,0,0,0,0,0,0,0,0,0,0,0,0,0,0,0,0,0,0,0,0,0,0,0,0,0,0,0,0,0,0,0,0,0,0,0,0,0,0,0,0,0,0,0],"trees":[{"base_weights":[1.0597163E-2,-9.4057846E-1,6.217118E-1,-3.3108258E-1,-5.027659E-1,1.76273E-1,1.0946441E0,-7.9336965E-1,-2.9702878E-1,-4.4577975E-2,2.7952954E-1,1.5029614E-1,2.3250642E-1,-1.815743E-1,-1.29398E-1,-4.2349175E-2,-6.2549315E-2,-1.8113146E-2,1.8959717E-4,3.4234017E-2,7.392472E-2,7.0429887E-3,-5.752174E-3],"categories":[],"categories_nodes":[],"categories_segments":[],"categories_sizes":[],"default_left":[0,0,0,0,0,0,0,0,0,0,0,0,0,0,0,0,0,0,0,0,0,0,0],"id":0,"left_children":[1,3,5,-1,7,9,11,13,15,17,19,-1,-1,-1,-1,-1,-1,-1,21,-1,-1,-1,-1],"loss_changes":[4.2201434E2,8.721707E1,9.272685E1,0E0,1.0230736E1,5.269912E0,3.2382507E0,4.8770905E-2,1.2324333E-2,1.5444134E-1,1.4061832E0,0E0,0E0,0E0,0E0,0E0,0E0,0E0,4.2585634E-2,0E0,0E0,0E0,0E0],"parents":[2147483647,0,0,1,1,2,2,4,4,5,5,6,6,7,7,8,8,9,9,10,10,18,18],"right_children":[2,4,6,-1,8,10,12,14,16,18,20,-1,-1,-1,-1,-1,-1,-1,22,-1,-1,-1,-1],"split_conditions":[-1.9536649E-1,-1.0941793E0,8.1957394E-1,-3.3108258E-1,-3.9829797E-1,1.3144271E-1,1.0593675E0,-7.1266663E-1,-4.0783292E-1,3.5764847E-2,3.6330864E-1,1.5029614E-1,2.3250642E-1,-1.815743E-1,-1.29398E-1,-4.2349175E-2,-6.2549315E-2,-1.8113146E-2,3.2721903E-2,3.4234017E-2,7.392472E-2,7.0429887E-3,-5.752174E-3],"split_indices":[5,5,5,0,4,5,5,4,1,5,5,0,0,0,0,0,0,0,1,0,0,0,0],"split_type":[0,0,0,0,0,0,0,0,0,0,0,0,0,0,0,0,0,0,0,0,0,0,0],"sum_hessian":[7.22E2,2.82E2,4.4E2,1.05E2,1.77E2,2.28E2,2.12E2,7.1E1,1.06E2,7.3E1,1.55E2,3.9E1,1.73E2,3.4E1,3.7E1,2.1E1,8.5E1,3.5E1,3.8E1,7.3E1,8.2E1,1.7E1,2.1E1],"tree_param":{"num_deleted":"0","num_feature":"7","num_nodes":"23","size_leaf_vector":"1"}},{"base_weights":[6.7870626E-3,-7.619645E-1,5.0221276E-1,-1.2331907E0,-3.2183298E-1,1.2798841E-1,9.1118956E-1,-2.7548128E-1,-1.6151237E-1,-1.04577005E-1,-2.4787189E-1,1.4548217E-1,-1.8662989E-1,1.4481907E-1,1.9685714E-1,7.5301655E-2,-2.6606986E-1,3.795491E-2,3.221445E-1,-5.9953846E-2,-3.786939E-2,-3.5320237E-2,2.3725117E-2,2.915997E-1,1.2644176E-1,-8.5999995E-2,1.8470298E-2,6.0377754E-2,-3.6121067E-2,-4.6593178E-2,-1.4056935E-2,5.7026274E-3,1.963486E-3],"categories":[],"categories_nodes":[],"categories_segments":[],"categories_sizes":[],"default_left":[0,0,0,0,0,0,0,0,0,0,0,0,0,0,0,0,0,0,0,0,0,0,0,0,0,0,0,0,0,0,0,0,0],"id":1,"left_children":[1,3,5,7,9,11,13,-1,-1,-1,15,17,-1,-1,-1,-1,19,21,23,-1,-1,25,-1,27,-1,29,31,-1,-1,-1,-1,-1,-1],"loss_changes":[2.7307974E2,5.7486053E1,6.6496155E1,6.0619354E0,1.9415464E0,4.541067E0,1.4191437E0,0E0,0E0,0E0,1.4729495E0,4.306638E0,0E0,0E0,0E0,0E0,1.7088604E-1,8.595862E-1,4.457903E-1,0E0,0E0,2.1308592E-1,0E0,5.0744724E-1,0E0,5.96368E-2,2.8292248E-3,0E0,0E0,0E0,0E0,0E0,0E0],"parents":[2147483647,0,0,1,1,2,2,3,3,4,4,5,5,6,6,10,10,11,11,16,16,17,17,18,18,21,21,23,23,25,25,26,26],"right_children":[2,4,6,8,10,12,14,-1,-1,-1,16,18,-1,-1,-1,-1,20,22,24,-1,-1,26,-1,28,-1,30,32,-1,-1,-1,-1,-1,-1],"split_conditions":[-1.0367316E-1,-7.2301525E-1,8.3276296E-1,-1.0971544E0,-5.339481E-1,1.2220792E0,1.1555133E0,-2.7548128E-1,-1.6151237E-1,-1.04577005E-1,-3.9829797E-1,1.93721E-1,-1.8662989E-1,1.4481907E-1,1.9685714E-1,7.5301655E-2,-2.6504663E-1,1.3144271E-1,1.0593675E0,-5.9953846E-2,-3.786939E-2,7.4568787E-3,2.3725117E-2,5.055578E-1,1.2644176E-1,-1.5805447E-1,3.562973E-2,6.0377754E-2,-3.6121067E-2,-4.6593178E-2,-1.4056935E-2,5.7026274E-3,1.963486E-3],"split_indices":[5,3,3,4,3,4,4,0,0,0,4,3,0,0,0,0,5,5,5,0,0,3,0,3,0,3,3,0,0,0,0,0,0],"split_type":[0,0,0,0,0,0,0,0,0,0,0,0,0,0,0,0,0,0,0,0,0,0,0,0,0,0,0,0,0,0,0,0,0],"sum_hessian":[7.13E2,2.79E2,4.34E2,1.33E2,1.46E2,2.28E2,2.06E2,9.6E1,3.7E1,3.6E1,1.1E2,2.26E2,2E0,6.4E1,1.42E2,2E0,1.08E2,1.42E2,8.4E1,7.1E1,3.7E1,7.5E1,6.7E1,8E1,4E0,3.8E1,3.7E1,7.9E1,1E0,1E0,3.7E1,1.5E1,2.2E1],"tree_param":{"num_deleted":"0","num_feature":"7","num_nodes":"33","size_leaf_vector":"1"}},{"base_weights":[-9.007789E-3,-6.3021624E-1,4.019216E-1,-1.0016773E0,-2.6270792E-1,1.12729624E-1,7.2877824E-1,-2.2052737E-1,-1.3134123E-1,7.7769905E-2,-2.722363E-1,1.2785535E-1,-1.6796689E-1,9.328014E-2,1.5559702E-1,-8.790514E-2,-2.1753885E-1,4.779113E-2,2.6479846E-1,-2.0442732E-1,-8.5893214E-2,9.244427E-2,3.8924426E-2,5.102008E-1,2.3402295E-1,-4.621502E-2,-1.4570934E-1,-2.0163005E-2,9.933737E-2,2.3174016E-2,1.2060421E-1,7.1896415E-4,4.7362685E-2,5.121712E-3,-3.0254543E-2,-4.8833817E-2,1.1012104E-2,1.0067606E-1,5.047515E-3,5.121712E-3,-1.039506E-2,1.8381283E-2,-1.7934447E-2,1.5821645E-2,1.1365055E-1,6.001672E-3,9.934534E-3,2.68815E-2,1.5683003E-2,4.314657E-3,1.4093064E-3],"categories":[],"categories_nodes":[],"categories_segments":[],"categories_sizes":[],"default_left":[0,0,0,0,0,0,0,0,0,0,0,0,0,0,0,0,0,0,0,0,0,0,0,0,0,0,0,0,0,0,0,0,0,0,0,0,0,0,0,0,0,0,0,0,0,0,0,0,0,0,0],"id":2,"left_children":[1,3,5,7,9,11,13,-1,-1,-1,15,17,-1,-1,-1,-1,19,21,23,25,-1,-1,27,29,31,-1,33,35,37,-1,-1,-1,-1,-1,-1,39,41,43,-1,-1,-1,45,-1,-1,47,-1,49,-1,-1,-1,-1],"loss_changes":[1.8915318E2,3.9745636E1,4.199353E1,3.6367035E0,1.1491699E0,3.65832E0,1.972641E0,0E0,0E0,0E0,1.1813183E0,2.5732155E0,0E0,0E0,0E0,0E0,1.4951706E-1,5.2256066E-1,4.182601E-1,1.1103678E-1,0E0,0E0,5.430223E-1,1.5307069E-1,5.0380707E-2,0E0,4.682505E-2,7.0793144E-2,2.3581386E-3,0E0,0E0,0E0,0E0,0E0,0E0,1.2250274E-2,3.2233056E-2,2.4463534E-3,0E0,0E0,0E0,3.1357799E-3,0E0,0E0,8.907497E-3,0E0,5.362849E-4,0E0,0E0,0E0,0E0],"parents":[2147483647,0,0,1,1,2,2,3,3,4,4,5,5,6,6,10,10,11,11,16,16,17,17,18,18,19,19,22,22,23,23,24,24,26,26,27,27,28,28,35,35,36,36,37,37,41,41,44,44,46,46],"right_children":[2,4,6,8,10,12,14,-1,-1,-1,16,18,-1,-1,-1,-1,20,22,24,26,-1,-1,28,30,32,-1,34,36,38,-1,-1,-1,-1,-1,-1,40,42,44,-1,-1,-1,46,-1,-1,48,-1,50,-1,-1,-1,-1],"split_conditions":[-1.0993273E-1,-7.2301525E-1,8.3276296E-1,-1.1135225E0,-1.1225601E0,1.2935655E0,8.550221E-1,-2.2052737E-1,-1.3134123E-1,7.7769905E-2,-4.037249E-1,2.7314484E-1,-1.6796689E-1,9.328014E-2,1.5559702E-1,-8.790514E-2,3.313271E-2,-4.0579173E-1,1.3955371E-1,-3.1839046E-1,-8.5893214E-2,9.244427E-2,1.2672776E-1,3.4281176E-1,3.4281176E-1,-4.621502E-2,-7.304545E-1,3.3181805E-2,3.3974448E-1,2.3174016E-2,1.2060421E-1,7.1896415E-4,4.7362685E-2,5.121712E-3,-3.0254543E-2,-7.304545E-1,9.35001E-2,1.4343885E-1,5.047515E-3,5.121712E-3,-1.039506E-2,3.1302333E-2,-1.7934447E-2,1.5821645E-2,1.3955371E-1,6.001672E-3,3.4162365E-2,2.68815E-2,1.5683003E-2,4.314657E-3,1.4093064E-3],"split_indices":[3,3,3,3,0,0,3,0,0,0,3,3,0,0,0,0,2,2,0,3,0,0,3,3,3,0,0,3,0,0,0,0,0,0,0,0,0,3,0,0,0,0,0,0,0,0,2,0,0,0,0],"split_type":[0,0,0,0,0,0,0,0,0,0,0,0,0,0,0,0,0,0,0,0,0,0,0,0,0,0,0,0,0,0,0,0,0,0,0,0,0,0,0,0,0,0,0,0,0,0,0,0,0,0,0],"sum_hessian":[7.37E2,2.93E2,4.44E2,1.44E2,1.49E2,2.37E2,2.07E2,1.08E2,3.6E1,1E0,1.48E2,2.35E2,2E0,3.6E1,1.71E2,3.3E1,1.15E2,1.5E2,8.5E1,1.12E2,3E0,1E0,1.49E2,6E0,7.9E1,7.3E1,3.9E1,7.6E1,7.3E1,2E0,4E0,1E0,7.8E1,1E0,3.8E1,3.9E1,3.7E1,7.1E1,2E0,1E0,3.8E1,3.6E1,1E0,3.2E1,3.9E1,1.3E1,2.3E1,2.1E1,1.8E1,2E0,2.1E1],"tree_param":{"num_deleted":"0","num_feature":"7","num_nodes":"51","size_leaf_vector":"1"}},{"base_weights":[-2.298354E-3,-7.1290714E-1,2.248394E-1,-1.7656331E-1,-4.2957923E-1,6.8669943E-3,5.5173385E-1,-1.05905436E-1,-3.0508387E-1,-1.2063686E-1,1.0449911E-1,3.431588E-1,1.18858896E-1,-6.282952E-2,-7.776643E-2,-1.526352E-1,-2.9121421E-2,1.1834917E-1,-1.15585685E-1,7.13856E-2,-1.3840576E-2,4.7802646E-3,-2.551798E-2,-6.0555823E-2,-1.7311707E-1,4.510778E-2,-9.538695E-3,6.43747E-2,4.018369E-2,4.7802646E-3,-1.3370782E-2,-3.901793E-2,-2.725016E-2,1.4254351E-2,8.93889E-2,1.795296E-2,-8.666093E-3,9.63992E-2,-1.6648717E-2,4.984934E-3,2.0599703E-3,5.3653907E-2,8.656018E-2,8.773539E-2,4.542764E-3,1.0625913E-2,1.8477267E-2],"categories":[],"categories_nodes":[],"categories_segments":[],"categories_sizes":[],"default_left":[0,0,0,0,0,0,0,0,0,0,0,0,0,0,0,0,0,0,0,0,0,0,0,0,0,0,0,0,0,0,0,0,0,0,0,0,0,0,0,0,0,0,0,0,0,0,0],"id":3,"left_children":[1,3,5,-1,7,9,11,-1,13,15,17,19,-1,-1,21,23,25,27,-1,-1,-1,-1,-1,29,31,-1,-1,33,-1,-1,-1,-1,-1,35,37,39,-1,41,-1,-1,-1,-1,43,45,-1,-1,-1],"loss_changes":[1.1395047E2,7.473465E0,3.8113297E1,0E0,5.230274E-1,4.046069E0,1.4918213E0,0E0,2.3251295E-2,4.0400648E-1,1.875901E0,2.8219414E-1,0E0,0E0,2.6360894E-2,1.7517304E-1,2.0596652E-1,7.852392E-1,0E0,0E0,0E0,0E0,0E0,1.4897995E-2,1.4881611E-2,0E0,0E0,1.3912198E-1,0E0,0E0,0E0,0E0,0E0,1.007517E-2,1.0681474E-1,1.567414E-3,0E0,7.7002645E-2,0E0,0E0,0E0,0E0,1.4168024E-3,1.449585E-3,0E0,0E0,0E0],"parents":[2147483647,0,0,1,1,2,2,4,4,5,5,6,6,8,8,9,9,10,10,11,11,14,14,15,15,16,16,17,17,23,23,24,24,27,27,33,33,34,34,35,35,37,37,42,42,43,43],"right_children":[2,4,6,-1,8,10,12,-1,14,16,18,20,-1,-1,22,24,26,28,-1,-1,-1,-1,-1,30,32,-1,-1,34,-1,-1,-1,-1,-1,36,38,40,-1,42,-1,-1,-1,-1,44,46,-1,-1,-1],"split_conditions":[-3.9829797E-1,-1.0971544E0,8.323833E-1,-1.7656331E-1,-7.2551775E-1,-3.869961E-2,8.8372993E-1,-1.05905436E-1,-5.5518746E-1,-1.4569993E-1,8.41877E-1,9.8815566E-1,1.18858896E-1,-6.282952E-2,-7.2799546E-1,-4.0783292E-1,-1.1195695E0,3.4617603E-1,-1.15585685E-1,7.13856E-2,-1.3840576E-2,4.7802646E-3,-2.551798E-2,-4.0783295E-1,-2.7403885E-1,4.510778E-2,-9.538695E-3,4.7027882E-2,4.018369E-2,4.7802646E-3,-1.3370782E-2,-3.901793E-2,-2.725016E-2,9.57388E-2,5.0393367E-1,3.4162365E-2,-8.666093E-3,-4.0783292E-1,-1.6648717E-2,4.984934E-3,2.0599703E-3,5.3653907E-2,2.7088585E-1,1.3159946E-1,4.542764E-3,1.0625913E-2,1.8477267E-2],"split_indices":[4,4,2,0,2,2,2,0,2,2,1,1,0,0,1,1,1,2,0,0,0,0,0,1,1,0,0,2,0,0,0,0,0,1,1,2,0,1,0,0,0,0,1,2,0,0,0],"split_type":[0,0,0,0,0,0,0,0,0,0,0,0,0,0,0,0,0,0,0,0,0,0,0,0,0,0,0,0,0,0,0,0,0,0,0,0,0,0,0,0,0,0,0,0,0,0,0],"sum_hessian":[7.02E2,1.69E2,5.33E2,1.03E2,6.6E1,3.21E2,2.12E2,3.3E1,3.3E1,1.39E2,1.82E2,3.9E1,1.73E2,3.1E1,2E0,1.02E2,3.7E1,1.8E2,2E0,3.8E1,1E0,1E0,1E0,2E1,8.2E1,1E0,3.6E1,1.11E2,6.9E1,1E0,1.9E1,4.6E1,3.6E1,3.8E1,7.3E1,3.7E1,1E0,7.1E1,2E0,1.7E1,2E1,1E0,7E1,6.8E1,2E0,1.1E1,5.7E1],"tree_param":{"num_deleted":"0","num_feature":"7","num_nodes":"47","size_leaf_vector":"1"}},{"base_weights":[1.0965033E-2,-3.88352E-1,2.649392E-1,-1.3566284E-1,-2.1356776E-1,7.126713E-2,4.59766E-1,-6.819985E-2,-1.2978229E-1,3.4701815E-3,1.3899982E-1,4.1649398E-1,1.2838356E-1,-1.0951307E-2,-1.4473656E-1,-2.2336658E-2,1.0319467E-2,1.0069112E-1,3.0634109E-2,5.616019E-2,8.9668855E-2,-3.7407313E-2,-2.2511048E-2,-7.5570317E-3,-5.2632457E-3,2.4149433E-2,8.425165E-3,4.052413E-3,-4.5124623E-3],"categories":[],"categories_nodes":[],"categories_segments":[],"categories_sizes":[],"default_left":[0,0,0,0,0,0,0,0,0,0,0,0,0,0,0,0,0,0,0,0,0,0,0,0,0,0,0,0,0],"id":4,"left_children":[1,3,5,-1,7,9,11,-1,13,15,17,19,-1,-1,21,23,-1,25,-1,-1,-1,-1,-1,-1,27,-1,-1,-1,-1],"loss_changes":[7.069004E1,1.3444771E1,1.6008518E1,0E0,1.7479167E0,9.9092245E-1,1.1362915E0,0E0,1.04198694E-1,1.3892607E-1,2.7783155E-2,5.131779E-1,0E0,0E0,7.768798E-2,1.885663E-2,0E0,3.0937433E-2,0E0,0E0,0E0,0E0,0E0,0E0,1.7252188E-2,0E0,0E0,0E0,0E0],"parents":[2147483647,0,0,1,1,2,2,4,4,5,5,6,6,8,8,9,9,10,10,11,11,14,14,15,15,17,17,24,24],"right_children":[2,4,6,-1,8,10,12,-1,14,16,18,20,-1,-1,22,24,-1,26,-1,-1,-1,-1,-1,-1,28,-1,-1,-1,-1],"split_conditions":[-1.0367316E-1,-1.0941793E0,8.1957394E-1,-1.3566284E-1,-3.9624596E-1,1.4211859E-1,1.4708085E0,-6.819985E-2,-4.0783292E-1,1.3144271E-1,3.6330864E-1,1.0593675E0,1.2838356E-1,-1.0951307E-2,-3.5317653E-1,3.5764847E-2,1.0319467E-2,1.4211862E-1,3.0634109E-2,5.616019E-2,8.9668855E-2,-3.7407313E-2,-2.2511048E-2,-7.5570317E-3,3.4162365E-2,2.4149433E-2,8.425165E-3,4.052413E-3,-4.5124623E-3],"split_indices":[5,5,5,0,5,2,5,0,1,5,5,5,0,0,2,5,0,2,0,0,0,0,0,0,2,0,0,0,0],"split_type":[0,0,0,0,0,0,0,0,0,0,0,0,0,0,0,0,0,0,0,0,0,0,0,0,0,0,0,0,0],"sum_hessian":[6.93E2,2.69E2,4.24E2,9.9E1,1.7E2,2.14E2,2.1E2,6.5E1,1.05E2,1.08E2,1.06E2,1.75E2,3.5E1,1.9E1,8.6E1,7.1E1,3.7E1,3.3E1,7.3E1,3.7E1,1.38E2,3.3E1,5.3E1,3.6E1,3.5E1,2.3E1,1E1,1.4E1,2.1E1],"tree_param":{"num_deleted":"0","num_feature":"7","num_nodes":"29","size_leaf_vector":"1"}},{"base_weights":[-6.832113E-3,-3.2627192E-1,2.1365842E-1,-5.293083E-1,-1.398768E-1,5.957913E-2,3.8233095E-1,-1.4100224E-1,-9.000533E-2,8.419226E-2,-1.4892687E-1,4.2974532E-1,4.8990194E-2,5.7391584E-2,8.4618844E-2,-5.0579924E-2,-1.1885466E-1,3.773616E-3,1.00874715E-1,1.1899227E-2,1.18046045E-1,-1.0624858E-1,-2.9919937E-1,-5.445011E-3,2.666836E-2,1.3255207E-1,-4.259302E-2,1.16104975E-1,-1.120342E-1,-7.406471E-2,-1.21388985E-2,1.1623788E-2,3.3969164E-2,5.901913E-2,1.2001402E-1,2.718771E-2,3.773616E-3,-2.5836078E-2,-7.526455E-2,1.51604E-2,1.5998011E-3,8.071223E-3,2.7001468E-2,3.2459707E-3,2.4496067E-2,-1.5603616E-2,-2.0194054E-3,1.958549E-3,4.3473705E-3,3.32358E-3,7.5692134E-3],"categories":[],"categories_nodes":[],"categories_segments":[],"categories_sizes":[],"default_left":[0,0,0,0,0,0,0,0,0,0,0,0,0,0,0,0,0,0,0,0,0,0,0,0,0,0,0,0,0,0,0,0,0,0,0,0,0,0,0,0,0,0,0,0,0,0,0,0,0,0,0],"id":5,"left_children":[1,3,5,7,9,11,13,-1,-1,-1,15,17,19,-1,-1,-1,21,-1,-1,23,25,27,29,-1,31,33,-1,35,37,-1,-1,39,41,-1,43,-1,-1,-1,45,47,-1,-1,49,-1,-1,-1,-1,-1,-1,-1,-1],"loss_changes":[5.071064E1,1.0978348E1,1.102573E1,1.3156586E0,9.171822E-1,8.398184E-1,5.463867E-1,0E0,0E0,0E0,4.245205E-1,1.6494513E-1,5.632485E-1,0E0,0E0,0E0,2.183274E-1,0E0,0E0,8.581552E-2,4.2618573E-1,1.7910326E-1,7.379109E-2,0E0,1.0962918E-2,8.201718E-2,0E0,2.5844276E-3,5.431831E-2,0E0,0E0,2.4460256E-4,9.803176E-4,0E0,1.47099495E-2,0E0,0E0,0E0,5.960986E-3,1.7437572E-4,0E0,0E0,3.24638E-3,0E0,0E0,0E0,0E0,0E0,0E0,0E0,0E0],"parents":[2147483647,0,0,1,1,2,2,3,3,4,4,5,5,6,6,10,10,11,11,12,12,16,16,19,19,20,20,21,21,22,22,24,24,25,25,27,27,28,28,31,31,32,32,34,34,38,38,39,39,42,42],"right_children":[2,4,6,8,10,12,14,-1,-1,-1,16,18,20,-1,-1,-1,22,-1,-1,24,26,28,30,-1,32,34,-1,36,38,-1,-1,40,42,-1,44,-1,-1,-1,46,48,-1,-1,50,-1,-1,-1,-1,-1,-1,-1,-1],"split_conditions":[-1.0993273E-1,-7.2301525E-1,6.414629E-1,-1.6875137E0,-1.1195681E0,-4.0783292E-1,1.1491423E0,-1.4100224E-1,-9.000533E-2,8.419226E-2,-5.339481E-1,7.4568787E-3,1.93721E-1,5.7391584E-2,8.4618844E-2,-5.0579924E-2,3.0267293E-2,3.773616E-3,1.00874715E-1,3.3181805E-2,5.0393367E-1,-7.2799546E-1,-1.5805447E-1,-5.445011E-3,9.57388E-2,1.4211862E-1,-4.259302E-2,-7.255172E-1,-2.7029532E-1,-7.406471E-2,-1.21388985E-2,3.4162365E-2,1.4082554E-1,5.901913E-2,2.7314484E-1,2.718771E-2,3.773616E-3,-2.5836078E-2,-1.5805447E-1,3.562973E-2,1.5998011E-3,8.071223E-3,1.4343886E-1,3.2459707E-3,2.4496067E-2,-1.5603616E-2,-2.0194054E-3,1.958549E-3,4.3473705E-3,3.32358E-3,7.5692134E-3],"split_indices":[3,3,3,3,1,1,3,0,0,0,3,3,3,0,0,0,1,0,0,3,1,1,3,0,1,2,0,2,3,0,0,2,1,0,3,0,0,0,3,3,0,0,3,0,0,0,0,0,0,0,0],"split_type":[0,0,0,0,0,0,0,0,0,0,0,0,0,0,0,0,0,0,0,0,0,0,0,0,0,0,0,0,0,0,0,0,0,0,0,0,0,0,0,0,0,0,0,0,0,0,0,0,0,0,0],"sum_hessian":[7.16E2,2.92E2,4.24E2,1.38E2,1.54E2,2.23E2,2.01E2,3.8E1,1E2,1E0,1.53E2,4E0,2.19E2,6.5E1,1.36E2,3.1E1,1.22E2,1E0,3E0,1.44E2,7.5E1,1.17E2,5E0,3.9E1,1.05E2,7.3E1,2E0,2E0,1.15E2,3E0,2E0,3.6E1,6.9E1,2E0,7.1E1,1E0,1E0,7.5E1,4E1,1.5E1,2.1E1,3.1E1,3.8E1,2E0,6.9E1,3.8E1,2E0,1.1E1,4E0,2.2E1,1.6E1],"tree_param":{"num_deleted":"0","num_feature":"7","num_nodes":"51","size_leaf_vector":"1"}},{"base_weights":[1.3845444E-3,-2.7554554E-1,1.8382609E-1,-4.3941447E-1,-1.1912591E-1,4.603017E-2,3.3406565E-1,-9.6529156E-2,-5.626592E-2,-3.0607456E-2,-1.6588433E-2,1.900165E-2,2.0060832E-2,2.944595E-1,1.0405026E-1,-5.618154E-3,3.356931E-2,1.0459483E-1,5.5386942E-2,1.3484293E-2,4.2889085E-2,8.223077E-3,1.8042962E-3,6.8239183E-3,4.973336E-2,1.1539973E-2,6.433385E-3],"categories":[],"categories_nodes":[],"categories_segments":[],"categories_sizes":[],"default_left":[0,0,0,0,0,0,0,0,0,0,0,0,0,0,0,0,0,0,0,0,0,0,0,0,0,0,0],"id":6,"left_children":[1,3,5,7,9,11,13,-1,-1,-1,-1,15,-1,17,-1,-1,19,-1,-1,21,23,-1,-1,-1,25,-1,-1],"loss_changes":[3.561936E1,7.072357E0,8.767763E0,6.578884E-1,1.5376163E-1,3.2478386E-1,1.1905575E0,0E0,0E0,0E0,0E0,1.0616199E-1,0E0,3.9914417E-1,0E0,0E0,2.0744309E-2,0E0,0E0,4.1906517E-3,1.3478845E-3,0E0,0E0,0E0,1.8856749E-3,0E0,0E0],"parents":[2147483647,0,0,1,1,2,2,3,3,4,4,5,5,6,6,11,11,13,13,16,16,19,19,20,20,24,24],"right_children":[2,4,6,8,10,12,14,-1,-1,-1,-1,16,-1,18,-1,-1,20,-1,-1,22,24,-1,-1,-1,26,-1,-1],"split_conditions":[-1.9358566E-1,-7.0774144E-1,8.2002E-1,-1.0912164E0,-3.4260365E-1,3.6435473E-1,1.365421E0,-9.6529156E-2,-5.626592E-2,-3.0607456E-2,-1.6588433E-2,3.7241705E-2,2.0060832E-2,6.4082223E-1,1.0405026E-1,-5.618154E-3,1.3279374E-1,1.0459483E-1,5.5386942E-2,2.844579E-2,1.4211859E-1,8.223077E-3,1.8042962E-3,6.8239183E-3,1.4211862E-1,1.1539973E-2,6.433385E-3],"split_indices":[6,6,6,6,6,6,2,0,0,0,0,6,0,2,0,0,6,0,0,2,2,0,0,0,2,0,0],"split_type":[0,0,0,0,0,0,0,0,0,0,0,0,0,0,0,0,0,0,0,0,0,0,0,0,0,0,0],"sum_hessian":[7.01E2,2.78E2,4.23E2,1.34E2,1.44E2,2.22E2,2.01E2,1.02E2,3.2E1,7.1E1,7.3E1,1.5E2,7.2E1,1.7E2,3.1E1,3.5E1,1.15E2,8E0,1.62E2,3.8E1,7.7E1,3E0,3.5E1,3.9E1,3.8E1,2.3E1,1.5E1],"tree_param":{"num_deleted":"0","num_feature":"7","num_nodes":"27","size_leaf_vector":"1"}},{"base_weights":[-7.8056875E-4,-2.0811282E-1,1.42462E-1,-3.3450556E-1,-8.314879E-2,5.7685398E-2,2.5815338E-1,-7.3065154E-2,-4.4792708E-2,-1.2828217E-1,-6.731921E-2,9.207984E-3,9.0643525E-2,2.2486253E-1,7.414422E-2,-1.7682998E-2,-3.210806E-2,-3.9632223E-3,-7.740271E-2,-1.8843178E-2,2.297048E-2,7.309823E-2,2.6017357E-2,2.4305385E-1,2.1605063E-2,-1.8644188E-2,-9.981761E-3,-2.3646343E-2,-2.5752338E-3,1.2498702E-2,6.326914E-3,1.8571896E-2,6.642071E-2,3.7552014E-2,5.2323546E-2,-1.2556494E-3,-5.024998E-3,4.2333505E-3,1.0690532E-2,2.2596892E-2,1.4841238E-2,1.3582158E-3,2.4544043E-3,1.3348932E-3,5.048891E-3],"categories":[],"categories_nodes":[],"categories_segments":[],"categories_sizes":[],"default_left":[0,0,0,0,0,0,0,0,0,0,0,0,0,0,0,0,0,0,0,0,0,0,0,0,0,0,0,0,0,0,0,0,0,0,0,0,0,0,0,0,0,0,0,0,0],"id":7,"left_children":[1,3,5,7,9,11,13,-1,-1,15,17,19,21,23,-1,-1,-1,-1,25,27,29,31,-1,33,-1,-1,-1,35,-1,37,-1,-1,39,-1,-1,-1,-1,-1,41,43,-1,-1,-1,-1,-1],"loss_changes":[2.1442434E1,4.6037645E0,4.1581984E0,3.3377266E-1,9.0608954E-2,3.9616418E-1,5.07823E-1,0E0,0E0,1.9195199E-2,5.2496076E-2,4.0629234E-2,8.34043E-2,2.535491E-1,0E0,0E0,0E0,0E0,3.2010913E-2,3.941711E-4,5.5602044E-3,1.7837286E-3,0E0,2.8012753E-2,0E0,0E0,0E0,1.2109894E-4,0E0,9.599794E-5,0E0,0E0,2.6329786E-2,0E0,0E0,0E0,0E0,0E0,3.682892E-5,3.3750478E-4,0E0,0E0,0E0,0E0,0E0],"parents":[2147483647,0,0,1,1,2,2,3,3,4,4,5,5,6,6,9,9,10,10,11,11,12,12,13,13,18,18,19,19,20,20,21,21,23,23,27,27,29,29,32,32,38,38,39,39],"right_children":[2,4,6,8,10,12,14,-1,-1,16,18,20,22,24,-1,-1,-1,-1,26,28,30,32,-1,34,-1,-1,-1,36,-1,38,-1,-1,40,-1,-1,-1,-1,-1,42,44,-1,-1,-1,-1,-1],"split_conditions":[-1.0367316E-1,-7.1019936E-1,1.0593675E0,-1.0941793E0,-3.9624596E-1,1.4177193E-1,1.4708085E0,-7.3065154E-2,-4.4792708E-2,-7.304545E-1,-4.0985453E-1,3.5764847E-2,5.1080084E-1,1.3060068E0,7.414422E-2,-1.7682998E-2,-3.210806E-2,-3.9632223E-3,-2.6504663E-1,-1.1108772E-1,1.3144271E-1,1.3955371E-1,2.6017357E-2,1.1555129E0,2.1605063E-2,-1.8644188E-2,-9.981761E-3,-1.702804E-1,-2.5752338E-3,1.974301E-2,6.326914E-3,1.8571896E-2,3.6330864E-1,3.7552014E-2,5.2323546E-2,-1.2556494E-3,-5.024998E-3,4.2333505E-3,3.1302333E-2,1.3955389E-1,1.4841238E-2,1.3582158E-3,2.4544043E-3,1.3348932E-3,5.048891E-3],"split_indices":[5,5,5,5,5,5,5,0,0,0,0,5,0,0,0,0,0,0,5,0,5,0,0,5,0,0,0,0,0,1,0,0,5,0,0,0,0,0,0,0,0,0,0,0,0],"split_type":[0,0,0,0,0,0,0,0,0,0,0,0,0,0,0,0,0,0,0,0,0,0,0,0,0,0,0,0,0,0,0,0,0,0,0,0,0,0,0,0,0,0,0,0,0],"sum_hessian":[7.18E2,2.93E2,4.25E2,1.44E2,1.49E2,2.47E2,1.78E2,1.09E2,3.5E1,3.5E1,1.14E2,1.01E2,1.46E2,1.42E2,3.6E1,1.9E1,1.6E1,2.1E1,9.3E1,3.3E1,6.8E1,1.05E2,4.1E1,1.21E2,2.1E1,5.6E1,3.7E1,1.5E1,1.8E1,3.3E1,3.5E1,2E1,8.5E1,3.6E1,8.5E1,2E0,1.3E1,2E0,3.1E1,1.4E1,7.1E1,1.2E1,1.9E1,3E0,1.1E1],"tree_param":{"num_deleted":"0","num_feature":"7","num_nodes":"45","size_leaf_vector":"1"}},{"base_weights":[-1.2687787E-3,-2.3914126E-1,1.01300806E-1,-3.1109956E-1,-1.1173309E-1,1.2423914E-2,2.203876E-1,-2.8191695E-1,-1.5283538E-1,-9.701432E-2,-4.750207E-2,-2.3700912E-2,4.7629964E-2,1.7364258E-1,2.0588006E-1,-7.832983E-2,-4.761864E-2,-2.3727842E-2,-1.4432117E-2,-3.2900333E-2,5.214075E-3,2.7701281E-2,1.3305344E-2,3.485873E-2,5.175866E-2,-7.8502055E-3,-3.9303247E-3,7.000649E-3,3.845599E-4,2.6099136E-2,2.2717914E-2,1.1183786E-3,-7.1187917E-4,2.4512926E-2,-7.101533E-3,1.7373407E-2,3.0327423E-2,4.2985654E-3,2.1274076E-3,7.1773115E-3,3.913064E-3],"categories":[],"categories_nodes":[],"categories_segments":[],"categories_sizes":[],"default_left":[0,0,0,0,0,0,0,0,0,0,0,0,0,0,0,0,0,0,0,0,0,0,0,0,0,0,0,0,0,0,0,0,0,0,0,0,0,0,0,0,0],"id":8,"left_children":[1,3,5,7,9,11,13,15,-1,17,-1,19,21,-1,23,-1,-1,-1,-1,25,27,29,-1,-1,-1,-1,-1,-1,31,-1,33,-1,-1,35,-1,37,39,-1,-1,-1,-1],"loss_changes":[1.724938E1,1.8832808E0,5.2230515E0,1.3540993E0,1.0201895E-1,3.647243E-1,1.6255579E0,4.386568E-1,0E0,2.318728E-2,0E0,3.8115256E-2,5.0919414E-2,0E0,2.5909805E-1,0E0,0E0,0E0,0E0,7.544264E-3,5.152299E-3,3.1978216E-2,0E0,0E0,0E0,0E0,0E0,0E0,7.1754475E-4,0E0,9.370439E-3,0E0,0E0,1.9351356E-3,0E0,5.695084E-4,8.0936775E-4,0E0,0E0,0E0,0E0],"parents":[2147483647,0,0,1,1,2,2,3,3,4,4,5,5,6,6,7,7,9,9,11,11,12,12,14,14,19,19,20,20,21,21,28,28,30,30,33,33,35,35,36,36],"right_children":[2,4,6,8,10,12,14,16,-1,18,-1,20,22,-1,24,-1,-1,-1,-1,26,28,30,-1,-1,-1,-1,-1,-1,32,-1,34,-1,-1,36,-1,38,40,-1,-1,-1,-1],"split_conditions":[-3.4260365E-1,-7.0774144E-1,8.2002E-1,-7.2301525E-1,-1.3561912E-1,1.3279374E-1,-4.1542438E-1,-1.6875137E0,-1.5283538E-1,-5.339481E-1,-4.750207E-2,3.7241705E-2,3.6435473E-1,1.7364258E-1,1.2838771E0,-7.832983E-2,-4.761864E-2,-2.3727842E-2,-1.4432117E-2,-1.9358566E-1,1.974301E-2,-4.1542438E-1,1.3305344E-2,3.485873E-2,5.175866E-2,-7.8502055E-3,-3.9303247E-3,7.000649E-3,3.2721903E-2,2.6099136E-2,2.7314484E-1,1.1183786E-3,-7.1187917E-4,1.4082554E-1,-7.101533E-3,1.3029203E-1,1.4343886E-1,4.2985654E-3,2.1274076E-3,7.1773115E-3,3.913064E-3],"split_indices":[6,6,6,3,1,6,3,3,0,3,0,6,6,0,6,0,0,0,0,6,1,3,0,0,0,0,0,0,1,0,3,0,0,1,0,1,3,0,0,0,0],"split_type":[0,0,0,0,0,0,0,0,0,0,0,0,0,0,0,0,0,0,0,0,0,0,0,0,0,0,0,0,0,0,0,0,0,0,0,0,0,0,0,0,0],"sum_hessian":[7.03E2,2.11E2,4.92E2,1.33E2,7.8E1,2.83E2,2.09E2,1.28E2,5E0,7.3E1,5E0,1.4E2,1.43E2,2E0,2.07E2,3.2E1,9.6E1,3.5E1,3.8E1,1.06E2,3.4E1,7.2E1,7.1E1,1.35E2,7.2E1,6.9E1,3.7E1,3E0,3.1E1,1E0,7.1E1,1.3E1,1.8E1,7E1,1E0,3.5E1,3.5E1,1.9E1,1.6E1,2E1,1.5E1],"tree_param":{"num_deleted":"0","num_feature":"7","num_nodes":"41","size_leaf_vector":"1"}},{"base_weights":[-5.2898675E-5,-1.3419934E-1,8.3221085E-2,-2.0111026E-1,-6.680507E-2,3.1380408E-2,1.586174E-1,-2.3141308E-1,-3.309887E-2,-2.4153877E-2,-4.7217097E-2,3.5483025E-2,-5.0811388E-2,1.3216667E-1,5.0740357E-2,-2.961514E-2,-2.6170334E-1,2.358748E-3,-4.8003748E-2,6.8644276E-3,5.661914E-2,1.4634506E-1,7.9185E-3,-7.462081E-2,-4.0768355E-2,-1.1130218E-2,-3.872011E-2,2.3462277E-2,3.810713E-3,5.099957E-2,3.5085123E-2,2.2322316E-2,3.27488E-2,-7.0806667E-3,-1.4300615E-2,-2.0506646E-2,1.6678352E-2,4.01958E-2,6.1431892E-2,-1.7547773E-2,-6.839931E-3,1.16077E-3,1.8565437E-2,1.1184289E-2,3.2020673E-2,2.4259942E-2,1.1422187E-2,-7.370524E-4,-3.625866E-3,3.13227E-3,4.6486184E-3,1.5887842E-2,8.020139E-3,6.602188E-4,3.6636218E-3],"categories":[],"categories_nodes":[],"categories_segments":[],"categories_sizes":[],"default_left":[0,0,0,0,0,0,0,0,0,0,0,0,0,0,0,0,0,0,0,0,0,0,0,0,0,0,0,0,0,0,0,0,0,0,0,0,0,0,0,0,0,0,0,0,0,0,0,0,0,0,0,0,0,0,0],"id":9,"left_children":[1,3,5,7,9,11,13,15,-1,-1,17,19,-1,21,-1,-1,23,-1,25,27,29,31,-1,-1,-1,-1,33,-1,35,37,-1,-1,-1,-1,-1,39,41,43,45,47,-1,-1,49,-1,51,-1,-1,-1,-1,-1,-1,53,-1,-1,-1],"loss_changes":[8.020706E0,1.2132182E0,1.7215533E0,7.126379E-2,1.3658243E-1,3.2835507E-1,3.8564777E-1,9.667373E-2,0E0,0E0,6.0529113E-3,1.583077E-1,0E0,1.7873192E-1,0E0,0E0,1.5729117E-1,0E0,3.1448603E-3,3.755509E-2,8.292061E-2,3.8989305E-2,0E0,0E0,0E0,0E0,8.087382E-4,0E0,3.6042526E-2,1.1629492E-2,0E0,0E0,0E0,0E0,0E0,4.2038038E-4,1.3235807E-3,6.4463317E-3,4.511684E-3,1.6466621E-4,0E0,0E0,1.277756E-4,0E0,6.025575E-3,0E0,0E0,0E0,0E0,0E0,0E0,5.5202236E-4,0E0,0E0,0E0],"parents":[2147483647,0,0,1,1,2,2,3,3,4,4,5,5,6,6,7,7,10,10,11,11,13,13,16,16,18,18,19,19,20,20,21,21,26,26,28,28,29,29,35,35,36,36,37,37,38,38,39,39,42,42,44,44,51,51],"right_children":[2,4,6,8,10,12,14,16,-1,-1,18,20,-1,22,-1,-1,24,-1,26,28,30,32,-1,-1,-1,-1,34,-1,36,38,-1,-1,-1,-1,-1,40,42,44,46,48,-1,-1,50,-1,52,-1,-1,-1,-1,-1,-1,54,-1,-1,-1],"split_conditions":[-1.4569993E-1,-7.1266663E-1,8.3238333E-1,-1.6286718E0,-4.0579176E-1,1.2935655E0,1.365421E0,-2.019359E0,-3.309887E-2,-2.4153877E-2,-7.304545E-1,1.4043154E-1,-5.0811388E-2,1.3060068E0,5.0740357E-2,-2.961514E-2,-1.6913322E0,2.358748E-3,-3.5317653E-1,-4.0985453E-1,1.0592408E0,1.1555133E0,7.9185E-3,-7.462081E-2,-4.0768355E-2,-1.1130218E-2,3.0269865E-2,2.3462277E-2,3.4284234E-2,3.7509438E-1,3.5085123E-2,2.2322316E-2,3.27488E-2,-7.0806667E-3,-1.4300615E-2,-7.340776E-2,3.416236E-2,1.3955371E-1,1.3955371E-1,-1.702804E-1,-6.839931E-3,1.16077E-3,1.290058E-1,1.1184289E-2,3.4617603E-1,2.4259942E-2,1.1422187E-2,-7.370524E-4,-3.625866E-3,3.13227E-3,4.6486184E-3,1.3955389E-1,8.020139E-3,6.602188E-4,3.6636218E-3],"split_indices":[2,4,2,4,2,0,2,0,0,0,0,4,0,0,0,0,2,0,2,0,4,4,0,0,0,0,0,0,4,2,0,0,0,0,0,0,2,0,0,0,0,0,0,0,2,0,0,0,0,0,0,0,0,0,0],"split_type":[0,0,0,0,0,0,0,0,0,0,0,0,0,0,0,0,0,0,0,0,0,0,0,0,0,0,0,0,0,0,0,0,0,0,0,0,0,0,0,0,0,0,0,0,0,0,0,0,0,0,0,0,0,0,0],"sum_hessian":[7.14E2,2.73E2,4.41E2,1.35E2,1.38E2,2.63E2,1.78E2,6.7E1,6.8E1,3.4E1,1.04E2,2.61E2,2E0,1.43E2,3.5E1,2.1E1,4.6E1,1E0,1.03E2,1.12E2,1.49E2,1.23E2,2E1,1.2E1,3.4E1,5.1E1,5.2E1,1E0,1.11E2,1.45E2,4E0,4.6E1,7.7E1,5.1E1,1E0,3.8E1,7.3E1,7.6E1,6.9E1,3.5E1,3E0,1.2E1,6.1E1,2.2E1,5.4E1,1E0,6.8E1,2E0,3.3E1,4.3E1,1.8E1,2E1,3.4E1,4E0,1.6E1],"tree_param":{"num_deleted":"0","num_feature":"7","num_nodes":"55","size_leaf_vector":"1"}},{"base_weights":[4.853139E-3,-5.4248083E-2,1.4710799E-1,-2.186428E-1,-1.722495E-2,2.2692746E-2,2.092322E-1,-5.900404E-2,-3.0549765E-2,-6.704001E-3,-6.1650664E-1,4.9085956E-2,2.1588776E-2,1.4732899E-1,-1.2231778E-2,-2.8427696E-2,-1.498797E-1,-5.8215726E-2,2.931255E-2,-1.0123419E-1,-2.802554E-2,7.024395E-2,2.2901816E-2,-1.7699992E-2,-4.1021977E-2,6.8394385E-2,-4.0626768E-2,6.5929685E-3,4.8198726E-2,-3.7262976E-2,-2.7824748E-2,8.091727E-3,-1.2449796E-2,8.496384E-3,2.7687116E-2,-9.076679E-3,-2.1567836E-2,-1.5883571E-3,3.065863E-3,-4.8796344E-3,-2.4843428E-3,-1.367831E-3,2.7939945E-4],"categories":[],"categories_nodes":[],"categories_segments":[],"categories_sizes":[],"default_left":[0,0,0,0,0,0,0,0,0,0,0,0,0,0,0,0,0,0,0,0,0,0,0,0,0,0,0,0,0,0,0,0,0,0,0,0,0,0,0,0,0,0,0],"id":10,"left_children":[1,3,5,7,9,-1,11,-1,-1,13,15,-1,-1,-1,17,-1,-1,19,21,23,25,-1,27,-1,-1,-1,29,31,33,35,-1,37,-1,-1,-1,-1,39,41,-1,-1,-1,-1,-1],"loss_changes":[5.901166E0,3.0113263E0,3.8308477E-1,3.6785793E-1,2.5578737E0,0E0,2.0366216E-1,0E0,0E0,1.669866E0,2.2824097E-1,0E0,0E0,0E0,7.694722E-1,0E0,0E0,2.423842E-1,4.2140898E-1,6.687206E-2,5.6396496E-1,0E0,8.600279E-2,0E0,0E0,0E0,2.7071193E-2,1.4420477E-2,3.053908E-2,1.2316883E-2,0E0,9.086494E-3,0E0,0E0,0E0,0E0,4.8110075E-4,9.1261166E-4,0E0,0E0,0E0,0E0,0E0],"parents":[2147483647,0,0,1,1,2,2,3,3,4,4,6,6,9,9,10,10,14,14,17,17,18,18,19,19,20,20,22,22,26,26,27,27,28,28,29,29,31,31,36,36,37,37],"right_children":[2,4,6,8,10,-1,12,-1,-1,14,16,-1,-1,-1,18,-1,-1,20,22,24,26,-1,28,-1,-1,-1,30,32,34,36,-1,38,-1,-1,-1,-1,40,42,-1,-1,-1,-1,-1],"split_conditions":[8.3276296E-1,-1.365967E0,1.275628E0,-1.6913322E0,5.123535E-1,2.2692746E-2,1.495592E0,-5.900404E-2,-3.0549765E-2,-2.010908E0,3.670317E-1,4.9085956E-2,2.1588776E-2,1.4732899E-1,-1.0617862E-1,-2.8427696E-2,-1.498797E-1,-5.339481E-1,-3.4656438E-1,-5.5518746E-1,-7.255172E-1,7.024395E-2,2.7314484E-1,-1.7699992E-2,-4.1021977E-2,6.8394385E-2,3.4284234E-2,3.4617603E-1,5.055578E-1,-2.7029532E-1,-2.7824748E-2,1.3008866E-1,-1.2449796E-2,8.496384E-3,2.7687116E-2,-9.076679E-3,-1.9715281E-1,-3.869961E-2,3.065863E-3,-4.8796344E-3,-2.4843428E-3,-1.367831E-3,2.7939945E-4],"split_indices":[3,3,3,2,2,0,2,0,0,2,3,0,0,0,3,0,0,3,4,2,2,0,3,0,0,0,4,2,3,3,0,4,0,0,0,0,4,2,0,0,0,0,0],"split_type":[0,0,0,0,0,0,0,0,0,0,0,0,0,0,0,0,0,0,0,0,0,0,0,0,0,0,0,0,0,0,0,0,0,0,0,0,0,0,0,0,0,0,0],"sum_hessian":[6.98E2,4.94E2,2.04E2,8.9E1,4.05E2,1.36E2,6.8E1,3.8E1,5.1E1,4E2,5E0,4.8E1,2E1,1E0,3.99E2,2E0,3E0,1.89E2,2.1E2,7.6E1,1.13E2,2E0,2.08E2,7.1E1,5E0,2E0,1.11E2,1.28E2,8E1,1.1E2,1E0,1.27E2,1E0,7.8E1,2E0,7E1,4E1,5.5E1,7.2E1,2.8E1,1.2E1,1.9E1,3.6E1],"tree_param":{"num_deleted":"0","num_feature":"7","num_nodes":"43","size_leaf_vector":"1"}},{"base_weights":[-2.512068E-3,-1.3234478E-1,5.2670304E-2,-1.17479794E-1,-1.2368291E-1,1.5914881E-1,4.5178715E-2,-4.7224354E-2,-9.0831734E-2,6.9452035E-3,1.16412625E-1,-1.1429156E-1,-5.3956874E-2,-1.013325E-2,3.8793843E-2,4.3805413E-2,1.0835592E-1,-2.723897E-2,-1.0035866E-1,-9.215283E-3,-2.5319299E-2,-1.7869912E-2,-1.8507562E-3,4.098011E-2,-4.3458268E-2,1.8346103E-2,1.2871969E-1,-1.7503422E-2,-2.6472826E-2,-1.0297644E-3,-2.0171827E-2,5.529274E-3,-1.5191286E-2,3.6281787E-2,6.9692045E-2,-1.5526493E-3,-1.0036222E-2,1.4110017E-1,1.7663538E-2,-1.8619113E-2,-8.134609E-3,7.200015E-3,3.1261486E-3,-6.063157E-3,3.920377E-3,2.7064987E-2,8.085239E-3,1.463854E-2,1.6122342E-3,1.1712587E-1,3.9899133E-2,-4.52936E-3,-3.1197302E-3,7.565941E-4,5.4511973E-3,1.0768177E-2,-7.956001E-3,8.683152E-3,4.748925E-3,2.9617682E-2,1.7092554E-2,5.543958E-3,-6.381895E-4,1.8560787E-3,2.0326243E-4,7.348508E-5,1.20223425E-2,7.6359836E-4,1.8488703E-3,2.545424E-3,7.0889E-4],"categories":[],"categories_nodes":[],"categories_segments":[],"categories_sizes":[],"default_left":[0,0,0,0,0,0,0,0,0,0,0,0,0,0,0,0,0,0,0,0,0,0,0,0,0,0,0,0,0,0,0,0,0,0,0,0,0,0,0,0,0,0,0,0,0,0,0,0,0,0,0,0,0,0,0,0,0,0,0,0,0,0,0,0,0,0,0,0,0,0,0],"id":11,"left_children":[1,3,5,7,-1,-1,9,-1,11,13,15,17,19,21,23,-1,25,-1,27,-1,-1,29,31,33,35,-1,37,-1,-1,-1,39,41,43,45,47,-1,-1,49,-1,51,-1,-1,53,-1,55,57,-1,-1,-1,59,-1,-1,-1,61,63,65,-1,-1,-1,-1,-1,67,-1,-1,-1,-1,69,-1,-1,-1,-1],"loss_changes":[5.236845E0,1.4298394E0,2.7838678E0,6.3368297E-1,0E0,0E0,1.3873793E0,0E0,1.416502E-1,1.8245733E-1,9.969306E-2,5.317211E-3,3.0121401E-2,1.3967121E-2,2.46014E-2,0E0,3.3600926E-2,0E0,6.8347454E-3,0E0,0E0,3.1012408E-3,1.0800973E-2,1.045616E-2,1.8075202E-4,0E0,1.05906725E-2,0E0,0E0,0E0,1.5094988E-3,4.973903E-3,1.1510818E-2,1.746133E-3,1.840435E-3,0E0,0E0,2.4667382E-2,0E0,4.127063E-4,0E0,0E0,3.6638568E-4,0E0,6.542494E-3,1.2572855E-6,0E0,0E0,0E0,1.4883101E-2,0E0,0E0,0E0,7.157204E-4,5.58526E-4,2.2596214E-4,0E0,0E0,0E0,0E0,0E0,3.7985097E-5,0E0,0E0,0E0,0E0,5.379319E-6,0E0,0E0,0E0,0E0],"parents":[2147483647,0,0,1,1,2,2,3,3,6,6,8,8,9,9,10,10,11,11,12,12,13,13,14,14,16,16,18,18,21,21,22,22,23,23,24,24,26,26,30,30,31,31,32,32,33,33,34,34,37,37,39,39,42,42,44,44,45,45,49,49,53,53,54,54,55,55,61,61,66,66],"right_children":[2,4,6,8,-1,-1,10,-1,12,14,16,18,20,22,24,-1,26,-1,28,-1,-1,30,32,34,36,-1,38,-1,-1,-1,40,42,44,46,48,-1,-1,50,-1,52,-1,-1,54,-1,56,58,-1,-1,-1,60,-1,-1,-1,62,64,66,-1,-1,-1,-1,-1,68,-1,-1,-1,-1,70,-1,-1,-1,-1],"split_conditions":[-3.4260365E-1,5.123535E-1,-4.0579173E-1,-1.6875137E0,-1.2368291E-1,1.5914881E-1,1.0594982E0,-4.7224354E-2,-7.2301525E-1,3.6435473E-1,8.323833E-1,-1.6213335E0,-2.721801E-1,3.7241705E-2,8.8372993E-1,4.3805413E-2,1.2838771E0,-2.723897E-2,-1.1165574E0,-9.215283E-3,-2.5319299E-2,-3.5317653E-1,1.4211859E-1,8.3238333E-1,9.882933E-1,1.8346103E-2,1.495592E0,-1.7503422E-2,-2.6472826E-2,-1.0297644E-3,-3.869961E-2,-3.869961E-2,1.4343886E-1,3.760972E-1,8.550221E-1,-1.5526493E-3,-1.0036222E-2,1.4703982E0,1.7663538E-2,-2.7218008E-1,-8.134609E-3,7.200015E-3,1.3279374E-1,-6.063157E-3,3.4617603E-1,3.4617603E-1,8.085239E-3,1.463854E-2,1.6122342E-3,1.3053914E0,3.9899133E-2,-4.52936E-3,-3.1197302E-3,3.4162365E-2,1.3159946E-1,1.4211862E-1,-7.956001E-3,8.683152E-3,4.748925E-3,2.9617682E-2,1.7092554E-2,3.562973E-2,-6.381895E-4,1.8560787E-3,2.0326243E-4,7.348508E-5,1.93721E-1,7.6359836E-4,1.8488703E-3,2.545424E-3,7.0889E-4],"split_indices":[6,2,2,3,0,0,6,0,3,6,2,6,2,6,2,0,6,0,2,0,0,2,2,2,2,0,2,0,0,0,2,2,3,3,3,0,0,6,0,2,0,0,6,0,2,2,0,0,0,2,0,0,0,2,2,2,0,0,0,0,0,3,0,0,0,0,3,0,0,0,0],"split_type":[0,0,0,0,0,0,0,0,0,0,0,0,0,0,0,0,0,0,0,0,0,0,0,0,0,0,0,0,0,0,0,0,0,0,0,0,0,0,0,0,0,0,0,0,0,0,0,0,0,0,0,0,0,0,0,0,0,0,0,0,0,0,0,0,0,0,0,0,0,0,0],"sum_hessian":[7.27E2,2.16E2,5.11E2,2.12E2,4E0,3E0,5.08E2,3.6E1,1.76E2,3.32E2,1.76E2,1.05E2,7.1E1,2.17E2,1.15E2,9E0,1.67E2,3.4E1,7.1E1,6.7E1,4E0,1.11E2,1.06E2,1.13E2,2E0,9.8E1,6.9E1,5.6E1,1.5E1,1.8E1,9.3E1,6.9E1,3.7E1,1.01E2,1.2E1,1E0,1E0,4.9E1,2E1,9E1,3E0,3E0,6.6E1,2E1,1.7E1,3.6E1,6.5E1,1.1E1,1E0,3.9E1,1E1,3.3E1,5.7E1,3.4E1,3.2E1,1.6E1,1E0,2E0,3.4E1,1.6E1,2.3E1,1.5E1,1.9E1,1.6E1,1.6E1,2E0,1.4E1,1.3E1,2E0,1.2E1,2E0],"tree_param":{"num_deleted":"0","num_feature":"7","num_nodes":"71","size_leaf_vector":"1"}},{"base_weights":[1.4494975E-3,-6.2008847E-2,5.5047467E-2,-1.19470395E-1,-3.336856E-2,2.6546445E-2,1.0637827E-1,-1.602599E-2,-1.29634E-1,-4.245266E-2,-1.4286157E-2,1.9862594E-2,5.4143142E-2,1.2335421E-1,3.5170037E-3,-4.3618076E-2,-2.1585763E-2,-2.0133862E-3,-4.8977528E-2,-1.20413E-2,-7.067991E-3,4.576067E-4,2.364632E-2,1.3071932E-2,3.545531E-2,1.5321165E-2,2.8144557E-2,-2.3692844E-2,-7.534306E-3,-3.0631737E-3,-1.676271E-3,3.617383E-3,-3.4767739E-4,2.2360109E-2,1.1377988E-2,-1.7495304E-3,8.150074E-3,7.9505576E-4,1.2910627E-4,8.438073E-3,2.3939302E-2,2.454854E-3,1.188948E-3,1.902334E-2,5.25628E-3,4.6653235E-3,9.159946E-3,5.6271756E-4,2.0789674E-3],"categories":[],"categories_nodes":[],"categories_segments":[],"categories_sizes":[],"default_left":[0,0,0,0,0,0,0,0,0,0,0,0,0,0,0,0,0,0,0,0,0,0,0,0,0,0,0,0,0,0,0,0,0,0,0,0,0,0,0,0,0,0,0,0,0,0,0,0,0],"id":12,"left_children":[1,3,5,7,9,11,13,-1,15,17,19,21,23,25,-1,-1,-1,-1,27,29,-1,31,33,-1,35,-1,-1,-1,-1,-1,-1,37,-1,39,-1,-1,-1,-1,-1,41,43,-1,-1,45,-1,-1,47,-1,-1],"loss_changes":[2.3842926E0,5.2030146E-1,5.502846E-1,2.1607995E-2,3.640321E-2,4.340884E-2,1.9915378E-1,0E0,1.084404E-1,2.9865563E-2,2.5991052E-3,1.4809832E-2,5.2170902E-3,7.019019E-2,0E0,0E0,0E0,0E0,8.6134136E-2,5.7021156E-4,0E0,2.5543652E-4,4.682012E-3,0E0,5.8622006E-3,0E0,0E0,0E0,0E0,0E0,0E0,1.0821852E-5,0E0,3.245607E-3,0E0,0E0,0E0,0E0,0E0,4.5363675E-5,7.0409477E-4,0E0,0E0,1.9071307E-3,0E0,0E0,9.824778E-5,0E0,0E0],"parents":[2147483647,0,0,1,1,2,2,3,3,4,4,5,5,6,6,8,8,9,9,10,10,11,11,12,12,13,13,18,18,19,19,21,21,22,22,24,24,31,31,33,33,39,39,40,40,43,43,46,46],"right_children":[2,4,6,8,10,12,14,-1,16,18,20,22,24,26,-1,-1,-1,-1,28,30,-1,32,34,-1,36,-1,-1,-1,-1,-1,-1,38,-1,40,-1,-1,-1,-1,-1,42,44,-1,-1,46,-1,-1,48,-1,-1],"split_conditions":[3.5764847E-2,-1.0941793E0,1.1555129E0,-2.019359E0,-2.6504663E-1,8.317056E-1,1.4967275E0,-1.602599E-2,-1.6585761E0,-1.1225601E0,3.0269865E-2,1.3008866E-1,1.0765756E0,1.2219908E0,3.5170037E-3,-4.3618076E-2,-2.1585763E-2,-2.0133862E-3,-7.1019936E-1,-1.9715281E-1,-7.067991E-3,3.1302333E-2,1.0592408E0,1.3071932E-2,1.0593675E0,1.5321165E-2,2.8144557E-2,-2.3692844E-2,-7.534306E-3,-3.0631737E-3,-1.676271E-3,3.1302318E-2,-3.4767739E-4,1.290058E-1,1.1377988E-2,-1.7495304E-3,8.150074E-3,7.9505576E-4,1.2910627E-4,1.8305704E-2,3.6330864E-1,2.454854E-3,1.188948E-3,1.3955371E-1,5.25628E-3,4.6653235E-3,1.3955389E-1,5.6271756E-4,2.0789674E-3],"split_indices":[5,5,5,0,5,0,0,0,5,0,0,4,0,5,0,0,0,0,5,4,0,0,4,0,5,0,0,0,0,0,0,0,0,0,0,0,0,0,0,0,5,0,0,0,0,0,0,0,0],"split_type":[0,0,0,0,0,0,0,0,0,0,0,0,0,0,0,0,0,0,0,0,0,0,0,0,0,0,0,0,0,0,0,0,0,0,0,0,0,0,0,0,0,0,0,0,0,0,0,0,0],"sum_hessian":[6.97E2,3.19E2,3.78E2,1.04E2,2.15E2,2.45E2,1.33E2,2.5E1,7.9E1,1.44E2,7.1E1,2E2,4.5E1,1.11E2,2.2E1,1.2E1,6.7E1,2.5E1,1.19E2,6.7E1,4E0,3.3E1,1.67E2,2.5E1,2E1,3.3E1,7.8E1,1.4E1,1.05E2,3.2E1,3.5E1,1.3E1,2E1,1.64E2,3E0,2E0,1.8E1,1.1E1,2E0,1.8E1,1.46E2,4E0,1.4E1,5.3E1,9.3E1,3.5E1,1.8E1,4E0,1.4E1],"tree_param":{"num_deleted":"0","num_feature":"7","num_nodes":"49","size_leaf_vector":"1"}},{"base_weights":[2.8935928E-4,-4.8757665E-2,4.1059025E-2,-1.01321615E-1,-2.2509376E-2,1.5942004E-2,6.287351E-2,-2.228928E-2,-1.4367259E-2,-3.9674647E-2,-1.3800788E-2,1.7055325E-3,2.3669098E-2,5.381046E-2,1.0494758E-1,-2.5111686E-3,-5.3551733E-2,7.133954E-3,-2.0925304E-2,-6.368608E-3,3.135454E-3,7.7988016E-3,1.8546592E-2,6.609828E-2,-8.201185E-3,2.7701845E-2,1.4786735E-2,-1.9546596E-2,-3.0294491E-2,-3.5199247E-2,-1.4607691E-2,2.766594E-3,1.6539857E-3,1.2858039E-2,2.4422152E-2,6.037775E-2,2.0967215E-2,-2.483124E-3,-9.99474E-3,-3.5117846E-3,-8.875745E-3,-1.2160403E-2,-1.0954728E-2,-9.023909E-4,4.106988E-3,8.324289E-3,2.8419113E-3,6.1961915E-3,3.7333765E-3,6.592505E-2,4.674025E-3,-1.5200272E-2,-7.4893385E-3,3.6740451E-4,-4.6291618E-4,1.118118E-3,5.0068187E-4,1.7721445E-3,4.3010415E-4,1.1738229E-2,2.048107E-2,-3.1315447E-3,6.334702E-4,-8.760661E-4,-1.593066E-3,-3.7827194E-4,6.468743E-5],"categories":[],"categories_nodes":[],"categories_segments":[],"categories_sizes":[],"default_left":[0,0,0,0,0,0,0,0,0,0,0,0,0,0,0,0,0,0,0,0,0,0,0,0,0,0,0,0,0,0,0,0,0,0,0,0,0,0,0,0,0,0,0,0,0,0,0,0,0,0,0,0,0,0,0,0,0,0,0,0,0,0,0,0,0,0,0],"id":13,"left_children":[1,3,5,7,9,11,13,-1,-1,15,17,19,21,23,25,-1,27,-1,29,-1,31,-1,33,35,-1,-1,-1,-1,37,39,41,-1,43,45,47,49,-1,-1,-1,-1,-1,51,-1,53,55,57,-1,-1,-1,59,-1,61,63,-1,-1,-1,-1,-1,-1,-1,-1,-1,-1,65,-1,-1,-1],"loss_changes":[1.4757321E0,4.5764285E-1,2.1880513E-1,1.7125249E-2,3.268858E-2,2.0820506E-2,7.068914E-2,0E0,0E0,2.6879974E-2,5.5418227E-2,3.5097408E-3,8.209325E-3,2.1630156E-1,1.6990602E-2,0E0,4.4427633E-2,0E0,1.1145566E-2,0E0,1.0319069E-3,0E0,2.5806054E-3,2.3018181E-2,0E0,0E0,0E0,0E0,1.10735595E-2,4.918676E-3,8.2027335E-3,0E0,3.9620168E-4,8.818507E-5,5.42013E-4,2.6686013E-2,0E0,0E0,0E0,0E0,0E0,1.1070659E-3,0E0,1.322982E-4,4.813925E-5,1.8190476E-5,0E0,0E0,0E0,2.0966351E-2,0E0,5.613128E-4,1.15106115E-4,0E0,0E0,0E0,0E0,0E0,0E0,0E0,0E0,0E0,0E0,7.312712E-6,0E0,0E0,0E0],"parents":[2147483647,0,0,1,1,2,2,3,3,4,4,5,5,6,6,9,9,10,10,11,11,12,12,13,13,14,14,16,16,18,18,20,20,22,22,23,23,28,28,29,29,30,30,32,32,33,33,34,34,35,35,41,41,43,43,44,44,45,45,49,49,51,51,52,52,63,63],"right_children":[2,4,6,8,10,12,14,-1,-1,16,18,20,22,24,26,-1,28,-1,30,-1,32,-1,34,36,-1,-1,-1,-1,38,40,42,-1,44,46,48,50,-1,-1,-1,-1,-1,52,-1,54,56,58,-1,-1,-1,60,-1,62,64,-1,-1,-1,-1,-1,-1,-1,-1,-1,-1,66,-1,-1,-1],"split_conditions":[3.5764847E-2,-1.0941793E0,8.1957394E-1,-1.6249945E0,-3.9624596E-1,1.4177193E-1,1.471226E0,-2.228928E-2,-1.4367259E-2,-1.1195681E0,-4.0783292E-1,-7.2799546E-1,1.4082602E-1,1.3056866E0,1.496147E0,-2.5111686E-3,-7.1019936E-1,7.133954E-3,-3.5514587E-1,-6.368608E-3,1.974301E-2,7.7988016E-3,3.9063781E-1,1.284042E0,-8.201185E-3,2.7701845E-2,1.4786735E-2,-1.9546596E-2,-7.2799546E-1,-3.551459E-1,6.402101E-1,2.766594E-3,1.3008866E-1,3.6330864E-1,3.9461333E-1,1.2424084E0,2.0967215E-2,-2.483124E-3,-9.99474E-3,-3.5117846E-3,-8.875745E-3,-1.9715281E-1,-1.0954728E-2,3.2721903E-2,1.3029203E-1,2.7088585E-1,2.8419113E-3,6.1961915E-3,3.7333765E-3,1.2219908E0,4.674025E-3,3.6603475E-1,-1.3561912E-1,3.6740451E-4,-4.6291618E-4,1.118118E-3,5.0068187E-4,1.7721445E-3,4.3010415E-4,1.1738229E-2,2.048107E-2,-3.1315447E-3,6.334702E-4,-1.053382E-1,-1.593066E-3,-3.7827194E-4,6.468743E-5],"split_indices":[5,5,5,5,5,5,4,0,0,1,1,1,1,1,1,0,5,0,1,0,1,0,5,5,0,0,0,0,1,1,1,0,4,5,1,1,0,0,0,0,0,4,0,1,1,1,0,0,0,5,0,1,1,0,0,0,0,0,0,0,0,0,0,4,0,0,0],"split_type":[0,0,0,0,0,0,0,0,0,0,0,0,0,0,0,0,0,0,0,0,0,0,0,0,0,0,0,0,0,0,0,0,0,0,0,0,0,0,0,0,0,0,0,0,0,0,0,0,0,0,0,0,0,0,0,0,0,0,0,0,0,0,0,0,0,0,0],"sum_hessian":[7.34E2,3.33E2,4.01E2,1.09E2,2.24E2,1.88E2,2.13E2,7.7E1,3.2E1,7.3E1,1.51E2,6.7E1,1.21E2,1.79E2,3.4E1,2.6E1,4.7E1,1.8E1,1.33E2,1E0,6.6E1,2.7E1,9.4E1,1.59E2,2E1,1.3E1,2.1E1,1.4E1,3.3E1,3.8E1,9.5E1,6E0,6E1,5.1E1,4.3E1,1.43E2,1.6E1,1.9E1,1.4E1,1.5E1,2.3E1,9.2E1,3E0,3E1,3E1,1.5E1,3.6E1,1.6E1,2.7E1,1.23E2,2E1,5.3E1,3.9E1,1E1,2E1,1.3E1,1.7E1,1.3E1,2E0,1.07E2,1.6E1,5.2E1,1E0,3E0,3.6E1,1E0,2E0],"tree_param":{"num_deleted":"0","num_feature":"7","num_nodes":"67","size_leaf_vector":"1"}},{"base_weights":[1.2017315E-3,-7.128936E-2,2.4638282E-2,-2.7556194E-2,-5.3042762E-2,4.581147E-3,6.3168064E-2,-1.4606573E-2,-4.5441452E-2,3.616339E-2,1.9614424E-3,4.9733188E-2,2.4244308E-2,-3.0490067E-2,-1.1959039E-2,4.4853888E-3,1.2636143E-2,-7.933045E-3,1.1196501E-2,6.325518E-2,-8.128519E-3,-9.9919345E-3,-1.1755109E-3,-4.350827E-3,-2.4509868E-2,1.2892114E-2,-1.8470518E-2,4.705962E-2,1.7489925E-2,-7.001153E-3,2.7132158E-3,-8.489884E-3,-1.9864561E-2,3.8806563E-3,1.882366E-2,4.849898E-2,-4.827158E-3,6.8592513E-4,-9.94373E-3,6.389578E-4,3.0976636E-4,-1.6965307E-3,-2.3013609E-2,1.4517746E-3,8.764693E-5,7.8617826E-2,1.4778638E-2,8.010282E-3,1.1367287E-2,-2.731388E-3,9.6723735E-3,-2.3427089E-3,-1.4391704E-3,1.7450426E-3,-2.2540018E-3,5.912384E-4,-4.9063615E-3,-7.504362E-4,6.383415E-3,4.7348067E-3,1.885054E-2,1.1113883E-2,1.6461791E-2,2.08336E-3,-2.484858E-4,2.4251045E-4,1.4086267E-3,2.305553E-3,3.8709343E-4,4.84971E-3,1.3881956E-2,1.9236527E-3,3.5434568E-3],"categories":[],"categories_nodes":[],"categories_segments":[],"categories_sizes":[],"default_left":[0,0,0,0,0,0,0,0,0,0,0,0,0,0,0,0,0,0,0,0,0,0,0,0,0,0,0,0,0,0,0,0,0,0,0,0,0,0,0,0,0,0,0,0,0,0,0,0,0,0,0,0,0,0,0,0,0,0,0,0,0,0,0,0,0,0,0,0,0,0,0,0,0],"id":14,"left_children":[1,3,5,-1,7,9,11,-1,13,15,17,19,-1,21,-1,-1,-1,23,25,27,-1,-1,-1,29,31,33,-1,35,-1,37,39,-1,41,43,45,47,-1,49,51,-1,-1,53,55,-1,57,59,61,-1,-1,-1,63,-1,-1,-1,-1,-1,-1,-1,65,-1,-1,67,69,-1,-1,-1,-1,-1,-1,-1,71,-1,-1],"loss_changes":[1.2029653E0,1.9527495E-1,4.1286764E-1,0E0,1.448375E-2,2.914673E-2,1.3067174E-1,0E0,1.9102171E-2,7.186394E-3,3.0240403E-2,1.9089493E-1,0E0,2.624768E-2,0E0,0E0,0E0,9.28781E-3,3.2405287E-2,4.3884337E-2,0E0,0E0,0E0,2.5467419E-3,6.4689294E-4,8.940723E-3,0E0,1.094909E-2,0E0,2.230384E-3,1.1411612E-5,0E0,1.4094273E-3,8.9568004E-4,2.2346891E-2,1.2930334E-3,0E0,4.002041E-3,1.7671147E-4,0E0,0E0,7.9530047E-4,1.0124426E-3,0E0,8.9401676E-4,6.915517E-4,2.3858994E-4,0E0,0E0,0E0,1.8026412E-4,0E0,0E0,0E0,0E0,0E0,0E0,0E0,3.0678057E-5,0E0,0E0,9.593181E-5,5.923435E-4,0E0,0E0,0E0,0E0,0E0,0E0,0E0,5.0951913E-4,0E0,0E0],"parents":[2147483647,0,0,1,1,2,2,4,4,5,5,6,6,8,8,9,9,10,10,11,11,13,13,17,17,18,18,19,19,23,23,24,24,25,25,27,27,29,29,30,30,32,32,33,33,34,34,35,35,37,37,38,38,41,41,42,42,44,44,45,45,46,46,50,50,58,58,61,61,62,62,70,70],"right_children":[2,4,6,-1,8,10,12,-1,14,16,18,20,-1,22,-1,-1,-1,24,26,28,-1,-1,-1,30,32,34,-1,36,-1,38,40,-1,42,44,46,48,-1,50,52,-1,-1,54,56,-1,58,60,62,-1,-1,-1,64,-1,-1,-1,-1,-1,-1,-1,66,-1,-1,68,70,-1,-1,-1,-1,-1,-1,-1,72,-1,-1],"split_conditions":[-4.0579176E-1,-1.6913322E0,8.3238333E-1,-2.7556194E-2,-1.6286718E0,-4.0985453E-1,1.365421E0,-1.4606573E-2,-1.1225601E0,-4.0579173E-1,1.3008866E-1,1.3060068E0,2.4244308E-2,-1.1225638E0,-1.1959039E-2,4.4853888E-3,1.2636143E-2,3.1302333E-2,8.317067E-1,1.1979128E0,-8.128519E-3,-9.9919345E-3,-1.1755109E-3,-1.1108772E-1,-1.4569993E-1,1.9246934E-1,-1.8470518E-2,1.2236003E0,1.7489925E-2,-3.5709548E-1,2.844579E-2,-8.489884E-3,3.4162365E-2,1.395537E-1,1.3955371E-1,1.1555133E0,-4.827158E-3,-3.5709554E-1,-2.7218008E-1,6.389578E-4,3.0976636E-4,9.35001E-2,-3.4656438E-1,1.4517746E-3,1.3955389E-1,1.395537E-1,3.7509438E-1,8.010282E-3,1.1367287E-2,-2.731388E-3,-3.5317653E-1,-2.3427089E-3,-1.4391704E-3,1.7450426E-3,-2.2540018E-3,5.912384E-4,-4.9063615E-3,-7.504362E-4,1.4211906E-1,4.7348067E-3,1.885054E-2,3.7316644E-1,3.9368832E-1,2.08336E-3,-2.484858E-4,2.4251045E-4,1.4086267E-3,2.305553E-3,3.8709343E-4,4.84971E-3,5.123535E-1,1.9236527E-3,3.5434568E-3],"split_indices":[2,2,2,0,4,0,2,0,0,2,4,0,0,0,0,0,0,0,0,2,0,0,0,0,2,2,0,0,0,0,2,0,2,0,0,4,0,0,2,0,0,0,4,0,0,0,2,0,0,0,2,0,0,0,0,0,0,0,2,0,0,0,0,0,0,0,0,0,0,0,2,0,0],"split_type":[0,0,0,0,0,0,0,0,0,0,0,0,0,0,0,0,0,0,0,0,0,0,0,0,0,0,0,0,0,0,0,0,0,0,0,0,0,0,0,0,0,0,0,0,0,0,0,0,0,0,0,0,0,0,0,0,0,0,0,0,0,0,0,0,0,0,0,0,0,0,0,0,0],"sum_hessian":[7.04E2,1.71E2,5.33E2,3.4E1,1.37E2,3.52E2,1.81E2,3.3E1,1.04E2,2.5E1,3.27E2,1.5E2,3.1E1,5.4E1,5E1,1.9E1,6E0,1.58E2,1.69E2,1.31E2,1.9E1,2.9E1,2.5E1,1.32E2,2.6E1,1.68E2,1E0,8.2E1,4.9E1,9.6E1,3.6E1,2E0,2.4E1,6.8E1,1E2,8.1E1,1E0,2.7E1,6.9E1,2.3E1,1.3E1,4E0,2E1,3.5E1,3.3E1,4E0,9.6E1,4.6E1,3.5E1,1E1,1.7E1,3.8E1,3.1E1,2E0,2E0,1E0,1.9E1,2.1E1,1.2E1,2E0,2E0,3.5E1,6.1E1,1.6E1,1E0,2E0,1E1,3.3E1,2E0,1.1E1,5E1,2.7E1,2.3E1],"tree_param":{"num_deleted":"0","num_feature":"7","num_nodes":"73","size_leaf_vector":"1"}},{"base_weights":[3.560048E-3,-2.7581846E-2,9.942247E-2,-2.2326315E-2,-1.1661907E-1,1.1486228E-1,7.5905085E-2,-6.0224373E-2,4.390414E-3,4.957807E-2,1.05686225E-1,-2.4184959E-2,-4.6448886E-2,-1.2624554E-2,1.3261203E-2,7.6302327E-3,1.33321015E-2,1.2939258E-1,6.7159645E-3,-3.9079003E-2,-3.9947566E-2,-4.0730303E-3,-9.990781E-3,1.4609888E-2,-9.575772E-3,1.742497E-2,1.5038258E-1,-9.670752E-3,-2.5236802E-2,-1.8097708E-3,-4.3260893E-3,1.2993996E-2,7.005968E-3,3.4834776E-2,1.9774348E-2,-2.9143443E-2,-1.2229554E-2,2.433745E-2,1.0468441E-2,-3.899086E-3,-6.995728E-3,-2.6509797E-3,5.5182184E-4,7.7673E-3,7.0319646E-3,-2.7626865E-3,1.3869614E-2,6.1492887E-3,2.1358314E-3,-5.1467656E-3,-5.733101E-4,1.0312381E-2,3.5859782E-3,7.553535E-4,2.6046773E-4,9.06216E-4,-1.0160095E-3,2.4498047E-3,-5.940673E-3],"categories":[],"categories_nodes":[],"categories_segments":[],"categories_sizes":[],"default_left":[0,0,0,0,0,0,0,0,0,0,0,0,0,0,0,0,0,0,0,0,0,0,0,0,0,0,0,0,0,0,0,0,0,0,0,0,0,0,0,0,0,0,0,0,0,0,0,0,0,0,0,0,0,0,0,0,0,0,0],"id":15,"left_children":[1,3,5,7,-1,-1,9,11,13,15,17,-1,19,21,23,-1,-1,25,-1,27,-1,-1,29,31,-1,-1,33,-1,35,-1,-1,37,-1,-1,-1,39,41,43,45,-1,-1,-1,-1,47,-1,49,51,-1,53,-1,55,57,-1,-1,-1,-1,-1,-1,-1],"loss_changes":[2.1429863E0,1.5563425E0,1.8784076E0,5.4627293E-1,0E0,0E0,1.22808695E-1,1.7523402E-1,4.8332542E-2,1.3262406E-2,1.2464172E-1,0E0,1.9338736E-1,1.8356424E-3,1.8715344E-2,0E0,0E0,2.5253475E-2,0E0,2.053997E-2,0E0,0E0,5.5141747E-4,5.919911E-3,0E0,0E0,9.676576E-3,0E0,3.1490885E-3,0E0,0E0,5.0769113E-3,0E0,0E0,0E0,1.84514E-3,3.9588287E-4,5.5509713E-3,7.411856E-3,0E0,0E0,0E0,0E0,1.9391626E-3,0E0,1.7307297E-3,1.5078355E-3,0E0,1.0678363E-5,0E0,8.281771E-4,6.4623915E-3,0E0,0E0,0E0,0E0,0E0,0E0,0E0],"parents":[2147483647,0,0,1,1,2,2,3,3,6,6,7,7,8,8,9,9,10,10,12,12,13,13,14,14,17,17,19,19,22,22,23,23,26,26,28,28,31,31,35,35,36,36,37,37,38,38,43,43,45,45,46,46,48,48,50,50,51,51],"right_children":[2,4,6,8,-1,-1,10,12,14,16,18,-1,20,22,24,-1,-1,26,-1,28,-1,-1,30,32,-1,-1,34,-1,36,-1,-1,38,-1,-1,-1,40,42,44,46,-1,-1,-1,-1,48,-1,50,52,-1,54,-1,56,58,-1,-1,-1,-1,-1,-1,-1],"split_conditions":[1.0594982E0,1.2842125E0,3.6226127E-1,-3.4260365E-1,-1.1661907E-1,1.1486228E-1,1.2838771E0,-1.654871E0,3.7241705E-2,1.2220792E0,1.4967275E0,-2.4184959E-2,-3.4656438E-1,-3.5709548E-1,9.309762E-1,7.6302327E-3,1.33321015E-2,1.3060068E0,6.7159645E-3,-7.1266663E-1,-3.9947566E-2,-4.0730303E-3,-7.340776E-2,8.317056E-1,-9.575772E-3,1.742497E-2,1.471226E0,-9.670752E-3,-4.0985453E-1,-1.8097708E-3,-4.3260893E-3,1.3279374E-1,7.005968E-3,3.4834776E-2,1.9774348E-2,-7.304545E-1,1.2642914E-1,3.1302333E-2,1.4310938E-1,-3.899086E-3,-6.995728E-3,-2.6509797E-3,5.5182184E-4,3.4284234E-2,7.0319646E-3,-3.9829797E-1,3.9164796E-1,6.1492887E-3,1.8305704E-2,-5.1467656E-3,1.290058E-1,3.7316644E-1,3.5859782E-3,7.553535E-4,2.6046773E-4,9.06216E-4,-1.0160095E-3,2.4498047E-3,-5.940673E-3],"split_indices":[6,4,4,6,0,0,6,6,6,4,0,0,4,0,0,0,0,0,0,4,0,0,0,0,0,0,4,0,0,0,0,6,0,0,0,0,0,0,6,0,0,0,0,4,0,4,6,0,0,0,0,0,0,0,0,0,0,0,0],"split_type":[0,0,0,0,0,0,0,0,0,0,0,0,0,0,0,0,0,0,0,0,0,0,0,0,0,0,0,0,0,0,0,0,0,0,0,0,0,0,0,0,0,0,0,0,0,0,0,0,0,0,0,0,0,0,0,0,0,0,0],"sum_hessian":[7.14E2,5.4E2,1.74E2,5.37E2,3E0,6E0,1.68E2,2.21E2,3.16E2,9.2E1,7.6E1,3.8E1,1.83E2,1.08E2,2.08E2,5.9E1,3.3E1,5.6E1,2E1,1.77E2,6E0,2.4E1,8.4E1,2.05E2,3E0,2.2E1,3.4E1,1.03E2,7.4E1,8.1E1,3E0,1.93E2,1.2E1,2E1,1.4E1,5.5E1,1.9E1,3.2E1,1.61E2,2.4E1,3.1E1,1.8E1,1E0,1.4E1,1.8E1,3.3E1,1.28E2,1E0,1.3E1,1E0,3.2E1,7.2E1,5.6E1,2E0,1.1E1,1.5E1,1.7E1,7E1,2E0],"tree_param":{"num_deleted":"0","num_feature":"7","num_nodes":"59","size_leaf_vector":"1"}},{"base_weights":[-2.301434E-3,-2.2143273E-2,2.3953907E-2,-4.786071E-2,-1.00936815E-2,2.9841498E-2,-1.1006004E-2,1.2172497E-3,-6.0307372E-2,2.3486873E-3,-1.3100727E-2,2.0118818E-2,1.8498352E-2,-2.3710316E-2,-4.9500007E-2,-1.1205349E-2,5.2011847E-3,-3.544536E-2,-7.7364845E-3,9.394439E-3,2.9799249E-2,-7.53862E-3,-6.832489E-2,-4.4535943E-3,-4.596992E-3,-2.1887445E-3,-4.91542E-2,-4.859989E-3,-1.1196028E-2,1.2135382E-2,5.695744E-3,3.5920158E-2,7.736952E-3,-1.3858922E-2,-2.4862767E-3,-9.582899E-4,2.661854E-4,-1.5776634E-2,-8.093046E-3,-5.957209E-3,2.4444785E-3,-5.7255835E-3,-4.6493574E-3,1.03912E-2,-9.803631E-3,2.5357852E-2,1.0079568E-2,-3.2451532E-3,8.6824745E-3,3.9615235E-5,-1.2060006E-3,1.1821216E-3,1.0019033E-3,1.0291613E-3,-1.2591088E-2,6.238594E-3,3.1490733E-3,-1.1721651E-2,-1.5411022E-3,7.1447045E-3,2.6166774E-3,2.2865648E-4,2.2431836E-5,1.4791694E-3,-1.0414094E-3,-2.7636932E-3,-7.787347E-4,-2.6722253E-5,6.488818E-3,-1.2331677E-3,5.3955736E-3,2.2317313E-3,1.2326374E-4,7.997658E-4,1.4227493E-3,3.1828322E-4,6.7760947E-4],"categories":[],"categories_nodes":[],"categories_segments":[],"categories_sizes":[],"default_left":[0,0,0,0,0,0,0,0,0,0,0,0,0,0,0,0,0,0,0,0,0,0,0,0,0,0,0,0,0,0,0,0,0,0,0,0,0,0,0,0,0,0,0,0,0,0,0,0,0,0,0,0,0,0,0,0,0,0,0,0,0,0,0,0,0,0,0,0,0,0,0,0,0,0,0,0,0],"id":16,"left_children":[1,3,5,7,9,11,-1,-1,13,15,17,19,-1,-1,21,23,-1,25,27,29,31,-1,33,35,-1,-1,37,39,41,-1,43,45,47,-1,-1,-1,-1,-1,-1,49,51,-1,53,55,57,59,-1,-1,-1,-1,-1,-1,61,63,65,67,-1,-1,69,-1,-1,-1,-1,71,-1,-1,-1,-1,73,-1,-1,75,-1,-1,-1,-1,-1],"loss_changes":[3.714593E-1,1.24846965E-1,1.4604706E-1,8.7352395E-2,1.0500263E-2,1.710982E-1,0E0,0E0,5.435735E-2,1.853927E-2,2.6420511E-2,2.5498077E-2,0E0,0E0,1.5297502E-2,2.7379906E-3,0E0,1.3367366E-2,1.7222259E-3,2.2449542E-2,1.7134584E-2,0E0,6.5773726E-5,6.3566724E-5,0E0,0E0,5.9043616E-4,8.6264405E-4,9.091706E-3,0E0,8.645833E-3,1.304166E-2,2.7910082E-2,0E0,0E0,0E0,0E0,0E0,0E0,4.3162843E-5,6.315857E-5,0E0,2.821947E-3,1.804579E-3,1.1110347E-2,7.080909E-3,0E0,0E0,0E0,0E0,0E0,0E0,1.3788276E-6,1.220453E-4,1.6994122E-4,8.7835826E-5,0E0,0E0,3.761893E-3,0E0,0E0,0E0,0E0,2.127498E-5,0E0,0E0,0E0,0E0,2.4022069E-5,0E0,0E0,3.2841344E-6,0E0,0E0,0E0,0E0,0E0],"parents":[2147483647,0,0,1,1,2,2,3,3,4,4,5,5,8,8,9,9,10,10,11,11,14,14,15,15,17,17,18,18,19,19,20,20,22,22,23,23,26,26,27,27,28,28,30,30,31,31,32,32,39,39,40,40,42,42,43,43,44,44,45,45,52,52,53,53,54,54,55,55,58,58,63,63,68,68,71,71],"right_children":[2,4,6,8,10,12,-1,-1,14,16,18,20,-1,-1,22,24,-1,26,28,30,32,-1,34,36,-1,-1,38,40,42,-1,44,46,48,-1,-1,-1,-1,-1,-1,50,52,-1,54,56,58,60,-1,-1,-1,-1,-1,-1,62,64,66,68,-1,-1,70,-1,-1,-1,-1,72,-1,-1,-1,-1,74,-1,-1,76,-1,-1,-1,-1,-1],"split_conditions":[1.4211862E-1,-7.2551775E-1,1.4967275E0,-2.019359E0,-4.0985453E-1,1.3053913E0,-1.1006004E-2,1.2172497E-3,-1.6913322E0,-5.791008E-1,-3.5317653E-1,8.3238333E-1,1.8498352E-2,-2.3710316E-2,-1.1165578E0,-7.304545E-1,5.2011847E-3,-3.551459E-1,3.1302333E-2,1.3955371E-1,1.242642E0,-7.53862E-3,-3.5709548E-1,-7.2799546E-1,-4.596992E-3,-2.1887445E-3,-4.175072E-1,-7.340776E-2,9.57388E-2,1.2135382E-2,5.1080084E-1,1.1746156E0,1.2761075E0,-1.3858922E-2,-2.4862767E-3,-9.582899E-4,2.661854E-4,-1.5776634E-2,-8.093046E-3,-3.5709548E-1,1.8305704E-2,-5.7255835E-3,1.4211859E-1,3.7509438E-1,6.4082223E-1,1.0765758E0,1.0079568E-2,-3.2451532E-3,8.6824745E-3,3.9615235E-5,-1.2060006E-3,1.1821216E-3,3.1302318E-2,8.317056E-1,1.3955371E-1,1.4082602E-1,3.1490733E-3,-1.1721651E-2,8.317056E-1,7.1447045E-3,2.6166774E-3,2.2865648E-4,2.2431836E-5,1.3159946E-1,-1.0414094E-3,-2.7636932E-3,-7.787347E-4,-2.6722253E-5,2.7088585E-1,-1.2331677E-3,5.3955736E-3,1.3029203E-1,1.2326374E-4,7.997658E-4,1.4227493E-3,3.1828322E-4,6.7760947E-4],"split_indices":[2,2,0,0,0,2,0,0,2,0,2,2,0,0,2,0,0,1,0,0,0,0,0,1,0,0,2,0,1,0,0,1,1,0,0,0,0,0,0,0,0,0,2,2,2,0,0,0,0,0,0,0,0,0,0,1,0,0,0,0,0,0,0,2,0,0,0,0,1,0,0,1,0,0,0,0,0],"split_type":[0,0,0,0,0,0,0,0,0,0,0,0,0,0,0,0,0,0,0,0,0,0,0,0,0,0,0,0,0,0,0,0,0,0,0,0,0,0,0,0,0,0,0,0,0,0,0,0,0,0,0,0,0,0,0,0,0,0,0,0,0,0,0,0,0,0,0,0,0,0,0,0,0,0,0,0,0],"sum_hessian":[7.09E2,4.04E2,3.05E2,1.27E2,2.77E2,2.85E2,2E1,2.4E1,1.03E2,5.4E1,2.23E2,2.49E2,3.6E1,1.3E1,9E1,3.5E1,1.9E1,4.1E1,1.82E2,1.2E2,1.29E2,5.9E1,3.1E1,2.4E1,1.1E1,1.6E1,2.5E1,1.02E2,8E1,6E0,1.14E2,1E2,2.9E1,3E1,1E0,2.3E1,1E0,2E0,2.3E1,8.9E1,1.3E1,2E1,6E1,8.8E1,2.6E1,6.1E1,3.9E1,1.8E1,1.1E1,1E0,8.8E1,2E0,1.1E1,3.6E1,2.4E1,5.2E1,3.6E1,2E0,2.4E1,3.1E1,3E1,9E0,2E0,3.5E1,1E0,2E1,4E0,2E0,5E1,2.2E1,2E0,1.7E1,1.8E1,1.3E1,3.7E1,1.4E1,3E0],"tree_param":{"num_deleted":"0","num_feature":"7","num_nodes":"77","size_leaf_vector":"1"}},{"base_weights":[-8.249719E-3,-7.195094E-2,1.8571338E-2,-5.76044E-2,-4.858888E-1,5.532389E-1,1.3287749E-2,-3.2826025E-2,-3.5412632E-2,-3.8803108E-2,-1.2155719E-1,1.2672006E-2,1.2880574E-1,9.20284E-3,6.53421E-2,-2.5818083E-2,-1.324261E-2,2.636689E-3,2.3807952E-2,2.142377E-2,1.1366756E-2,-3.3739667E-2,-3.4561604E-3,-6.497855E-3,7.3460736E-3,3.7352476E-2,2.0158434E-2,-7.750859E-3,-5.3701224E-3,-9.283933E-3,-6.639132E-4,8.265487E-3,-4.6435013E-2,4.2552077E-3,3.1944897E-3,-4.7397614E-3,-8.470611E-3,-3.304395E-4,2.4593927E-3,4.721878E-3,1.1658815E-2,-1.6195616E-3,-1.0763109E-2,-1.0612447E-2,-1.178877E-3,5.8615804E-3,-7.967046E-3,6.013468E-3,1.0761114E-2,-1.8254006E-3,-4.4706184E-3,2.2942723E-4,7.968205E-3,1.4662179E-3,1.2204794E-2,1.0769096E-3,1.9919355E-3,2.7905914E-3,1.8185802E-3],"categories":[],"categories_nodes":[],"categories_segments":[],"categories_sizes":[],"default_left":[0,0,0,0,0,0,0,0,0,0,0,0,0,0,0,0,0,0,0,0,0,0,0,0,0,0,0,0,0,0,0,0,0,0,0,0,0,0,0,0,0,0,0,0,0,0,0,0,0,0,0,0,0,0,0,0,0,0,0],"id":17,"left_children":[1,3,5,7,9,11,13,-1,15,-1,-1,-1,-1,17,19,21,-1,23,25,-1,-1,27,-1,29,31,-1,33,-1,-1,35,37,39,41,-1,-1,-1,43,-1,-1,45,47,-1,-1,49,-1,51,-1,-1,53,-1,-1,-1,55,-1,57,-1,-1,-1,-1],"loss_changes":[1.2516109E0,1.2326924E0,1.4429785E0,4.895422E-1,1.320982E-2,1.4076853E-1,1.0788026E-1,0E0,4.9182847E-2,0E0,0E0,0E0,0E0,4.5714352E-2,9.7571313E-4,8.234307E-3,0E0,1.4377469E-2,8.048668E-2,0E0,0E0,3.3706427E-4,0E0,1.8406077E-3,1.1645973E-2,0E0,8.042902E-6,0E0,0E0,5.0125644E-4,5.401861E-4,2.5112657E-3,2.602199E-4,0E0,0E0,0E0,2.942495E-4,0E0,0E0,6.052998E-3,1.1706725E-3,0E0,0E0,2.7212873E-4,0E0,1.0642593E-3,0E0,0E0,3.5585184E-4,0E0,0E0,0E0,2.786396E-4,0E0,1.433799E-4,0E0,0E0,0E0,0E0],"parents":[2147483647,0,0,1,1,2,2,3,3,4,4,5,5,6,6,8,8,13,13,14,14,15,15,17,17,18,18,21,21,23,23,24,24,26,26,29,29,30,30,31,31,32,32,36,36,39,39,40,40,43,43,45,45,48,48,52,52,54,54],"right_children":[2,4,6,8,10,12,14,-1,16,-1,-1,-1,-1,18,20,22,-1,24,26,-1,-1,28,-1,30,32,-1,34,-1,-1,36,38,40,42,-1,-1,-1,44,-1,-1,46,48,-1,-1,50,-1,52,-1,-1,54,-1,-1,-1,56,-1,58,-1,-1,-1,-1],"split_conditions":[-3.4260365E-1,-3.445807E-1,-3.445807E-1,-1.654871E0,1.0592408E0,1.4310938E-1,1.4703982E0,-3.2826025E-2,-3.9829797E-1,-3.8803108E-2,-1.2155719E-1,1.2672006E-2,1.2880574E-1,1.0594982E0,1.2220792E0,-1.0971544E0,-1.324261E-2,3.4284234E-2,3.6330864E-1,2.142377E-2,1.1366756E-2,-1.6286718E0,-3.4561604E-3,-1.9715281E-1,1.0592408E0,3.7352476E-2,1.2842125E0,-7.750859E-3,-5.3701224E-3,-3.9829797E-1,3.5764847E-2,3.6435473E-1,1.0593675E0,4.2552077E-3,3.1944897E-3,-4.7397614E-3,-2.6317418E-1,-3.304395E-4,2.4593927E-3,3.6330864E-1,1.4043154E-1,-1.6195616E-3,-1.0763109E-2,-2.6692513E-1,-1.178877E-3,1.3008866E-1,-7.967046E-3,6.013468E-3,3.9164796E-1,-1.8254006E-3,-4.4706184E-3,2.2942723E-4,1.4043154E-1,1.4662179E-3,8.1913006E-1,1.0769096E-3,1.9919355E-3,2.7905914E-3,1.8185802E-3],"split_indices":[6,5,5,6,4,6,6,0,4,0,0,0,0,6,4,4,0,4,5,0,0,4,0,4,4,0,4,0,0,4,5,6,5,0,0,0,6,0,0,5,4,0,0,4,0,4,0,0,6,0,0,0,4,0,4,0,0,0,0],"split_type":[0,0,0,0,0,0,0,0,0,0,0,0,0,0,0,0,0,0,0,0,0,0,0,0,0,0,0,0,0,0,0,0,0,0,0,0,0,0,0,0,0,0,0,0,0,0,0,0,0,0,0,0,0,0,0,0,0,0,0],"sum_hessian":[7.29E2,2.15E2,5.14E2,2.1E2,5E0,3E0,5.11E2,3.4E1,1.76E2,3E0,2E0,1E0,2E0,4.76E2,3.5E1,1.37E2,3.9E1,3.3E2,1.46E2,2E0,3.3E1,6.8E1,6.9E1,1.12E2,2.18E2,1E0,1.45E2,3.4E1,3.4E1,7.5E1,3.7E1,2.16E2,2E0,1.08E2,3.7E1,1E0,7.4E1,3.6E1,1E0,1.08E2,1.08E2,1E0,1E0,3.7E1,3.7E1,1.07E2,1E0,2E0,1.06E2,3.6E1,1E0,3.4E1,7.3E1,3.5E1,7.1E1,3.5E1,3.8E1,4.1E1,3E1],"tree_param":{"num_deleted":"0","num_feature":"7","num_nodes":"59","size_leaf_vector":"1"}},{"base_weights":[-4.3366924E-3,-2.6491214E-2,4.0544453E-3,4.2773564E-3,-3.3455953E-2,6.2571466E-3,-9.615524E-3,-2.8141316E-2,-1.27460435E-2,4.66324E-3,1.1795624E-2,-5.4566998E-2,-2.0098846E-2,7.399075E-3,-9.6694585E-3,-1.3757802E-2,-8.233033E-3,-1.16410665E-2,-3.1812403E-2,-1.3817438E-3,1.3605269E-2,-4.0474324E-3,6.1867357E-4,-7.2277114E-3,-4.021215E-3,-4.5764935E-3,2.069401E-3,7.783516E-3,1.0619906E-2,8.355371E-4,-5.9043164E-3,-1.3135523E-3,2.2938617E-3,8.825915E-3,7.2628814E-3,-2.186654E-3,-4.1089E-3,2.1840353E-3,1.8823567E-3,1.1851995E-2,-5.5558053E-3,-3.0890394E-3,-1.6335446E-2,2.7043556E-3,1.0852372E-5,9.039804E-3,7.635115E-3,2.514854E-4,-6.517709E-4,-4.1419906E-3,-9.773687E-4,-4.6402842E-4,6.0345454E-4,9.1581845E-5,-8.933902E-4,1.0752742E-3,2.837777E-3],"categories":[],"categories_nodes":[],"categories_segments":[],"categories_sizes":[],"default_left":[0,0,0,0,0,0,0,0,0,0,0,0,0,0,0,0,0,0,0,0,0,0,0,0,0,0,0,0,0,0,0,0,0,0,0,0,0,0,0,0,0,0,0,0,0,0,0,0,0,0,0,0,0,0,0,0,0],"id":18,"left_children":[1,3,5,-1,7,9,-1,11,-1,13,-1,15,17,19,-1,-1,-1,21,23,25,27,-1,-1,-1,-1,29,31,-1,33,-1,35,-1,37,39,-1,-1,41,-1,43,45,-1,47,49,51,53,55,-1,-1,-1,-1,-1,-1,-1,-1,-1,-1,-1],"loss_changes":[1.3741022E-1,6.9122955E-2,6.2266093E-2,0E0,2.5052711E-2,4.2894647E-2,0E0,3.074833E-2,0E0,7.38096E-2,0E0,1.0076091E-3,1.134596E-2,2.6249915E-2,0E0,0E0,0E0,9.497939E-3,1.0789596E-3,2.2350757E-3,2.0483129E-2,0E0,0E0,0E0,0E0,1.2698527E-3,2.20124E-4,0E0,1.1113388E-2,0E0,7.408266E-4,0E0,3.032165E-4,2.7353926E-2,0E0,0E0,7.8440376E-4,0E0,1.4608685E-4,1.5891831E-2,0E0,5.8386067E-5,4.799734E-5,1.1776958E-4,6.6147724E-5,3.7144087E-3,0E0,0E0,0E0,0E0,0E0,0E0,0E0,0E0,0E0,0E0,0E0],"parents":[2147483647,0,0,1,1,2,2,4,4,5,5,7,7,9,9,11,11,12,12,13,13,17,17,18,18,19,19,20,20,25,25,26,26,28,28,30,30,32,32,33,33,36,36,38,38,39,39,41,41,42,42,43,43,44,44,45,45],"right_children":[2,4,6,-1,8,10,-1,12,-1,14,-1,16,18,20,-1,-1,-1,22,24,26,28,-1,-1,-1,-1,30,32,-1,34,-1,36,-1,38,40,-1,-1,42,-1,44,46,-1,48,50,52,54,56,-1,-1,-1,-1,-1,-1,-1,-1,-1,-1,-1],"split_conditions":[-4.0579173E-1,-2.019359E0,1.4967275E0,4.2773564E-3,-5.5518746E-1,1.365421E0,-9.615524E-3,-1.6989095E0,-1.27460435E-2,1.3060068E0,1.1795624E-2,-1.6913322E0,-1.1165574E0,1.4043154E-1,-9.6694585E-3,-1.3757802E-2,-8.233033E-3,-1.1165578E0,-7.304545E-1,-1.07839465E-1,1.3955371E-1,-4.0474324E-3,6.1867357E-4,-7.2277114E-3,-4.021215E-3,-3.5317656E-1,-4.098546E-1,7.783516E-3,1.2842125E0,8.355371E-4,-3.5317653E-1,-1.3135523E-3,-2.047223E-1,1.242642E0,7.2628814E-3,-2.186654E-3,-1.1108773E-1,2.1840353E-3,9.35001E-2,1.1979128E0,-5.5558053E-3,-3.5709548E-1,9.35001E-2,-1.1108772E-1,1.395537E-1,8.3238333E-1,7.635115E-3,2.514854E-4,-6.517709E-4,-4.1419906E-3,-9.773687E-4,-4.6402842E-4,6.0345454E-4,9.1581845E-5,-8.933902E-4,1.0752742E-3,2.837777E-3],"split_indices":[2,0,0,0,2,2,0,0,0,0,0,2,2,4,0,0,0,2,0,2,0,0,0,0,0,2,0,0,4,0,2,0,0,0,0,0,0,0,0,2,0,0,0,0,0,2,0,0,0,0,0,0,0,0,0,0,0],"split_type":[0,0,0,0,0,0,0,0,0,0,0,0,0,0,0,0,0,0,0,0,0,0,0,0,0,0,0,0,0,0,0,0,0,0,0,0,0,0,0,0,0,0,0,0,0,0,0,0,0,0,0,0,0,0,0,0,0],"sum_hessian":[7.36E2,2.01E2,5.35E2,2.5E1,1.76E2,5.15E2,2E1,1.53E2,2.3E1,5.02E2,1.3E1,3.3E1,1.2E2,4.79E2,2.3E1,1.2E1,2.1E1,7.2E1,4.8E1,1.99E2,2.8E2,4.5E1,2.7E1,3.2E1,1.6E1,1.03E2,9.6E1,2.7E1,2.53E2,1.3E1,9E1,1E0,9.5E1,2.39E2,1.4E1,2.1E1,6.9E1,2E0,9.3E1,2.22E2,1.7E1,6.6E1,3E0,6.4E1,2.9E1,2.03E2,1.9E1,2E0,6.4E1,1E0,2E0,3E0,6.1E1,2.8E1,1E0,1.21E2,8.2E1],"tree_param":{"num_deleted":"0","num_feature":"7","num_nodes":"57","size_leaf_vector":"1"}},{"base_weights":[-3.1915016E-3,-8.245776E-2,9.689969E-3,-6.221706E-2,-1.0843723E-1,1.1467772E-1,6.93558E-3,-3.1235361E-2,-3.2915674E-2,-6.395098E-3,3.8911685E-2,-1.3099103E-2,-2.5007354E-2,-1.072305E-2,6.0225567E-3,2.5120118E-1,3.0126011E-2,-2.0918742E-2,-1.1784113E-2,-9.309618E-3,-1.6647685E-2,8.11661E-3,-8.658652E-3,5.5806797E-2,5.6136292E-3,1.4361752E-2,3.9159205E-2,-5.5526006E-3,-3.3206462E-3,-6.9533805E-3,-2.714684E-2,5.4029645E-3,7.2818277E-3,4.66698E-3,2.4403909E-3,5.3692687E-2,2.8175991E-2,-1.8955206E-2,-2.6260652E-3,-8.791403E-3,4.111398E-4,6.029562E-3,1.5007428E-2,4.7607016E-2,1.8757744E-2,1.0367509E-2,8.685956E-3,-8.848543E-3,-2.678335E-2,-4.956532E-3,2.3096532E-3,-1.8891871E-4,1.738647E-4,6.631492E-4,7.637787E-3,3.4242843E-3,-8.316319E-4,3.529198E-2,1.1156461E-2,5.6104544E-3,-3.657861E-4,4.096902E-4,-1.3415872E-2,-7.0803E-3,-3.4777364E-3,-3.5740416E-3,3.120092E-3,2.4490212E-3,5.703164E-3,1.0070098E-2,4.810726E-3,-5.826933E-3,-1.417047E-3,-7.871006E-4,-2.4492645E-3,-4.708908E-4,-1.3471318E-3,6.0425526E-3,2.8189638E-4,1.4124889E-3,7.459516E-4],"categories":[],"categories_nodes":[],"categories_segments":[],"categories_sizes":[],"default_left":[0,0,0,0,0,0,0,0,0,0,0,0,0,0,0,0,0,0,0,0,0,0,0,0,0,0,0,0,0,0,0,0,0,0,0,0,0,0,0,0,0,0,0,0,0,0,0,0,0,0,0,0,0,0,0,0,0,0,0,0,0,0,0,0,0,0,0,0,0,0,0,0,0,0,0,0,0,0,0,0,0],"id":19,"left_children":[1,3,5,7,-1,-1,9,-1,11,13,15,-1,17,19,21,23,25,27,-1,29,-1,31,-1,-1,-1,33,35,-1,-1,37,39,-1,41,-1,-1,43,45,47,49,-1,51,53,55,57,-1,59,-1,61,-1,63,65,-1,-1,-1,67,-1,-1,69,-1,-1,-1,-1,71,73,75,-1,77,-1,79,-1,-1,-1,-1,-1,-1,-1,-1,-1,-1,-1,-1],"loss_changes":[7.377866E-1,8.723611E-1,9.577918E-1,2.622806E-1,0E0,0E0,2.652071E-1,0E0,1.6821101E-2,2.377608E-2,3.2617906E-1,0E0,6.6863373E-3,3.1966195E-2,1.2578834E-2,2.7808964E-2,2.4222687E-2,9.093508E-4,0E0,1.3197757E-2,0E0,1.3734656E-3,0E0,0E0,0E0,7.4839033E-4,1.4852241E-2,0E0,0E0,1.4857922E-2,1.717656E-2,0E0,8.832193E-4,0E0,0E0,2.2945106E-3,1.7571464E-2,8.593276E-2,2.4844366E-3,0E0,1.1581111E-5,3.7706387E-4,7.096098E-4,4.925281E-4,0E0,7.436109E-3,0E0,3.6384147E-3,0E0,4.092832E-4,1.2563313E-3,0E0,0E0,0E0,3.9513386E-4,0E0,0E0,1.4701318E-3,0E0,0E0,0E0,0E0,4.662156E-3,8.4588234E-4,2.9764336E-4,0E0,3.1126363E-3,0E0,7.070857E-5,0E0,0E0,0E0,0E0,0E0,0E0,0E0,0E0,0E0,0E0,0E0,0E0],"parents":[2147483647,0,0,1,1,2,2,3,3,6,6,8,8,9,9,10,10,12,12,13,13,14,14,15,15,16,16,17,17,19,19,21,21,25,25,26,26,29,29,30,30,32,32,35,35,36,36,37,37,38,38,40,40,41,41,42,42,43,43,45,45,47,47,49,49,50,50,54,54,57,57,62,62,63,63,64,64,66,66,68,68],"right_children":[2,4,6,8,-1,-1,10,-1,12,14,16,-1,18,20,22,24,26,28,-1,30,-1,32,-1,-1,-1,34,36,-1,-1,38,40,-1,42,-1,-1,44,46,48,50,-1,52,54,56,58,-1,60,-1,62,-1,64,66,-1,-1,-1,68,-1,-1,70,-1,-1,-1,-1,72,74,76,-1,78,-1,80,-1,-1,-1,-1,-1,-1,-1,-1,-1,-1,-1,-1],"split_conditions":[-1.0912164E0,8.323833E-1,-2.010908E0,-2.010908E0,-1.0843723E-1,1.1467772E-1,1.0594982E0,-3.1235361E-2,-1.654871E0,3.6435473E-1,1.4211862E-1,-1.3099103E-2,-7.2551775E-1,3.4617603E-1,8.8372993E-1,3.6226127E-1,1.2219076E0,-1.6913321E0,-1.1784113E-2,1.4043154E-1,-1.6647685E-2,2.7200156E-1,-8.658652E-3,5.5806797E-2,5.6136292E-3,1.0739008E0,1.2758526E0,-5.5526006E-3,-3.3206462E-3,-3.9420095E-1,1.4211862E-1,5.4029645E-3,8.3238333E-1,4.66698E-3,2.4403909E-3,1.4703982E0,1.365421E0,-3.9829797E-1,3.7241705E-2,-8.791403E-3,1.4211906E-1,3.9164796E-1,8.5467273E-1,1.2421993E0,1.8757744E-2,1.3053914E0,8.685956E-3,-1.1165574E0,-2.678335E-2,-3.5317653E-1,-4.175072E-1,-1.8891871E-4,1.738647E-4,6.631492E-4,3.9556032E-1,3.4242843E-3,-8.316319E-4,1.1705992E0,1.1156461E-2,5.6104544E-3,-3.657861E-4,4.096902E-4,-7.2551775E-1,-3.5317656E-1,-1.07839465E-1,-3.5740416E-3,-3.869961E-2,2.4490212E-3,5.123535E-1,1.0070098E-2,4.810726E-3,-5.826933E-3,-1.417047E-3,-7.871006E-4,-2.4492645E-3,-4.708908E-4,-1.3471318E-3,6.0425526E-3,2.8189638E-4,1.4124889E-3,7.459516E-4],"split_indices":[6,2,2,2,0,0,6,0,6,6,2,0,2,2,2,4,6,2,0,4,0,2,0,0,0,2,2,0,0,6,2,0,2,0,0,6,2,4,6,0,2,6,2,2,0,2,0,2,0,2,2,0,0,0,2,0,0,2,0,0,0,0,2,2,2,0,2,0,2,0,0,0,0,0,0,0,0,0,0,0,0],"split_type":[0,0,0,0,0,0,0,0,0,0,0,0,0,0,0,0,0,0,0,0,0,0,0,0,0,0,0,0,0,0,0,0,0,0,0,0,0,0,0,0,0,0,0,0,0,0,0,0,0,0,0,0,0,0,0,0,0,0,0,0,0,0,0,0,0,0,0,0,0,0,0,0,0,0,0,0,0,0,0,0,0],"sum_hessian":[7.19E2,9.9E1,6.2E2,9.7E1,2E0,1E0,6.19E2,2.1E1,7.6E1,4.38E2,1.81E2,1.2E1,6.4E1,3.25E2,1.13E2,5E0,1.76E2,6E1,4E0,3.21E2,4E0,1.1E2,3E0,4E0,1E0,6.6E1,1.1E2,1.9E1,4.1E1,2.86E2,3.5E1,2E0,1.08E2,9E0,5.7E1,4.4E1,6.6E1,7.4E1,2.12E2,2.1E1,1.4E1,9.6E1,1.2E1,4.2E1,2E0,3.2E1,3.4E1,7E1,4E0,1.44E2,6.8E1,3E0,1.1E1,3.8E1,5.8E1,1.1E1,1E0,2.1E1,2.1E1,1.2E1,2E1,2.1E1,4.9E1,5.6E1,8.8E1,1E0,6.7E1,1.4E1,4.4E1,6E0,1.5E1,1.2E1,3.7E1,3.7E1,1.9E1,6.8E1,2E1,2E0,6.5E1,2.3E1,2.1E1],"tree_param":{"num_deleted":"0","num_feature":"7","num_nodes":"81","size_leaf_vector":"1"}},{"base_weights":[-5.6961956E-3,-1.3343775E-1,-1.3621257E-3,-2.7541265E-2,-2.350712E-3,4.2101967E-1,-3.7446157E-3,1.0703253E-1,5.239384E-3,-3.8053714E-2,5.9299483E-3,-2.0278143E-2,-5.5309333E-2,3.29239E-2,4.7585387E-3,-8.737681E-3,-1.6079985E-2,-1.848225E-2,-3.643358E-2,1.1484515E-3,1.0182046E-2,-4.115067E-3,-2.644371E-3,-3.180582E-2,-1.9088836E-2,3.2498322E-3,-7.179066E-2,-7.037844E-3,-2.8198124E-3,5.9318063E-3,-1.9766646E-2,3.0149866E-4,1.5933841E-2,-1.6628177E-1,-1.3941645E-3,1.6084626E-2,-3.829965E-3,3.062295E-2,1.32465055E-2,-4.9072145E-3,-5.8334023E-2,-8.431718E-3,1.6800812E-2,1.5497305E-3,2.6616383E-2,-1.1927616E-3,7.606286E-4,1.9782071E-3,6.2491703E-3,4.965045E-3,2.1439672E-3],"categories":[],"categories_nodes":[],"categories_segments":[],"categories_sizes":[],"default_left":[0,0,0,0,0,0,0,0,0,0,0,0,0,0,0,0,0,0,0,0,0,0,0,0,0,0,0,0,0,0,0,0,0,0,0,0,0,0,0,0,0,0,0,0,0,0,0,0,0,0,0],"id":20,"left_children":[1,3,5,-1,-1,7,9,-1,-1,11,13,15,17,-1,19,-1,21,-1,23,25,-1,-1,-1,27,-1,29,-1,-1,-1,31,33,35,37,39,41,43,45,-1,47,-1,-1,-1,49,-1,-1,-1,-1,-1,-1,-1,-1],"loss_changes":[4.0490162E-1,9.228915E-3,7.1764064E-1,0E0,0E0,1.5222573E-1,2.354546E-1,0E0,0E0,4.560651E-2,1.0141661E-1,6.457381E-3,4.789172E-2,0E0,9.185269E-2,0E0,3.6814064E-4,0E0,8.9484155E-3,3.912824E-1,0E0,0E0,0E0,2.2428147E-3,0E0,3.190179E-2,0E0,0E0,0E0,2.5951393E-2,1.4489606E-1,1.948981E-2,5.7139624E-2,9.2326686E-2,3.850198E-2,5.840534E-2,3.9055839E-3,0E0,9.347275E-3,0E0,0E0,0E0,1.224421E-3,0E0,0E0,0E0,0E0,0E0,0E0,0E0,0E0],"parents":[2147483647,0,0,1,1,2,2,5,5,6,6,9,9,10,10,11,11,12,12,14,14,16,16,18,18,19,19,23,23,25,25,29,29,30,30,31,31,32,32,33,33,34,34,35,35,36,36,38,38,42,42],"right_children":[2,4,6,-1,-1,8,10,-1,-1,12,14,16,18,-1,20,-1,22,-1,24,26,-1,-1,-1,28,-1,30,-1,-1,-1,32,34,36,38,40,42,44,46,-1,48,-1,-1,-1,50,-1,-1,-1,-1,-1,-1,-1,-1],"split_conditions":[-2.00666E0,-2.019359E0,-2.019359E0,-2.7541265E-2,-2.350712E-3,-1.1135225E0,-5.339481E-1,1.0703253E-1,5.239384E-3,-1.1135225E0,-4.1542438E-1,-1.6875137E0,-1.1225601E0,3.29239E-2,1.3650745E0,-8.737681E-3,-1.6989095E0,-1.848225E-2,-3.9624596E-1,1.4708085E0,1.0182046E-2,-4.115067E-3,-2.644371E-3,-7.230138E-1,-1.9088836E-2,1.242642E0,-7.179066E-2,-7.037844E-3,-2.8198124E-3,3.760972E-1,6.414629E-1,-3.5709548E-1,3.6330864E-1,3.670317E-1,1.275628E0,7.4568787E-3,1.4343904E-1,3.062295E-2,1.2230567E0,-4.9072145E-3,-5.8334023E-2,-8.431718E-3,1.3060068E0,1.5497305E-3,2.6616383E-2,-1.1927616E-3,7.606286E-4,1.9782071E-3,6.2491703E-3,4.965045E-3,2.1439672E-3],"split_indices":[3,0,0,0,0,3,3,0,0,3,3,3,0,0,3,0,0,0,5,5,0,0,0,3,0,0,0,0,0,3,3,0,5,3,3,3,3,0,3,0,0,0,0,0,0,0,0,0,0,0,0],"split_type":[0,0,0,0,0,0,0,0,0,0,0,0,0,0,0,0,0,0,0,0,0,0,0,0,0,0,0,0,0,0,0,0,0,0,0,0,0,0,0,0,0,0,0,0,0,0,0,0,0,0,0],"sum_hessian":[7.3E2,2.2E1,7.08E2,2.1E1,1E0,2E0,7.06E2,1E0,1E0,1.54E2,5.52E2,7.8E1,7.6E1,2E0,5.5E2,9E0,6.9E1,2.3E1,5.3E1,5.12E2,3.8E1,2.2E1,4.7E1,5.2E1,1E0,5.11E2,1E0,4.2E1,1E1,4.59E2,5.2E1,2.95E2,1.64E2,4E0,4.8E1,6E1,2.35E2,1E0,1.63E2,3E0,1E0,1.4E1,3.4E1,5.8E1,2E0,1.84E2,5.1E1,1.4E2,2.3E1,1.2E1,2.2E1],"tree_param":{"num_deleted":"0","num_feature":"7","num_nodes":"51","size_leaf_vector":"1"}},{"base_weights":[-2.5957294E-3,-3.89706E-2,1.3207882E-2,-2.6659252E-2,-2.4895006E-1,3.691222E-1,8.212215E-3,-1.566489E-2,-3.628183E-2,-2.4233203E-2,-6.7269094E-2,9.678998E-2,2.592223E-2,6.279105E-3,3.0938834E-2,-8.171542E-4,-1.972442E-2,-1.5026867E-2,-2.4989428E-2,4.8130434E-3,5.2068764E-3,1.6060412E-2,4.78598E-3,-9.207502E-3,-1.3763186E-2,-5.8299694E-3,-4.7135625E-2,3.5551125E-3,1.3347292E-2,-4.0290193E-3,-2.1195195E-3,-3.372186E-3,-1.0428252E-3,-1.66333E-2,-4.899892E-3,-1.2958033E-3,5.1639862E-3,2.1831779E-2,4.753518E-3,8.090076E-4,-1.995864E-3,-5.292666E-3,3.2871908E-3,-7.2198716E-4,-1.8942222E-3,6.7525064E-3,-2.202436E-3,3.6980154E-3,1.2738828E-3,7.9242996E-4,-5.0081016E-4,-4.718868E-3,2.6974033E-4,4.1886424E-3,1.0870383E-2,-8.283603E-3,1.0887311E-3,-6.287785E-3,6.6022803E-3,4.860759E-6,-4.2664246E-3,7.722927E-4,-1.7242588E-4,4.8894444E-3,-6.4484566E-3,2.8335874E-3,7.6007904E-3,5.542123E-3,-1.0753892E-3,9.1853144E-4,-1.5266543E-3,3.79912E-3,-3.031181E-4,7.069247E-5,7.682994E-4,-9.326444E-5,6.6001253E-6,5.557574E-3,8.3511055E-4,9.157474E-4,2.0482566E-3,1.4531749E-3,2.4873344E-4],"categories":[],"categories_nodes":[],"categories_segments":[],"categories_sizes":[],"default_left":[0,0,0,0,0,0,0,0,0,0,0,0,0,0,0,0,0,0,0,0,0,0,0,0,0,0,0,0,0,0,0,0,0,0,0,0,0,0,0,0,0,0,0,0,0,0,0,0,0,0,0,0,0,0,0,0,0,0,0,0,0,0,0,0,0,0,0,0,0,0,0,0,0,0,0,0,0,0,0,0,0,0,0],"id":21,"left_children":[1,3,5,7,9,11,13,15,17,-1,-1,-1,-1,19,21,-1,23,-1,25,-1,27,-1,-1,-1,29,31,33,35,37,-1,-1,-1,39,-1,41,43,45,-1,47,-1,-1,-1,49,51,-1,53,55,-1,57,-1,-1,59,61,63,65,-1,67,69,71,-1,-1,73,75,77,-1,-1,79,81,-1,-1,-1,-1,-1,-1,-1,-1,-1,-1,-1,-1,-1,-1,-1],"loss_changes":[4.1952342E-1,5.5804014E-1,8.989543E-1,2.1185845E-2,5.2505612E-2,6.706703E-2,2.1753728E-2,4.6334118E-3,4.4944838E-2,0E0,0E0,0E0,0E0,8.65544E-3,9.650119E-3,0E0,1.04971435E-2,0E0,3.7213907E-2,0E0,5.861697E-3,0E0,0E0,0E0,8.65981E-4,2.605174E-3,6.1578393E-2,2.9088575E-3,5.989258E-2,0E0,0E0,0E0,1.7630372E-3,0E0,3.8813544E-3,4.272896E-4,3.2945205E-3,0E0,3.298767E-3,0E0,0E0,0E0,8.6293294E-5,3.5928926E-4,0E0,2.3372006E-3,6.672503E-3,0E0,2.4199386E-3,0E0,0E0,1.4194283E-3,1.670999E-5,4.0172692E-3,7.22629E-4,0E0,1.470515E-3,4.3610123E-4,3.5788373E-3,0E0,0E0,4.2276013E-5,2.5061158E-6,2.1219072E-3,0E0,0E0,2.8924178E-4,2.0421133E-4,0E0,0E0,0E0,0E0,0E0,0E0,0E0,0E0,0E0,0E0,0E0,0E0,0E0,0E0,0E0],"parents":[2147483647,0,0,1,1,2,2,3,3,4,4,5,5,6,6,7,7,8,8,13,13,14,14,16,16,18,18,20,20,24,24,25,25,26,26,27,27,28,28,32,32,34,34,35,35,36,36,38,38,42,42,43,43,45,45,46,46,48,48,51,51,52,52,53,53,54,54,56,56,57,57,58,58,61,61,62,62,63,63,66,66,67,67],"right_children":[2,4,6,8,10,12,14,16,18,-1,-1,-1,-1,20,22,-1,24,-1,26,-1,28,-1,-1,-1,30,32,34,36,38,-1,-1,-1,40,-1,42,44,46,-1,48,-1,-1,-1,50,52,-1,54,56,-1,58,-1,-1,60,62,64,66,-1,68,70,72,-1,-1,74,76,78,-1,-1,80,82,-1,-1,-1,-1,-1,-1,-1,-1,-1,-1,-1,-1,-1,-1,-1],"split_conditions":[-3.4260365E-1,-3.4656438E-1,-3.4656438E-1,-1.1195695E0,8.320339E-1,-1.1195681E0,1.4703982E0,-2.0151408E0,-1.1195681E0,-2.4233203E-2,-6.7269094E-2,9.678998E-2,2.592223E-2,-3.5514587E-1,1.1980613E0,-8.171542E-4,-1.654871E0,-1.5026867E-2,-4.0783295E-1,4.8130434E-3,1.2219076E0,1.6060412E-2,4.78598E-3,-9.207502E-3,-1.6951287E0,-7.1266663E-1,-4.0783292E-1,3.7241705E-2,5.0393367E-1,-4.0290193E-3,-2.1195195E-3,-3.372186E-3,-7.2799546E-1,-1.66333E-2,-3.9829797E-1,1.974301E-2,1.0765688E0,2.1831779E-2,1.2424083E0,8.090076E-4,-1.995864E-3,-5.292666E-3,-2.7403885E-1,-2.6317418E-1,-1.8942222E-3,3.9164796E-1,1.0594982E0,3.6980154E-3,1.2761075E0,7.9242996E-4,-5.0081016E-4,-2.7403885E-1,-1.3561912E-1,3.7411943E-1,8.3203274E-1,-8.283603E-3,1.1746156E0,1.2424084E0,1.3056867E0,4.860759E-6,-4.2664246E-3,-1.053382E-1,-1.09473825E-1,3.4284234E-2,-6.4484566E-3,2.8335874E-3,8.320339E-1,1.1492763E0,-1.0753892E-3,9.1853144E-4,-1.5266543E-3,3.79912E-3,-3.031181E-4,7.069247E-5,7.682994E-4,-9.326444E-5,6.6001253E-6,5.557574E-3,8.3511055E-4,9.157474E-4,2.0482566E-3,1.4531749E-3,2.4873344E-4],"split_indices":[6,4,4,1,1,1,6,1,1,0,0,0,0,1,1,0,6,0,1,0,6,0,0,0,1,4,1,6,1,0,0,0,1,0,4,1,1,0,1,0,0,0,1,6,0,6,6,0,1,0,0,1,1,1,1,0,1,1,1,0,0,4,1,4,0,0,1,1,0,0,0,0,0,0,0,0,0,0,0,0,0,0,0],"split_type":[0,0,0,0,0,0,0,0,0,0,0,0,0,0,0,0,0,0,0,0,0,0,0,0,0,0,0,0,0,0,0,0,0,0,0,0,0,0,0,0,0,0,0,0,0,0,0,0,0,0,0,0,0,0,0,0,0,0,0,0,0,0,0,0,0,0,0,0,0,0,0,0,0,0,0,0,0,0,0,0,0,0,0],"sum_hessian":[7.26E2,2.19E2,5.07E2,2.09E2,1E1,5E0,5.02E2,1E2,1.09E2,6E0,4E0,2E0,3E0,4.65E2,3.7E1,2.7E1,7.3E1,2.2E1,8.7E1,2.4E1,4.41E2,2E0,3.5E1,1.1E1,6.2E1,4.8E1,3.9E1,3.69E2,7.2E1,1.7E1,4.5E1,1.3E1,3.5E1,2E1,1.9E1,9.2E1,2.77E2,4E0,6.8E1,2.3E1,1.2E1,4E0,1.5E1,8.8E1,4E0,2.28E2,4.9E1,1.2E1,5.6E1,1.4E1,1E0,1.6E1,7.2E1,1.43E2,8.5E1,2E0,4.7E1,2.3E1,3.3E1,1.4E1,2E0,3.3E1,3.9E1,1.42E2,1E0,3.9E1,4.6E1,2.8E1,1.9E1,2E0,2.1E1,1.2E1,2.1E1,3.1E1,2E0,1.5E1,2.4E1,2E0,1.4E2,2.4E1,2.2E1,1.9E1,9E0],"tree_param":{"num_deleted":"0","num_feature":"7","num_nodes":"83","size_leaf_vector":"1"}},{"base_weights":[3.6624873E-3,-8.0517726E-4,2.9218344E-2,-9.2722796E-2,3.8547472E-3,-2.115366E-2,-8.051984E-3,7.216447E-4,2.1318395E-2,2.0376602E-3,-4.996048E-2,2.677762E-2,7.702738E-3,-1.2269046E-2,4.254915E-3,2.4702654E-3,4.1322485E-2,6.3930184E-4,3.1448712E-3,-1.0541261E-2,-2.9200753E-2,3.6495414E-2,2.457117E-3,1.1044425E-2,3.5827786E-3,-2.6387472E-3,-1.7586745E-3,-6.98483E-3,-3.891786E-5,4.8666117E-3,2.270362E-2,-6.0520438E-3,6.7502456E-3,-4.2187152E-3,-1.4996833E-2,3.323071E-2,5.1792855E-3,-4.2127008E-3,-2.4054565E-3,8.420153E-3,2.754045E-3,9.75392E-4,-1.8470663E-3,9.668829E-4,1.654136E-2,-2.822126E-4,1.4872566E-3],"categories":[],"categories_nodes":[],"categories_segments":[],"categories_sizes":[],"default_left":[0,0,0,0,0,0,0,0,0,0,0,0,0,0,0,0,0,0,0,0,0,0,0,0,0,0,0,0,0,0,0,0,0,0,0,0,0,0,0,0,0,0,0,0,0,0,0],"id":22,"left_children":[1,3,-1,5,7,-1,-1,9,11,13,-1,15,17,19,21,-1,23,-1,-1,25,27,29,31,-1,-1,-1,-1,-1,-1,-1,-1,33,35,37,-1,-1,39,-1,41,43,45,-1,-1,-1,-1,-1,-1],"loss_changes":[4.6029902E-1,3.0183023E-1,0E0,1.4753312E-2,3.668326E-2,0E0,0E0,1.8927301E-1,7.169232E-3,1.8185727E-2,0E0,1.4086876E-2,1.0561857E-3,1.6369596E-3,2.8511792E-2,0E0,9.409506E-3,0E0,0E0,1.0641012E-4,9.824913E-4,1.8831722E-2,1.7287768E-2,0E0,0E0,0E0,0E0,0E0,0E0,0E0,0E0,1.9460987E-2,7.6909564E-2,4.694067E-3,0E0,0E0,2.4137637E-3,0E0,7.2523523E-3,3.462785E-2,3.5703548E-3,0E0,0E0,0E0,0E0,0E0,0E0],"parents":[2147483647,0,0,1,1,3,3,4,4,7,7,8,8,9,9,11,11,12,12,13,13,14,14,16,16,19,19,20,20,21,21,22,22,31,31,32,32,33,33,36,36,38,38,39,39,40,40],"right_children":[2,4,-1,6,8,-1,-1,10,12,14,-1,16,18,20,22,-1,24,-1,-1,26,28,30,32,-1,-1,-1,-1,-1,-1,-1,-1,34,36,38,-1,-1,40,-1,42,44,46,-1,-1,-1,-1,-1,-1],"split_conditions":[1.495592E0,-1.6875137E0,2.9218344E-2,-2.010908E0,1.1744126E0,-2.115366E-2,-8.051984E-3,1.174499E0,1.3053914E0,-1.0941793E0,-4.996048E-2,1.2421993E0,1.365421E0,-7.2551775E-1,-1.1165574E0,2.4702654E-3,1.2758526E0,6.3930184E-4,3.1448712E-3,-1.6913321E0,6.4082223E-1,-1.1135188E0,-1.5805447E-1,1.1044425E-2,3.5827786E-3,-2.6387472E-3,-1.7586745E-3,-6.98483E-3,-3.891786E-5,4.8666117E-3,2.270362E-2,-1.9536649E-1,-4.0579173E-1,-7.2301525E-1,-1.4996833E-2,3.323071E-2,1.4211862E-1,-4.2127008E-3,-3.5317656E-1,1.4343904E-1,6.414629E-1,9.75392E-4,-1.8470663E-3,9.668829E-4,1.654136E-2,-2.822126E-4,1.4872566E-3],"split_indices":[2,3,0,2,3,0,0,2,2,5,0,2,2,2,2,0,2,0,0,2,2,3,3,0,0,0,0,0,0,0,0,5,2,3,0,0,2,0,2,3,3,0,0,0,0,0,0],"split_type":[0,0,0,0,0,0,0,0,0,0,0,0,0,0,0,0,0,0,0,0,0,0,0,0,0,0,0,0,0,0,0,0,0,0,0,0,0,0,0,0,0,0,0,0,0,0,0],"sum_hessian":[7.21E2,7.01E2,2E1,3.2E1,6.69E2,2.4E1,8E0,5.69E2,1E2,5.68E2,1E0,7E1,3E1,7.5E1,4.93E2,3.7E1,3.3E1,2.1E1,9E0,7.1E1,4E0,2.4E1,4.69E2,1.9E1,1.4E1,2.3E1,4.8E1,3E0,1E0,2.3E1,1E0,1.57E2,3.12E2,1.55E2,2E0,1E0,3.11E2,1.3E1,1.42E2,1.31E2,1.8E2,6.9E1,7.3E1,1.27E2,4E0,9.6E1,8.4E1],"tree_param":{"num_deleted":"0","num_feature":"7","num_nodes":"47","size_leaf_vector":"1"}},{"base_weights":[7.3300456E-3,2.7308338E-3,2.4796365E-2,4.1424045E-3,-6.44679E-2,9.937344E-2,5.444219E-4,9.000265E-3,9.362028E-2,-1.5271263E-2,5.179528E-3,-9.389818E-3,-4.5343902E-2,3.5698917E-2,3.6727847E-3,-2.694546E-3,-2.2149572E-2,1.7023657E-2,3.1015327E-2,-2.31161E-3,5.65316E-3,-7.358386E-3,9.231296E-3,-2.5232714E-2,-1.2251109E-2,2.06389E-2,-4.167448E-3,-5.8636367E-3,-7.252435E-4,4.423554E-3,1.374307E-2,-4.56663E-3,-4.1772127E-3,2.0070076E-3,-8.848985E-4,-2.2303236E-3,-5.792448E-3,-1.3681526E-2,-2.2381842E-4,8.559221E-3,3.1015954E-3,1.5366112E-3,-2.1647008E-3,-2.1745615E-5,-1.239461E-2,6.6244407E-3,-5.61356E-3,-4.9384437E-3,1.5611575E-2,3.2861234E-4,-1.3921477E-3,-1.5294631E-3,-3.506158E-3,1.7928022E-4,4.8230588E-4,-2.9888155E-4,1.5505116E-3,-4.4338108E-4,-2.7661168E-3,4.7906353E-3,1.1279614E-2,7.371602E-3,2.4975182E-3,2.7991759E-4,-1.3571273E-4,1.0886092E-3,-9.336301E-3,3.317196E-3,1.2567149E-3],"categories":[],"categories_nodes":[],"categories_segments":[],"categories_sizes":[],"default_left":[0,0,0,0,0,0,0,0,0,0,0,0,0,0,0,0,0,0,0,0,0,0,0,0,0,0,0,0,0,0,0,0,0,0,0,0,0,0,0,0,0,0,0,0,0,0,0,0,0,0,0,0,0,0,0,0,0,0,0,0,0,0,0,0,0,0,0,0,0],"id":23,"left_children":[1,3,-1,5,-1,7,9,-1,-1,11,13,15,-1,17,19,21,23,25,-1,27,29,31,33,35,37,39,-1,41,43,45,47,-1,49,-1,-1,-1,-1,51,-1,-1,-1,53,-1,55,57,59,-1,-1,61,-1,-1,-1,-1,-1,-1,63,-1,-1,-1,65,67,-1,-1,-1,-1,-1,-1,-1,-1],"loss_changes":[3.818518E-1,3.1836605E-1,0E0,2.3528521E-1,0E0,4.5908254E-1,4.883429E-2,0E0,0E0,1.8352911E-1,2.3419987E-2,1.2609707E-2,0E0,4.8225902E-2,5.8688517E-3,5.6978776E-3,9.381771E-4,4.0082713E-3,0E0,6.90212E-4,3.5688998E-3,3.4028785E-3,4.0709623E-4,1.297133E-3,2.2415305E-4,1.1737514E-3,0E0,1.4280244E-3,7.2188594E-4,2.3612546E-2,4.21816E-3,0E0,1.0435294E-3,0E0,0E0,0E0,0E0,5.705515E-5,0E0,0E0,0E0,5.1988354E-6,0E0,1.8777E-4,1.175236E-5,2.5041504E-3,0E0,0E0,2.199022E-3,0E0,0E0,0E0,0E0,0E0,0E0,5.6069202E-5,0E0,0E0,0E0,7.996734E-3,2.0449804E-3,0E0,0E0,0E0,0E0,0E0,0E0,0E0,0E0],"parents":[2147483647,0,0,1,1,3,3,5,5,6,6,9,9,10,10,11,11,13,13,14,14,15,15,16,16,17,17,19,19,20,20,21,21,22,22,23,23,24,24,25,25,27,27,28,28,29,29,30,30,32,32,37,37,41,41,43,43,44,44,45,45,48,48,55,55,59,59,60,60],"right_children":[2,4,-1,6,-1,8,10,-1,-1,12,14,16,-1,18,20,22,24,26,-1,28,30,32,34,36,38,40,-1,42,44,46,48,-1,50,-1,-1,-1,-1,52,-1,-1,-1,54,-1,56,58,60,-1,-1,62,-1,-1,-1,-1,-1,-1,64,-1,-1,-1,66,68,-1,-1,-1,-1,-1,-1,-1,-1],"split_conditions":[1.4950681E0,1.495592E0,2.4796365E-2,-2.010908E0,-6.44679E-2,-2.00666E0,-3.9420095E-1,9.000265E-3,9.362028E-2,-3.511814E-1,-4.0579173E-1,-1.1135188E0,-4.5343902E-2,-2.0941222E-1,3.7241705E-2,-1.1135225E0,-7.230138E-1,-4.0372476E-1,3.1015327E-2,-3.5317653E-1,1.2838771E0,-1.6913322E0,-1.1165574E0,-7.2551775E-1,-4.1542438E-1,-7.255172E-1,-4.167448E-3,-3.5317656E-1,9.709333E-2,1.2421993E0,9.709333E-2,-4.56663E-3,-1.6913321E0,2.0070076E-3,-8.848985E-4,-2.2303236E-3,-5.792448E-3,-6.9493437E-1,-2.2381842E-4,8.559221E-3,3.1015954E-3,-4.0207973E-1,-2.1647008E-3,3.313271E-2,3.4617603E-1,1.0594982E0,-5.61356E-3,-4.9384437E-3,1.2758526E0,3.2861234E-4,-1.3921477E-3,-1.5294631E-3,-3.506158E-3,1.7928022E-4,4.8230588E-4,-2.9361442E-1,1.5505116E-3,-4.4338108E-4,-2.7661168E-3,1.0462593E0,1.1491423E0,7.371602E-3,2.4975182E-3,2.7991759E-4,-1.3571273E-4,1.0886092E-3,-9.336301E-3,3.317196E-3,1.2567149E-3],"split_indices":[3,2,0,2,0,3,6,0,0,3,2,3,0,3,6,3,3,3,0,2,6,2,2,2,3,2,0,2,2,2,2,0,2,0,0,0,0,2,0,0,0,2,0,2,2,6,0,0,2,0,0,0,0,0,0,2,0,0,0,2,3,0,0,0,0,0,0,0,0],"split_type":[0,0,0,0,0,0,0,0,0,0,0,0,0,0,0,0,0,0,0,0,0,0,0,0,0,0,0,0,0,0,0,0,0,0,0,0,0,0,0,0,0,0,0,0,0,0,0,0,0,0,0,0,0,0,0,0,0,0,0,0,0,0,0,0,0,0,0,0,0],"sum_hessian":[7.11E2,6.86E2,2.5E1,6.85E2,1E0,2.3E1,6.62E2,2.2E1,1E0,1.49E2,5.13E2,1.47E2,2E0,2.2E1,4.91E2,9.8E1,4.9E1,2.1E1,1E0,1.22E2,3.69E2,7.1E1,2.7E1,3.5E1,1.4E1,2E1,1E0,3.6E1,8.6E1,3.23E2,4.6E1,1E1,6.1E1,2.6E1,1E0,9E0,2.6E1,1.2E1,2E0,1E0,1.9E1,1.5E1,2.1E1,8.3E1,3E0,3.04E2,1.9E1,1E0,4.5E1,2E1,4.1E1,7E0,5E0,1.1E1,4E0,8.2E1,1E0,1E0,2E0,2.21E2,8.3E1,3E0,4.2E1,1.4E1,6.8E1,2.2E2,1E0,3.8E1,4.5E1],"tree_param":{"num_deleted":"0","num_feature":"7","num_nodes":"69","size_leaf_vector":"1"}},{"base_weights":[1.3612756E-3,4.0153777E-3,-7.616347E-2,1.3207112E-2,1.522673E-3,-1.13348365E-2,-1.6205309E-2,-1.6511017E-2,2.924911E-3,-3.0012212E-3,-2.1402042E-5,-3.6877547E-3,-1.0713031E-2,1.2317663E-2,1.9983535E-3,-1.1808634E-3,-4.677838E-3,-4.87981E-3,3.2536272E-2,-1.4563045E-3,4.6729743E-3,-1.0385483E-3,3.2140416E-4,6.6666915E-3,8.4044144E-4,-1.5541996E-2,-6.2250317E-4,1.8428132E-2,2.2060114E-3,-1.967509E-3,-5.979991E-3,5.544432E-3,-3.4384192E-3,1.420752E-3,5.02533E-3,2.0410505E-4,1.0465585E-2,2.1114666E-3,2.6731146E-3,-4.09082E-3,1.3837099E-5,3.2996105E-3,-3.576083E-2,8.35495E-3,2.7517055E-3,-5.8300216E-3,5.8889254E-3,-7.139789E-4,1.7460735E-3,1.0359118E-3,1.2524721E-2,-4.1382315E-4,-7.4998545E-3,2.1215186E-3,1.2313883E-3,-2.1686214E-4,-1.597203E-3,1.7073684E-3,3.996518E-4,7.001407E-5,-3.500058E-4,6.36734E-4,-2.5321802E-4,5.207364E-4,-1.0776654E-3,2.9495426E-3,1.7431617E-3],"categories":[],"categories_nodes":[],"categories_segments":[],"categories_sizes":[],"default_left":[0,0,0,0,0,0,0,0,0,0,0,0,0,0,0,0,0,0,0,0,0,0,0,0,0,0,0,0,0,0,0,0,0,0,0,0,0,0,0,0,0,0,0,0,0,0,0,0,0,0,0,0,0,0,0,0,0,0,0,0,0,0,0,0,0,0,0],"id":24,"left_children":[1,3,5,-1,7,9,-1,11,13,-1,-1,-1,15,17,19,-1,-1,21,23,25,27,-1,-1,-1,-1,29,31,33,35,-1,-1,37,39,-1,-1,41,43,-1,45,-1,47,49,51,53,-1,55,57,59,61,63,65,-1,-1,-1,-1,-1,-1,-1,-1,-1,-1,-1,-1,-1,-1,-1,-1],"loss_changes":[1.4916936E-1,1.0801749E-1,5.729541E-3,0E0,1.7165665E-2,1.616698E-4,0E0,1.5260838E-4,5.416206E-3,0E0,0E0,0E0,7.6005794E-4,1.9789243E-2,5.3173127E-3,0E0,0E0,8.164754E-5,3.0712783E-4,2.940306E-3,1.09131355E-2,0E0,0E0,0E0,0E0,5.5837585E-4,4.205866E-3,3.3599827E-3,4.5758933E-3,0E0,0E0,1.0374736E-3,9.751821E-3,0E0,0E0,2.5285166E-2,1.4540693E-4,0E0,1.4632335E-3,0E0,1.7899822E-4,4.3385713E-3,8.9909695E-4,5.752989E-5,0E0,1.361572E-4,3.5736442E-4,1.11466106E-4,1.8993326E-4,1.740253E-3,9.0077985E-5,0E0,0E0,0E0,0E0,0E0,0E0,0E0,0E0,0E0,0E0,0E0,0E0,0E0,0E0,0E0,0E0],"parents":[2147483647,0,0,1,1,2,2,4,4,5,5,7,7,8,8,12,12,13,13,14,14,17,17,18,18,19,19,20,20,25,25,26,26,27,27,28,28,31,31,32,32,35,35,36,36,38,38,40,40,41,41,42,42,43,43,45,45,46,46,47,47,48,48,49,49,50,50],"right_children":[2,4,6,-1,8,10,-1,12,14,-1,-1,-1,16,18,20,-1,-1,22,24,26,28,-1,-1,-1,-1,30,32,34,36,-1,-1,38,40,-1,-1,42,44,-1,46,-1,48,50,52,54,-1,56,58,60,62,64,66,-1,-1,-1,-1,-1,-1,-1,-1,-1,-1,-1,-1,-1,-1,-1,-1],"split_conditions":[1.4967275E0,-2.019359E0,8.323833E-1,1.3207112E-2,-1.6249945E0,-3.5317656E-1,-1.6205309E-2,-1.6989095E0,-1.1225601E0,-3.0012212E-3,-2.1402042E-5,-3.6877547E-3,6.396208E-1,-1.1225638E0,1.3159946E-1,-1.1808634E-3,-4.677838E-3,-1.5302092E0,-1.1165574E0,-7.1019936E-1,1.3955371E-1,-1.0385483E-3,3.2140416E-4,6.6666915E-3,8.4044144E-4,-7.2551775E-1,-3.445807E-1,1.4211859E-1,1.284042E0,-1.967509E-3,-5.979991E-3,-7.304545E-1,-3.5709548E-1,1.420752E-3,5.02533E-3,1.242642E0,1.365421E0,2.1114666E-3,-4.0579176E-1,-4.09082E-3,3.416236E-2,1.1747566E0,3.4617603E-1,1.3060068E0,2.7517055E-3,-7.2549397E-1,-4.0579173E-1,-1.1699649E-1,9.35001E-2,1.0765758E0,1.1979128E0,-4.1382315E-4,-7.4998545E-3,2.1215186E-3,1.2313883E-3,-2.1686214E-4,-1.597203E-3,1.7073684E-3,3.996518E-4,7.001407E-5,-3.500058E-4,6.36734E-4,-2.5321802E-4,5.207364E-4,-1.0776654E-3,2.9495426E-3,1.7431617E-3],"split_indices":[0,0,2,0,5,2,0,0,0,0,0,0,0,0,2,0,0,2,2,5,0,0,0,0,0,2,5,2,5,0,0,0,0,0,0,0,2,0,2,0,2,0,2,0,0,2,2,2,0,0,2,0,0,0,0,0,0,0,0,0,0,0,0,0,0,0,0],"split_type":[0,0,0,0,0,0,0,0,0,0,0,0,0,0,0,0,0,0,0,0,0,0,0,0,0,0,0,0,0,0,0,0,0,0,0,0,0,0,0,0,0,0,0,0,0,0,0,0,0,0,0,0,0,0,0,0,0,0,0,0,0,0,0,0,0,0,0],"sum_hessian":[7.2E2,6.98E2,2.2E1,2.5E1,6.73E2,2E0,2E1,4.7E1,6.26E2,1E0,1E0,3.2E1,1.5E1,5.4E1,5.72E2,1.3E1,2E0,3E1,2.4E1,2.5E2,3.22E2,2.9E1,1E0,2.3E1,1E0,1.2E1,2.38E2,4.7E1,2.75E2,1.1E1,1E0,7.4E1,1.64E2,1.9E1,2.8E1,2.23E2,5.2E1,2.5E1,4.9E1,2.6E1,1.38E2,2.07E2,1.6E1,3.6E1,1.6E1,1.3E1,3.6E1,9.8E1,4E1,1.68E2,3.9E1,1E0,1.5E1,1.4E1,2.2E1,5E0,8E0,2E1,1.6E1,4.9E1,4.9E1,2.7E1,1.3E1,1.36E2,3.2E1,2.1E1,1.8E1],"tree_param":{"num_deleted":"0","num_feature":"7","num_nodes":"67","size_leaf_vector":"1"}},{"base_weights":[1.0823403E-3,4.3090014E-3,-3.4340627E-2,1.0761356E-2,2.2204022E-3,-1.0212341E-2,-2.3008976E-2,4.880647E-5,4.5158807E-2,1.7653257E-3,-4.08302E-2,-3.081943E-3,9.782749E-4,6.000511E-2,7.255511E-3,-1.997153E-5,-8.490285E-3,2.3024317E-4,1.1102593E-2,-3.862341E-4,1.2627676E-2,1.6007448E-3,-1.5107791E-5,5.205259E-3,-4.5478088E-4,2.6254547E-3,7.765186E-3,-4.28048E-3,3.8447909E-3,-1.6569743E-2,8.480178E-4,5.163185E-3,2.2244556E-3,-8.999968E-4,2.9997827E-4,-7.222295E-3,-2.122506E-2,6.0018417E-3,3.1068618E-4,1.0907854E-3,7.2852774E-5,-3.5784842E-4,-1.5565762E-3,-4.365496E-3,-5.314529E-4,-5.29792E-3,1.1432626E-2,-1.5609373E-3,1.5789845E-3,-1.4761697E-3,1.5908718E-3,2.6482118E-3,-5.0885556E-4,-1.3255584E-4,-1.4096907E-3,4.9492985E-4,-7.417136E-4],"categories":[],"categories_nodes":[],"categories_segments":[],"categories_sizes":[],"default_left":[0,0,0,0,0,0,0,0,0,0,0,0,0,0,0,0,0,0,0,0,0,0,0,0,0,0,0,0,0,0,0,0,0,0,0,0,0,0,0,0,0,0,0,0,0,0,0,0,0,0,0,0,0,0,0,0,0],"id":25,"left_children":[1,3,5,-1,7,-1,9,11,13,-1,15,-1,17,19,21,-1,-1,23,25,-1,-1,-1,-1,27,29,-1,31,33,-1,35,37,39,-1,-1,-1,41,43,45,47,-1,-1,-1,-1,-1,-1,49,51,53,55,-1,-1,-1,-1,-1,-1,-1,-1],"loss_changes":[8.350483E-2,6.892296E-2,9.208366E-3,0E0,6.0045283E-2,0E0,2.341476E-2,8.866598E-3,1.6573705E-2,0E0,1.7083772E-3,0E0,4.4025546E-3,4.5132414E-3,6.154622E-5,0E0,0E0,1.8586896E-3,6.641587E-5,0E0,0E0,0E0,0E0,8.941103E-3,1.0105488E-2,0E0,5.985028E-5,6.552029E-5,0E0,1.259964E-3,1.231384E-3,1.6955397E-5,0E0,0E0,0E0,1.7834536E-5,1.4126673E-4,2.6985342E-3,9.6868275E-4,0E0,0E0,0E0,0E0,0E0,0E0,5.314731E-4,8.0039026E-4,8.038853E-4,1.1691721E-3,0E0,0E0,0E0,0E0,0E0,0E0,0E0,0E0],"parents":[2147483647,0,0,1,1,2,2,4,4,6,6,7,7,8,8,10,10,12,12,13,13,14,14,17,17,18,18,23,23,24,24,26,26,27,27,29,29,30,30,31,31,35,35,36,36,37,37,38,38,45,45,46,46,47,47,48,48],"right_children":[2,4,6,-1,8,-1,10,12,14,-1,16,-1,18,20,22,-1,-1,24,26,-1,-1,-1,-1,28,30,-1,32,34,-1,36,38,40,-1,-1,-1,42,44,46,48,-1,-1,-1,-1,-1,-1,50,52,54,56,-1,-1,-1,-1,-1,-1,-1,-1],"split_conditions":[1.3060068E0,-2.019359E0,1.3657984E0,1.0761356E-2,1.242642E0,-1.0212341E-2,1.4967275E0,-1.6989095E0,1.2761075E0,1.7653257E-3,8.323833E-1,-3.081943E-3,1.1747566E0,8.41877E-1,1.3060063E0,-1.997153E-5,-8.490285E-3,-1.1225601E0,1.1980613E0,-3.862341E-4,1.2627676E-2,1.6007448E-3,-1.5107791E-5,-1.1225638E0,-7.304545E-1,2.6254547E-3,1.2424084E0,-1.4212087E0,3.8447909E-3,-7.304547E-1,-4.0985367E-1,1.2426417E0,2.2244556E-3,-8.999968E-4,2.9997827E-4,-1.1195695E0,-7.2799546E-1,-4.098546E-1,4.7027882E-2,1.0907854E-3,7.2852774E-5,-3.5784842E-4,-1.5565762E-3,-4.365496E-3,-5.314529E-4,-2.1298943E-1,-4.0579173E-1,3.4162365E-2,1.0765758E0,-1.4761697E-3,1.5908718E-3,2.6482118E-3,-5.0885556E-4,-1.3255584E-4,-1.4096907E-3,4.9492985E-4,-7.417136E-4],"split_indices":[0,0,1,0,0,0,0,0,1,0,2,0,0,1,0,0,0,0,1,0,0,0,0,0,0,0,1,1,0,0,0,0,0,0,0,1,1,0,2,0,0,0,0,0,0,1,2,2,0,0,0,0,0,0,0,0,0],"split_type":[0,0,0,0,0,0,0,0,0,0,0,0,0,0,0,0,0,0,0,0,0,0,0,0,0,0,0,0,0,0,0,0,0,0,0,0,0,0,0,0,0,0,0,0,0,0,0,0,0,0,0,0,0,0,0,0,0],"sum_hessian":[7.26E2,6.67E2,5.9E1,2.5E1,6.42E2,2.1E1,3.8E1,6.13E2,2.9E1,1.4E1,2.4E1,3.3E1,5.8E2,2E1,9E0,1E0,2.3E1,5.42E2,3.8E1,1E0,1.9E1,8E0,1E0,6.4E1,4.78E2,2E1,1.8E1,3.9E1,2.5E1,3.4E1,4.44E2,1.3E1,5E0,3.8E1,1E0,1.3E1,2.1E1,4E1,4.04E2,1.2E1,1E0,2E0,1.1E1,2E1,1E0,1.3E1,2.7E1,1.63E2,2.41E2,1.2E1,1E0,2.4E1,3E0,1.42E2,2.1E1,2.07E2,3.4E1],"tree_param":{"num_deleted":"0","num_feature":"7","num_nodes":"57","size_leaf_vector":"1"}},{"base_weights":[-5.921218E-4,2.9147693E-3,-2.6553813E-2,-5.9652585E-3,5.9936196E-3,-1.6557087E-1,-8.050246E-3,-3.3157878E-4,-2.4149373E-2,2.1043152E-2,5.1273573E-3,-3.3182986E-3,-7.614884E-2,-1.1389368E-2,2.5657055E-3,-6.7112506E-3,2.2932338E-2,-1.7018192E-2,-1.3166825E-2,4.526233E-3,2.5655342E-2,6.6306116E-3,-1.1220953E-3,-1.726414E-2,-4.3197293E-4,7.520094E-3,-1.3146076E-3,-4.7370247E-3,-3.157999E-3,8.162496E-3,1.7833394E-4,1.2736256E-2,1.1872967E-2,1.0770629E-2,4.832285E-3,-2.7896946E-3,-9.32959E-3,1.6114122E-3,-7.412015E-4,2.2454024E-4,-9.0591796E-4,1.3899237E-3,2.0246988E-2,-3.0247483E-3,2.7812088E-3,1.4464664E-3,3.5076141E-3,1.344626E-3,3.1008124E-3,4.2856066E-4,1.6265105E-3,2.48214E-3,-3.4116965E-2,2.8657267E-2,1.5644606E-2,-6.937267E-4,-1.4964788E-2,5.1722242E-3,1.7293656E-3,-2.199577E-3,5.141373E-3,-4.6352E-4,-1.0754296E-2,1.0814167E-2,4.4837564E-2,-5.808866E-3,1.0069693E-3,6.1360793E-3,-3.5197363E-4,1.5566189E-2,1.6003387E-3,3.166616E-2,3.155496E-3,2.543405E-2,1.4230913E-2,-2.0570587E-3,-6.1400295E-3,2.3170135E-3,5.382438E-4,2.162521E-4,2.6811291E-3,-2.7177734E-2,2.1611499E-3,1.8653832E-4,5.1432736E-3,-1.9331605E-4,4.333329E-4,-1.9882571E-4,6.6797175E-3,3.92059E-4,3.1037177E-3,-1.9913614E-3,4.363717E-3,6.195307E-4,-5.685996E-4,-2.3082775E-4,2.0482075E-4,1.8449625E-4,-6.4337193E-3,2.5858879E-4,1.0402084E-3],"categories":[],"categories_nodes":[],"categories_segments":[],"categories_sizes":[],"default_left":[0,0,0,0,0,0,0,0,0,0,0,0,0,0,0,0,0,0,0,0,0,0,0,0,0,0,0,0,0,0,0,0,0,0,0,0,0,0,0,0,0,0,0,0,0,0,0,0,0,0,0,0,0,0,0,0,0,0,0,0,0,0,0,0,0,0,0,0,0,0,0,0,0,0,0,0,0,0,0,0,0,0,0,0,0,0,0,0,0,0,0,0,0,0,0,0,0,0,0,0,0],"id":26,"left_children":[1,3,5,7,9,11,13,15,17,-1,19,-1,-1,-1,21,23,25,27,-1,29,31,33,-1,35,37,-1,-1,-1,39,41,43,-1,45,47,49,-1,-1,-1,-1,-1,-1,51,53,55,57,-1,-1,-1,-1,-1,-1,59,61,-1,63,65,-1,-1,67,-1,69,-1,-1,71,73,75,77,79,81,83,85,87,89,-1,91,93,-1,-1,95,-1,-1,97,99,-1,-1,-1,-1,-1,-1,-1,-1,-1,-1,-1,-1,-1,-1,-1,-1,-1,-1],"loss_changes":[6.579811E-2,1.7487263E-2,2.18553E-1,1.6887158E-2,3.9662477E-2,3.0792964E-1,4.078076E-2,1.9305076E-2,9.352444E-3,0E0,5.5921795E-3,0E0,0E0,0E0,2.2679388E-3,6.7440667E-3,1.2612382E-2,3.1769834E-3,0E0,7.2855484E-3,5.3009707E-3,2.309361E-4,0E0,2.4008881E-3,1.8940829E-3,0E0,0E0,0E0,9.2369926E-5,2.0486332E-2,1.7843161E-3,0E0,6.179372E-5,2.1431246E-5,2.758074E-4,0E0,0E0,0E0,0E0,0E0,0E0,6.490702E-3,4.6481352E-2,1.596327E-2,2.7751746E-3,0E0,0E0,0E0,0E0,0E0,0E0,5.848532E-3,2.875763E-3,0E0,1.1580555E-2,8.381319E-4,0E0,0E0,1.059084E-3,0E0,4.933653E-3,0E0,0E0,1.241634E-2,2.6619637E-2,2.1149914E-3,3.4947915E-4,1.3306243E-3,5.5107865E-3,5.0021373E-3,1.539209E-4,1.2546182E-3,8.257407E-4,0E0,2.4533004E-3,1.10792964E-4,0E0,0E0,6.1566694E-5,0E0,0E0,1.0410598E-3,1.8449462E-4,0E0,0E0,0E0,0E0,0E0,0E0,0E0,0E0,0E0,0E0,0E0,0E0,0E0,0E0,0E0,0E0,0E0,0E0],"parents":[2147483647,0,0,1,1,2,2,3,3,4,4,5,5,6,6,7,7,8,8,10,10,14,14,15,15,16,16,17,17,19,19,20,20,21,21,23,23,24,24,28,28,29,29,30,30,32,32,33,33,34,34,41,41,42,42,43,43,44,44,51,51,52,52,54,54,55,55,58,58,60,60,63,63,64,64,65,65,66,66,67,67,68,68,69,69,70,70,71,71,72,72,74,74,75,75,78,78,81,81,82,82],"right_children":[2,4,6,8,10,12,14,16,18,-1,20,-1,-1,-1,22,24,26,28,-1,30,32,34,-1,36,38,-1,-1,-1,40,42,44,-1,46,48,50,-1,-1,-1,-1,-1,-1,52,54,56,58,-1,-1,-1,-1,-1,-1,60,62,-1,64,66,-1,-1,68,-1,70,-1,-1,72,74,76,78,80,82,84,86,88,90,-1,92,94,-1,-1,96,-1,-1,98,100,-1,-1,-1,-1,-1,-1,-1,-1,-1,-1,-1,-1,-1,-1,-1,-1,-1,-1],"split_conditions":[1.242642E0,-5.339481E-1,8.3276296E-1,-9.620612E-1,-4.1542438E-1,3.670317E-1,1.275628E0,-1.1135225E0,-5.791008E-1,2.1043152E-2,1.2420206E0,-3.3182986E-3,-7.614884E-2,-1.1389368E-2,1.4967275E0,-1.6875137E0,-1.1225601E0,-7.304545E-1,-1.3166825E-2,1.3955371E-1,1.2219908E0,1.3060068E0,-1.1220953E-3,-1.6989096E0,-1.6989095E0,7.520094E-3,-1.3146076E-3,-4.7370247E-3,-7.30451E-1,3.562973E-2,6.414629E-1,1.2736256E-2,1.3030344E0,1.3060063E0,1.3650745E0,-2.7896946E-3,-9.32959E-3,1.6114122E-3,-7.412015E-4,2.2454024E-4,-9.0591796E-4,3.1302333E-2,-3.445807E-1,5.055578E-1,6.396208E-1,1.4464664E-3,3.5076141E-3,1.344626E-3,3.1008124E-3,4.2856066E-4,1.6265105E-3,-4.0985453E-1,-3.511814E-1,2.8657267E-2,3.4281176E-1,3.4281176E-1,-1.4964788E-2,5.1722242E-3,8.550221E-1,-2.199577E-3,-3.5709548E-1,-4.6352E-4,-1.0754296E-2,9.757339E-2,5.055578E-1,2.7314484E-1,2.6979178E-1,8.317056E-1,1.0463476E0,-3.5709554E-1,-2.7029532E-1,3.1302333E-2,1.4343886E-1,2.543405E-2,6.414629E-1,-1.0993273E-1,-6.1400295E-3,2.3170135E-3,3.657806E-1,2.162521E-4,2.6811291E-3,8.317055E-1,1.2230567E0,1.8653832E-4,5.1432736E-3,-1.9331605E-4,4.333329E-4,-1.9882571E-4,6.6797175E-3,3.92059E-4,3.1037177E-3,-1.9913614E-3,4.363717E-3,6.195307E-4,-5.685996E-4,-2.3082775E-4,2.0482075E-4,1.8449625E-4,-6.4337193E-3,2.5858879E-4,1.0402084E-3],"split_indices":[0,3,3,3,3,3,3,3,0,0,3,0,0,0,0,3,0,0,0,0,5,0,0,0,0,0,0,0,0,3,3,0,3,0,3,0,0,0,0,0,0,0,5,3,0,0,0,0,0,0,0,0,3,0,3,3,0,0,3,0,0,0,0,3,3,3,0,0,3,0,3,0,3,0,3,3,0,0,0,0,0,0,3,0,0,0,0,0,0,0,0,0,0,0,0,0,0,0,0,0,0],"split_type":[0,0,0,0,0,0,0,0,0,0,0,0,0,0,0,0,0,0,0,0,0,0,0,0,0,0,0,0,0,0,0,0,0,0,0,0,0,0,0,0,0,0,0,0,0,0,0,0,0,0,0,0,0,0,0,0,0,0,0,0,0,0,0,0,0,0,0,0,0,0,0,0,0,0,0,0,0,0,0,0,0,0,0,0,0,0,0,0,0,0,0,0,0,0,0,0,0,0,0,0,0],"sum_hessian":[7.19E2,6.35E2,8.4E1,1.63E2,4.72E2,8E0,7.6E1,1.26E2,3.7E1,2E0,4.7E2,6E0,2E0,1.2E1,6.4E1,1E2,2.6E1,3.4E1,3E0,4.59E2,1.1E1,4.3E1,2.1E1,3.6E1,6.4E1,1.7E1,9E0,2.2E1,1.2E1,2.49E2,2.1E2,1E0,1E1,1E1,3.3E1,3.5E1,1E0,1.7E1,4.7E1,3E0,9E0,1.61E2,8.8E1,9.4E1,1.16E2,8E0,2E0,8E0,2E0,2E1,1.3E1,1.58E2,3E0,1E0,8.7E1,9.3E1,1E0,3E0,1.13E2,2.5E1,1.33E2,2E0,1E0,7.7E1,1E1,2.2E1,7.1E1,3.5E1,7.8E1,3.2E1,1.01E2,1.9E1,5.8E1,1E0,9E0,2.1E1,1E0,1E0,7E1,2.2E1,1.3E1,5E0,7.3E1,1.4E1,1.8E1,1.8E1,8.3E1,1E0,1.8E1,5.5E1,3E0,2E0,7E0,2E0,1.9E1,1.5E1,5.5E1,1E0,4E0,5.9E1,1.4E1],"tree_param":{"num_deleted":"0","num_feature":"7","num_nodes":"101","size_leaf_vector":"1"}},{"base_weights":[-3.3825391E-3,-2.4877008E-4,-3.9494622E-2,-5.9527988E-3,3.9705182E-3,-2.0296583E-1,-1.596986E-2,-4.624594E-3,-6.528734E-2,9.9329185E-3,4.491931E-4,-2.6560246E-3,-5.470561E-2,-6.1791525E-3,-7.619692E-3,-8.87526E-3,-8.713454E-5,-1.4543134E-2,-1.8763772E-3,6.614962E-3,7.1558096E-2,1.4888817E-3,-6.962542E-3,1.3551431E-3,-3.7094865E-3,-6.9395374E-3,-1.4534372E-2,3.7946252E-3,-3.7005092E-3,9.957697E-4,1.1582139E-2,1.8457105E-2,5.270581E-3,-9.6360507E-4,4.994428E-3,-3.3458143E-3,1.6765557E-3,7.637997E-4,-9.101269E-3,-6.364184E-3,-5.6053494E-5,-3.1792254E-3,1.7447566E-3,5.310002E-3,4.8041125E-3,-2.2327902E-3,7.511451E-3,4.5515536E-3,3.8320092E-3,-1.7945426E-2,-7.66446E-3,-2.6147508E-3,-2.865641E-3,1.849805E-3,-1.1177948E-3,1.0979953E-3,6.7899227E-3,8.1552996E-4,9.762279E-3,-4.992951E-4,-2.0313878E-3,9.692816E-3,-8.848786E-4,2.7563213E-3,6.336356E-3,-2.028203E-3,-6.8674088E-3,-4.7788457E-3,-1.1935719E-2,-3.8214657E-3,8.617661E-4,2.2210246E-3,-3.2214326E-4,-3.7075978E-4,-2.575914E-4,-1.1913389E-2,1.9574703E-3,1.6001583E-3,-3.168583E-5,-1.664611E-3,4.6921373E-4,3.0991079E-3,1.5480977E-3,-5.5120527E-3,1.0044787E-3,3.1660248E-3,1.104027E-3,-5.7811395E-4,3.0637076E-3,5.0023906E-3,1.8808937E-3,-1.643014E-3,-6.0803135E-4,-2.8247049E-3,-5.0506773E-3,1.9759654E-4,-8.637132E-4,3.9000064E-4,7.107854E-5,3.2304227E-4,7.0675317E-4,1.3236007E-4,-5.82546E-4,-3.4938456E-4,-2.8275193E-3,3.7832538E-4,4.7037425E-3,-3.6312838E-4,9.850661E-6,-1.6811781E-3,-5.7306946E-3,2.162546E-3,5.7387986E-4,1.675884E-4,-6.0496334E-4,7.234574E-4,2.3058811E-3,5.2738367E-3,-2.8435388E-5,-1.111267E-3,6.781419E-5,1.1168611E-3,-7.3149095E-5,4.801191E-3,2.899766E-5,-3.7216247E-4,1.2743374E-4,-9.560668E-5,3.030894E-4,-2.1457673E-7,7.283198E-4,1.3405932E-3,6.9461606E-4],"categories":[],"categories_nodes":[],"categories_segments":[],"categories_sizes":[],"default_left":[0,0,0,0,0,0,0,0,0,0,0,0,0,0,0,0,0,0,0,0,0,0,0,0,0,0,0,0,0,0,0,0,0,0,0,0,0,0,0,0,0,0,0,0,0,0,0,0,0,0,0,0,0,0,0,0,0,0,0,0,0,0,0,0,0,0,0,0,0,0,0,0,0,0,0,0,0,0,0,0,0,0,0,0,0,0,0,0,0,0,0,0,0,0,0,0,0,0,0,0,0,0,0,0,0,0,0,0,0,0,0,0,0,0,0,0,0,0,0,0,0,0,0,0,0,0,0,0,0,0,0,0,0],"id":27,"left_children":[1,3,5,7,9,11,13,15,17,19,21,-1,-1,-1,23,25,27,-1,-1,29,31,33,35,-1,-1,37,-1,-1,39,41,43,-1,-1,45,47,-1,-1,-1,49,51,53,-1,55,-1,57,59,61,-1,63,65,67,69,-1,71,73,75,77,79,81,83,-1,85,-1,87,89,-1,-1,91,93,95,97,99,-1,-1,101,103,105,-1,-1,107,-1,-1,-1,109,111,-1,-1,113,115,117,-1,-1,-1,-1,119,-1,-1,-1,-1,-1,-1,-1,-1,-1,-1,121,123,-1,-1,125,-1,-1,127,-1,-1,-1,129,131,-1,-1,-1,-1,-1,-1,-1,-1,-1,-1,-1,-1,-1,-1,-1],"loss_changes":[8.0781534E-2,1.5907386E-2,2.1271773E-1,2.1541316E-2,7.969385E-3,8.642757E-2,6.0101217E-3,5.341015E-3,1.1272859E-3,2.7883515E-2,1.8778538E-3,0E0,0E0,0E0,5.9144786E-3,1.6650815E-2,9.506993E-3,0E0,0E0,3.772901E-3,1.6949289E-3,1.8408513E-3,4.7765886E-3,0E0,0E0,3.3487612E-3,0E0,0E0,1.1253733E-3,8.9048914E-4,7.0494898E-3,0E0,0E0,1.3996077E-3,1.642646E-3,0E0,0E0,0E0,1.2243837E-3,1.9257285E-3,1.0733538E-4,0E0,1.9718558E-4,0E0,1.0124322E-3,1.5283423E-3,5.2838906E-4,0E0,1.9405119E-4,1.2224787E-3,1.180069E-3,2.0795435E-4,0E0,3.1562544E-5,2.0570806E-5,7.176177E-4,6.142986E-5,1.2548508E-4,2.6717316E-5,7.196505E-4,0E0,2.0936655E-4,0E0,6.811481E-5,4.136469E-6,0E0,0E0,3.443685E-4,4.7492143E-4,9.460136E-5,6.328727E-6,2.8994036E-6,0E0,0E0,4.7795314E-5,4.1054736E-5,2.4797308E-4,0E0,0E0,3.5438534E-6,0E0,0E0,0E0,1.853998E-3,3.0012272E-4,0E0,0E0,2.9321915E-5,7.649884E-6,3.0825555E-5,0E0,0E0,0E0,0E0,3.9197737E-5,0E0,0E0,0E0,0E0,0E0,0E0,0E0,0E0,0E0,0E0,1.5515598E-4,1.8409133E-3,0E0,0E0,1.1116845E-5,0E0,0E0,7.37515E-5,0E0,0E0,0E0,9.2451024E-5,4.9103983E-6,0E0,0E0,0E0,0E0,0E0,0E0,0E0,0E0,0E0,0E0,0E0,0E0,0E0,0E0,0E0],"parents":[2147483647,0,0,1,1,2,2,3,3,4,4,5,5,6,6,7,7,8,8,9,9,10,10,14,14,15,15,16,16,19,19,20,20,21,21,22,22,25,25,28,28,29,29,30,30,33,33,34,34,38,38,39,39,40,40,42,42,44,44,45,45,46,46,48,48,49,49,50,50,51,51,53,53,54,54,55,55,56,56,57,57,58,58,59,59,61,61,63,63,64,64,67,67,68,68,69,69,70,70,71,71,74,74,75,75,76,76,79,79,83,83,84,84,87,87,88,88,89,89,94,94,105,105,106,106,109,109,112,112,116,116,117,117],"right_children":[2,4,6,8,10,12,14,16,18,20,22,-1,-1,-1,24,26,28,-1,-1,30,32,34,36,-1,-1,38,-1,-1,40,42,44,-1,-1,46,48,-1,-1,-1,50,52,54,-1,56,-1,58,60,62,-1,64,66,68,70,-1,72,74,76,78,80,82,84,-1,86,-1,88,90,-1,-1,92,94,96,98,100,-1,-1,102,104,106,-1,-1,108,-1,-1,-1,110,112,-1,-1,114,116,118,-1,-1,-1,-1,120,-1,-1,-1,-1,-1,-1,-1,-1,-1,-1,122,124,-1,-1,126,-1,-1,128,-1,-1,-1,130,132,-1,-1,-1,-1,-1,-1,-1,-1,-1,-1,-1,-1,-1,-1,-1],"split_conditions":[1.3060068E0,-1.9358566E-1,-1.0912164E0,-1.9715281E-1,1.3955371E-1,-1.0971544E0,1.471226E0,-7.0774144E-1,8.317056E-1,1.2219076E0,1.242642E0,-2.6560246E-3,-5.470561E-2,-6.1791525E-3,1.4967275E0,-7.1266663E-1,-7.304545E-1,-1.4543134E-2,-1.8763772E-3,3.1302333E-2,3.6226127E-1,1.0594982E0,1.2842125E0,1.3551431E-3,-3.7094865E-3,-2.019359E0,-1.4534372E-2,3.7946252E-3,-3.5709548E-1,-3.9829797E-1,1.3008866E-1,1.8457105E-2,5.270581E-3,8.317056E-1,6.396208E-1,-3.3458143E-3,1.6765557E-3,7.637997E-4,-1.654871E0,-3.5987127E-1,-2.6692513E-1,-3.1792254E-3,1.4043154E-1,5.310002E-3,1.4310938E-1,5.1080084E-1,9.309762E-1,4.5515536E-3,1.2220792E0,-1.6989096E0,-1.0971544E0,-4.0985453E-1,-2.865641E-3,9.35001E-2,-2.758776E-1,-4.098546E-1,-5.030165E-1,1.290058E-1,1.4043154E-1,3.6435473E-1,-2.0313878E-3,8.317067E-1,-8.848786E-4,1.0606304E0,1.2426419E0,-2.028203E-3,-6.8674088E-3,-1.6989095E0,-1.1225601E0,-7.30451E-1,-4.0985367E-1,-2.9737058E-1,-3.2214326E-4,-3.7075978E-4,3.0269865E-2,-7.304545E-1,3.7241705E-2,1.6001583E-3,-3.168583E-5,1.2900579E-1,4.6921373E-4,3.0991079E-3,1.5480977E-3,3.6226127E-1,2.6979178E-1,3.1660248E-3,1.104027E-3,1.1555133E0,1.1555133E0,1.2426417E0,1.8808937E-3,-1.643014E-3,-6.0803135E-4,-2.8247049E-3,-5.030165E-1,1.9759654E-4,-8.637132E-4,3.9000064E-4,7.107854E-5,3.2304227E-4,7.0675317E-4,1.3236007E-4,-5.82546E-4,-3.4938456E-4,-2.8275193E-3,-1.702804E-1,3.4284234E-2,-3.6312838E-4,9.850661E-6,3.3974448E-1,-5.7306946E-3,2.162546E-3,3.9164796E-1,1.675884E-4,-6.0496334E-4,7.234574E-4,1.1747566E0,1.2236003E0,-2.8435388E-5,-1.111267E-3,6.781419E-5,1.1168611E-3,-7.3149095E-5,4.801191E-3,2.899766E-5,-3.7216247E-4,1.2743374E-4,-9.560668E-5,3.030894E-4,-2.1457673E-7,7.283198E-4,1.3405932E-3,6.9461606E-4],"split_indices":[0,6,6,4,0,4,4,6,0,6,0,0,0,0,0,4,0,0,0,0,4,6,4,0,0,0,0,0,0,4,4,0,0,0,0,0,0,0,6,0,4,0,4,0,6,0,0,0,4,0,4,0,0,0,0,0,0,0,4,6,0,0,0,0,0,0,0,0,0,0,0,0,0,0,0,0,6,0,0,0,0,0,0,4,0,0,0,4,4,0,0,0,0,0,0,0,0,0,0,0,0,0,0,0,0,0,4,0,0,0,0,0,6,0,0,0,0,0,0,0,0,0,0,0,0,0,0,0,0,0,0,0,0],"split_type":[0,0,0,0,0,0,0,0,0,0,0,0,0,0,0,0,0,0,0,0,0,0,0,0,0,0,0,0,0,0,0,0,0,0,0,0,0,0,0,0,0,0,0,0,0,0,0,0,0,0,0,0,0,0,0,0,0,0,0,0,0,0,0,0,0,0,0,0,0,0,0,0,0,0,0,0,0,0,0,0,0,0,0,0,0,0,0,0,0,0,0,0,0,0,0,0,0,0,0,0,0,0,0,0,0,0,0,0,0,0,0,0,0,0,0,0,0,0,0,0,0,0,0,0,0,0,0,0,0,0,0,0,0],"sum_hessian":[7.12E2,6.57E2,5.5E1,2.79E2,3.78E2,5E0,5E1,2.75E2,4E0,1.39E2,2.39E2,2E0,3E0,1.6E1,3.4E1,1.41E2,1.34E2,3E0,1E0,1.34E2,5E0,2.11E2,2.8E1,1.5E1,1.9E1,1.39E2,2E0,2E1,1.14E2,