{"learner":{"attributes":{"scikit_learn":"{\"_estimator_type\": \"regressor\"}"},"feature_names":[],"feature_types":[],"gradient_booster":{"model":{"gbtree_model_param":{"num_parallel_tree":"1","num_trees":"80"},"iteration_indptr":[0,1,2,3,4,5,6,7,8,9,10,11,12,13,14,15,16,17,18,19,20,21,22,23,24,25,26,27,28,29,30,31,32,33,34,35,36,37,38,39,40,41,42,43,44,45,46,47,48,49,50,51,52,53,54,55,56,57,58,59,60,61,62,63,64,65,66,67,68,69,70,71,72,73,74,75,76,77,78,79,80],"tree_info":[0,0,0,0,0,0,0,0,0,0,0,0,0,0,0,0,0,0,0,0,0,0,0,0,0,0,0,0,0,0,0,0,0,0,0,0,0,0,0,0,0,0,0,0,0,0,0,0,0,0,0,0,0,0,0,0,0,0,0,0,0,0,0,0,0,0,0,0,0,0,0,0,0,0,0,0,0,0,0,0],"trees":[{"base_weights":[1.1545805E-2,-8.8967204E-1,8.360273E-1,-8.26576E-1,-3.9612347E-1,3.945668E-1,7.4292105E-1,-5.423137E-1,-1.4313446E-1,2.2143652E-1,3.6531252E-1,-2.0245932E-1,-4.287492E-1,6.9295846E-2,-2.4315232E-1,2.5242162E-1,1.015023E-2,-1.0382161E-2,9.403564E-2,-4.9025863E-2,6.452672E-2,1.2069719E-2,7.0055775E-2,9.636996E-3,5.552659E-2],"categories":[],"categories_nodes":[],"categories_segments":[],"categories_sizes":[],"default_left":[0,0,0,0,0,0,0,0,0,0,0,0,0,0,0,0,0,0,0,0,0,0,0,0,0],"id":0,"left_children":[1,3,5,-1,7,9,-1,11,13,15,-1,-1,-1,17,-1,-1,19,-1,21,-1,23,-1,-1,-1,-1],"loss_changes":[1.508381E2,1.3003113E1,9.704819E0,0E0,1.287149E0,6.284709E-1,0E0,7.2006226E-2,7.856658E-1,5.8075625E-1,0E0,0E0,0E0,2.3602378E-2,0E0,0E0,5.2641485E-2,0E0,2.6189536E-4,0E0,3.0735005E-3,0E0,0E0,0E0,0E0],"parents":[2147483647,0,0,1,1,2,2,4,4,5,5,7,7,8,8,9,9,13,13,16,16,18,18,20,20],"right_children":[2,4,6,-1,8,10,-1,12,14,16,-1,-1,-1,18,-1,-1,20,-1,22,-1,24,-1,-1,-1,-1],"split_conditions":[-2.5316497E-2,-7.304472E-1,8.1197214E-1,-8.26576E-1,-3.065138E-1,4.744484E-1,7.4292105E-1,-6.116931E-1,-1.7701179E-1,2.4288195E-1,3.6531252E-1,-2.0245932E-1,-4.287492E-1,-3.8717103E-1,-2.4315232E-1,2.5242162E-1,3.897E-1,-1.0382161E-2,-3.406003E-1,-4.9025863E-2,4.8676956E-1,1.2069719E-2,7.0055775E-2,9.636996E-3,5.552659E-2],"split_indices":[5,5,5,0,5,5,0,4,4,4,0,0,0,4,0,0,4,0,4,0,4,0,0,0,0],"split_type":[0,0,0,0,0,0,0,0,0,0,0,0,0,0,0,0,0,0,0,0,0,0,0,0,0],"sum_hessian":[1.99E2,9.5E1,1.04E2,5.8E1,3.7E1,3.7E1,6.7E1,2.2E1,1.5E1,1.8E1,1.9E1,7E0,1.5E1,8E0,7E0,1E1,8E0,2E0,6E0,3E0,5E0,1E0,5E0,2E0,3E0],"tree_param":{"num_deleted":"0","num_feature":"7","num_nodes":"25","size_leaf_vector":"1"}},{"base_weights":[5.480221E-3,-3.274594E-1,2.753325E-1,-3.8680646E-1,-1.7773722E-1,1.5956916E-1,3.0661878E-1,-2.8118274E-1,-1.3439274E-1,3.7172288E-2,1.9580004E-1,-7.968729E-2,-2.561951E-1,1.3770635E-1,-2.0250957E-1,9.626948E-2,-6.0766574E-2,2.3875216E-1,1.28342705E-2,-6.012658E-2,-9.902749E-3,2.4346769E-2,1.0831967E-1,-2.592044E-1,-7.638849E-2,1.4125629E-2,7.521611E-2,-4.8119836E-2,-1.1513183E-3,2.609622E-1,1.7959867E-1,-3.6056075E-2,5.8057684E-2,-1.7787275E-1,-2.3624589E-1,8.390094E-2,-1.2885799E-1,-1.9456135E-2,2.6783606E-1,-2.8069206E-2,-2.7531781E-3,5.7681007E-3,4.4529725E-2,-1.3610026E-1,-2.1692745E-2,1.0258697E-1,2.1906718E-4,4.1509878E-2,-5.2404273E-2,1.9524887E-1,7.569085E-2,-6.748405E-3,9.253451E-3,9.502589E-3,3.897136E-2,-3.004586E-2,1.0069065E-1],"categories":[],"categories_nodes":[],"categories_segments":[],"categories_sizes":[],"default_left":[0,0,0,0,0,0,0,0,0,0,0,0,0,0,0,0,0,0,0,0,0,0,0,0,0,0,0,0,0,0,0,0,0,0,0,0,0,0,0,0,0,0,0,0,0,0,0,0,0,0,0,0,0,0,0,0,0],"id":1,"left_children":[1,3,5,-1,7,9,-1,11,13,15,17,19,-1,21,23,25,27,29,31,-1,-1,-1,-1,33,35,-1,-1,-1,-1,-1,37,39,41,43,-1,45,-1,47,49,-1,-1,-1,-1,-1,-1,-1,51,53,-1,-1,55,-1,-1,-1,-1,-1,-1],"loss_changes":[1.8059381E1,2.83708E0,1.9507866E0,0E0,1.799984E-1,2.869923E-1,0E0,1.9800305E-1,8.7129277E-1,1.1588235E-1,4.025277E-1,4.177615E-4,0E0,6.770164E-3,2.1781433E-1,5.8735386E-3,3.5463423E-3,1.9913244E-1,3.0718522E-2,0E0,0E0,0E0,0E0,3.2756448E-2,2.725612E-1,0E0,0E0,0E0,0E0,0E0,5.9003663E-1,5.9363805E-4,8.892026E-4,2.6858687E-2,0E0,3.663557E-2,0E0,4.6750538E-2,6.790042E-3,0E0,0E0,0E0,0E0,0E0,0E0,0E0,8.957661E-4,1.2580296E-3,0E0,0E0,4.4683747E-2,0E0,0E0,0E0,0E0,0E0,0E0],"parents":[2147483647,0,0,1,1,2,2,4,4,5,5,7,7,8,8,9,9,10,10,11,11,13,13,14,14,15,15,16,16,17,17,18,18,23,23,24,24,30,30,31,31,32,32,33,33,35,35,37,37,38,38,46,46,47,47,50,50],"right_children":[2,4,6,-1,8,10,-1,12,14,16,18,20,-1,22,24,26,28,30,32,-1,-1,-1,-1,34,36,-1,-1,-1,-1,-1,38,40,42,44,-1,46,-1,48,50,-1,-1,-1,-1,-1,-1,-1,52,54,-1,-1,56,-1,-1,-1,-1,-1,-1],"split_conditions":[-1.6626409E-1,-1.1860627E0,1.0901119E0,-3.8680646E-1,-9.8654175E-1,2.5304627E-1,3.0661878E-1,-1.1623698E0,-8.621732E-1,8.092678E-2,9.81178E-1,-1.1777242E0,-2.561951E-1,-1.0649719E0,-4.4466424E-1,-2.4792315E-1,3.4487316E-1,4.4322032E-1,1.0532925E0,-6.012658E-2,-9.902749E-3,2.4346769E-2,1.0831967E-1,-5.8954895E-1,-3.406003E-1,1.4125629E-2,7.521611E-2,-4.8119836E-2,-1.1513183E-3,2.609622E-1,6.100555E-1,1.0393405E0,1.0857159E0,-5.5699193E-1,-2.3624589E-1,-4.7806212E-1,-1.2885799E-1,6.024497E-1,9.5740104E-1,-2.8069206E-2,-2.7531781E-3,5.7681007E-3,4.4529725E-2,-1.3610026E-1,-2.1692745E-2,1.0258697E-1,-3.8717103E-1,5.4083526E-1,-5.2404273E-2,1.9524887E-1,9.6568006E-1,-6.748405E-3,9.253451E-3,9.502589E-3,3.897136E-2,-3.004586E-2,1.0069065E-1],"split_indices":[5,5,5,0,5,5,0,4,4,4,4,4,0,4,5,4,4,4,4,0,0,0,0,4,4,0,0,0,0,0,5,4,4,5,0,4,0,4,4,0,0,0,0,0,0,0,4,4,0,0,4,0,0,0,0,0,0],"split_type":[0,0,0,0,0,0,0,0,0,0,0,0,0,0,0,0,0,0,0,0,0,0,0,0,0,0,0,0,0,0,0,0,0,0,0,0,0,0,0,0,0,0,0,0,0,0,0,0,0,0,0,0,0,0,0,0,0],"sum_hessian":[1.97E2,8.8E1,1.09E2,3.3E1,5.5E1,6.6E1,4.3E1,1.3E1,4.2E1,1.6E1,5E1,5E0,8E0,8E0,3.4E1,1E1,6E0,4E1,1E1,4E0,1E0,2E0,6E0,2.2E1,1.2E1,2E0,8E0,5E0,1E0,9E0,3.1E1,5E0,5E0,1.4E1,8E0,5E0,7E0,1E1,2.1E1,4E0,1E0,1E0,4E0,1.2E1,2E0,2E0,3E0,5E0,5E0,1.9E1,2E0,2E0,1E0,3E0,2E0,1E0,1E0],"tree_param":{"num_deleted":"0","num_feature":"7","num_nodes":"57","size_leaf_vector":"1"}},{"base_weights":[4.16082E-3,1.2916746E-2,2.7402774E-3],"categories":[],"categories_nodes":[],"categories_segments":[],"categories_sizes":[],"default_left":[0,0,0],"id":2,"left_children":[1,-1,-1],"loss_changes":[5.907323E-4,0E0,0E0],"parents":[2147483647,0,0],"right_children":[2,-1,-1],"split_conditions":[6.0084175E-2,1.2916746E-2,2.7402774E-3],"split_indices":[0,0,0],"split_type":[0,0,0],"sum_hessian":[2.07E2,1E0,2.06E2],"tree_param":{"num_deleted":"0","num_feature":"7","num_nodes":"3","size_leaf_vector":"1"}},{"base_weights":[8.259054E-6,-9.5345065E-2,1.05505385E-1,-1.3563222E-1,-6.57759E-2,7.077565E-2,1.3323651E-1,-7.7327624E-2,-3.6088794E-2,1.0966753E-1,-7.34669E-3,1.0325844E-1,1.08467735E-1,1.2869537E-2,-7.9651885E-2,-2.1108916E-2,-9.929863E-2,1.3498731E-2,-7.0207864E-2,1.4253947E-1,7.3743284E-2,-3.7515666E-2,-8.405033E-2,3.0638544E-2,-2.7205594E-2,-1.8632581E-2,7.8403085E-2,-1.9035785E-2,8.539158E-2,-6.302804E-2,5.121189E-2,-8.399884E-2,-7.030572E-2,-4.0528312E-2,1.123726E-2,-2.9499168E-2,1.112255E-2,2.1085545E-2,6.333629E-2,9.201093E-2,-1.2510105E-2,8.444884E-2,-8.62846E-2,9.902839E-3,-4.5137703E-2,2.474001E-2,-2.3043624E-3,-7.698231E-3,-5.229151E-2,3.2325726E-2,-2.2141779E-2,3.680149E-2,-1.712165E-2,7.238225E-2,4.7647662E-2,-7.130609E-2,-5.678806E-2,-5.436845E-3,-5.2352965E-2,-2.6235705E-2,2.0133398E-2,-3.0171473E-2,3.2700974E-2,4.05211E-3,3.393138E-2,-3.0225337E-2,5.1071845E-2,-7.174628E-3,-8.7055765E-2,-1.7306402E-2,8.222561E-3,-2.5772734E-2,-4.2341974E-2,-2.0341164E-2,-3.4867704E-3,-5.689265E-3,-5.274013E-2,3.0982213E-2,-2.7200243E-2,-2.0060772E-2,3.8428675E-2,-8.638742E-2,-3.6086638E-2,-3.7539E-2,4.773924E-3,-2.251371E-2,1.6141731E-2],"categories":[],"categories_nodes":[],"categories_segments":[],"categories_sizes":[],"default_left":[0,0,0,0,0,0,0,0,0,0,0,0,0,0,0,0,0,0,0,0,0,0,0,0,0,0,0,0,0,0,0,0,0,0,0,0,0,0,0,0,0,0,0,0,0,0,0,0,0,0,0,0,0,0,0,0,0,0,0,0,0,0,0,0,0,0,0,0,0,0,0,0,0,0,0,0,0,0,0,0,0,0,0,0,0,0,0],"id":3,"left_children":[1,3,5,-1,7,9,11,13,15,-1,17,19,-1,-1,21,23,-1,25,-1,-1,27,29,31,-1,33,35,37,-1,39,-1,-1,-1,41,43,45,47,49,51,-1,53,-1,-1,55,-1,57,-1,59,61,-1,63,-1,-1,-1,-1,65,-1,67,69,71,73,-1,75,-1,77,-1,-1,-1,79,81,-1,-1,83,-1,-1,-1,85,-1,-1,-1,-1,-1,-1,-1,-1,-1,-1,-1],"loss_changes":[1.9917811E0,2.7715647E-1,7.167101E-2,0E0,2.2882462E-2,3.1096682E-1,5.517602E-4,1.583159E-2,3.678911E-2,0E0,5.3085033E-2,4.9952924E-2,0E0,0E0,4.2575896E-3,1.2665633E-2,0E0,5.088733E-2,0E0,0E0,3.2862186E-2,6.54931E-2,7.8314245E-3,0E0,1.3714939E-2,6.1529367E-3,1.7222874E-3,0E0,1.8326536E-2,0E0,0E0,0E0,1.459148E-1,6.065488E-3,2.7743187E-3,1.1660929E-2,7.4840784E-3,8.308339E-3,0E0,7.595271E-4,0E0,0E0,6.3545704E-3,0E0,4.5868643E-3,0E0,6.713401E-3,1.6270386E-2,0E0,1.8899259E-3,0E0,0E0,0E0,0E0,2.4692802E-2,0E0,2.5781143E-2,2.2378701E-3,1.2577325E-4,1.0529533E-5,0E0,9.095805E-3,0E0,1.0340959E-2,0E0,0E0,0E0,1.5148491E-2,1.4737174E-3,0E0,0E0,7.0864027E-3,0E0,0E0,0E0,7.571901E-3,0E0,0E0,0E0,0E0,0E0,0E0,0E0,0E0,0E0,0E0,0E0],"parents":[2147483647,0,0,1,1,2,2,4,4,5,5,6,6,7,7,8,8,10,10,11,11,14,14,15,15,17,17,20,20,21,21,22,22,24,24,25,25,26,26,28,28,32,32,33,33,34,34,35,35,36,36,37,37,39,39,42,42,44,44,46,46,47,47,49,49,54,54,56,56,57,57,58,58,59,59,61,61,63,63,67,67,68,68,71,71,75,75],"right_children":[2,4,6,-1,8,10,12,14,16,-1,18,20,-1,-1,22,24,-1,26,-1,-1,28,30,32,-1,34,36,38,-1,40,-1,-1,-1,42,44,46,48,50,52,-1,54,-1,-1,56,-1,58,-1,60,62,-1,64,-1,-1,-1,-1,66,-1,68,70,72,74,-1,76,-1,78,-1,-1,-1,80,82,-1,-1,84,-1,-1,-1,86,-1,-1,-1,-1,-1,-1,-1,-1,-1,-1,-1],"split_conditions":[2.3196289E-1,-1.3722662E0,9.498823E-1,-1.3563222E-1,-3.5165513E-1,6.326244E-1,1.2286948E0,-1.3576063E0,2.1980174E-1,1.0966753E-1,9.2520064E-1,9.876084E-1,1.08467735E-1,1.2869537E-2,-1.2885226E0,-3.1720734E-1,-9.929863E-2,8.499875E-1,-7.0207864E-2,1.4253947E-1,1.0104786E0,-1.3181242E0,-1.1541656E0,3.0638544E-2,4.6190925E-2,8.1422025E-1,8.67473E-1,-1.9035785E-2,1.2243142E0,-6.302804E-2,5.121189E-2,-8.399884E-2,-1.1153786E0,6.0084175E-2,6.977393E-2,7.862287E-1,8.406753E-1,8.5830206E-1,6.333629E-2,1.1781476E0,-1.2510105E-2,8.444884E-2,-7.07751E-1,9.902839E-3,-2.4792315E-1,2.474001E-2,1.856308E-1,7.4065405E-1,-5.229151E-2,8.3223486E-1,-2.2141779E-2,3.680149E-2,-1.712165E-2,7.238225E-2,1.1834847E0,-7.130609E-2,-5.234962E-1,-3.0486736E-1,-1.7701179E-1,1.16793804E-1,2.0133398E-2,7.305578E-1,3.2700974E-2,8.227841E-1,3.393138E-2,-3.0225337E-2,5.1071845E-2,-5.8954895E-1,-4.888618E-1,-1.7306402E-2,8.222561E-3,-2.1188061E-1,-4.2341974E-2,-2.0341164E-2,-3.4867704E-3,7.0195377E-1,-5.274013E-2,3.0982213E-2,-2.7200243E-2,-2.0060772E-2,3.8428675E-2,-8.638742E-2,-3.6086638E-2,-3.7539E-2,4.773924E-3,-2.251371E-2,1.6141731E-2],"split_indices":[4,4,4,0,4,4,4,4,4,0,4,4,0,0,4,4,0,4,0,0,4,4,4,0,4,4,4,0,4,0,0,0,4,1,4,4,4,4,0,4,0,0,4,0,4,0,4,4,0,4,0,0,0,0,4,0,4,4,4,4,0,4,0,4,0,0,0,4,4,0,0,4,0,0,0,4,0,0,0,0,0,0,0,0,0,0,0],"split_type":[0,0,0,0,0,0,0,0,0,0,0,0,0,0,0,0,0,0,0,0,0,0,0,0,0,0,0,0,0,0,0,0,0,0,0,0,0,0,0,0,0,0,0,0,0,0,0,0,0,0,0,0,0,0,0,0,0,0,0,0,0,0,0,0,0,0,0,0,0,0,0,0,0,0,0,0,0,0,0,0,0,0,0,0,0,0,0],"sum_hessian":[1.94E2,1.02E2,9.2E1,2.1E1,8.1E1,4.4E1,4.8E1,5.6E1,2.5E1,2E1,2.4E1,2.5E1,2.3E1,1E0,5.5E1,2.4E1,1E0,2.1E1,3E0,3E0,2.2E1,7E0,4.8E1,1E0,2.3E1,1.5E1,6E0,2E0,2E1,5E0,2E0,9E0,3.9E1,1.7E1,6E0,1.1E1,4E0,2E0,4E0,1.9E1,1E0,2E0,3.7E1,1E0,1.6E1,1E0,5E0,9E0,2E0,3E0,1E0,1E0,1E0,1.3E1,6E0,2.1E1,1.6E1,3E0,1.3E1,3E0,2E0,7E0,2E0,2E0,1E0,1E0,5E0,7E0,9E0,1E0,2E0,5E0,8E0,2E0,1E0,6E0,1E0,1E0,1E0,6E0,1E0,2E0,7E0,2E0,3E0,3E0,3E0],"tree_param":{"num_deleted":"0","num_feature":"7","num_nodes":"87","size_leaf_vector":"1"}},{"base_weights":[-1.8848011E-3,-4.5962267E-2,5.135547E-2,-8.5134715E-2,-3.2627422E-2,1.08322725E-1,4.264392E-2,-2.4420533E-2,-7.486286E-2,2.3635891E-3,6.656629E-2,-3.420927E-2,1.270627E-3,-9.38702E-2,-4.2639904E-2,3.1702623E-2,-2.5608119E-2,5.3089775E-2,5.7973806E-2,-1.7357914E-2,-8.020211E-2,5.1435698E-2,-1.734499E-2,1.8967342E-2,-3.7734292E-2,-2.1168878E-2,7.929711E-2,-6.9492795E-2,1.7998599E-2,8.919172E-2,3.5120584E-2,-3.925615E-2,4.940493E-2,-8.199322E-2,-4.5475688E-2,1.4902741E-2,6.31478E-2,-2.5761688E-2,6.683888E-4,-7.85361E-3,-3.0710826E-2,3.3335723E-2,-2.3224454E-2,2.0289183E-2,7.094154E-2,8.615051E-3,5.0609663E-2,-2.0774067E-3,-5.486424E-2,5.5149004E-2,-3.2153048E-3,8.806415E-3,-3.7658203E-2,4.004823E-2,-2.4400352E-2,-1.1463924E-2,-4.6044793E-2,8.816327E-3,-7.746905E-3,-3.017688E-2,4.5046356E-2,1.4357022E-2,4.4365633E-2,3.2564193E-2,-1.362762E-2,2.1623952E-2,-3.1379335E-2,6.591468E-2,-9.427262E-3,-5.209261E-2,2.6799483E-2,3.2630365E-2,6.541159E-2,-2.9226474E-2,9.574032E-3,-4.2315517E-3,1.4235163E-2,-1.3530558E-2,9.002688E-3,-1.2287868E-2,-4.0434092E-2,2.307706E-2,-2.270432E-2,4.0671397E-2,8.446455E-3,3.2222206E-3,3.655111E-2,2.0155882E-2,5.2927807E-2,-7.989293E-3,-3.4608046E-4,3.6730368E-3,-7.678635E-2,5.7447925E-2,-1.1721802E-2,5.1092744E-2,-1.4426701E-2,6.347631E-3,-4.135661E-2,2.442372E-2,-6.135331E-3,7.5921766E-3,-1.15416255E-2,-1.6913807E-2,4.5019924E-3,-1.9639358E-2,2.7522713E-2,2.4208419E-2,-3.8422387E-2,4.347575E-2,-3.4452472E-2,-2.1420508E-3,5.9987395E-3,-4.4486623E-2,3.0811189E-2,1.0733473E-2,4.6490397E-2,-2.3074488E-3,7.2847637E-3,-6.940784E-4,2.3489552E-2,-1.4284108E-2,5.344666E-3,4.1210577E-3,-2.4241903E-4,2.331448E-2,-1.0799334E-3],"categories":[],"categories_nodes":[],"categories_segments":[],"categories_sizes":[],"default_left":[0,0,0,0,0,0,0,0,0,0,0,0,0,0,0,0,0,0,0,0,0,0,0,0,0,0,0,0,0,0,0,0,0,0,0,0,0,0,0,0,0,0,0,0,0,0,0,0,0,0,0,0,0,0,0,0,0,0,0,0,0,0,0,0,0,0,0,0,0,0,0,0,0,0,0,0,0,0,0,0,0,0,0,0,0,0,0,0,0,0,0,0,0,0,0,0,0,0,0,0,0,0,0,0,0,0,0,0,0,0,0,0,0,0,0,0,0,0,0,0,0,0,0,0,0,0,0],"id":4,"left_children":[1,3,5,-1,7,-1,9,11,13,15,17,19,21,-1,23,25,27,29,-1,31,33,35,37,-1,-1,39,-1,-1,41,43,45,47,49,-1,51,53,-1,55,57,59,-1,61,-1,63,-1,65,67,69,-1,71,-1,-1,-1,-1,-1,73,-1,75,77,79,-1,81,83,-1,-1,85,-1,87,89,91,93,95,-1,97,99,101,-1,-1,-1,103,-1,-1,-1,-1,105,107,-1,109,-1,-1,-1,111,-1,-1,113,115,-1,117,-1,119,121,-1,-1,-1,123,-1,-1,125,-1,-1,-1,-1,-1,-1,-1,-1,-1,-1,-1,-1,-1,-1,-1,-1,-1,-1,-1],"loss_changes":[4.5059314E-1,9.799792E-2,6.51627E-2,0E0,2.8232783E-2,0E0,7.96642E-2,2.0205662E-2,1.5287228E-2,2.8705563E-2,2.5963038E-3,4.2168133E-2,2.4196794E-2,0E0,1.2349255E-2,7.812053E-2,6.1396644E-2,1.579164E-2,0E0,6.966838E-2,8.583836E-3,7.227285E-3,2.9150872E-3,0E0,0E0,2.9385588E-3,0E0,0E0,1.2415696E-2,4.2615384E-3,9.802196E-3,5.0581228E-2,4.2286683E-3,0E0,6.668037E-3,1.6620412E-2,0E0,5.929766E-3,6.851369E-4,2.000252E-2,0E0,1.0287501E-3,0E0,5.982816E-3,0E0,1.0281466E-2,1.5944656E-2,3.1677783E-2,0E0,3.387846E-3,0E0,0E0,0E0,0E0,0E0,5.0438833E-3,0E0,9.2363823E-4,1.69064E-3,3.021826E-3,0E0,8.234198E-3,1.9788817E-3,0E0,0E0,5.855886E-3,0E0,2.7200617E-3,7.741855E-5,2.6503604E-2,3.173043E-2,1.1935358E-2,0E0,8.184351E-3,1.9326492E-3,1.0968468E-3,0E0,0E0,0E0,1.812558E-3,0E0,0E0,0E0,0E0,6.7138392E-3,1.3633383E-2,0E0,2.0665606E-2,0E0,0E0,0E0,2.5026305E-4,0E0,0E0,3.448382E-2,2.3465045E-3,0E0,2.6434215E-4,0E0,9.949934E-4,1.2941745E-3,0E0,0E0,0E0,3.7657803E-5,0E0,0E0,1.977038E-3,0E0,0E0,0E0,0E0,0E0,0E0,0E0,0E0,0E0,0E0,0E0,0E0,0E0,0E0,0E0,0E0,0E0,0E0,0E0],"parents":[2147483647,0,0,1,1,2,2,4,4,6,6,7,7,8,8,9,9,10,10,11,11,12,12,14,14,15,15,16,16,17,17,19,19,20,20,21,21,22,22,25,25,28,28,29,29,30,30,31,31,32,32,34,34,35,35,37,37,38,38,39,39,41,41,43,43,45,45,46,46,47,47,49,49,55,55,57,57,58,58,59,59,61,61,62,62,65,65,67,67,68,68,69,69,70,70,71,71,73,73,74,74,75,75,79,79,84,84,85,85,87,87,91,91,94,94,95,95,97,97,99,99,100,100,104,104,107,107],"right_children":[2,4,6,-1,8,-1,10,12,14,16,18,20,22,-1,24,26,28,30,-1,32,34,36,38,-1,-1,40,-1,-1,42,44,46,48,50,-1,52,54,-1,56,58,60,-1,62,-1,64,-1,66,68,70,-1,72,-1,-1,-1,-1,-1,74,-1,76,78,80,-1,82,84,-1,-1,86,-1,88,90,92,94,96,-1,98,100,102,-1,-1,-1,104,-1,-1,-1,-1,106,108,-1,110,-1,-1,-1,112,-1,-1,114,116,-1,118,-1,120,122,-1,-1,-1,124,-1,-1,126,-1,-1,-1,-1,-1,-1,-1,-1,-1,-1,-1,-1,-1,-1,-1,-1,-1,-1,-1],"split_conditions":[3.8768017E-1,-1.4485598E0,4.630137E-1,-8.5134715E-2,7.907295E-2,1.08322725E-1,1.008125E0,-4.4466424E-1,1.149207E-1,7.8399575E-1,1.2741766E0,-7.304472E-1,-3.4222752E-1,-9.38702E-2,1.9471657E-1,7.192211E-1,8.477202E-1,1.0701692E0,5.7973806E-2,-9.492684E-1,-6.2360555E-1,-3.532764E-1,-9.641569E-2,1.8967342E-2,-3.7734292E-2,6.696375E-1,7.929711E-2,-6.9492795E-2,9.852671E-1,1.0227064E0,1.1602433E0,-1.2086713E0,-7.4157035E-1,-8.199322E-2,-6.1317456E-1,-3.887732E-1,6.31478E-2,-1.088966E-1,-3.7784316E-2,6.208293E-1,-3.0710826E-2,9.3147695E-1,-2.3224454E-2,1.0150698E0,7.094154E-2,1.1434152E0,1.2521352E0,-1.383215E0,-5.486424E-2,-7.515343E-1,-3.2153048E-3,8.806415E-3,-3.7658203E-2,4.004823E-2,-2.4400352E-2,-2.1357702E-1,-4.6044793E-2,-4.9005058E-2,6.7926094E-2,5.7960474E-1,4.5046356E-2,9.228929E-1,9.5507604E-1,3.2564193E-2,-1.362762E-2,1.1270176E0,-3.1379335E-2,1.181038E0,1.2684125E0,-1.4151211E0,-1.3253928E0,-7.833627E-1,6.541159E-2,-2.4960019E-1,-1.7872694E-1,6.0084175E-2,1.4235163E-2,-1.3530558E-2,9.002688E-3,5.174771E-1,-4.0434092E-2,2.307706E-2,-2.270432E-2,4.0671397E-2,9.6335053E-1,1.1207644E0,3.655111E-2,1.1757039E0,5.2927807E-2,-7.989293E-3,-3.4608046E-4,-1.438235E0,-7.678635E-2,5.7447925E-2,-1.2699656E0,-8.5301757E-1,-1.4426701E-2,-3.065138E-1,-4.135661E-2,-2.0238355E-1,-1.6626409E-1,7.5921766E-3,-1.15416255E-2,-1.6913807E-2,5.476251E-1,-1.9639358E-2,2.7522713E-2,1.108623E0,-3.8422387E-2,4.347575E-2,-3.4452472E-2,-2.1420508E-3,5.9987395E-3,-4.4486623E-2,3.0811189E-2,1.0733473E-2,4.6490397E-2,-2.3074488E-3,7.2847637E-3,-6.940784E-4,2.3489552E-2,-1.4284108E-2,5.344666E-3,4.1210577E-3,-2.4241903E-4,2.331448E-2,-1.0799334E-3],"split_indices":[5,5,5,0,5,0,5,5,5,5,5,5,5,0,5,5,5,5,0,5,5,5,5,0,0,5,0,0,5,5,5,5,5,0,5,5,0,5,5,5,0,5,0,5,0,5,5,5,0,5,0,0,0,0,0,5,0,5,5,5,0,5,5,0,0,5,0,5,5,5,5,5,0,5,5,1,0,0,0,5,0,0,0,0,5,5,0,5,0,0,0,5,0,0,5,5,0,5,0,5,5,0,0,0,5,0,0,5,0,0,0,0,0,0,0,0,0,0,0,0,0,0,0,0,0,0,0],"split_type":[0,0,0,0,0,0,0,0,0,0,0,0,0,0,0,0,0,0,0,0,0,0,0,0,0,0,0,0,0,0,0,0,0,0,0,0,0,0,0,0,0,0,0,0,0,0,0,0,0,0,0,0,0,0,0,0,0,0,0,0,0,0,0,0,0,0,0,0,0,0,0,0,0,0,0,0,0,0,0,0,0,0,0,0,0,0,0,0,0,0,0,0,0,0,0,0,0,0,0,0,0,0,0,0,0,0,0,0,0,0,0,0,0,0,0,0,0,0,0,0,0,0,0,0,0,0,0],"sum_hessian":[1.88E2,1.03E2,8.5E1,1.3E1,9E1,4E0,8.1E1,7.8E1,1.2E1,3.1E1,5E1,5.6E1,2.2E1,2E0,1E1,1.5E1,1.6E1,3.2E1,1.8E1,4.3E1,1.3E1,5E0,1.7E1,1E0,9E0,1E1,5E0,5E0,1.1E1,8E0,2.4E1,3.3E1,1E1,4E0,9E0,4E0,1E0,1.1E1,6E0,8E0,2E0,9E0,2E0,2E0,6E0,1E1,1.4E1,1.8E1,1.5E1,9E0,1E0,1E0,8E0,2E0,2E0,1E1,1E0,3E0,3E0,7E0,1E0,5E0,4E0,1E0,1E0,9E0,1E0,1.1E1,3E0,6E0,1.2E1,8E0,1E0,5E0,5E0,2E0,1E0,2E0,1E0,6E0,1E0,4E0,1E0,2E0,2E0,7E0,2E0,3E0,8E0,2E0,1E0,4E0,2E0,4E0,8E0,6E0,2E0,3E0,2E0,2E0,3E0,1E0,1E0,3E0,3E0,1E0,1E0,6E0,1E0,2E0,1E0,2E0,2E0,4E0,4E0,3E0,3E0,1E0,2E0,1E0,1E0,1E0,2E0,2E0,1E0,4E0,2E0],"tree_param":{"num_deleted":"0","num_feature":"7","num_nodes":"127","size_leaf_vector":"1"}},{"base_weights":[-2.3518763E-3,5.820668E-3,-1.7418549E-3],"categories":[],"categories_nodes":[],"categories_segments":[],"categories_sizes":[],"default_left":[0,0,0],"id":5,"left_children":[1,-1,-1],"loss_changes":[3.3402524E-4,0E0,0E0],"parents":[2147483647,0,0],"right_children":[2,-1,-1],"split_conditions":[6.0084175E-2,5.820668E-3,-1.7418549E-3],"split_indices":[1,0,0],"split_type":[0,0,0],"sum_hessian":[1.99E2,1E0,1.98E2],"tree_param":{"num_deleted":"0","num_feature":"7","num_nodes":"3","size_leaf_vector":"1"}},{"base_weights":[2.0897142E-3,-1.0421342E-2,6.490536E-2,2.904369E-3,-7.983595E-2,6.2153656E-2,2.1510916E-2,-1.30688455E-2,9.765456E-2,-6.987918E-2,-9.898305E-3,-1.2413998E-2,2.6294576E-2,-7.937957E-2,3.207816E-4,1.0345378E-1,4.792085E-2,2.5852242E-2,-5.2769065E-2,-1.5795778E-2,1.0488112E-3,-2.4233548E-2,-8.406507E-2,8.099418E-2,-1.6770545E-2,-5.2813224E-2,7.077612E-2,-4.196702E-2,-5.6078834E-3,-5.032937E-4,-1.3443836E-2,-3.8739294E-2,8.669066E-3,-1.115675E-2,7.063836E-2,-6.060857E-2,1.4470633E-3,1.1405301E-2,5.488982E-2,-7.250458E-3,-3.1323034E-2,6.989625E-3,7.944107E-4,4.508844E-3,-1.9027999E-2,5.2319467E-4,-5.597789E-2,3.1512167E-2,-6.025263E-2,-6.068349E-2,4.306442E-2,8.125587E-3,7.494393E-2,-6.982807E-2,-1.6799927E-3,-5.8982773E-3,-4.8674345E-2,4.6865698E-2,-3.272134E-2,-5.975825E-2,-4.0321596E-2,4.3788967E-3,-6.791666E-3,-4.2802323E-2,1.5347357E-2,-4.3442203E-3,-5.0368324E-2,-5.6189257E-3,-7.1996247E-4],"categories":[],"categories_nodes":[],"categories_segments":[],"categories_sizes":[],"default_left":[0,0,0,0,0,0,0,0,0,0,0,0,0,0,0,0,0,0,0,0,0,0,0,0,0,0,0,0,0,0,0,0,0,0,0,0,0,0,0,0,0,0,0,0,0,0,0,0,0,0,0,0,0,0,0,0,0,0,0,0,0,0,0,0,0,0,0,0,0],"id":6,"left_children":[1,3,5,7,9,-1,11,13,15,-1,17,19,-1,21,23,-1,25,-1,27,29,-1,31,-1,33,35,-1,37,-1,-1,-1,-1,39,41,43,-1,45,47,-1,-1,-1,-1,-1,-1,-1,-1,49,-1,51,53,55,-1,57,-1,59,61,-1,-1,-1,63,-1,65,-1,67,-1,-1,-1,-1,-1,-1],"loss_changes":[1.5145782E-1,1.4938858E-1,2.934809E-2,2.0989718E-1,3.4375817E-2,0E0,8.556873E-3,1.0570815E-1,3.5704985E-2,0E0,1.995884E-2,3.2962387E-4,0E0,3.9083064E-2,1.4197701E-1,0E0,4.7334764E-2,0E0,6.4706244E-4,2.2941956E-4,0E0,5.9217135E-3,0E0,3.5289608E-2,6.805845E-2,0E0,2.4383701E-3,0E0,0E0,0E0,0E0,4.3714046E-4,2.6915397E-5,1.7603142E-3,0E0,2.9671207E-2,1.1880786E-1,0E0,0E0,0E0,0E0,0E0,0E0,0E0,0E0,3.733416E-2,0E0,7.423551E-2,1.15434155E-2,1.1409093E-3,0E0,8.848076E-2,0E0,1.3695806E-3,2.8779142E-4,0E0,0E0,0E0,3.6854E-2,0E0,9.898722E-3,0E0,1.1966607E-5,0E0,0E0,0E0,0E0,0E0,0E0],"parents":[2147483647,0,0,1,1,2,2,3,3,4,4,6,6,7,7,8,8,10,10,11,11,13,13,14,14,16,16,18,18,19,19,21,21,23,23,24,24,26,26,31,31,32,32,33,33,35,35,36,36,45,45,47,47,48,48,49,49,51,51,53,53,54,54,58,58,60,60,62,62],"right_children":[2,4,6,8,10,-1,12,14,16,-1,18,20,-1,22,24,-1,26,-1,28,30,-1,32,-1,34,36,-1,38,-1,-1,-1,-1,40,42,44,-1,46,48,-1,-1,-1,-1,-1,-1,-1,-1,50,-1,52,54,56,-1,58,-1,60,62,-1,-1,-1,64,-1,66,-1,68,-1,-1,-1,-1,-1,-1],"split_conditions":[1.2120886E0,9.414473E-1,1.2890261E0,6.9874096E-1,1.1591008E0,6.2153656E-2,1.2783804E0,-1.3837091E0,7.305578E-1,-6.987918E-2,1.06692E0,1.3116932E0,2.6294576E-2,-1.4737773E0,-1.1153786E0,1.0345378E-1,7.2732234E-1,2.5852242E-2,1.2820528E0,1.2994732E0,1.0488112E-3,-1.4671862E0,-8.406507E-2,-1.3426476E0,-7.098468E-1,-5.2813224E-2,7.784098E-1,-4.196702E-2,-5.6078834E-3,-5.032937E-4,-1.3443836E-2,-1.5044568E0,-1.4965774E0,-1.4475278E0,7.063836E-2,-1.0130482E0,2.7792564E-1,1.1405301E-2,5.488982E-2,-7.250458E-3,-3.1323034E-2,6.989625E-3,7.944107E-4,4.508844E-3,-1.9027999E-2,-1.2295908E0,-5.597789E-2,2.1697097E-1,6.401301E-1,-1.0900481E0,4.306442E-2,-4.7806212E-1,7.494393E-2,3.644042E-1,4.4322032E-1,-5.8982773E-3,-4.8674345E-2,4.6865698E-2,-4.9839318E-2,-5.975825E-2,7.214193E-1,4.3788967E-3,9.0866566E-1,-4.2802323E-2,1.5347357E-2,-4.3442203E-3,-5.0368324E-2,-5.6189257E-3,-7.1996247E-4],"split_indices":[6,4,4,6,6,0,6,6,4,0,4,4,0,4,4,0,6,0,4,4,0,6,0,6,6,0,4,0,0,0,0,4,4,4,0,4,4,0,0,0,0,0,0,0,0,6,0,6,6,4,0,4,0,6,4,0,0,0,6,0,4,0,4,0,0,0,0,0,0],"split_type":[0,0,0,0,0,0,0,0,0,0,0,0,0,0,0,0,0,0,0,0,0,0,0,0,0,0,0,0,0,0,0,0,0,0,0,0,0,0,0,0,0,0,0,0,0,0,0,0,0,0,0,0,0,0,0,0,0,0,0,0,0,0,0,0,0,0,0,0,0],"sum_hessian":[1.89E2,1.59E2,3E1,1.35E2,2.4E1,1.8E1,1.2E1,1.17E2,1.8E1,1.8E1,6E0,4E0,8E0,1.8E1,9.9E1,7E0,1.1E1,3E0,3E0,3E0,1E0,9E0,9E0,1.6E1,8.3E1,1E0,1E1,2E0,1E0,1E0,2E0,6E0,3E0,3E0,1.3E1,2.3E1,6E1,2E0,8E0,2E0,4E0,2E0,1E0,2E0,1E0,6E0,1.7E1,4.1E1,1.9E1,3E0,3E0,3.3E1,8E0,1.6E1,3E0,1E0,2E0,1.3E1,2E1,8E0,8E0,1E0,2E0,1.3E1,7E0,5E0,3E0,1E0,1E0],"tree_param":{"num_deleted":"0","num_feature":"7","num_nodes":"69","size_leaf_vector":"1"}},{"base_weights":[6.292455E-4,-3.2781124E-2,9.752213E-3,-2.0452833E-2,-6.6047296E-2,5.5477895E-2,6.3147987E-3,-2.3017427E-2,1.5573454E-2,-7.485658E-2,-3.3196483E-2,-4.6749236E-3,5.5442754E-2,-4.259184E-3,1.1581637E-2,-1.08992E-2,-3.1437166E-2,-2.299875E-3,-2.8956883E-2,1.7919163E-3,-7.7635646E-3,1.1214396E-3,-3.4132972E-2,4.1438516E-2,6.6798637E-3,-1.4734128E-2,-1.5360333E-3,-2.9766215E-2,-2.1403143E-2,-3.1133613E-3,9.6681115E-4,-6.7257048E-3,-5.2028894E-4,-8.451032E-3,1.33221E-2,-4.3832272E-2,-1.2173026E-2,3.8312215E-3,5.4565817E-2,-4.06984E-2,9.249193E-3,-5.1829577E-3,1.1273026E-3,1.8138122E-2,-3.5484966E-2,1.6479855E-2,-3.0593058E-2,2.0725643E-2,4.315168E-3,1.906633E-2,-2.7820671E-2,2.6286587E-2,-9.771977E-3,-2.987065E-3,-3.3370804E-2,2.8462704E-2,4.455747E-3,6.700754E-5,-4.5853434E-3,4.1711093E-3,-1.6571975E-3,2.2733808E-3,1.903932E-2,-3.072514E-2,-1.8139465E-2,-1.6434034E-2,3.7862428E-2,-4.9375836E-2,-1.7663224E-2,4.658546E-3,2.279343E-2,-1.4366577E-2,1.5234806E-2,-3.0302888E-2,-5.18763E-3,-1.016004E-3,-1.2613962E-2,1.1068404E-2,5.5621985E-2,-5.6555867E-2,1.2766409E-2,8.2570314E-4,4.0956377E-3,1.5934471E-2,-1.3812649E-2,1.3289213E-3,-2.3383649E-2,9.770393E-4,-1.7825674E-2,-2.6238188E-3,-1.3812741E-2,1.162561E-2,-6.764448E-3,1.0299707E-3,-2.490737E-2,-4.442668E-3,3.3758641E-3,3.4304276E-2,-1.204535E-2,-3.6753416E-3,-5.723971E-2,2.8514277E-2,4.500055E-3,1.9620496E-3,-1.1913935E-3,4.186205E-3,-2.824068E-3,-8.320756E-3,7.095477E-3,-3.9099343E-3,1.461037E-3,-3.8538873E-4,-7.53216E-3,-1.47066675E-2,1.3841679E-2,-3.5857657E-4,6.914642E-2,-1.0586977E-3,-2.3319E-2,-4.3078423E-3,2.1368265E-5,1.3676986E-2,8.844359E-2,-3.963101E-2,8.462492E-3,-6.8068146E-3,4.1710176E-3,-2.7265728E-3,2.3668765E-3,1.4834038E-2,9.859413E-4,1.7557039E-3,-2.1322093E-3,5.7659265E-2,6.8773893E-3,-1.8840432E-2,7.2275135E-3,-5.519708E-4,5.719145E-4,1.0896905E-2,-5.1877997E-3,7.571464E-2,6.832711E-3,2.3654586E-2,2.4375045E-3],"categories":[],"categories_nodes":[],"categories_segments":[],"categories_sizes":[],"default_left":[0,0,0,0,0,0,0,0,0,0,0,0,0,0,0,0,0,0,0,0,0,0,0,0,0,0,0,0,0,0,0,0,0,0,0,0,0,0,0,0,0,0,0,0,0,0,0,0,0,0,0,0,0,0,0,0,0,0,0,0,0,0,0,0,0,0,0,0,0,0,0,0,0,0,0,0,0,0,0,0,0,0,0,0,0,0,0,0,0,0,0,0,0,0,0,0,0,0,0,0,0,0,0,0,0,0,0,0,0,0,0,0,0,0,0,0,0,0,0,0,0,0,0,0,0,0,0,0,0,0,0,0,0,0,0,0,0,0,0,0,0,0,0,0,0],"id":7,"left_children":[1,3,5,7,9,11,13,15,-1,-1,17,19,-1,21,23,25,27,29,-1,-1,31,33,35,37,39,-1,41,-1,43,-1,-1,-1,-1,45,47,-1,49,51,-1,53,55,57,59,61,63,65,67,69,71,-1,73,-1,75,-1,-1,77,79,-1,-1,81,-1,83,-1,-1,85,87,-1,-1,89,91,-1,93,-1,-1,-1,95,-1,97,-1,99,101,103,-1,-1,-1,105,-1,107,-1,109,-1,-1,111,113,-1,-1,-1,115,117,119,-1,121,123,-1,-1,-1,125,-1,-1,-1,-1,127,-1,-1,129,131,133,135,-1,-1,137,139,141,-1,143,-1,-1,-1,-1,-1,-1,-1,-1,-1,-1,-1,-1,-1,-1,-1,-1,-1,-1,-1,-1],"loss_changes":[6.251413E-2,1.5343349E-2,2.4605013E-2,4.8570167E-3,7.676281E-3,1.6439613E-2,8.563757E-3,2.78382E-3,0E0,0E0,2.0816876E-3,1.5147615E-4,0E0,8.4350165E-3,1.4374259E-2,1.5508803E-3,2.932474E-4,4.3910113E-5,0E0,0E0,3.7515216E-5,5.5975327E-3,3.479667E-3,1.8626697E-2,1.1708587E-2,0E0,1.1852836E-4,0E0,9.082645E-3,0E0,0E0,0E0,0E0,1.5912889E-2,1.2214782E-3,0E0,5.8323233E-3,4.862346E-3,0E0,8.63526E-4,7.758961E-3,3.7347956E-5,1.0484777E-4,5.950773E-4,1.1875294E-5,1.9107979E-2,5.2551934E-3,1.7885589E-3,4.5370464E-3,0E0,1.2527001E-3,0E0,5.411352E-4,0E0,0E0,1.3321062E-2,3.795141E-2,0E0,0E0,1.8435865E-5,0E0,2.7019596E-3,0E0,0E0,2.1691825E-3,1.4649499E-3,0E0,0E0,3.3213804E-4,1.1801791E-3,0E0,2.3598021E-3,0E0,0E0,0E0,2.4795957E-4,0E0,8.882437E-3,0E0,1.1399439E-2,8.204903E-3,2.9532393E-5,0E0,0E0,0E0,1.3036298E-4,0E0,8.3010073E-4,0E0,7.9128935E-5,0E0,0E0,1.1915281E-4,2.2757957E-3,0E0,0E0,0E0,9.711413E-3,2.0323922E-3,4.6078523E-5,0E0,1.7142868E-2,1.1855757E-2,0E0,0E0,0E0,3.5828297E-4,0E0,0E0,0E0,0E0,7.9220015E-5,0E0,0E0,3.972117E-4,6.1504565E-5,1.5193112E-3,2.9105116E-3,0E0,0E0,3.8660796E-6,1.0278788E-3,4.0949658E-3,0E0,5.315304E-3,0E0,0E0,0E0,0E0,0E0,0E0,0E0,0E0,0E0,0E0,0E0,0E0,0E0,0E0,0E0,0E0,0E0,0E0,0E0,0E0],"parents":[2147483647,0,0,1,1,2,2,3,3,4,4,5,5,6,6,7,7,10,10,11,11,13,13,14,14,15,15,16,16,17,17,20,20,21,21,22,22,23,23,24,24,26,26,28,28,33,33,34,34,36,36,37,37,39,39,40,40,41,41,42,42,43,43,44,44,45,45,46,46,47,47,48,48,50,50,52,52,55,55,56,56,59,59,61,61,64,64,65,65,68,68,69,69,71,71,75,75,77,77,79,79,80,80,81,81,85,85,87,87,89,89,92,92,93,93,97,97,98,98,99,99,101,101,102,102,106,106,111,111,114,114,115,115,116,116,117,117,120,120,121,121,122,122,124,124],"right_children":[2,4,6,8,10,12,14,16,-1,-1,18,20,-1,22,24,26,28,30,-1,-1,32,34,36,38,40,-1,42,-1,44,-1,-1,-1,-1,46,48,-1,50,52,-1,54,56,58,60,62,64,66,68,70,72,-1,74,-1,76,-1,-1,78,80,-1,-1,82,-1,84,-1,-1,86,88,-1,-1,90,92,-1,94,-1,-1,-1,96,-1,98,-1,100,102,104,-1,-1,-1,106,-1,108,-1,110,-1,-1,112,114,-1,-1,-1,116,118,120,-1,122,124,-1,-1,-1,126,-1,-1,-1,-1,128,-1,-1,130,132,134,136,-1,-1,138,140,142,-1,144,-1,-1,-1,-1,-1,-1,-1,-1,-1,-1,-1,-1,-1,-1,-1,-1,-1,-1,-1,-1],"split_conditions":[-1.1395504E0,-1.2637036E0,-9.5917416E-1,-1.2699656E0,-1.2430189E0,-1.0571114E0,2.0691715E-1,-1.4453318E0,1.5573454E-2,-7.485658E-2,-1.2086713E0,-1.1165892E0,5.5442754E-2,7.907295E-2,4.744484E-1,-1.4975832E0,-1.4018732E0,-1.2290573E0,-2.8956883E-2,1.7919163E-3,-1.0912724E0,-4.5674488E-1,9.144995E-2,3.7593886E-1,5.174771E-1,-1.4734128E-2,-1.4817363E0,-2.9766215E-2,-1.3882679E0,-3.1133613E-3,9.6681115E-4,-6.7257048E-3,-5.2028894E-4,-7.304472E-1,-2.0238355E-1,-4.3832272E-2,1.02572486E-1,2.3002787E-1,5.4565817E-2,4.8469755E-1,7.8399575E-1,-1.4961284E0,-1.4747952E0,-1.3927273E0,-1.3421428E0,-8.32904E-1,-7.0918083E-1,-3.1884715E-1,-9.641569E-2,1.906633E-2,1.149207E-1,2.6286587E-2,3.5353327E-1,-2.987065E-3,-3.3370804E-2,7.384456E-1,8.6519635E-1,6.700754E-5,-4.5853434E-3,-1.4771185E0,-1.6571975E-3,-1.3975877E0,1.903932E-2,-3.072514E-2,-1.2896402E0,-9.028672E-1,3.7862428E-2,-4.9375836E-2,-6.5699446E-1,-3.887732E-1,2.279343E-2,-1.088966E-1,1.5234806E-2,-3.0302888E-2,-5.18763E-3,3.3100045E-1,-1.2613962E-2,6.100555E-1,5.5621985E-2,8.205315E-1,1.0961411E0,-1.479598E0,4.0956377E-3,1.5934471E-2,-1.3812649E-2,-1.3308588E0,-2.3383649E-2,-9.492684E-1,-1.7825674E-2,-6.877412E-1,-1.3812741E-2,1.162561E-2,-3.532764E-1,-1.8993378E-1,-2.490737E-2,-4.442668E-3,3.3758641E-3,5.7960474E-1,7.283547E-1,8.0239064E-1,-5.723971E-2,1.050916E0,1.102754E0,1.9620496E-3,-1.1913935E-3,4.186205E-3,-1.307247E0,-8.320756E-3,7.095477E-3,-3.9099343E-3,1.461037E-3,-3.6553842E-1,-7.53216E-3,-1.47066675E-2,-1.7872694E-1,5.476251E-1,5.8943737E-1,6.208293E-1,-2.3319E-2,-4.3078423E-3,8.1197214E-1,1.0436156E0,1.0701692E0,-3.963101E-2,1.1434152E0,-6.8068146E-3,4.1710176E-3,-2.7265728E-3,2.3668765E-3,1.4834038E-2,9.859413E-4,1.7557039E-3,-2.1322093E-3,5.7659265E-2,6.8773893E-3,-1.8840432E-2,7.2275135E-3,-5.519708E-4,5.719145E-4,1.0896905E-2,-5.1877997E-3,7.571464E-2,6.832711E-3,2.3654586E-2,2.4375045E-3],"split_indices":[5,5,5,5,5,5,5,5,0,0,5,5,0,5,5,5,5,5,0,0,5,5,5,5,5,0,5,0,5,0,0,0,0,5,5,0,5,5,0,5,5,5,5,5,5,5,5,5,5,0,5,0,5,0,0,5,5,0,0,5,0,5,0,0,5,5,0,0,5,5,0,5,0,0,0,5,0,5,0,5,5,5,0,0,0,5,0,5,0,5,0,0,5,5,0,0,0,5,5,5,0,5,5,0,0,0,5,0,0,0,0,5,0,0,5,5,5,5,0,0,5,5,5,0,5,0,0,0,0,0,0,0,0,0,0,0,0,0,0,0,0,0,0,0,0],"split_type":[0,0,0,0,0,0,0,0,0,0,0,0,0,0,0,0,0,0,0,0,0,0,0,0,0,0,0,0,0,0,0,0,0,0,0,0,0,0,0,0,0,0,0,0,0,0,0,0,0,0,0,0,0,0,0,0,0,0,0,0,0,0,0,0,0,0,0,0,0,0,0,0,0,0,0,0,0,0,0,0,0,0,0,0,0,0,0,0,0,0,0,0,0,0,0,0,0,0,0,0,0,0,0,0,0,0,0,0,0,0,0,0,0,0,0,0,0,0,0,0,0,0,0,0,0,0,0,0,0,0,0,0,0,0,0,0,0,0,0,0,0,0,0,0,0],"sum_hessian":[2.01E2,4.2E1,1.59E2,3.3E1,9E0,9E0,1.5E2,3.2E1,1E0,2E0,7E0,3E0,6E0,5E1,1E2,1.5E1,1.7E1,2E0,5E0,1E0,2E0,4.4E1,6E0,1.2E1,8.8E1,6E0,9E0,5E0,1.2E1,1E0,1E0,1E0,1E0,2.5E1,1.9E1,1E0,5E0,7E0,5E0,3E0,8.5E1,3E0,6E0,3E0,9E0,1.2E1,1.3E1,9E0,1E1,1E0,4E0,1E0,6E0,1E0,2E0,1.5E1,7E1,1E0,2E0,3E0,3E0,2E0,1E0,4E0,5E0,7E0,5E0,1E0,1.2E1,5E0,4E0,5E0,5E0,1E0,3E0,4E0,2E0,1.3E1,2E0,7E0,6.3E1,2E0,1E0,1E0,1E0,3E0,2E0,3E0,4E0,2E0,1E1,2E0,3E0,4E0,1E0,2E0,2E0,6E0,7E0,3E0,4E0,2E1,4.3E1,1E0,1E0,1E0,2E0,1E0,2E0,1E0,1E0,2E0,1E0,1E0,3E0,4E0,2E0,6E0,1E0,1E0,2E0,1.8E1,2E0,1E0,4.2E1,1E0,1E0,1E0,1E0,1E0,2E0,2E0,2E0,1E0,1E0,1E0,5E0,1E0,1E0,1.7E1,1E0,1E0,1E0,5E0,3.7E1],"tree_param":{"num_deleted":"0","num_feature":"7","num_nodes":"145","size_leaf_vector":"1"}},{"base_weights":[4.984735E-3,-2.0157596E-2,1.285883E-2,-2.5461925E-2,-1.1574122E-2,3.4541678E-2,9.980538E-3,-1.5196255E-2,-4.3756947E-2,-4.3231845E-3,-2.3182467E-2,-7.415334E-4,2.582941E-2,-1.8624852E-3,1.490266E-2,-7.3774727E-3,-1.9830763E-2,-4.1074622E-2,-2.2728631E-2,2.3146272E-3,-6.9215596E-3,-2.4837404E-2,-1.1287672E-2,6.4438884E-3,-1.7673142E-2,6.0969822E-2,1.1549043E-2,-9.805305E-3,-2.0858448E-3,-1.594292E-2,-2.5532842E-3,-4.12331E-3,-3.1350795E-2,-1.652658E-3,4.0830164E-3,-1.5671114E-2,-1.4451634E-3,-2.6043653E-4,-9.088047E-3,-4.7843545E-3,3.7114114E-2,-2.3507928E-2,-5.7818736E-3,6.1535803E-3,2.616405E-2,5.137523E-5,-8.033353E-3,-6.4430234E-4,-2.1684964E-3,3.1399806E-3,-5.5230455E-3,-1.5419197E-2,1.2216428E-2,9.32078E-3,-5.5842996E-3,5.565768E-3,-2.2121383E-2,3.9641917E-2,1.8145569E-2,5.2686348E-3,-1.1242973E-2,1.2980813E-2,-1.7461678E-2,2.3282776E-2,1.6997863E-2,-7.2258414E-4,2.1175941E-4,-1.6366362E-3,-1.226432E-2,-1.3000103E-2,-1.4252133E-5,-2.472694E-3,1.6967623E-2,-2.260324E-2,-6.273456E-3,-2.0097184E-3,1.582374E-2,-2.8449537E-3,6.7437706E-3,-1.3766891E-2,-1.8793046E-3,6.920069E-3,6.287794E-2,-2.5602398E-2,-3.8633563E-4,2.1043539E-3,1.7567804E-2,8.555174E-3,-7.1506896E-3,-6.163766E-4,-5.774651E-3,6.1876853E-3,-1.9095646E-2,1.7265776E-4,-1.6822106E-3,3.037894E-2,-3.2550909E-4,4.173888E-3,-7.3175696E-3,1.3169158E-2,3.5336465E-3,-2.0985007E-3,1.1939636E-2,-5.812249E-3,-3.238837E-4,-3.8408756E-3,1.3119844E-3,9.413082E-4,3.8739573E-2,-3.250472E-2,1.1051007E-2,-3.8881898E-3,8.525178E-3,3.197781E-3,-5.156382E-3,1.8825635E-3,-6.991106E-3,4.097072E-3,-1.1603981E-3,-4.795131E-3,4.075308E-3,-6.530273E-3,-2.6709806E-2,1.0458027E-2,-2.7366977E-2,3.8449087E-3,-5.573025E-3],"categories":[],"categories_nodes":[],"categories_segments":[],"categories_sizes":[],"default_left":[0,0,0,0,0,0,0,0,0,0,0,0,0,0,0,0,0,0,0,0,0,0,0,0,0,0,0,0,0,0,0,0,0,0,0,0,0,0,0,0,0,0,0,0,0,0,0,0,0,0,0,0,0,0,0,0,0,0,0,0,0,0,0,0,0,0,0,0,0,0,0,0,0,0,0,0,0,0,0,0,0,0,0,0,0,0,0,0,0,0,0,0,0,0,0,0,0,0,0,0,0,0,0,0,0,0,0,0,0,0,0,0,0,0,0,0,0,0,0,0,0,0,0,0,0,0,0],"id":8,"left_children":[1,3,5,7,9,11,13,15,17,19,21,-1,-1,23,25,27,29,-1,31,33,35,-1,37,39,41,-1,43,45,47,-1,49,51,-1,-1,-1,-1,53,-1,-1,55,57,-1,59,61,63,-1,-1,65,-1,-1,-1,67,-1,-1,69,71,73,-1,75,77,79,81,83,-1,85,-1,-1,-1,-1,-1,87,89,-1,-1,91,-1,-1,-1,-1,-1,93,95,-1,-1,97,-1,99,101,103,105,-1,-1,-1,-1,-1,107,109,111,-1,-1,-1,113,-1,-1,-1,115,117,119,-1,121,123,125,-1,-1,-1,-1,-1,-1,-1,-1,-1,-1,-1,-1,-1,-1,-1],"loss_changes":[3.971708E-2,1.5960187E-3,8.796766E-3,3.928818E-3,1.6513262E-3,1.5049633E-3,8.041627E-3,4.683584E-4,1.5654415E-4,3.0800205E-4,3.6938582E-4,0E0,0E0,5.7435944E-3,2.1473939E-2,1.00414385E-4,4.942473E-4,0E0,2.503462E-3,1.2624115E-4,9.51652E-4,0E0,1.1987245E-4,1.0341944E-2,2.4494403E-3,0E0,7.1691927E-3,1.17229705E-4,4.7611993E-6,0E0,2.210465E-4,2.0004692E-3,0E0,0E0,0E0,0E0,8.207701E-4,0E0,0E0,4.3733735E-3,9.064879E-4,0E0,7.822974E-4,1.2061668E-2,4.955884E-4,0E0,0E0,2.4611834E-6,0E0,0E0,0E0,5.5506942E-5,0E0,0E0,7.22868E-4,2.5215982E-3,1.045268E-3,0E0,7.859061E-4,2.8201367E-4,5.5711705E-4,2.5303796E-2,5.519929E-3,0E0,1.3990793E-5,0E0,0E0,0E0,0E0,0E0,6.727474E-4,1.2923707E-4,0E0,0E0,2.3870633E-3,0E0,0E0,0E0,0E0,0E0,7.8676385E-6,9.368298E-3,0E0,0E0,5.9226726E-4,0E0,2.8328504E-5,5.244451E-4,3.8564816E-5,8.4694315E-5,0E0,0E0,0E0,0E0,0E0,9.449002E-3,1.6826259E-2,6.755351E-4,0E0,0E0,0E0,2.077775E-4,0E0,0E0,0E0,2.5440753E-4,1.407729E-4,3.8397667E-4,0E0,8.5998606E-4,7.7989316E-3,3.1672657E-4,0E0,0E0,0E0,0E0,0E0,0E0,0E0,0E0,0E0,0E0,0E0,0E0,0E0,0E0,0E0],"parents":[2147483647,0,0,1,1,2,2,3,3,4,4,5,5,6,6,7,7,8,8,9,9,10,10,13,13,14,14,15,15,16,16,18,18,19,19,20,20,22,22,23,23,24,24,26,26,27,27,28,28,30,30,31,31,36,36,39,39,40,40,42,42,43,43,44,44,47,47,51,51,54,54,55,55,56,56,58,58,59,59,60,60,61,61,62,62,64,64,70,70,71,71,74,74,80,80,81,81,84,84,86,86,87,87,88,88,89,89,95,95,96,96,97,97,101,101,105,105,106,106,107,107,109,109,110,110,111,111],"right_children":[2,4,6,8,10,12,14,16,18,20,22,-1,-1,24,26,28,30,-1,32,34,36,-1,38,40,42,-1,44,46,48,-1,50,52,-1,-1,-1,-1,54,-1,-1,56,58,-1,60,62,64,-1,-1,66,-1,-1,-1,68,-1,-1,70,72,74,-1,76,78,80,82,84,-1,86,-1,-1,-1,-1,-1,88,90,-1,-1,92,-1,-1,-1,-1,-1,94,96,-1,-1,98,-1,100,102,104,106,-1,-1,-1,-1,-1,108,110,112,-1,-1,-1,114,-1,-1,-1,116,118,120,-1,122,124,126,-1,-1,-1,-1,-1,-1,-1,-1,-1,-1,-1,-1,-1,-1,-1],"split_conditions":[-9.871371E-1,-1.3197364E0,-6.576738E-1,-1.4156071E0,-1.091841E0,-9.686283E-1,3.3006933E-1,-1.4800677E0,-1.4023627E0,-1.2642282E0,-1.074903E0,-7.415334E-4,2.582941E-2,-3.8621437E-2,3.749963E-1,-1.4980482E0,-1.4421227E0,-4.1074622E-2,-1.3373486E0,-1.2773601E0,-1.2571827E0,-2.4837404E-2,-1.0667846E0,-2.1436934E-1,5.4662902E-2,6.0969822E-2,1.2610941E0,-1.506624E0,-1.4822054E0,-1.594292E-2,-1.4387152E0,-1.3484448E0,-3.1350795E-2,-1.652658E-3,4.0830164E-3,-1.5671114E-2,-1.2507665E0,-2.6043653E-4,-9.088047E-3,-4.2238006E-1,-2.0317872E-1,-2.3507928E-2,1.0169959E-1,1.142277E0,1.2974645E0,5.137523E-5,-8.033353E-3,-1.4844784E0,-2.1684964E-3,3.1399806E-3,-5.5230455E-3,-1.3932191E0,1.2216428E-2,9.32078E-3,-1.2295908E0,-4.6831682E-1,-3.540331E-1,3.9641917E-2,-1.7952813E-1,6.706203E-2,1.938202E-1,1.1258836E0,1.1897448E0,2.3282776E-2,1.2992254E0,-7.2258414E-4,2.1175941E-4,-1.6366362E-3,-1.226432E-2,-1.3000103E-2,-1.1794478E0,-4.8033994E-1,1.6967623E-2,-2.260324E-2,-2.5038332E-1,-2.0097184E-3,1.582374E-2,-2.8449537E-3,6.7437706E-3,-1.3766891E-2,2.1697097E-1,5.8844036E-1,6.287794E-2,-2.5602398E-2,1.2480217E0,2.1043539E-3,1.3121743E0,-1.1866071E0,-1.1006446E0,-6.0223514E-1,-5.774651E-3,6.1876853E-3,-1.9095646E-2,1.7265776E-4,-1.6822106E-3,4.8372728E-1,7.374106E-1,1.2250645E0,-7.3175696E-3,1.3169158E-2,3.5336465E-3,-1.20921E0,1.1939636E-2,-5.812249E-3,-3.238837E-4,-6.242933E-1,-5.800342E-1,4.4021252E-1,3.8739573E-2,6.2946653E-1,1.1196319E0,1.1992356E0,8.525178E-3,3.197781E-3,-5.156382E-3,1.8825635E-3,-6.991106E-3,4.097072E-3,-1.1603981E-3,-4.795131E-3,4.075308E-3,-6.530273E-3,-2.6709806E-2,1.0458027E-2,-2.7366977E-2,3.8449087E-3,-5.573025E-3],"split_indices":[6,6,6,6,6,6,6,6,6,6,6,0,0,6,6,6,6,0,6,6,6,0,6,6,6,0,6,6,6,0,6,6,0,0,0,0,6,0,0,6,6,0,6,6,6,0,0,6,0,0,0,6,0,0,6,6,6,0,6,6,6,6,6,0,6,0,0,0,0,0,6,6,0,0,6,0,0,0,0,0,6,6,0,0,6,0,6,6,6,6,0,0,0,0,0,6,6,6,0,0,0,6,0,0,0,6,6,6,0,6,6,6,0,0,0,0,0,0,0,0,0,0,0,0,0,0,0],"split_type":[0,0,0,0,0,0,0,0,0,0,0,0,0,0,0,0,0,0,0,0,0,0,0,0,0,0,0,0,0,0,0,0,0,0,0,0,0,0,0,0,0,0,0,0,0,0,0,0,0,0,0,0,0,0,0,0,0,0,0,0,0,0,0,0,0,0,0,0,0,0,0,0,0,0,0,0,0,0,0,0,0,0,0,0,0,0,0,0,0,0,0,0,0,0,0,0,0,0,0,0,0,0,0,0,0,0,0,0,0,0,0,0,0,0,0,0,0,0,0,0,0,0,0,0,0,0,0],"sum_hessian":[1.96E2,4.6E1,1.5E2,2.6E1,2E1,1.5E1,1.35E2,1.9E1,7E0,1.4E1,6E0,1E0,1.4E1,4E1,9.5E1,9E0,1E1,2E0,5E0,4E0,1E1,1E0,5E0,2.7E1,1.3E1,2E0,9.3E1,5E0,4E0,8E0,2E0,4E0,1E0,2E0,2E0,1E0,9E0,1E0,4E0,2.1E1,6E0,4E0,9E0,7E1,2.3E1,1E0,4E0,3E0,1E0,1E0,1E0,3E0,1E0,1E0,8E0,1.4E1,7E0,1E0,5E0,3E0,6E0,5.5E1,1.5E1,1E1,1.3E1,2E0,1E0,1E0,2E0,1E0,7E0,1.1E1,3E0,3E0,4E0,1E0,4E0,1E0,2E0,2E0,4E0,5.3E1,2E0,6E0,9E0,1E0,1.2E1,3E0,4E0,1E1,1E0,3E0,1E0,1E0,3E0,1.1E1,4.2E1,7E0,2E0,1E1,2E0,2E0,1E0,3E0,1E0,3E0,7E0,6E0,5E0,1E1,3.2E1,4E0,3E0,1E0,1E0,2E0,1E0,2E0,5E0,2E0,4E0,3E0,7E0,3.1E1,1E0,1E0,3E0],"tree_param":{"num_deleted":"0","num_feature":"7","num_nodes":"127","size_leaf_vector":"1"}},{"base_weights":[-1.6191448E-3,4.4569685E-3,-1.0692837E-2,-5.8864366E-4,3.985474E-2,-3.261624E-2,-4.1927285E-3,1.0834122E-2,-4.9115E-3,2.2471882E-2,4.090688E-2,-4.171937E-2,-2.1793494E-2,1.4136704E-2,-9.419317E-3,5.540445E-3,3.8348507E-2,-1.9136492E-2,-1.7925018E-3,2.636755E-2,1.0724331E-2,-3.617648E-3,-2.238283E-2,-5.067641E-4,3.6270827E-2,-1.775364E-3,-1.1940914E-2,1.0988327E-2,-1.8663321E-3,-5.632119E-3,-2.8834062E-2,1.9349784E-2,-5.594066E-3,-2.2106073E-3,1.5593003E-2,-1.612173E-2,1.69473E-2,1.4310181E-2,-3.4691118E-2,4.3376382E-2,6.345236E-3,-1.1635438E-2,2.2598958E-2,-3.2823972E-2,-8.4616365E-3,-3.7630398E-5,1.8725311E-2,2.548328E-4,-6.869678E-3,-1.2823242E-2,1.5465125E-2,-1.2734071E-2,7.17197E-5,1.2543261E-2,3.8205023E-4,7.8269246E-4,-2.3483563E-2,1.4231495E-2,1.5859843E-3,-5.293063E-4,2.9361391E-2,-4.0816218E-3,1.1212289E-2,-1.4975017E-2,-3.6289825E-3,1.750889E-2,3.0202626E-3,6.9776415E-3,-1.3201964E-2,5.7058865E-3,-1.0360909E-2,-2.9931169E-3,9.153719E-3,-2.0402241E-2,-3.745888E-3,-2.6733356E-3,-4.705553E-2,2.1694966E-2,-3.9871214E-3,2.5931E-3,-1.799956E-3,1.0018691E-2,-2.0901917E-2,3.2254744E-2,2.143085E-3,-4.21384E-3,4.0432613E-4,5.5175526E-3,-1.599083E-2,-1.1370897E-2,2.8130129E-2,-1.987055E-2,-5.78993E-3,2.6637486E-3,5.723679E-3,-8.124727E-3,-1.2547573E-3,3.8987398E-4,-6.9678244E-3,-3.948772E-3,-1.8537585E-2,1.5385052E-3,-8.272191E-3,-1.31562175E-2,2.6989924E-3,-1.3197641E-2,-4.3881677E-2,-1.6444921E-5,3.0392136E-2,-2.2823215E-2,-9.604548E-4,-2.4607957E-3,7.808367E-4,-1.2110007E-2,1.411022E-2,-1.4280436E-2,-4.688069E-3,3.914503E-3,-1.5391946E-2,2.6177962E-3,-1.3232668E-2,2.4842997E-3,-6.1781006E-4,-4.654214E-3,7.1981787E-3,-1.148951E-3,3.49435E-3,2.3969663E-2,-8.321913E-3,5.719073E-3,-5.3569875E-3,8.622506E-3,-8.839538E-3,2.0419916E-3,-6.417523E-3,-2.1586943E-2,4.7773123E-5,-6.0922587E-3,7.4059363E-3,-6.605804E-3,-1.2360319E-2,-1.2640953E-4,-8.3929105E-3,1.2160937E-3,-1.9174024E-3,3.3668855E-3,3.241668E-2,-1.9042019E-2,-1.8791301E-3,-9.4266725E-5,5.4320684E-3,2.293331E-3,7.4482993E-3,7.2027287E-3,-7.822728E-3,-3.3596812E-3,-2.0705191E-2,1.0399437E-2,-1.0354849E-2,2.6143788E-4,-6.179564E-3,-1.0543995E-2,-7.6578854E-4],"categories":[],"categories_nodes":[],"categories_segments":[],"categories_sizes":[],"default_left":[0,0,0,0,0,0,0,0,0,0,0,0,0,0,0,0,0,0,0,0,0,0,0,0,0,0,0,0,0,0,0,0,0,0,0,0,0,0,0,0,0,0,0,0,0,0,0,0,0,0,0,0,0,0,0,0,0,0,0,0,0,0,0,0,0,0,0,0,0,0,0,0,0,0,0,0,0,0,0,0,0,0,0,0,0,0,0,0,0,0,0,0,0,0,0,0,0,0,0,0,0,0,0,0,0,0,0,0,0,0,0,0,0,0,0,0,0,0,0,0,0,0,0,0,0,0,0,0,0,0,0,0,0,0,0,0,0,0,0,0,0,0,0,0,0,0,0,0,0,0,0,0,0,0,0,0,0,0,0,0,0,0,0],"id":9,"left_children":[1,3,5,7,9,11,13,15,17,19,-1,-1,21,23,25,27,-1,29,31,-1,33,35,-1,37,39,41,43,45,47,49,-1,-1,51,-1,53,55,57,59,-1,-1,61,63,65,-1,67,69,-1,71,-1,73,-1,75,77,-1,-1,79,-1,-1,-1,81,83,85,-1,-1,87,-1,-1,89,91,93,95,97,-1,99,101,103,105,107,109,-1,111,-1,-1,-1,113,-1,-1,-1,115,117,-1,-1,119,121,-1,-1,-1,123,-1,-1,-1,125,-1,-1,127,-1,-1,129,-1,-1,131,-1,-1,-1,-1,-1,133,-1,135,137,139,-1,-1,141,-1,143,-1,145,147,149,-1,151,153,-1,-1,155,157,159,-1,161,-1,-1,-1,-1,-1,-1,-1,-1,-1,-1,-1,-1,-1,-1,-1,-1,-1,-1,-1,-1,-1,-1,-1],"loss_changes":[1.1011605E-2,2.1479333E-2,1.1126857E-2,5.3899745E-3,2.2191163E-3,2.6587695E-3,6.3975425E-3,6.3725766E-3,3.4364462E-3,1.1557532E-3,0E0,0E0,2.729705E-3,4.8985663E-3,9.4062416E-4,1.211202E-3,0E0,3.7057595E-3,7.8065163E-3,0E0,7.067828E-4,2.6036059E-3,0E0,9.413194E-3,3.8273241E-3,4.130887E-3,3.8273348E-3,2.9564842E-3,2.4101295E-4,2.7597342E-3,0E0,0E0,2.4695045E-3,0E0,2.2543268E-4,1.8199965E-3,1.0656926E-4,2.2646047E-3,0E0,0E0,6.3501473E-4,7.8220153E-4,4.825415E-6,0E0,2.8921652E-3,8.297394E-4,0E0,6.196643E-4,0E0,5.351233E-4,0E0,9.071486E-3,3.3325525E-3,0E0,0E0,5.1064704E-5,0E0,0E0,0E0,3.901948E-3,2.0775185E-3,4.3075284E-5,0E0,0E0,1.5327837E-3,0E0,0E0,7.0071295E-3,2.9351884E-3,2.408732E-5,1.1764059E-5,2.903463E-4,0E0,1.4996226E-4,3.3493422E-4,2.093453E-3,2.8138235E-4,2.8311682E-3,2.7090672E-3,0E0,2.7848113E-5,0E0,0E0,0E0,2.0984688E-3,0E0,0E0,0E0,5.7935133E-5,7.178219E-4,0E0,0E0,1.445964E-3,2.8240363E-5,0E0,0E0,0E0,5.9474324E-4,0E0,0E0,0E0,6.715651E-5,0E0,0E0,4.852966E-3,0E0,0E0,3.0652768E-4,0E0,0E0,2.4930912E-3,0E0,0E0,0E0,0E0,0E0,1.897676E-4,0E0,6.716056E-4,9.611165E-4,1.1859555E-4,0E0,0E0,2.582057E-4,0E0,3.246564E-5,0E0,2.5507142E-3,1.3441145E-3,4.9880575E-5,0E0,9.2106755E-5,1.0342484E-3,0E0,0E0,3.8688607E-4,1.31859E-3,1.30412E-4,0E0,3.3995265E-4,0E0,0E0,0E0,0E0,0E0,0E0,0E0,0E0,0E0,0E0,0E0,0E0,0E0,0E0,0E0,0E0,0E0,0E0,0E0,0E0,0E0,0E0,0E0],"parents":[2147483647,0,0,1,1,2,2,3,3,4,4,5,5,6,6,7,7,8,8,9,9,12,12,13,13,14,14,15,15,17,17,18,18,20,20,21,21,23,23,24,24,25,25,26,26,27,27,28,28,29,29,32,32,34,34,35,35,36,36,37,37,40,40,41,41,42,42,44,44,45,45,47,47,49,49,51,51,52,52,55,55,59,59,60,60,61,61,64,64,67,67,68,68,69,69,70,70,71,71,73,73,74,74,75,75,76,76,77,77,78,78,80,80,84,84,88,88,89,89,92,92,93,93,97,97,101,101,104,104,107,107,110,110,116,116,118,118,119,119,120,120,123,123,125,125,127,127,128,128,129,129,131,131,132,132,135,135,136,136,137,137,139,139],"right_children":[2,4,6,8,10,12,14,16,18,20,-1,-1,22,24,26,28,-1,30,32,-1,34,36,-1,38,40,42,44,46,48,50,-1,-1,52,-1,54,56,58,60,-1,-1,62,64,66,-1,68,70,-1,72,-1,74,-1,76,78,-1,-1,80,-1,-1,-1,82,84,86,-1,-1,88,-1,-1,90,92,94,96,98,-1,100,102,104,106,108,110,-1,112,-1,-1,-1,114,-1,-1,-1,116,118,-1,-1,120,122,-1,-1,-1,124,-1,-1,-1,126,-1,-1,128,-1,-1,130,-1,-1,132,-1,-1,-1,-1,-1,134,-1,136,138,140,-1,-1,142,-1,144,-1,146,148,150,-1,152,154,-1,-1,156,158,160,-1,162,-1,-1,-1,-1,-1,-1,-1,-1,-1,-1,-1,-1,-1,-1,-1,-1,-1,-1,-1,-1,-1,-1,-1],"split_conditions":[5.915657E-1,2.549937E-1,8.67473E-1,-1.3242946E0,4.547437E-1,6.229745E-1,1.0174271E0,-1.3297634E0,-1.1541656E0,3.1032392E-1,4.090688E-2,-4.171937E-2,7.784098E-1,9.6568006E-1,1.1677349E0,-1.4371974E0,3.8348507E-2,-1.1777242E0,-1.0649719E0,2.636755E-2,3.673519E-1,7.4065405E-1,-2.238283E-2,9.5740104E-1,9.876084E-1,1.1294351E0,1.1732609E0,-1.4761018E0,-1.3357503E0,-1.1927725E0,-2.8834062E-2,1.9349784E-2,-5.7783544E-1,-2.2106073E-3,4.4322032E-1,7.0195377E-1,7.5965273E-1,9.337893E-1,-3.4691118E-2,4.3376382E-2,1.0104786E0,1.0532925E0,1.1626787E0,-3.2823972E-2,1.232547E0,-1.4965774E0,1.8725311E-2,-1.3410535E0,-6.869678E-3,-1.2757143E0,1.5465125E-2,-6.8629986E-1,-4.7806212E-1,1.2543261E-2,3.8205023E-4,6.326244E-1,-2.3483563E-2,1.4231495E-2,1.5859843E-3,9.2520064E-1,9.414473E-1,1.0026729E0,1.1212289E-2,-1.4975017E-2,1.098542E0,1.750889E-2,3.0202626E-3,1.2202849E0,1.2647529E0,-1.5000672E0,-1.480722E0,-1.3576063E0,9.153719E-3,-1.306139E0,-1.2075102E0,-9.765197E-1,-6.221297E-1,-4.888618E-1,-4.5517927E-1,2.5931E-3,6.9161606E-1,1.0018691E-2,-2.0901917E-2,3.2254744E-2,9.498823E-1,-4.21384E-3,4.0432613E-4,5.5175526E-3,1.1174681E0,1.1781476E0,2.8130129E-2,-1.987055E-2,1.3044063E0,-1.5027723E0,5.723679E-3,-8.124727E-3,-1.2547573E-3,-1.3916651E0,-6.9678244E-3,-3.948772E-3,-1.8537585E-2,-1.2279071E0,-8.272191E-3,-1.31562175E-2,-8.621732E-1,-1.3197641E-2,-4.3881677E-2,-5.234962E-1,3.0392136E-2,-2.2823215E-2,-1.7701179E-1,-2.4607957E-3,7.808367E-4,-1.2110007E-2,1.411022E-2,-1.4280436E-2,1.1231785E0,3.914503E-3,1.193347E0,1.2956378E0,1.3146721E0,2.4842997E-3,-6.1781006E-4,-1.400816E0,7.1981787E-3,-1.2555209E0,3.49435E-3,-8.7157553E-1,-8.5166514E-1,-5.554803E-1,-5.3569875E-3,-3.2829428E-1,6.0084175E-2,2.0419916E-3,-6.417523E-3,1.1882006E0,1.2067323E0,1.2792695E0,7.4059363E-3,1.3059604E0,-1.2360319E-2,-1.2640953E-4,-8.3929105E-3,1.2160937E-3,-1.9174024E-3,3.3668855E-3,3.241668E-2,-1.9042019E-2,-1.8791301E-3,-9.4266725E-5,5.4320684E-3,2.293331E-3,7.4482993E-3,7.2027287E-3,-7.822728E-3,-3.3596812E-3,-2.0705191E-2,1.0399437E-2,-1.0354849E-2,2.6143788E-4,-6.179564E-3,-1.0543995E-2,-7.6578854E-4],"split_indices":[4,4,4,4,4,4,4,4,4,4,0,0,4,4,4,4,0,4,4,0,4,4,0,4,4,4,4,4,4,4,0,0,4,0,4,4,4,4,0,0,4,4,4,0,4,4,0,4,0,4,0,4,4,0,0,4,0,0,0,4,4,4,0,0,4,0,0,4,4,4,4,4,0,4,4,4,4,4,4,0,4,0,0,0,4,0,0,0,4,4,0,0,4,4,0,0,0,4,0,0,0,4,0,0,4,0,0,4,0,0,4,0,0,0,0,0,4,0,4,4,4,0,0,4,0,4,0,4,4,4,0,4,0,0,0,4,4,4,0,4,0,0,0,0,0,0,0,0,0,0,0,0,0,0,0,0,0,0,0,0,0,0,0],"split_type":[0,0,0,0,0,0,0,0,0,0,0,0,0,0,0,0,0,0,0,0,0,0,0,0,0,0,0,0,0,0,0,0,0,0,0,0,0,0,0,0,0,0,0,0,0,0,0,0,0,0,0,0,0,0,0,0,0,0,0,0,0,0,0,0,0,0,0,0,0,0,0,0,0,0,0,0,0,0,0,0,0,0,0,0,0,0,0,0,0,0,0,0,0,0,0,0,0,0,0,0,0,0,0,0,0,0,0,0,0,0,0,0,0,0,0,0,0,0,0,0,0,0,0,0,0,0,0,0,0,0,0,0,0,0,0,0,0,0,0,0,0,0,0,0,0,0,0,0,0,0,0,0,0,0,0,0,0,0,0,0,0,0,0],"sum_hessian":[1.96E2,1.18E2,7.8E1,1.05E2,1.3E1,1.6E1,6.2E1,2.8E1,7.7E1,9E0,4E0,2E0,1.4E1,1.3E1,4.9E1,2.7E1,1E0,1.2E1,6.5E1,2E0,7E0,6E0,8E0,9E0,4E0,1.3E1,3.6E1,1.5E1,1.2E1,9E0,3E0,6E0,5.9E1,2E0,5E0,4E0,2E0,8E0,1E0,1E0,3E0,1E1,3E0,1E0,3.5E1,1E1,5E0,1.1E1,1E0,8E0,1E0,2.5E1,3.4E1,4E0,1E0,3E0,1E0,1E0,1E0,5E0,3E0,2E0,1E0,3E0,7E0,2E0,1E0,8E0,2.7E1,7E0,3E0,1E1,1E0,3E0,5E0,2.1E1,4E0,4E0,3E1,1E0,2E0,4E0,1E0,1E0,2E0,1E0,1E0,4E0,3E0,6E0,2E0,7E0,2E1,5E0,2E0,2E0,1E0,8E0,2E0,2E0,1E0,4E0,1E0,4E0,1.7E1,3E0,1E0,3E0,1E0,1E0,2.9E1,1E0,1E0,1E0,1E0,1E0,2E0,1E0,5E0,1E1,1E1,4E0,1E0,6E0,2E0,3E0,1E0,5E0,1.2E1,2E0,1E0,1.3E1,1.6E1,1E0,1E0,3E0,2E0,5E0,5E0,6E0,4E0,5E0,1E0,1E0,2E0,4E0,1E0,1E0,1.1E1,1E0,1E0,5E0,8E0,1E0,1.5E1,2E0,1E0,1E0,1E0,2E0,3E0,1E0,5E0],"tree_param":{"num_deleted":"0","num_feature":"7","num_nodes":"163","size_leaf_vector":"1"}},{"base_weights":[-7.5539097E-4,-8.946487E-3,1.5723453E-3,2.7926762E-5,-2.3731157E-2,3.8453728E-2,-6.321095E-4,2.09414E-3,-7.3593855E-3,-2.3742342E-2,-1.3833855E-2,3.9453354E-2,2.2124719E-2,-5.553172E-3,4.17898E-3,-1.4199713E-3,4.6262103E-3,-9.221603E-3,6.4228773E-3,1.1856594E-2,-1.3797651E-2,1.0069405E-2,2.485278E-2,4.7264693E-4,-4.124622E-2,1.6672663E-2,-6.2330784E-3,4.393836E-3,-5.425334E-3,1.1786123E-2,-1.2032552E-4,1.7717218E-2,-3.1675457E-3,-6.0289027E-3,3.466761E-2,-3.790936E-2,-1.2435801E-2,4.130638E-2,1.2091101E-2,2.772367E-3,-8.388309E-3,3.6767125E-4,4.3561575E-3,-1.8204689E-3,-4.8020454E-3,1.839757E-3,1.1087599E-2,-2.4750829E-3,5.466358E-3,1.717329E-4,1.5373766E-2,-9.884947E-4,-4.1343283E-2,2.0608895E-2,4.089278E-2,1.533211E-2,-3.3985812E-2,1.6407926E-3,2.5806073E-2,-1.0780036E-2,1.0780454E-2,-2.13293E-2,-4.5341505E-3,2.5853396E-3,-2.2421796E-3,-2.6748497E-3,5.903244E-4,6.046951E-3,-4.3298444E-3,3.1398403E-4,-6.43456E-3,-6.5071164E-3,3.3060186E-2,3.9507173E-2,1.2218686E-3,-5.557488E-3,1.9867457E-2,-3.0599292E-2,-1.1207977E-3,7.290547E-3,-2.7428374E-2,3.3255238E-2,1.7469188E-2,-1.0948334E-2,-3.5517574E-3,8.717486E-3,-7.5231916E-3,1.0717869E-3,-5.2081747E-4,-3.305516E-3,4.4061146E-3,-1.2429732E-2,-1.5653308E-3,4.8664827E-2,2.9620293E-3,7.945329E-3,3.8676064E-2,-2.7301165E-3,7.0134783E-3,9.642161E-4,2.2479633E-2,-2.6596528E-2,9.967128E-4,2.022706E-3,2.8548375E-2,1.5655399E-3,-6.117061E-3,-3.833294E-3,1.9605171E-2,-1.3284307E-2,-2.2325516E-3,1.6744137E-3,4.2150775E-3,-5.917688E-3,-2.714256E-2,5.2703037E-3,-5.717802E-3,8.610614E-3,4.8739057E-2,2.3021E-2,-1.56053575E-2,6.2530083E-3,2.9290505E-4,7.3662777E-3,-1.8627655E-2,9.939126E-3,-1.24581875E-2,3.1265713E-2,8.287628E-3,-4.920103E-3,-7.8915356E-4,1.0473176E-2,-1.357696E-2,-4.740119E-3,-1.3477504E-2,3.6518811E-3,-5.792281E-3,1.7406106E-3,1.5965402E-4,-8.039449E-3,2.3300638E-2,1.1217269E-3,5.8827884E-3,-6.692015E-3,2.5202066E-3,7.752055E-3,2.845178E-4,1.1279255E-2,8.791259E-4,-2.0993736E-2,-5.53897E-4,-2.1904707E-3,1.1492719E-2,5.660802E-4,8.13593E-3,-1.5873972E-2,2.5638938E-5,-9.594442E-3,7.755497E-3,-7.1563714E-5,3.7029982E-3],"categories":[],"categories_nodes":[],"categories_segments":[],"categories_sizes":[],"default_left":[0,0,0,0,0,0,0,0,0,0,0,0,0,0,0,0,0,0,0,0,0,0,0,0,0,0,0,0,0,0,0,0,0,0,0,0,0,0,0,0,0,0,0,0,0,0,0,0,0,0,0,0,0,0,0,0,0,0,0,0,0,0,0,0,0,0,0,0,0,0,0,0,0,0,0,0,0,0,0,0,0,0,0,0,0,0,0,0,0,0,0,0,0,0,0,0,0,0,0,0,0,0,0,0,0,0,0,0,0,0,0,0,0,0,0,0,0,0,0,0,0,0,0,0,0,0,0,0,0,0,0,0,0,0,0,0,0,0,0,0,0,0,0,0,0,0,0,0,0,0,0,0,0,0,0,0,0,0,0,0,0],"id":10,"left_children":[1,3,5,7,9,11,13,15,17,-1,19,-1,21,23,25,27,29,-1,-1,-1,-1,31,-1,33,35,37,39,41,43,45,47,49,-1,51,53,-1,55,-1,57,59,61,63,-1,65,-1,67,-1,69,-1,-1,-1,71,-1,73,-1,75,77,79,81,83,-1,-1,85,-1,-1,-1,87,-1,-1,89,-1,91,93,95,97,-1,-1,-1,-1,99,101,-1,103,-1,105,107,109,-1,-1,-1,111,113,115,117,-1,119,-1,-1,121,123,-1,-1,-1,125,127,-1,129,131,-1,133,135,137,-1,139,-1,141,143,145,-1,-1,-1,-1,-1,147,149,151,-1,-1,153,-1,-1,-1,155,157,-1,159,-1,-1,-1,-1,-1,-1,-1,-1,-1,-1,-1,-1,-1,-1,-1,-1,-1,-1,-1,-1,-1,-1,-1,-1,-1],"loss_changes":[3.8796093E-3,5.972095E-3,1.29758455E-2,4.887361E-4,7.754918E-4,1.3782643E-4,3.645115E-3,2.3558762E-4,9.147289E-4,0E0,2.8379092E-3,0E0,5.7532126E-4,1.638506E-2,1.0354471E-2,3.271129E-4,5.126081E-4,0E0,0E0,0E0,0E0,9.416535E-4,0E0,1.5313473E-2,2.7444195E-3,5.555845E-3,9.004985E-4,3.9613005E-5,1.6399033E-5,1.8361257E-4,2.4404642E-4,3.6009133E-4,0E0,1.5387076E-2,1.2650685E-3,0E0,4.6325414E-3,0E0,4.931715E-3,2.043475E-3,2.7875733E-3,7.116142E-5,0E0,2.8628427E-5,0E0,3.2511321E-4,0E0,1.931181E-4,0E0,0E0,0E0,1.076485E-2,0E0,3.5672681E-3,0E0,1.6654292E-3,1.1201007E-3,4.0130755E-3,1.0539973E-3,9.969331E-5,0E0,0E0,1.4382862E-3,0E0,0E0,0E0,7.29981E-6,0E0,0E0,2.2709004E-4,0E0,1.395233E-3,3.1870464E-3,1.6066208E-3,2.6236128E-4,0E0,0E0,0E0,0E0,3.0788681E-3,1.327689E-3,0E0,2.2803927E-3,0E0,1.01604426E-4,1.9094443E-3,7.94124E-4,0E0,0E0,0E0,6.312046E-6,3.3154492E-3,8.8342756E-4,2.9990952E-3,0E0,4.483162E-3,0E0,0E0,4.3158187E-5,2.5321436E-3,0E0,0E0,0E0,1.6090163E-3,1.8719891E-3,0E0,2.347777E-6,1.5050601E-3,0E0,4.8050494E-4,6.6486356E-4,4.7391095E-6,0E0,5.1297853E-3,0E0,1.1099168E-4,7.4907916E-4,7.184953E-5,0E0,0E0,0E0,0E0,0E0,7.612347E-4,9.659459E-4,6.954468E-4,0E0,0E0,1.3086107E-4,0E0,0E0,0E0,6.2108913E-4,1.4384357E-3,0E0,6.257839E-5,0E0,0E0,0E0,0E0,0E0,0E0,0E0,0E0,0E0,0E0,0E0,0E0,0E0,0E0,0E0,0E0,0E0,0E0,0E0,0E0,0E0,0E0,0E0,0E0,0E0],"parents":[2147483647,0,0,1,1,2,2,3,3,4,4,5,5,6,6,7,7,8,8,10,10,12,12,13,13,14,14,15,15,16,16,21,21,23,23,24,24,25,25,26,26,27,27,28,28,29,29,30,30,31,31,33,33,34,34,36,36,38,38,39,39,40,40,41,41,43,43,45,45,47,47,51,51,53,53,55,55,56,56,57,57,58,58,59,59,62,62,66,66,69,69,71,71,72,72,73,73,74,74,79,79,80,80,82,82,84,84,85,85,86,86,90,90,91,91,92,92,93,93,95,95,98,98,99,99,103,103,104,104,106,106,107,107,109,109,110,110,111,111,113,113,115,115,116,116,117,117,123,123,124,124,125,125,128,128,132,132,133,133,135,135],"right_children":[2,4,6,8,10,12,14,16,18,-1,20,-1,22,24,26,28,30,-1,-1,-1,-1,32,-1,34,36,38,40,42,44,46,48,50,-1,52,54,-1,56,-1,58,60,62,64,-1,66,-1,68,-1,70,-1,-1,-1,72,-1,74,-1,76,78,80,82,84,-1,-1,86,-1,-1,-1,88,-1,-1,90,-1,92,94,96,98,-1,-1,-1,-1,100,102,-1,104,-1,106,108,110,-1,-1,-1,112,114,116,118,-1,120,-1,-1,122,124,-1,-1,-1,126,128,-1,130,132,-1,134,136,138,-1,140,-1,142,144,146,-1,-1,-1,-1,-1,148,150,152,-1,-1,154,-1,-1,-1,156,158,-1,160,-1,-1,-1,-1,-1,-1,-1,-1,-1,-1,-1,-1,-1,-1,-1,-1,-1,-1,-1,-1,-1,-1,-1,-1,-1],"split_conditions":[-9.949112E-1,-1.2885226E0,-8.621732E-1,-1.3872033E0,-1.1848894E0,-9.578788E-1,6.634097E-1,-1.4761018E0,-1.3297634E0,-2.3742342E-2,-1.1777242E0,3.9453354E-2,-8.7157553E-1,4.6507406E-1,1.1110307E0,-1.4990396E0,-1.4475278E0,-9.221603E-3,6.4228773E-3,1.1856594E-2,-1.3797651E-2,-9.0154153E-1,2.485278E-2,2.549937E-1,5.8172786E-1,6.71809E-1,1.1677349E0,-1.50516E0,-1.4870185E0,-1.4710909E0,-1.3916651E0,-9.479677E-1,-3.1675457E-3,2.1980174E-1,4.547437E-1,-3.790936E-2,6.12195E-1,4.130638E-2,9.81178E-1,1.1410561E0,1.1834847E0,-1.50537E0,4.3561575E-3,-1.497793E0,-4.8020454E-3,-1.4737773E0,1.1087599E-2,-1.3965281E0,5.466358E-3,1.717329E-4,1.5373766E-2,6.977393E-2,-4.1343283E-2,3.3298978E-1,4.089278E-2,6.024497E-1,6.229745E-1,9.414473E-1,9.876084E-1,1.1174681E0,1.0780454E-2,-2.13293E-2,1.2243142E0,2.5853396E-3,-2.2421796E-3,-2.6748497E-3,-1.4965774E0,6.046951E-3,-4.3298444E-3,-1.4256278E0,-6.43456E-3,-4.4309214E-1,1.0443895E-1,3.2227015E-1,3.897E-1,-5.557488E-3,1.9867457E-2,-3.0599292E-2,-1.1207977E-3,9.0866566E-1,9.6568006E-1,3.3255238E-2,1.0393405E0,-1.0948334E-2,1.1231785E0,1.2202849E0,1.2820528E0,1.0717869E-3,-5.2081747E-4,-3.305516E-3,-1.400816E0,-4.7806212E-1,-2.4792315E-1,9.331044E-2,2.9620293E-3,3.1032392E-1,3.8676064E-2,-2.7301165E-3,4.4322032E-1,8.5830206E-1,2.2479633E-2,-2.6596528E-2,9.967128E-4,1.0318669E0,1.0725561E0,1.5655399E-3,1.1294351E0,1.1882006E0,1.9605171E-2,1.25462E0,1.3044063E0,-1.414071E0,4.2150775E-3,-4.888618E-1,-2.714256E-2,-3.2829428E-1,-4.7220122E-2,8.092678E-2,4.8739057E-2,2.3021E-2,-1.56053575E-2,6.2530083E-3,2.9290505E-4,7.305578E-1,8.67473E-1,1.0104786E0,-1.24581875E-2,3.1265713E-2,1.0925095E0,-4.920103E-3,-7.8915356E-4,1.0473176E-2,1.193347E0,1.2443895E0,-1.3477504E-2,1.2956378E0,-5.792281E-3,1.7406106E-3,1.5965402E-4,-8.039449E-3,2.3300638E-2,1.1217269E-3,5.8827884E-3,-6.692015E-3,2.5202066E-3,7.752055E-3,2.845178E-4,1.1279255E-2,8.791259E-4,-2.0993736E-2,-5.53897E-4,-2.1904707E-3,1.1492719E-2,5.660802E-4,8.13593E-3,-1.5873972E-2,2.5638938E-5,-9.594442E-3,7.755497E-3,-7.1563714E-5,3.7029982E-3],"split_indices":[4,4,4,4,4,4,4,4,4,0,4,0,4,4,4,4,4,0,0,0,0,4,0,4,4,4,4,4,4,4,4,4,0,4,4,0,4,0,4,4,4,4,0,4,0,4,0,4,0,0,0,4,0,4,0,4,4,4,4,4,0,0,4,0,0,0,4,0,0,4,0,4,4,4,4,0,0,0,0,4,4,0,4,0,4,4,4,0,0,0,4,4,4,4,0,4,0,0,4,4,0,0,0,4,4,0,4,4,0,4,4,4,0,4,0,4,4,4,0,0,0,0,0,4,4,4,0,0,4,0,0,0,4,4,0,4,0,0,0,0,0,0,0,0,0,0,0,0,0,0,0,0,0,0,0,0,0,0,0,0,0],"split_type":[0,0,0,0,0,0,0,0,0,0,0,0,0,0,0,0,0,0,0,0,0,0,0,0,0,0,0,0,0,0,0,0,0,0,0,0,0,0,0,0,0,0,0,0,0,0,0,0,0,0,0,0,0,0,0,0,0,0,0,0,0,0,0,0,0,0,0,0,0,0,0,0,0,0,0,0,0,0,0,0,0,0,0,0,0,0,0,0,0,0,0,0,0,0,0,0,0,0,0,0,0,0,0,0,0,0,0,0,0,0,0,0,0,0,0,0,0,0,0,0,0,0,0,0,0,0,0,0,0,0,0,0,0,0,0,0,0,0,0,0,0,0,0,0,0,0,0,0,0,0,0,0,0,0,0,0,0,0,0,0,0],"sum_hessian":[2E2,4.3E1,1.57E2,2.8E1,1.5E1,7E0,1.5E2,2.3E1,5E0,5E0,1E1,1E0,6E0,7.4E1,7.6E1,1E1,1.3E1,4E0,1E0,1E0,9E0,5E0,1E0,6.5E1,9E0,3.4E1,4.2E1,4E0,6E0,4E0,9E0,3E0,2E0,5.6E1,9E0,5E0,4E0,1E0,3.3E1,8E0,3.4E1,2E0,2E0,3E0,3E0,2E0,2E0,8E0,1E0,1E0,2E0,5.3E1,3E0,8E0,1E0,2E0,2E0,2E1,1.3E1,4E0,4E0,3E0,3.1E1,1E0,1E0,1E0,2E0,1E0,1E0,7E0,1E0,4.7E1,6E0,3E0,5E0,1E0,1E0,1E0,1E0,1.8E1,2E0,1E0,1.2E1,1E0,3E0,5E0,2.6E1,1E0,1E0,3E0,4E0,2E1,2.7E1,3E0,3E0,2E0,1E0,3E0,2E0,1.6E1,2E0,1E0,1E0,6E0,6E0,1E0,2E0,4E0,1E0,1.1E1,1.5E1,3E0,1E0,1.8E1,2E0,1E1,1.7E1,2E0,1E0,1E0,1E0,1E0,1E0,1.3E1,3E0,5E0,1E0,2E0,4E0,1E0,1E0,1E0,3E0,6E0,5E0,8E0,7E0,1E0,2E0,1.7E1,1E0,6E0,4E0,1.2E1,5E0,1E0,1E0,4E0,9E0,1E0,2E0,2E0,3E0,2E0,2E0,1E0,2E0,4E0,2E0,3E0,5E0],"tree_param":{"num_deleted":"0","num_feature":"7","num_nodes":"161","size_leaf_vector":"1"}},{"base_weights":[2.7046374E-3,-1.7262858E-3,9.1570625E-3,1.0400156E-3,-1.942279E-2,2.9104402E-2,7.1827434E-3,-5.7616727E-3,4.938455E-3,-2.2612326E-2,-3.945753E-3,6.472662E-3,2.4897626E-2,-1.6095202E-2,8.1468215E-3,-2.639454E-3,-1.140603E-2,2.790184E-2,3.3007285E-3,3.7366614E-2,-1.5524456E-2,1.7649436E-2,-1.1608285E-2,3.0965507E-3,1.2676509E-2,-5.5368966E-3,1.8314088E-2,-1.4088189E-2,-7.6389587E-3,5.7688127E-3,-5.750158E-3,1.22636575E-2,-1.7829541E-2,2.5970122E-2,8.795685E-3,-3.1606446E-3,-1.6262332E-2,2.4074714E-3,-1.2639033E-2,5.9028465E-4,9.9069625E-3,-2.582488E-2,1.2450357E-3,2.571249E-2,8.733986E-3,-2.0188227E-2,-1.2105256E-2,1.5629411E-3,1.0604202E-2,-7.213503E-3,6.5480736E-3,1.1906624E-4,3.2315492E-3,-1.0086966E-2,-3.2204092E-3,8.02051E-3,-2.8089007E-2,3.0247577E-2,5.916112E-3,-3.6396938E-3,1.6247291E-2,-1.449883E-3,3.135113E-2,-2.1928107E-2,1.4640181E-2,1.8064737E-3,-1.2000757E-2,9.77091E-3,-4.3599512E-3,-4.1600466E-3,-7.014735E-3,1.1041284E-2,-4.589081E-3,1.3344764E-3,-1.2809634E-3,9.169547E-3,-1.2175262E-2,-1.3005696E-3,1.5966287E-2,-3.1766746E-2,-6.4781667E-3,-1.2359011E-2,7.94657E-3,4.285122E-3,-7.4148844E-3,4.2061208E-4,-1.7738361E-3,-3.8940937E-3,-2.0390667E-2,1.9791117E-2,7.6331357E-3,-4.554063E-3,6.358011E-3,-9.431625E-3,1.5761236E-2,-1.0662556E-3,-5.134809E-3,-4.9526123E-3,3.600972E-4,1.5849272E-4,8.937801E-3,-1.0051131E-2,5.767989E-3,-1.1819362E-3,-1.3629595E-5,1.1311094E-3,-8.814342E-3,5.83782E-3,-1.0046761E-2,3.8407845E-3,1.6217032E-2,-1.196411E-2,-3.028897E-3,9.252039E-3,3.1668227E-2,-2.6587078E-3,1.031115E-2,4.1576107E-3,-8.40807E-3,1.6771853E-3,-1.2568935E-2,-2.111885E-3,1.5718817E-3,-6.893059E-3,-1.6649564E-3,-6.9697294E-4,1.9821047E-3,-1.8493786E-3,3.565132E-3,4.7312523E-3,-1.3402739E-2,1.2750666E-2,5.3993364E-5,2.6780246E-3,-4.9417717E-3,1.4316702E-2,-8.658584E-3,2.0255803E-3,-8.393717E-3,-4.3490925E-3,5.9144655E-3,-1.750841E-3,-6.7322133E-3,7.129043E-4,-2.4611086E-3],"categories":[],"categories_nodes":[],"categories_segments":[],"categories_sizes":[],"default_left":[0,0,0,0,0,0,0,0,0,0,0,0,0,0,0,0,0,0,0,0,0,0,0,0,0,0,0,0,0,0,0,0,0,0,0,0,0,0,0,0,0,0,0,0,0,0,0,0,0,0,0,0,0,0,0,0,0,0,0,0,0,0,0,0,0,0,0,0,0,0,0,0,0,0,0,0,0,0,0,0,0,0,0,0,0,0,0,0,0,0,0,0,0,0,0,0,0,0,0,0,0,0,0,0,0,0,0,0,0,0,0,0,0,0,0,0,0,0,0,0,0,0,0,0,0,0,0,0,0,0,0,0,0,0,0,0,0,0,0,0,0,0,0,0,0],"id":11,"left_children":[1,3,5,7,9,11,13,15,17,-1,19,21,-1,-1,23,25,27,-1,29,-1,-1,-1,-1,31,33,35,-1,-1,37,39,41,43,45,-1,47,49,-1,51,53,55,57,-1,59,61,63,-1,65,67,-1,69,71,73,-1,-1,75,77,79,-1,81,83,-1,85,-1,87,89,91,-1,93,95,97,-1,99,101,-1,103,-1,-1,105,-1,-1,107,-1,109,-1,111,-1,-1,-1,-1,113,115,117,-1,119,-1,121,123,-1,125,-1,-1,-1,-1,-1,-1,127,-1,-1,-1,129,131,-1,133,135,-1,137,-1,-1,-1,139,-1,-1,-1,141,143,-1,-1,-1,-1,-1,-1,-1,-1,-1,-1,-1,-1,-1,-1,-1,-1,-1,-1,-1,-1],"loss_changes":[5.978376E-3,6.1596334E-3,2.9294067E-3,2.9736643E-3,3.1340704E-3,5.6354236E-4,2.701996E-3,6.623282E-4,3.797469E-3,0E0,1.28195565E-2,2.5645911E-3,0E0,0E0,1.7287093E-3,2.7098723E-3,1.5239848E-4,0E0,1.6300278E-3,0E0,0E0,0E0,0E0,8.11058E-3,3.233499E-3,1.0304828E-3,0E0,0E0,7.138838E-4,1.1883575E-3,3.577434E-3,9.274841E-4,1.21136196E-4,0E0,1.6987803E-3,1.1568668E-3,0E0,2.9231564E-5,5.730451E-5,6.2041036E-3,3.6089525E-3,0E0,1.7783818E-3,2.7204622E-3,5.3505674E-3,0E0,9.031015E-4,1.0574997E-3,0E0,8.807832E-5,5.517128E-4,1.739561E-5,0E0,0E0,1.3808685E-3,3.2297536E-3,1.6542035E-3,0E0,1.7164545E-3,6.066925E-4,0E0,1.1938762E-5,0E0,2.6516546E-4,5.2799843E-4,3.14137E-4,0E0,2.6273772E-3,2.2227847E-5,1.7639306E-4,0E0,1.2495939E-4,7.379753E-4,0E0,1.990567E-6,0E0,0E0,4.6779664E-4,0E0,0E0,8.227996E-4,0E0,8.601734E-4,0E0,3.6332343E-4,0E0,0E0,0E0,0E0,2.3814035E-3,1.027873E-3,4.557034E-4,0E0,5.3368707E-4,0E0,4.5851553E-5,3.8055412E-5,0E0,2.9094037E-5,0E0,0E0,0E0,0E0,0E0,0E0,2.5114178E-4,0E0,0E0,0E0,1.734607E-3,2.8744736E-4,0E0,3.3031258E-4,3.1698244E-3,0E0,4.321134E-4,0E0,0E0,0E0,3.187207E-4,0E0,0E0,0E0,2.368039E-5,3.696171E-5,0E0,0E0,0E0,0E0,0E0,0E0,0E0,0E0,0E0,0E0,0E0,0E0,0E0,0E0,0E0,0E0,0E0,0E0,0E0,0E0],"parents":[2147483647,0,0,1,1,2,2,3,3,4,4,5,5,6,6,7,7,8,8,10,10,11,11,14,14,15,15,16,16,18,18,23,23,24,24,25,25,28,28,29,29,30,30,31,31,32,32,34,34,35,35,37,37,38,38,39,39,40,40,42,42,43,43,44,44,46,46,47,47,49,49,50,50,51,51,54,54,55,55,56,56,58,58,59,59,61,61,63,63,64,64,65,65,67,67,68,68,69,69,71,71,72,72,74,74,77,77,80,80,82,82,84,84,89,89,90,90,91,91,93,93,95,95,96,96,98,98,105,105,109,109,110,110,112,112,113,113,115,115,119,119,123,123,124,124],"right_children":[2,4,6,8,10,12,14,16,18,-1,20,22,-1,-1,24,26,28,-1,30,-1,-1,-1,-1,32,34,36,-1,-1,38,40,42,44,46,-1,48,50,-1,52,54,56,58,-1,60,62,64,-1,66,68,-1,70,72,74,-1,-1,76,78,80,-1,82,84,-1,86,-1,88,90,92,-1,94,96,98,-1,100,102,-1,104,-1,-1,106,-1,-1,108,-1,110,-1,112,-1,-1,-1,-1,114,116,118,-1,120,-1,122,124,-1,126,-1,-1,-1,-1,-1,-1,128,-1,-1,-1,130,132,-1,134,136,-1,138,-1,-1,-1,140,-1,-1,-1,142,144,-1,-1,-1,-1,-1,-1,-1,-1,-1,-1,-1,-1,-1,-1,-1,-1,-1,-1,-1,-1],"split_conditions":[5.377501E-1,2.400329E-1,6.2946653E-1,-1.1714092E0,3.644042E-1,5.6763357E-1,6.401301E-1,-1.3259019E0,-1.1641054E0,-2.2612326E-2,3.749963E-1,5.466388E-1,2.4897626E-2,-1.6095202E-2,1.113926E0,-1.3313664E0,-1.3197364E0,2.790184E-2,-6.2311847E-2,3.7366614E-2,-1.5524456E-2,1.7649436E-2,-1.1608285E-2,1.0139643E0,1.142277E0,-1.3373486E0,1.8314088E-2,-1.4088189E-2,-1.2642282E0,-7.311078E-1,-4.9839318E-2,7.079807E-1,1.021599E0,2.5970122E-2,1.2610941E0,-1.4070278E0,-1.6262332E-2,-1.2704887E0,-1.1866071E0,-8.4415007E-1,-7.2106075E-1,-2.582488E-2,2.2912249E-1,6.9874096E-1,7.751364E-1,-2.0188227E-2,1.0425029E0,1.2031195E0,1.0604202E-2,-1.4752661E0,-1.3591872E0,-1.2901583E0,3.2315492E-3,-1.0086966E-2,-1.1794478E0,-9.498732E-1,-8.335385E-1,3.0247577E-2,-7.098468E-1,3.1076808E-2,1.6247291E-2,6.602274E-1,3.135113E-2,7.464308E-1,8.884837E-1,1.0358604E0,-1.2000757E-2,1.1696746E0,1.2206875E0,-1.4980482E0,-7.014735E-3,-1.3932191E0,-1.3426476E0,1.3344764E-3,-1.2773601E0,9.169547E-3,-1.2175262E-2,-9.686283E-1,1.5966287E-2,-3.1766746E-2,-7.840098E-1,-1.2359011E-2,-2.1436934E-1,4.285122E-3,5.4662902E-2,4.2061208E-4,-1.7738361E-3,-3.8940937E-3,-2.0390667E-2,8.8132894E-1,9.4647306E-1,1.0283927E0,6.358011E-3,1.164153E0,1.5761236E-2,1.2166615E0,1.240747E0,-4.9526123E-3,-1.4800677E0,1.5849272E-4,8.937801E-3,-1.0051131E-2,5.767989E-3,-1.1819362E-3,-1.3629595E-5,-1.074903E0,-8.814342E-3,5.83782E-3,-1.0046761E-2,-2.5038332E-1,-7.353524E-2,-1.196411E-2,1.0169959E-1,8.373526E-1,3.1668227E-2,9.303928E-1,1.031115E-2,4.1576107E-3,-8.40807E-3,1.1591008E0,-1.2568935E-2,-2.111885E-3,1.5718817E-3,1.2367653E0,1.2509692E0,-6.9697294E-4,1.9821047E-3,-1.8493786E-3,3.565132E-3,4.7312523E-3,-1.3402739E-2,1.2750666E-2,5.3993364E-5,2.6780246E-3,-4.9417717E-3,1.4316702E-2,-8.658584E-3,2.0255803E-3,-8.393717E-3,-4.3490925E-3,5.9144655E-3,-1.750841E-3,-6.7322133E-3,7.129043E-4,-2.4611086E-3],"split_indices":[6,6,6,6,6,6,6,6,6,0,6,6,0,0,6,6,6,0,6,0,0,0,0,6,6,6,0,0,6,6,6,6,6,0,6,6,0,6,6,6,6,0,6,6,6,0,6,6,0,6,6,6,0,0,6,6,6,0,6,6,0,6,0,6,6,6,0,6,6,6,0,6,6,0,6,0,0,6,0,0,6,0,6,0,6,0,0,0,0,6,6,6,0,6,0,6,6,0,6,0,0,0,0,0,0,6,0,0,0,6,6,0,6,6,0,6,0,0,0,6,0,0,0,6,6,0,0,0,0,0,0,0,0,0,0,0,0,0,0,0,0,0,0,0,0],"split_type":[0,0,0,0,0,0,0,0,0,0,0,0,0,0,0,0,0,0,0,0,0,0,0,0,0,0,0,0,0,0,0,0,0,0,0,0,0,0,0,0,0,0,0,0,0,0,0,0,0,0,0,0,0,0,0,0,0,0,0,0,0,0,0,0,0,0,0,0,0,0,0,0,0,0,0,0,0,0,0,0,0,0,0,0,0,0,0,0,0,0,0,0,0,0,0,0,0,0,0,0,0,0,0,0,0,0,0,0,0,0,0,0,0,0,0,0,0,0,0,0,0,0,0,0,0,0,0,0,0,0,0,0,0,0,0,0,0,0,0,0,0,0,0,0,0],"sum_hessian":[2.06E2,1.23E2,8.3E1,1.08E2,1.5E1,5E0,7.8E1,3.9E1,6.9E1,7E0,8E0,2E0,3E0,1E0,7.7E1,2.7E1,1.2E1,1E0,6.8E1,1E0,7E0,1E0,1E0,3.8E1,3.9E1,2.6E1,1E0,1E0,1.1E1,5.4E1,1.4E1,2.7E1,1.1E1,3E0,3.6E1,2.5E1,1E0,4E0,7E0,2.5E1,2.9E1,1E0,1.3E1,3E0,2.4E1,1E0,1E1,1.8E1,1.8E1,1.8E1,7E0,3E0,1E0,5E0,2E0,2.1E1,4E0,1E0,2.8E1,1.2E1,1E0,2E0,1E0,3E0,2.1E1,3E0,7E0,7E0,1.1E1,1.1E1,7E0,5E0,2E0,1E0,2E0,1E0,1E0,1.4E1,7E0,1E0,3E0,1E0,2.7E1,3E0,9E0,1E0,1E0,2E0,1E0,1E1,1.1E1,2E0,1E0,3E0,4E0,3E0,8E0,6E0,5E0,1E0,4E0,1E0,1E0,1E0,1E0,1.3E1,1E0,1E0,2E0,2E1,7E0,1E0,8E0,9E0,1E0,5E0,6E0,1E0,1E0,2E0,1E0,2E0,1E0,4E0,4E0,4E0,1E0,7E0,6E0,1.9E1,1E0,6E0,1E0,3E0,5E0,6E0,3E0,4E0,1E0,1E0,1E0,3E0,1E0,2E0,2E0],"tree_param":{"num_deleted":"0","num_feature":"7","num_nodes":"145","size_leaf_vector":"1"}},{"base_weights":[1.7052823E-3,6.1044884E-3,-5.366314E-3,2.5611708E-3,3.194222E-2,-2.2899799E-2,-1.69686E-3,4.72356E-3,-2.3956647E-2,1.671461E-2,-5.696104E-3,9.864189E-3,1.19845165E-4,-2.6882585E-2,2.96247E-3,6.800023E-3,2.4935693E-2,-1.823932E-2,-3.2678745E-3,2.7376385E-3,2.2798441E-2,-5.6315707E-3,1.3846022E-2,2.7630946E-3,7.4262917E-4,5.886975E-3,-2.1698594E-3,1.2369502E-2,-6.8651657E-3,6.4455494E-3,-2.104036E-2,-2.4227793E-3,-1.7228067E-2,3.1394064E-2,1.6656724E-3,-8.9606247E-4,1.589183E-3,-5.2955425E-3,1.5875971E-2,-1.8751876E-2,9.626727E-5,1.6260147E-3,2.1078322E-2,-1.7568137E-2,-6.4632E-3,-1.0982919E-2,1.4600174E-3,-6.0859476E-3,1.5321751E-2,1.8211998E-2,4.096287E-3,-4.0163067E-3,-1.978446E-2,1.107117E-2,-4.143362E-3,5.6667873E-3,-1.0902807E-2,2.0979535E-2,6.6418448E-3,1.7032821E-3,-7.735602E-3,1.4828246E-2,-5.9644724E-3,-8.705926E-3,5.403973E-4,2.3842197E-2,-2.050066E-3,-9.31263E-3,1.1430879E-2,-9.459891E-3,2.558538E-3,-1.257658E-3,-9.340209E-3,-3.6325008E-3,9.170162E-3,-3.81128E-3,-1.1262086E-2,-1.1764566E-3,6.2850234E-3,1.2295331E-3,1.6933221E-2,-1.0415211E-2,4.428123E-3,-1.2447834E-3,-7.544632E-3,-8.4422994E-4,1.1060202E-3,-5.4229517E-3,3.247723E-3,8.878875E-3,1.2051066E-3,4.6764673E-3,-1.7625808E-3,-8.651614E-3,1.934872E-3,7.563313E-4,-3.2301426E-3,8.216964E-3,1.2462139E-3,-5.395651E-3,3.5915375E-5,5.286284E-3,-3.0240845E-3,-1.372164E-2,-4.4117006E-3,5.683556E-3,-2.3259616E-3,-4.0369746E-3,2.875177E-3,2.708743E-3,3.224651E-4,4.6339928E-4,-2.6742101E-3,-8.999427E-3,-2.5657713E-3,2.2498525E-3,-1.0371844E-3],"categories":[],"categories_nodes":[],"categories_segments":[],"categories_sizes":[],"default_left":[0,0,0,0,0,0,0,0,0,0,0,0,0,0,0,0,0,0,0,0,0,0,0,0,0,0,0,0,0,0,0,0,0,0,0,0,0,0,0,0,0,0,0,0,0,0,0,0,0,0,0,0,0,0,0,0,0,0,0,0,0,0,0,0,0,0,0,0,0,0,0,0,0,0,0,0,0,0,0,0,0,0,0,0,0,0,0,0,0,0,0,0,0,0,0,0,0,0,0,0,0,0,0,0,0,0,0,0,0,0,0,0,0,0,0,0,0],"id":12,"left_children":[1,3,5,7,-1,-1,9,11,13,15,17,19,21,-1,23,25,-1,-1,27,29,-1,31,33,-1,35,-1,-1,37,39,41,43,45,-1,-1,47,-1,-1,-1,49,51,53,55,57,-1,59,-1,61,63,65,-1,67,69,-1,-1,71,73,75,-1,77,-1,-1,79,81,83,85,-1,87,-1,89,-1,91,93,-1,95,97,99,-1,-1,-1,101,-1,103,105,107,-1,-1,-1,-1,109,-1,-1,-1,111,113,115,-1,-1,-1,-1,-1,-1,-1,-1,-1,-1,-1,-1,-1,-1,-1,-1,-1,-1,-1,-1,-1,-1],"loss_changes":[6.225181E-3,1.6993344E-2,7.6160105E-3,6.8206326E-3,0E0,0E0,5.344653E-3,2.5535622E-3,3.7276559E-3,1.9525539E-3,2.7465988E-3,8.073904E-3,4.813702E-3,0E0,5.0678573E-6,2.274579E-4,0E0,0E0,3.2637087E-3,3.8860685E-3,0E0,2.49956E-3,6.6478075E-3,0E0,1.8172153E-5,0E0,0E0,1.0091047E-3,3.8100437E-3,2.5408093E-3,3.0417461E-5,2.0548403E-3,0E0,0E0,1.7743459E-3,0E0,0E0,0E0,9.814505E-4,2.1556797E-3,2.1970777E-3,1.6423515E-3,7.5725745E-4,0E0,2.1703498E-4,0E0,3.3529582E-3,2.00379E-4,2.0927854E-3,0E0,1.197503E-3,6.311733E-4,0E0,0E0,6.566826E-4,8.4851444E-4,1.7156987E-4,0E0,1.4686593E-4,0E0,0E0,1.4682598E-3,1.1098436E-3,9.685039E-5,1.2889435E-5,0E0,2.0122844E-4,0E0,2.9334275E-5,0E0,1.4823591E-4,5.527989E-4,0E0,4.6996356E-5,2.9984012E-4,9.1101196E-5,0E0,0E0,0E0,3.1085574E-4,0E0,3.5747E-4,2.828425E-4,1.4419273E-4,0E0,0E0,0E0,0E0,3.3679898E-6,0E0,0E0,0E0,3.0003594E-5,5.2512623E-5,8.3822684E-5,0E0,0E0,0E0,0E0,0E0,0E0,0E0,0E0,0E0,0E0,0E0,0E0,0E0,0E0,0E0,0E0,0E0,0E0,0E0,0E0,0E0,0E0],"parents":[2147483647,0,0,1,1,2,2,3,3,6,6,7,7,8,8,9,9,10,10,11,11,12,12,14,14,15,15,18,18,19,19,21,21,22,22,24,24,27,27,28,28,29,29,30,30,31,31,34,34,38,38,39,39,40,40,41,41,42,42,44,44,46,46,47,47,48,48,50,50,51,51,54,54,55,55,56,56,58,58,61,61,62,62,63,63,64,64,66,66,68,68,70,70,71,71,73,73,74,74,75,75,79,79,81,81,82,82,83,83,88,88,92,92,93,93,94,94],"right_children":[2,4,6,8,-1,-1,10,12,14,16,18,20,22,-1,24,26,-1,-1,28,30,-1,32,34,-1,36,-1,-1,38,40,42,44,46,-1,-1,48,-1,-1,-1,50,52,54,56,58,-1,60,-1,62,64,66,-1,68,70,-1,-1,72,74,76,-1,78,-1,-1,80,82,84,86,-1,88,-1,90,-1,92,94,-1,96,98,100,-1,-1,-1,102,-1,104,106,108,-1,-1,-1,-1,110,-1,-1,-1,112,114,116,-1,-1,-1,-1,-1,-1,-1,-1,-1,-1,-1,-1,-1,-1,-1,-1,-1,-1,-1,-1,-1,-1],"split_conditions":[7.305578E-1,5.7960474E-1,8.2997715E-1,4.9812463E-1,3.194222E-2,-2.2899799E-2,9.5740104E-1,-8.621732E-1,6.229745E-1,1.0150698E0,9.6335053E-1,-1.0912724E0,9.144995E-2,-2.6882585E-2,6.634097E-1,9.2520064E-1,2.4935693E-2,-1.823932E-2,1.1051584E0,-1.1927725E0,2.2798441E-2,-2.351882E-2,1.0443895E-1,2.7630946E-3,6.9161606E-1,5.886975E-3,-2.1698594E-3,9.81178E-1,1.2262238E0,-1.3308588E0,-1.0730968E0,-7.515343E-1,-1.7228067E-2,3.1394064E-2,4.098794E-1,-8.9606247E-4,1.589183E-3,-5.2955425E-3,1.0318669E0,1.1677349E0,1.2404047E0,-1.3965281E0,-1.3242946E0,-1.7568137E-2,-9.949112E-1,-1.0982919E-2,-4.7806212E-1,3.4487316E-1,3.3298978E-1,1.8211998E-2,1.06692E0,1.050916E0,-1.978446E-2,1.107117E-2,1.3146721E0,-1.4961284E0,-1.3297634E0,2.0979535E-2,-1.306139E0,1.7032821E-3,-7.735602E-3,-6.1317456E-1,-1.4257465E-1,2.0883976E-1,3.897E-1,2.3842197E-2,3.673519E-1,-9.31263E-3,1.1434152E0,-9.459891E-3,1.1857514E0,1.2741766E0,-9.340209E-3,-1.5054584E0,-1.4371974E0,-1.3916651E0,-1.1262086E-2,-1.1764566E-3,6.2850234E-3,-7.203976E-1,1.6933221E-2,-4.4309214E-1,-3.7784316E-2,1.856308E-1,-7.544632E-3,-8.4422994E-4,1.1060202E-3,-5.4229517E-3,3.779524E-1,8.878875E-3,1.2051066E-3,4.6764673E-3,1.1458415E0,1.2820528E0,1.309607E0,7.563313E-4,-3.2301426E-3,8.216964E-3,1.2462139E-3,-5.395651E-3,3.5915375E-5,5.286284E-3,-3.0240845E-3,-1.372164E-2,-4.4117006E-3,5.683556E-3,-2.3259616E-3,-4.0369746E-3,2.875177E-3,2.708743E-3,3.224651E-4,4.6339928E-4,-2.6742101E-3,-8.999427E-3,-2.5657713E-3,2.2498525E-3,-1.0371844E-3],"split_indices":[4,5,5,4,0,0,4,4,4,5,5,5,5,0,4,4,0,0,4,4,0,4,4,0,4,0,0,4,5,5,4,5,0,0,5,0,0,0,4,4,4,4,4,0,4,0,4,4,4,0,4,5,0,0,4,5,4,0,4,0,0,5,5,4,4,0,4,0,5,0,5,5,0,5,4,4,0,0,0,5,0,4,5,4,0,0,0,0,4,0,0,0,4,4,4,0,0,0,0,0,0,0,0,0,0,0,0,0,0,0,0,0,0,0,0,0,0],"split_type":[0,0,0,0,0,0,0,0,0,0,0,0,0,0,0,0,0,0,0,0,0,0,0,0,0,0,0,0,0,0,0,0,0,0,0,0,0,0,0,0,0,0,0,0,0,0,0,0,0,0,0,0,0,0,0,0,0,0,0,0,0,0,0,0,0,0,0,0,0,0,0,0,0,0,0,0,0,0,0,0,0,0,0,0,0,0,0,0,0,0,0,0,0,0,0,0,0,0,0,0,0,0,0,0,0,0,0,0,0,0,0,0,0,0,0,0,0],"sum_hessian":[1.96E2,1.21E2,7.5E1,1.13E2,8E0,7E0,6.8E1,1.06E2,7E0,1.1E1,5.7E1,4.9E1,5.7E1,4E0,3E0,9E0,2E0,4E0,5.3E1,3.9E1,1E1,4.1E1,1.6E1,1E0,2E0,8E0,1E0,9E0,4.4E1,3.5E1,4E0,3.7E1,4E0,3E0,1.3E1,1E0,1E0,1E0,8E0,1.5E1,2.9E1,2.8E1,7E0,2E0,2E0,7E0,3E1,9E0,4E0,3E0,5E0,7E0,8E0,5E0,2.4E1,2.2E1,6E0,3E0,4E0,1E0,1E0,1E1,2E1,6E0,3E0,1E0,3E0,1E0,4E0,2E0,5E0,2E1,4E0,6E0,1.6E1,4E0,2E0,1E0,3E0,5E0,5E0,1.4E1,6E0,2E0,4E0,1E0,2E0,1E0,2E0,3E0,1E0,2E0,3E0,5E0,1.5E1,1E0,5E0,1.1E1,5E0,1E0,3E0,2E0,3E0,2E0,1.2E1,4E0,2E0,1E0,1E0,1E0,1E0,2E0,1E0,1E0,4E0,1.1E1,4E0],"tree_param":{"num_deleted":"0","num_feature":"7","num_nodes":"117","size_leaf_vector":"1"}},{"base_weights":[8.4586465E-4,1.9863008E-3,-5.114933E-3,4.260273E-4,1.1507474E-2,-1.2683695E-2,-1.6782332E-3,1.5509673E-3,-7.4341907E-3,2.2571575E-2,1.8594702E-3,-4.744341E-3,-1.6395152E-2,1.9853513E-3,-4.3853363E-3,-6.6519354E-4,1.4801313E-2,-1.2316731E-2,-1.2915944E-3,2.9348412E-3,1.649966E-2,-3.8883567E-3,3.9444864E-3,-4.9337163E-3,1.5807827E-3,-1.5549504E-2,-6.346035E-3,3.0860603E-3,6.189585E-4,-7.89007E-3,1.8743788E-3,2.4878024E-4,-2.4466913E-2,1.9345703E-2,5.452946E-3,3.4889777E-3,-7.0690173E-3,7.750789E-5,-4.94349E-3,2.2081374E-3,4.4191806E-3,-5.401671E-4,-6.8995515E-3,-1.0177136E-3,8.2064996E-4,-1.5779316E-3,-6.1148447E-3,-8.71703E-4,2.5342535E-3,4.6750307E-3,-2.9957546E-3,1.9175312E-2,1.2257522E-2,-1.13204485E-2,1.6252114E-2,-5.1853866E-3,8.718797E-3,-5.346487E-3,-8.530875E-4,-4.227873E-3,-3.8605134E-4,4.8387647E-3,-2.9100298E-3,-1.7862279E-3,1.282072E-3,-8.5337955E-4,1.7319879E-2,-1.6698075E-2,-8.405479E-4,-1.5717149E-3,1.86334E-2,1.6825791E-2,6.9423765E-3,7.007684E-3,2.2533337E-4,4.867885E-3,7.8790187E-4,1.8674582E-3,-1.0556038E-2,1.38024045E-2,8.6694956E-4,1.3058543E-3,-1.94849E-2,9.2612645E-3,-4.317676E-3,-4.1575967E-3,2.4899244E-3,1.6286472E-2,7.4736476E-3,-6.2802136E-3,1.1685644E-2,-3.877282E-4,1.2810985E-3,-1.6546412E-3,8.013397E-3,-2.0550508E-3,2.8642036E-3,-1.45827E-2,-2.3455143E-3,-5.007497E-3,1.1660263E-2,-2.0200346E-2,-1.2633704E-3,2.0767052E-3,2.4722418E-4,-8.6582145E-3,1.3033102E-2,1.2183746E-3,-7.0799068E-3,5.1759084E-4,-8.794705E-4,7.7937637E-4,-2.9028326E-3,1.0096425E-2,1.8700454E-3,1.189797E-3,-7.62143E-3,-2.6773498E-3,4.8184046E-3],"categories":[],"categories_nodes":[],"categories_segments":[],"categories_sizes":[],"default_left":[0,0,0,0,0,0,0,0,0,0,0,0,0,0,0,0,0,0,0,0,0,0,0,0,0,0,0,0,0,0,0,0,0,0,0,0,0,0,0,0,0,0,0,0,0,0,0,0,0,0,0,0,0,0,0,0,0,0,0,0,0,0,0,0,0,0,0,0,0,0,0,0,0,0,0,0,0,0,0,0,0,0,0,0,0,0,0,0,0,0,0,0,0,0,0,0,0,0,0,0,0,0,0,0,0,0,0,0,0,0,0,0,0,0,0,0,0,0,0],"id":13,"left_children":[1,3,5,7,9,11,13,15,17,19,21,23,25,27,29,31,33,-1,35,-1,-1,37,39,-1,-1,-1,41,-1,43,45,47,49,-1,51,53,55,57,-1,59,61,-1,63,-1,-1,-1,-1,-1,-1,-1,65,67,-1,69,-1,71,-1,73,-1,-1,-1,-1,75,-1,-1,-1,77,79,81,83,85,87,-1,89,-1,-1,-1,91,93,-1,-1,95,-1,97,99,101,-1,103,-1,105,107,-1,109,-1,111,113,-1,-1,-1,-1,115,-1,-1,117,-1,-1,-1,-1,-1,-1,-1,-1,-1,-1,-1,-1,-1,-1,-1,-1],"loss_changes":[1.3934972E-3,2.5305082E-3,8.1580936E-4,1.3405592E-3,2.477973E-3,1.390971E-4,2.6535537E-4,3.8958583E-3,1.1404476E-3,4.3921173E-6,2.1043983E-4,1.2862982E-4,6.888411E-5,3.4276713E-5,3.5865747E-4,3.6212513E-3,5.9618754E-4,0E0,4.3599872E-4,0E0,0E0,2.2192566E-5,2.1472748E-5,0E0,0E0,0E0,9.12582E-5,0E0,1.4879966E-5,8.264149E-6,4.7145033E-5,1.6651786E-3,0E0,1.2965873E-5,2.62745E-3,6.420611E-4,4.6780624E-6,0E0,1.2598299E-5,2.0767922E-4,0E0,2.8430753E-5,0E0,0E0,0E0,0E0,0E0,0E0,0E0,3.45495E-3,1.9505281E-3,0E0,9.403082E-4,0E0,1.7357094E-4,0E0,6.950693E-5,0E0,0E0,0E0,0E0,5.7593817E-5,0E0,0E0,0E0,1.4498278E-3,5.575847E-4,5.3829956E-4,2.187492E-3,1.1827774E-4,1.41514465E-5,0E0,9.833138E-4,0E0,0E0,0E0,7.5456314E-6,7.1921E-4,0E0,0E0,7.307665E-5,0E0,3.4321798E-5,1.8553914E-3,3.374901E-3,0E0,1.9796244E-6,0E0,1.5663169E-3,1.5821235E-4,0E0,5.7743937E-6,0E0,1.610051E-4,3.3383933E-4,0E0,0E0,0E0,0E0,3.1309284E-4,0E0,0E0,9.499515E-4,0E0,0E0,0E0,0E0,0E0,0E0,0E0,0E0,0E0,0E0,0E0,0E0,0E0,0E0,0E0,0E0],"parents":[2147483647,0,0,1,1,2,2,3,3,4,4,5,5,6,6,7,7,8,8,9,9,10,10,11,11,12,12,13,13,14,14,15,15,16,16,18,18,21,21,22,22,26,26,28,28,29,29,30,30,31,31,33,33,34,34,35,35,36,36,38,38,39,39,41,41,49,49,50,50,52,52,54,54,56,56,61,61,65,65,66,66,67,67,68,68,69,69,70,70,72,72,76,76,77,77,80,80,82,82,83,83,84,84,86,86,88,88,89,89,91,91,93,93,94,94,99,99,102,102],"right_children":[2,4,6,8,10,12,14,16,18,20,22,24,26,28,30,32,34,-1,36,-1,-1,38,40,-1,-1,-1,42,-1,44,46,48,50,-1,52,54,56,58,-1,60,62,-1,64,-1,-1,-1,-1,-1,-1,-1,66,68,-1,70,-1,72,-1,74,-1,-1,-1,-1,76,-1,-1,-1,78,80,82,84,86,88,-1,90,-1,-1,-1,92,94,-1,-1,96,-1,98,100,102,-1,104,-1,106,108,-1,110,-1,112,114,-1,-1,-1,-1,116,-1,-1,118,-1,-1,-1,-1,-1,-1,-1,-1,-1,-1,-1,-1,-1,-1,-1,-1],"split_conditions":[1.1882006E0,9.788402E-1,1.2419102E0,7.305578E-1,1.0725561E0,1.2367303E0,1.2975034E0,4.526889E-1,7.76181E-1,8.9184695E-1,1.0833219E0,1.2286948E0,1.2443895E0,1.2404047E0,1.3101156E0,5.4083526E-1,6.12195E-1,-1.2316731E-2,9.0866566E-1,2.9348412E-3,1.649966E-2,1.0857159E0,1.2218457E0,-4.9337163E-3,1.5807827E-3,-1.5549504E-2,1.2647529E0,3.0860603E-3,1.2588707E0,1.3029144E0,1.3044063E0,-1.0649719E0,-2.4466913E-2,4.744484E-1,6.326244E-1,7.862287E-1,1.0393405E0,7.750789E-5,1.1174681E0,1.1626787E0,4.4191806E-3,1.2613591E0,-6.8995515E-3,-1.0177136E-3,8.2064996E-4,-1.5779316E-3,-6.1148447E-3,-8.71703E-4,2.5342535E-3,-1.2566563E0,-8.8330483E-1,1.9175312E-2,4.1191116E-1,-1.13204485E-2,6.71809E-1,-5.1853866E-3,9.5507604E-1,-5.346487E-3,-8.530875E-4,-4.227873E-3,-3.8605134E-4,1.1757039E0,-2.9100298E-3,-1.7862279E-3,1.282072E-3,-1.3357503E0,-1.0900481E0,-1.1000782E0,-5.8954895E-1,3.673519E-1,4.6507406E-1,1.6825791E-2,7.1120083E-1,7.007684E-3,2.2533337E-4,4.867885E-3,1.1410561E0,-1.4266717E0,-1.0556038E-2,1.38024045E-2,-1.0820549E0,1.3058543E-3,-8.5166514E-1,-7.6256067E-1,-5.793351E-1,-4.1575967E-3,3.779524E-1,1.6286472E-2,5.0830066E-1,7.0195377E-1,1.1685644E-2,1.1231785E0,1.2810985E-3,-1.4829968E0,-1.4371974E0,-2.0550508E-3,2.8642036E-3,-1.45827E-2,-2.3455143E-3,-7.5012726E-1,1.1660263E-2,-2.0200346E-2,3.0834678E-1,2.0767052E-3,2.4722418E-4,-8.6582145E-3,1.3033102E-2,1.2183746E-3,-7.0799068E-3,5.1759084E-4,-8.794705E-4,7.7937637E-4,-2.9028326E-3,1.0096425E-2,1.8700454E-3,1.189797E-3,-7.62143E-3,-2.6773498E-3,4.8184046E-3],"split_indices":[4,5,5,4,4,4,4,5,5,4,5,4,4,4,5,4,4,0,4,0,0,4,5,0,0,0,4,0,5,4,4,4,0,5,4,4,4,0,4,4,0,4,0,0,0,0,0,0,0,5,5,0,4,0,4,0,5,0,0,0,0,5,0,0,0,4,4,5,4,4,4,0,4,0,0,0,4,5,0,0,4,0,4,5,5,0,4,0,4,4,0,4,0,4,4,0,0,0,0,4,0,0,5,0,0,0,0,0,0,0,0,0,0,0,0,0,0,0,0],"split_type":[0,0,0,0,0,0,0,0,0,0,0,0,0,0,0,0,0,0,0,0,0,0,0,0,0,0,0,0,0,0,0,0,0,0,0,0,0,0,0,0,0,0,0,0,0,0,0,0,0,0,0,0,0,0,0,0,0,0,0,0,0,0,0,0,0,0,0,0,0,0,0,0,0,0,0,0,0,0,0,0,0,0,0,0,0,0,0,0,0,0,0,0,0,0,0,0,0,0,0,0,0,0,0,0,0,0,0,0,0,0,0,0,0,0,0,0,0,0,0],"sum_hessian":[2E2,1.69E2,3.1E1,1.47E2,2.2E1,8E0,2.3E1,1.3E2,1.7E1,9E0,1.3E1,4E0,4E0,1E1,1.3E1,1.13E2,1.7E1,5E0,1.2E1,1E0,8E0,3E0,1E1,3E0,1E0,1E0,3E0,2E0,8E0,8E0,5E0,1.12E2,1E0,1E1,7E0,7E0,5E0,1E0,2E0,8E0,2E0,2E0,1E0,1E0,7E0,2E0,6E0,2E0,3E0,4.7E1,6.5E1,2E0,8E0,2E0,5E0,2E0,5E0,4E0,1E0,1E0,1E0,6E0,2E0,1E0,1E0,3.4E1,1.3E1,7E0,5.8E1,3E0,5E0,1E0,4E0,4E0,1E0,3E0,3E0,3E1,4E0,1.1E1,2E0,1E0,6E0,1.4E1,4.4E1,1E0,2E0,2E0,3E0,2E0,2E0,2E0,1E0,2E1,1E1,1E0,1E0,5E0,1E0,5E0,9E0,3E0,4.1E1,1E0,1E0,1E0,2E0,1E0,1E0,1E0,1E0,1E1,1E1,3E0,7E0,3E0,2E0,3.2E1,9E0],"tree_param":{"num_deleted":"0","num_feature":"7","num_nodes":"119","size_leaf_vector":"1"}},{"base_weights":[1.0664169E-4,1.4198436E-3,-2.6846684E-3,4.8857025E-4,6.8655E-3,-1.2146295E-2,-1.6681912E-3,1.7854791E-3,-4.8478553E-3,1.1672317E-2,2.794351E-4,1.2615331E-2,-2.567125E-3,5.116649E-4,2.5273759E-2,-1.5331404E-2,-4.751945E-4,-4.4459645E-3,7.394478E-3,-1.2256871E-2,-1.4762159E-3,1.5679759E-3,-7.839796E-3,1.9849539E-2,3.0199983E-3,-1.4895946E-3,-1.4190603E-2,8.149573E-3,-4.719693E-3,-2.4392775E-4,-7.866353E-3,9.4254315E-4,-1.3529494E-2,1.1336625E-2,-2.3544922E-3,-4.801645E-4,4.3063327E-3,3.4069605E-3,-1.0083902E-2,-2.4703084E-3,1.0800203E-3,-1.05066E-3,1.5575077E-2,-1.1561066E-4,-8.143852E-3,-3.7866477E-3,6.3349977E-3,-8.928888E-3,-1.7862916E-3,-4.1605037E-4,1.2957572E-3,-3.3652398E-4,-4.4204933E-3,2.1440864E-3,-8.480911E-3,1.3711793E-2,1.2668076E-3,-9.66203E-3,-5.703427E-3,5.9588403E-3,-6.787354E-3,1.38047775E-2,7.319614E-4,-3.1874895E-3,1.8193977E-3,-1.3428171E-2,3.9800705E-4,5.73395E-3,1.787146E-4,1.8656969E-3,-4.2318255E-3,-2.8308858E-3,6.3170786E-3,-1.1921278E-2,-2.6919488E-3,3.6899508E-3,-1.6342402E-3,-4.6543153E-3,-1.0334515E-2,-5.480349E-3,3.0613472E-3,5.192451E-3,-7.746342E-3,-1.2821833E-3,6.8437676E-3,1.545799E-3,-1.1991523E-4,-1.1701233E-3,-1.0872057E-2,2.8138333E-3,-1.7621189E-3,-4.122466E-3,1.7276207E-4,-4.2774677E-3,3.391385E-4,-3.751417E-3,-4.6882845E-4,1.5519062E-3,1.6276777E-2,-6.0744327E-3,3.4246047E-3,-9.922289E-3,-8.67337E-4,7.3926076E-3,2.1929126E-3,-9.93375E-4,5.8396626E-3,-2.4883152E-4,-7.4506104E-3,1.4645371E-3,-3.602288E-3,9.870529E-5,-4.8655528E-3,2.0259141E-3,-2.453491E-3,1.8743972E-3,-2.2966843E-3,1.3275615E-2,1.916043E-3,5.7720987E-4,5.6524435E-3,-1.5274837E-3,2.5586644E-3,5.8615603E-4,6.3136113E-3,-5.1566497E-3,2.4829058E-3,-2.8441488E-3,5.2528423E-3,-1.0989598E-2,-2.1317198E-3,-8.748323E-4,9.784728E-4,-5.3320145E-3,-1.9111221E-3,-4.0922165E-4,-2.3386884E-3],"categories":[],"categories_nodes":[],"categories_segments":[],"categories_sizes":[],"default_left":[0,0,0,0,0,0,0,0,0,0,0,0,0,0,0,0,0,0,0,0,0,0,0,0,0,0,0,0,0,0,0,0,0,0,0,0,0,0,0,0,0,0,0,0,0,0,0,0,0,0,0,0,0,0,0,0,0,0,0,0,0,0,0,0,0,0,0,0,0,0,0,0,0,0,0,0,0,0,0,0,0,0,0,0,0,0,0,0,0,0,0,0,0,0,0,0,0,0,0,0,0,0,0,0,0,0,0,0,0,0,0,0,0,0,0,0,0,0,0,0,0,0,0,0,0,0,0,0,0,0,0,0,0,0,0,0,0],"id":14,"left_children":[1,3,5,7,9,-1,11,13,15,-1,17,-1,19,21,23,25,27,29,-1,31,33,35,37,-1,-1,39,-1,41,43,45,47,49,-1,-1,51,53,55,-1,57,-1,-1,59,61,63,65,-1,67,-1,69,-1,-1,71,73,75,77,-1,79,-1,81,83,-1,-1,-1,-1,85,87,89,-1,-1,-1,91,93,-1,-1,95,97,99,101,-1,-1,103,105,-1,-1,-1,-1,-1,-1,-1,-1,-1,-1,-1,107,109,111,113,115,117,-1,119,-1,121,123,125,-1,-1,127,129,-1,-1,131,133,-1,135,-1,-1,-1,-1,-1,-1,-1,-1,-1,-1,-1,-1,-1,-1,-1,-1,-1,-1,-1,-1,-1,-1],"loss_changes":[7.443999E-4,6.931439E-4,9.111833E-4,8.478144E-4,1.2827667E-3,0E0,1.2076346E-3,2.9062678E-3,1.0856134E-3,0E0,7.742814E-4,0E0,6.1919156E-4,8.626505E-4,7.8385696E-5,4.1834044E-4,7.7247544E-4,1.542609E-4,0E0,5.964314E-4,9.7644416E-4,4.864699E-4,4.1182997E-4,0E0,0E0,3.56277E-5,0E0,5.109428E-4,2.1882853E-4,3.064256E-4,1.3278957E-4,7.785745E-6,0E0,0E0,2.3466485E-4,1.107162E-3,1.6690155E-3,0E0,5.4620905E-6,0E0,0E0,4.1856174E-4,1.9971473E-4,8.526916E-5,3.717923E-4,0E0,4.0961764E-5,0E0,7.699037E-5,0E0,0E0,7.749295E-4,5.1862E-4,2.4569177E-4,1.7510785E-4,0E0,5.8659114E-4,0E0,5.823787E-4,1.5479226E-4,0E0,0E0,0E0,0E0,6.1757037E-6,7.17151E-5,7.303087E-5,0E0,0E0,0E0,3.2598684E-5,1.2212952E-4,0E0,0E0,6.0076243E-5,7.2990457E-4,5.2265276E-4,3.7199992E-4,0E0,0E0,7.665841E-5,1.0698108E-4,0E0,0E0,0E0,0E0,0E0,0E0,0E0,0E0,0E0,0E0,0E0,2.2639392E-4,1.17693235E-4,7.817257E-5,8.762005E-5,1.6447474E-4,4.1775522E-5,0E0,9.550125E-5,0E0,7.54143E-5,2.7552102E-5,4.01762E-4,0E0,0E0,3.5669282E-4,2.6776543E-4,0E0,0E0,1.4004732E-5,4.066786E-5,0E0,9.362702E-6,0E0,0E0,0E0,0E0,0E0,0E0,0E0,0E0,0E0,0E0,0E0,0E0,0E0,0E0,0E0,0E0,0E0,0E0,0E0,0E0,0E0,0E0],"parents":[2147483647,0,0,1,1,2,2,3,3,4,4,6,6,7,7,8,8,10,10,12,12,13,13,14,14,15,15,16,16,17,17,19,19,20,20,21,21,22,22,25,25,27,27,28,28,29,29,30,30,31,31,34,34,35,35,36,36,38,38,41,41,42,42,43,43,44,44,46,46,48,48,51,51,52,52,53,53,54,54,56,56,58,58,59,59,64,64,65,65,66,66,70,70,71,71,74,74,75,75,76,76,77,77,80,80,81,81,93,93,94,94,95,95,96,96,97,97,98,98,100,100,102,102,103,103,104,104,107,107,108,108,111,111,112,112,114,114],"right_children":[2,4,6,8,10,-1,12,14,16,-1,18,-1,20,22,24,26,28,30,-1,32,34,36,38,-1,-1,40,-1,42,44,46,48,50,-1,-1,52,54,56,-1,58,-1,-1,60,62,64,66,-1,68,-1,70,-1,-1,72,74,76,78,-1,80,-1,82,84,-1,-1,-1,-1,86,88,90,-1,-1,-1,92,94,-1,-1,96,98,100,102,-1,-1,104,106,-1,-1,-1,-1,-1,-1,-1,-1,-1,-1,-1,108,110,112,114,116,118,-1,120,-1,122,124,126,-1,-1,128,130,-1,-1,132,134,-1,136,-1,-1,-1,-1,-1,-1,-1,-1,-1,-1,-1,-1,-1,-1,-1,-1,-1,-1,-1,-1,-1,-1],"split_conditions":[9.174055E-1,6.634097E-1,9.337893E-1,1.16793804E-1,7.5965273E-1,-1.2146295E-2,9.414473E-1,4.6190925E-2,2.549937E-1,1.1672317E-2,8.846865E-1,1.2615331E-2,9.81178E-1,-1.6454223E-1,1.0443895E-1,2.0883976E-1,3.4487316E-1,8.406753E-1,7.394478E-3,9.5740104E-1,9.876084E-1,-9.667377E-1,6.0084175E-2,1.9849539E-2,3.0199983E-3,1.856308E-1,-1.4190603E-2,3.2227015E-1,4.8676956E-1,8.1422025E-1,8.499875E-1,9.498823E-1,-1.3529494E-2,1.1336625E-2,1.2404047E0,-1.1623698E0,-8.621732E-1,3.4069605E-3,-9.465626E-2,-2.4703084E-3,1.0800203E-3,3.1032392E-1,3.3298978E-1,3.673519E-1,5.707424E-1,-3.7866477E-3,8.3223486E-1,-8.928888E-3,8.5830206E-1,-4.1605037E-4,1.2957572E-3,1.193347E0,1.2443895E0,-1.3181242E0,-1.0130482E0,1.3711793E-2,-8.1120795E-1,-9.66203E-3,-5.970254E-2,2.7792564E-1,-6.787354E-3,1.38047775E-2,7.319614E-4,-3.1874895E-3,4.4322032E-1,4.9812463E-1,6.024497E-1,5.73395E-3,1.787146E-4,1.8656969E-3,8.67473E-1,1.1410561E0,6.3170786E-3,-1.1921278E-2,1.3059604E0,-1.3357503E0,-1.2688375E0,-1.1541656E0,-1.0334515E-2,-5.480349E-3,-7.189738E-1,-7.093484E-2,-7.746342E-3,-1.2821833E-3,6.8437676E-3,1.545799E-3,-1.1991523E-4,-1.1701233E-3,-1.0872057E-2,2.8138333E-3,-1.7621189E-3,-4.122466E-3,1.7276207E-4,1.0532925E0,1.1882006E0,1.267715E0,1.3116932E0,-1.3872033E0,-1.3242946E0,-6.0744327E-3,-1.1696794E0,-9.922289E-3,-1.0383689E0,-7.8197277E-1,-6.221297E-1,-9.93375E-4,5.8396626E-3,1.0393405E0,1.06692E0,1.4645371E-3,-3.602288E-3,1.2613591E0,1.2820528E0,2.0259141E-3,1.3146721E0,1.8743972E-3,-2.2966843E-3,1.3275615E-2,1.916043E-3,5.7720987E-4,5.6524435E-3,-1.5274837E-3,2.5586644E-3,5.8615603E-4,6.3136113E-3,-5.1566497E-3,2.4829058E-3,-2.8441488E-3,5.2528423E-3,-1.0989598E-2,-2.1317198E-3,-8.748323E-4,9.784728E-4,-5.3320145E-3,-1.9111221E-3,-4.0922165E-4,-2.3386884E-3],"split_indices":[4,4,4,4,4,0,4,4,4,0,4,0,4,4,4,4,4,4,0,4,4,4,0,0,0,4,0,4,4,4,4,4,0,0,4,4,4,0,4,0,0,4,4,4,4,0,4,0,4,0,0,4,4,4,4,0,4,0,4,4,0,0,0,0,4,4,4,0,0,0,4,4,0,0,4,4,4,4,0,0,4,4,0,0,0,0,0,0,0,0,0,0,0,4,4,4,4,4,4,0,4,0,4,4,4,0,0,4,4,0,0,4,4,0,4,0,0,0,0,0,0,0,0,0,0,0,0,0,0,0,0,0,0,0,0,0,0],"split_type":[0,0,0,0,0,0,0,0,0,0,0,0,0,0,0,0,0,0,0,0,0,0,0,0,0,0,0,0,0,0,0,0,0,0,0,0,0,0,0,0,0,0,0,0,0,0,0,0,0,0,0,0,0,0,0,0,0,0,0,0,0,0,0,0,0,0,0,0,0,0,0,0,0,0,0,0,0,0,0,0,0,0,0,0,0,0,0,0,0,0,0,0,0,0,0,0,0,0,0,0,0,0,0,0,0,0,0,0,0,0,0,0,0,0,0,0,0,0,0,0,0,0,0,0,0,0,0,0,0,0,0,0,0,0,0,0,0],"sum_hessian":[1.99E2,1.36E2,6.3E1,1.18E2,1.8E1,2E0,6.1E1,9.6E1,2.2E1,6E0,1.2E1,1E0,6E1,9.3E1,3E0,5E0,1.7E1,9E0,3E0,4E0,5.6E1,8.4E1,9E0,2E0,1E0,2E0,3E0,5E0,1.2E1,5E0,4E0,2E0,2E0,1E0,5.5E1,4.9E1,3.5E1,1E0,8E0,1E0,1E0,3E0,2E0,6E0,6E0,3E0,2E0,1E0,3E0,1E0,1E0,2.9E1,2.6E1,3.8E1,1.1E1,4E0,3.1E1,2E0,6E0,2E0,1E0,1E0,1E0,1E0,5E0,3E0,3E0,1E0,1E0,1E0,2E0,2.4E1,5E0,1E0,2.5E1,2.7E1,1.1E1,9E0,2E0,4E0,2.7E1,2E0,4E0,1E0,1E0,4E0,1E0,1E0,2E0,1E0,2E0,1E0,1E0,1.6E1,8E0,1.6E1,9E0,2.5E1,2E0,4E0,7E0,1E0,8E0,2E0,2.5E1,1E0,1E0,8E0,8E0,7E0,1E0,4E0,1.2E1,3E0,6E0,2.1E1,4E0,1E0,1E0,6E0,1E0,7E0,1E0,1E0,1E0,2E0,2.3E1,6E0,2E0,1E0,7E0,2E0,2E0,3E0,9E0,3E0,3E0],"tree_param":{"num_deleted":"0","num_feature":"7","num_nodes":"137","size_leaf_vector":"1"}},{"base_weights":[-1.5146849E-3,-3.4742053E-3,1.1636143E-3,-1.8118122E-3,-1.3637686E-2,9.891076E-3,-2.2038731E-3,-3.0213064E-3,5.6060953E-3,-7.3726648E-3,-1.805954E-2,-6.799842E-3,1.7980429E-3,-1.7011166E-4,-7.0191957E-3,8.807337E-3,-4.3193223E-3,-1.1175317E-2,8.710069E-4,-1.9414535E-2,-8.753025E-3,-3.8934778E-3,-1.2705785E-2,1.1342695E-2,1.4346676E-4,-3.474751E-3,8.112751E-3,-1.268513E-2,-3.7012037E-3,4.1212323E-3,8.483787E-3,-5.754547E-3,7.664338E-4,-2.8900304E-4,1.827249E-3,2.1572728E-3,-8.22694E-3,-5.87976E-3,1.797311E-3,1.3701916E-4,-9.927951E-3,-9.212664E-3,2.1811537E-3,2.985467E-4,-7.6766643E-3,8.804665E-3,2.9179275E-3,1.733164E-4,-6.518726E-3,7.3742224E-3,-4.351596E-3,-1.1267364E-4,8.2801183E-4,4.383197E-4,-7.417729E-4,-9.093173E-3,-4.041372E-3,5.412507E-3,-1.25971E-3,-4.400313E-4,-8.781993E-3,6.4513865E-3,-6.700527E-4,-2.60107E-3,3.934687E-3,-9.005599E-3,-3.5340787E-4,-1.218305E-3,3.8222868E-3,-2.8086489E-3,6.8446314E-3,-8.815852E-3,-2.262521E-3,5.7580112E-3,5.285397E-4,6.3683465E-4,-6.4866147E-3,-2.0576518E-3,2.0577768E-3,-1.1653026E-3,7.5460674E-4,4.21079E-3,7.7789943E-3,5.808643E-4,-2.467023E-3,1.6540765E-3,-3.3464523E-3,5.972326E-3,-8.994102E-4,-5.5940477E-3,-8.255505E-3,9.429663E-4,-1.6695976E-3,5.844319E-3,8.6316466E-4,2.152659E-3,-5.3733704E-3,-2.821813E-3,-1.1434785E-2,6.540526E-3,-6.0491897E-3,-3.881827E-3,4.967487E-3,-1.0936499E-2,-2.8153332E-3,4.970124E-3,1.669844E-3,-2.3791194E-4,1.2544245E-3,-3.8135885E-3,-7.32407E-4,-4.6334625E-3,3.9630415E-4,1.1130912E-3,9.330292E-3,-2.2209566E-3,1.2553334E-3,-7.725978E-3,-1.9317865E-3,5.2012308E-3,-1.1660258E-4,-1.2191256E-3,2.0807623E-3,-5.72145E-4,4.9528E-3,-4.261953E-3,1.0217398E-3,-1.0881789E-2,-3.5723685E-3,-8.288659E-3,-2.5398135E-3,1.2093603E-3,-6.8454784E-3,2.944696E-3,-3.9980626E-3,-2.536575E-4,2.3170756E-3,3.2669306E-4,-3.745079E-4,1.0027527E-3,1.835823E-6,5.415678E-4,-1.3618636E-3,-1.0909128E-3,-3.8542391E-3,1.6605854E-3,-7.12195E-4,-1.4138619E-4,1.3130307E-3,1.3290802E-3,-2.0196869E-3,2.5523086E-3,-9.356439E-5,2.6529313E-3,-2.683047E-3,-1.5795727E-4,-3.6107406E-3,-1.0920018E-4,-4.022163E-3,-7.6158845E-4,-6.974493E-3,1.3635367E-3,-2.9515654E-3,-2.238833E-3,4.396031E-3,-1.590386E-4,3.64753E-3,8.146882E-4,-1.7129342E-3,-3.343145E-4,6.3922803E-4],"categories":[],"categories_nodes":[],"categories_segments":[],"categories_sizes":[],"default_left":[0,0,0,0,0,0,0,0,0,0,0,0,0,0,0,0,0,0,0,0,0,0,0,0,0,0,0,0,0,0,0,0,0,0,0,0,0,0,0,0,0,0,0,0,0,0,0,0,0,0,0,0,0,0,0,0,0,0,0,0,0,0,0,0,0,0,0,0,0,0,0,0,0,0,0,0,0,0,0,0,0,0,0,0,0,0,0,0,0,0,0,0,0,0,0,0,0,0,0,0,0,0,0,0,0,0,0,0,0,0,0,0,0,0,0,0,0,0,0,0,0,0,0,0,0,0,0,0,0,0,0,0,0,0,0,0,0,0,0,0,0,0,0,0,0,0,0,0,0,0,0,0,0,0,0,0,0,0,0,0,0,0,0,0,0,0,0,0,0,0,0],"id":15,"left_children":[1,3,5,7,9,-1,11,13,15,17,19,21,23,25,27,29,31,-1,33,-1,35,37,39,-1,41,43,45,-1,47,49,-1,-1,51,53,-1,-1,-1,55,57,-1,-1,59,61,63,65,-1,67,69,71,73,-1,-1,-1,-1,-1,-1,75,-1,77,79,-1,81,83,85,87,89,91,-1,93,95,-1,97,99,-1,-1,101,103,-1,-1,-1,-1,105,-1,107,109,-1,111,113,115,117,-1,-1,-1,119,121,123,-1,125,127,-1,129,131,-1,-1,133,-1,135,137,139,-1,141,143,-1,145,-1,-1,147,-1,149,-1,-1,-1,151,153,-1,155,-1,-1,157,159,161,163,-1,165,-1,167,-1,169,-1,-1,-1,-1,-1,-1,-1,-1,-1,-1,-1,-1,-1,-1,-1,-1,-1,-1,-1,-1,-1,-1,-1,-1,-1,-1,-1,-1,-1,-1,-1,-1,-1],"loss_changes":[1.0577217E-3,1.9104833E-3,3.8174295E-3,9.4901095E-4,1.7695432E-4,0E0,1.3119406E-3,1.0121015E-3,5.5268826E-4,7.3611306E-4,2.3483089E-4,4.6749983E-4,9.2493533E-4,1.5344608E-3,1.2288525E-3,8.636853E-5,1.11810725E-4,0E0,1.5632435E-5,0E0,3.2095058E-4,3.0372333E-4,1.961079E-4,0E0,7.455885E-4,6.3878635E-4,2.9774266E-4,0E0,3.4067253E-4,3.607147E-4,0E0,0E0,1.925617E-6,5.5588735E-6,0E0,0E0,0E0,1.4336791E-4,1.6462404E-4,0E0,0E0,1.9363576E-4,3.982556E-4,2.6296728E-4,1.7854513E-4,0E0,5.5433236E-5,4.8454068E-4,1.3609458E-4,2.7032132E-5,0E0,0E0,0E0,0E0,0E0,0E0,2.1417014E-4,0E0,6.666114E-5,1.10256615E-5,0E0,4.219025E-5,5.0071085E-5,6.761657E-5,1.1909475E-4,2.0233681E-5,2.370084E-5,0E0,4.3761742E-5,3.4699394E-4,0E0,1.0814419E-4,5.0857966E-4,0E0,0E0,2.8860316E-4,3.1456084E-4,0E0,0E0,0E0,0E0,6.4388936E-5,0E0,8.317815E-6,3.8557115E-5,0E0,7.070869E-5,2.5630926E-4,3.2458636E-5,1.7663039E-4,0E0,0E0,0E0,5.014213E-5,2.6277135E-5,1.1540501E-4,0E0,4.9436974E-5,1.1516834E-4,0E0,2.0769803E-5,2.0380275E-4,0E0,0E0,2.1714058E-4,0E0,3.007472E-5,1.6915192E-6,1.7758484E-6,0E0,1.7626682E-5,9.670592E-6,0E0,2.3605986E-5,0E0,0E0,4.374346E-6,0E0,4.382697E-5,0E0,0E0,0E0,1.8306948E-5,1.2861851E-4,0E0,1.5759702E-5,0E0,0E0,3.5335994E-5,2.6561378E-5,6.157442E-5,1.5192146E-4,0E0,3.830628E-5,0E0,2.4350713E-5,0E0,2.7590786E-6,0E0,0E0,0E0,0E0,0E0,0E0,0E0,0E0,0E0,0E0,0E0,0E0,0E0,0E0,0E0,0E0,0E0,0E0,0E0,0E0,0E0,0E0,0E0,0E0,0E0,0E0,0E0,0E0,0E0,0E0,0E0,0E0,0E0],"parents":[2147483647,0,0,1,1,2,2,3,3,4,4,6,6,7,7,8,8,9,9,10,10,11,11,12,12,13,13,14,14,15,15,16,16,18,18,20,20,21,21,22,22,24,24,25,25,26,26,28,28,29,29,32,32,33,33,37,37,38,38,41,41,42,42,43,43,44,44,46,46,47,47,48,48,49,49,56,56,58,58,59,59,61,61,62,62,63,63,64,64,65,65,66,66,68,68,69,69,71,71,72,72,75,75,76,76,81,81,83,83,84,84,86,86,87,87,88,88,89,89,93,93,94,94,95,95,97,97,98,98,100,100,101,101,104,104,106,106,107,107,108,108,110,110,111,111,113,113,116,116,118,118,122,122,123,123,125,125,128,128,129,129,130,130,131,131,133,133,135,135,137,137],"right_children":[2,4,6,8,10,-1,12,14,16,18,20,22,24,26,28,30,32,-1,34,-1,36,38,40,-1,42,44,46,-1,48,50,-1,-1,52,54,-1,-1,-1,56,58,-1,-1,60,62,64,66,-1,68,70,72,74,-1,-1,-1,-1,-1,-1,76,-1,78,80,-1,82,84,86,88,90,92,-1,94,96,-1,98,100,-1,-1,102,104,-1,-1,-1,-1,106,-1,108,110,-1,112,114,116,118,-1,-1,-1,120,122,124,-1,126,128,-1,130,132,-1,-1,134,-1,136,138,140,-1,142,144,-1,146,-1,-1,148,-1,150,-1,-1,-1,152,154,-1,156,-1,-1,158,160,162,164,-1,166,-1,168,-1,170,-1,-1,-1,-1,-1,-1,-1,-1,-1,-1,-1,-1,-1,-1,-1,-1,-1,-1,-1,-1,-1,-1,-1,-1,-1,-1,-1,-1,-1,-1,-1,-1,-1],"split_conditions":[4.7348073E-1,2.0883976E-1,7.305578E-1,-1.7952813E-1,5.4083526E-1,9.891076E-3,1.1374953E0,-9.765197E-1,2.400329E-1,3.2227015E-1,5.8172786E-1,1.0139643E0,1.0459882E0,-1.20921E0,-9.967795E-1,-1.0714388E-1,6.977393E-2,-1.1175317E-2,4.9812463E-1,-1.9414535E-2,6.024497E-1,9.4647306E-1,8.406753E-1,1.1342695E-2,1.1992356E0,-1.3965281E0,-1.1623698E0,-1.268513E-2,-6.13865E-1,-1.7701179E-1,8.483787E-3,-5.754547E-3,8.092678E-2,4.547437E-1,1.827249E-3,2.1572728E-3,-8.22694E-3,7.4065405E-1,7.5965273E-1,1.3701916E-4,-9.927951E-3,1.1591008E0,1.2243142E0,-1.4588544E0,-1.2571827E0,8.804665E-3,-1.1383522E0,-6.3584554E-1,-3.66292E-1,-2.006811E-1,-4.351596E-3,-1.1267364E-4,8.2801183E-4,4.383197E-4,-7.417729E-4,-9.093173E-3,9.174055E-1,5.412507E-3,1.1569651E0,1.2613591E0,-8.781993E-3,1.2067323E0,1.3029144E0,-1.50537E0,-1.4371974E0,-1.1848894E0,-1.3576063E0,-1.218305E-3,-9.034838E-1,-7.422281E-1,6.8446314E-3,-6.8629986E-1,-6.116931E-1,5.7580112E-3,5.285397E-4,8.499875E-1,9.337893E-1,-2.0576518E-3,2.0577768E-3,-1.1653026E-3,7.5460674E-4,1.1110307E0,7.7789943E-3,1.3007162E0,1.3059604E0,1.6540765E-3,-1.4406075E0,-1.4475278E0,-1.4256278E0,-1.3722662E0,-8.255505E-3,9.429663E-4,-1.6695976E-3,-9.949112E-1,-1.0820549E0,-5.8954895E-1,-5.3733704E-3,-7.4015796E-1,-3.2829428E-1,6.540526E-3,-3.1961262E-1,8.3223486E-1,4.967487E-3,-1.0936499E-2,1.0104786E0,4.970124E-3,1.1677349E0,1.2166615E0,1.3124574E0,-3.8135885E-3,1.3126316E0,-1.5005084E0,3.9630415E-4,-1.4737773E0,9.330292E-3,-2.2209566E-3,-1.414071E0,-7.725978E-3,-1.3410535E0,5.2012308E-3,-1.1660258E-4,-1.2191256E-3,-1.0649719E0,-7.2902876E-1,4.9528E-3,-8.4216076E-1,1.0217398E-3,-1.0881789E-2,-2.1188061E-1,-7.093484E-2,-3.0728242E-1,8.1422025E-1,-6.8454784E-3,1.0026729E0,-3.9980626E-3,1.1458415E0,2.3170756E-3,1.293461E0,-3.745079E-4,1.0027527E-3,1.835823E-6,5.415678E-4,-1.3618636E-3,-1.0909128E-3,-3.8542391E-3,1.6605854E-3,-7.12195E-4,-1.4138619E-4,1.3130307E-3,1.3290802E-3,-2.0196869E-3,2.5523086E-3,-9.356439E-5,2.6529313E-3,-2.683047E-3,-1.5795727E-4,-3.6107406E-3,-1.0920018E-4,-4.022163E-3,-7.6158845E-4,-6.974493E-3,1.3635367E-3,-2.9515654E-3,-2.238833E-3,4.396031E-3,-1.590386E-4,3.64753E-3,8.146882E-4,-1.7129342E-3,-3.343145E-4,6.3922803E-4],"split_indices":[6,4,4,6,4,0,6,4,6,4,4,6,4,6,6,4,4,0,4,0,4,6,4,0,6,4,4,0,6,4,0,0,4,4,0,0,0,4,4,0,0,6,4,6,6,0,4,6,6,4,0,0,0,0,0,0,4,0,4,4,0,4,4,4,4,4,4,0,6,6,0,4,4,0,0,4,4,0,0,0,0,4,0,6,4,0,4,4,4,4,0,0,0,4,4,4,0,4,4,0,6,4,0,0,4,0,4,6,6,0,4,6,0,4,0,0,4,0,4,0,0,0,4,4,0,4,0,0,4,4,6,4,0,4,0,4,0,4,0,0,0,0,0,0,0,0,0,0,0,0,0,0,0,0,0,0,0,0,0,0,0,0,0,0,0,0,0,0,0,0,0],"split_type":[0,0,0,0,0,0,0,0,0,0,0,0,0,0,0,0,0,0,0,0,0,0,0,0,0,0,0,0,0,0,0,0,0,0,0,0,0,0,0,0,0,0,0,0,0,0,0,0,0,0,0,0,0,0,0,0,0,0,0,0,0,0,0,0,0,0,0,0,0,0,0,0,0,0,0,0,0,0,0,0,0,0,0,0,0,0,0,0,0,0,0,0,0,0,0,0,0,0,0,0,0,0,0,0,0,0,0,0,0,0,0,0,0,0,0,0,0,0,0,0,0,0,0,0,0,0,0,0,0,0,0,0,0,0,0,0,0,0,0,0,0,0,0,0,0,0,0,0,0,0,0,0,0,0,0,0,0,0,0,0,0,0,0,0,0,0,0,0,0,0,0],"sum_hessian":[1.98E2,1.14E2,8.4E1,1E2,1.4E1,1.6E1,6.8E1,8.7E1,1.3E1,8E0,6E0,3.1E1,3.7E1,5.2E1,3.5E1,1E1,3E0,3E0,5E0,1E0,5E0,2.3E1,8E0,2E0,3.5E1,3.8E1,1.4E1,6E0,2.9E1,6E0,4E0,1E0,2E0,4E0,1E0,1E0,4E0,1.7E1,6E0,1E0,7E0,5E0,3E1,2.1E1,1.7E1,6E0,8E0,1.3E1,1.6E1,5E0,1E0,1E0,1E0,2E0,2E0,1E0,1.6E1,1E0,5E0,2E0,3E0,1.1E1,1.9E1,1.2E1,9E0,1.4E1,3E0,1E0,7E0,1.1E1,2E0,9E0,7E0,4E0,1E0,6E0,1E1,4E0,1E0,1E0,1E0,1E1,1E0,1.2E1,7E0,1E0,1.1E1,6E0,3E0,9E0,5E0,2E0,1E0,3E0,4E0,6E0,5E0,4E0,5E0,1E0,6E0,4E0,2E0,1E0,9E0,3E0,7E0,6E0,6E0,1E0,6E0,8E0,3E0,5E0,1E0,1E0,2E0,2E0,7E0,2E0,1E0,1E0,3E0,5E0,1E0,3E0,1E0,2E0,3E0,2E0,4E0,3E0,1E0,3E0,6E0,4E0,3E0,2E0,4E0,5E0,1E0,3E0,3E0,3E0,5E0,3E0,2E0,1E0,1E0,1E0,6E0,1E0,2E0,2E0,3E0,1E0,2E0,2E0,1E0,1E0,1E0,1E0,3E0,2E0,1E0,2E0,1E0,3E0,1E0,1E0,1E0],"tree_param":{"num_deleted":"0","num_feature":"7","num_nodes":"171","size_leaf_vector":"1"}},{"base_weights":[-1.3372661E-3,6.3245144E-4,-9.5061667E-4],"categories":[],"categories_nodes":[],"categories_segments":[],"categories_sizes":[],"default_left":[0,0,0],"id":16,"left_children":[1,-1,-1],"loss_changes":[1.1570577E-5,0E0,0E0],"parents":[2147483647,0,0],"right_children":[2,-1,-1],"split_conditions":[6.0084175E-2,6.3245144E-4,-9.5061667E-4],"split_indices":[0,0,0],"split_type":[0,0,0],"sum_hessian":[1.94E2,1E0,1.93E2],"tree_param":{"num_deleted":"0","num_feature":"7","num_nodes":"3","size_leaf_vector":"1"}},{"base_weights":[3.3694672E-4,-6.8927836E-4,3.4421326E-3,1.193727E-3,-6.120963E-3,1.2768009E-2,8.9634437E-4,-1.4574315E-4,1.1260574E-2,-1.2039634E-2,8.512898E-5,3.2685994E-4,9.733308E-3,-7.822056E-3,2.1916705E-3,9.60142E-4,-5.368805E-3,1.7344216E-2,6.4088977E-3,1.6227025E-3,-1.29893385E-2,6.5892558E-3,-5.4314593E-3,-6.6028503E-3,-2.3004413E-3,5.441236E-3,3.4436473E-4,-2.5648513E-4,6.214657E-3,-7.9461895E-3,-8.6105417E-4,3.1128426E-3,1.0724364E-2,-1.6954396E-2,-8.157879E-3,8.643843E-3,6.6621305E-4,-9.205964E-3,-1.6366785E-3,4.007351E-3,-6.1544296E-3,3.4298003E-4,6.2337816E-3,-1.3062784E-3,1.8390496E-3,1.985792E-3,-1.8395941E-3,8.529123E-3,-8.7157264E-4,2.56559E-3,-2.9541382E-3,6.1629545E-3,-2.5357471E-3,1.8757209E-3,-9.170172E-3,3.6584336E-4,6.7582848E-3,-7.007003E-4,1.7115156E-3,5.636081E-3,-5.578849E-3,1.0457933E-3,-7.256786E-4,3.8539767E-3,6.346482E-3,-3.2668642E-4,-2.1925312E-3,2.6679932E-4,2.0047058E-3,-1.2597757E-3,4.9977372E-3,-5.175382E-3,6.2805775E-4,1.9636857E-3,1.21416E-2,-2.491558E-3,7.6281367E-4,-3.1144181E-3,4.0237466E-3,-4.923196E-3,2.2075804E-4,7.860405E-4,8.743754E-3,-4.3734037E-3,-7.3887496E-3,-1.9981712E-3,-7.985664E-3,4.228935E-3,1.190441E-3,-1.1004806E-3,5.1277876E-4,-2.701942E-3,-6.2799454E-4,2.3951398E-3,7.5081986E-4,3.060182E-4,-4.5511303E-3,-2.071953E-3,6.808664E-3,3.1470624E-3,-2.1130126E-3,4.371731E-3,-2.247104E-3,1.5171165E-2,4.255396E-3,4.3138757E-4,-5.0220365E-4,5.772674E-3,-4.08819E-3,-6.7166123E-3,-3.0472377E-4,-3.9954283E-3,1.9968003E-3,-4.8379897E-4,1.8816143E-3,2.0048619E-4,-1.7745733E-3,7.637232E-4,-1.4231175E-3,1.8024653E-3,2.232194E-4,-1.15698575E-4,9.040594E-4,-1.4848047E-3,2.2441894E-3,-1.3023913E-4,-2.2436262E-3,8.944761E-3,-6.1421393E-4,-3.9686097E-4,5.4744426E-3,-4.2294463E-4,-3.0845879E-3,-5.5622724E-3,3.1506978E-3,1.9412924E-3,1.1818799E-2,-2.039982E-3,5.253458E-3,-1.0807216E-3,7.7434597E-3,7.4494776E-4,-1.0041952E-3,2.6619435E-5,-3.3721314E-3,6.4239895E-5,1.7994404E-3,5.646646E-4,-1.0914524E-3,-6.716053E-4,6.791293E-4,4.369537E-4,-1.3331414E-3,1.8998027E-3,-2.4371942E-4,3.1556338E-3,8.725917E-3,-1.0869324E-3,7.326603E-4,1.325918E-3,-4.3691895E-3,5.1094475E-3,2.555257E-4,-2.946546E-3,1.2422217E-3,5.236216E-3,-2.2955646E-3,-1.8652935E-3,8.566201E-4,-1.5533845E-3,2.8636752E-4,-1.4514128E-4,6.721616E-4],"categories":[],"categories_nodes":[],"categories_segments":[],"categories_sizes":[],"default_left":[0,0,0,0,0,0,0,0,0,0,0,0,0,0,0,0,0,0,0,0,0,0,0,0,0,0,0,0,0,0,0,0,0,0,0,0,0,0,0,0,0,0,0,0,0,0,0,0,0,0,0,0,0,0,0,0,0,0,0,0,0,0,0,0,0,0,0,0,0,0,0,0,0,0,0,0,0,0,0,0,0,0,0,0,0,0,0,0,0,0,0,0,0,0,0,0,0,0,0,0,0,0,0,0,0,0,0,0,0,0,0,0,0,0,0,0,0,0,0,0,0,0,0,0,0,0,0,0,0,0,0,0,0,0,0,0,0,0,0,0,0,0,0,0,0,0,0,0,0,0,0,0,0,0,0,0,0,0,0,0,0,0,0,0,0,0,0,0,0,0,0,0,0],"id":17,"left_children":[1,3,5,7,9,11,13,15,17,19,21,-1,-1,23,25,27,29,-1,31,-1,33,35,37,-1,39,41,43,45,47,-1,49,51,-1,-1,53,55,57,-1,59,-1,-1,61,63,65,67,69,71,73,75,77,79,81,-1,-1,83,-1,-1,-1,-1,-1,85,-1,-1,87,-1,89,91,-1,93,95,97,-1,99,101,103,-1,-1,-1,-1,-1,105,107,-1,109,-1,111,-1,-1,113,115,-1,-1,117,119,121,123,-1,125,127,129,131,-1,133,135,137,-1,-1,139,-1,-1,141,143,145,147,-1,149,-1,-1,-1,-1,-1,-1,-1,151,153,-1,-1,155,157,159,161,163,-1,-1,165,-1,-1,-1,-1,167,-1,-1,169,-1,-1,-1,-1,171,-1,-1,-1,-1,-1,-1,-1,-1,-1,-1,-1,-1,-1,-1,-1,-1,-1,-1,-1,-1,-1,-1,-1,-1,-1],"loss_changes":[6.6756207E-4,1.6306203E-3,1.2116798E-3,1.6079068E-3,1.5080544E-3,1.4082575E-4,5.1989313E-4,6.2835304E-4,6.0052087E-4,3.4657074E-4,8.6095155E-4,0E0,0E0,9.959767E-6,2.3036715E-4,5.7853863E-4,4.9286964E-4,0E0,2.8647087E-4,0E0,6.9008744E-4,1.2234622E-4,3.37791E-4,0E0,3.090515E-4,5.2292307E-5,7.1418785E-5,2.7353878E-4,2.9368175E-4,0E0,1.0839752E-4,2.91173E-4,0E0,0E0,